418 50
plane 2.14706 -3.190685 1.6833738 1.1721168 -2.1667469 7.9327664 -4.3083496 -0.14003447 3.5739386 4.5572495 -4.8429003 3.1295216 -0.91992384 2.253609 -4.765522 -0.76916295 1.0213091 4.019594 -2.0715487 -0.6006641 3.8627787 -0.095807716 -3.0732775 1.1251757 3.696968 -2.625685 2.868538 -4.322612 0.9018432 0.11540863 0.22833884 6.4925895 -0.15904099 0.30931982 -5.322988 -0.63509476 -0.8598013 2.1921887 3.4293516 1.7240806 -0.32968712 -6.992238 0.83962476 0.32622245 -0.7860787 -1.4940907 1.8906695 5.0166793 -1.4301419 -1.9062408
stupid -3.4552715 4.066392 -2.1099105 1.6838857 0.67967874 0.89369506 -0.27532098 -5.5476937 -1.5083904 -2.3874815 2.5223362 0.09865072 4.644463 -2.4137444 1.1169192 -1.3537883 -0.7689452 0.16178805 1.1093771 -3.2288978 7.7015433 -1.0594478 -0.10503233 0.052317258 0.22255099 -4.2850432 1.2341262 -0.20389277 -1.3149809 2.6388981 3.7907224 3.3121188 1.0960101 1.8767023 -1.2912328 -0.40802625 4.751777 -3.7108862 -0.566344 1.0992796 -3.1166499 -3.529537 -1.8923224 -1.4783494 3.8290231 -2.0288692 5.7895417 -3.101685 8.540035 -2.9837763
egg 1.0278141 -2.7524383 0.35643247 1.1740085 0.3127367 1.1496598 0.10106834 0.36774397 1.4349668 2.5190659 5.8370285 -6.74468 3.991405 4.8649406 5.385451 -0.8401388 1.8392255 -3.4707305 1.7063475 0.0964658 2.1133788 -0.014257358 -3.7234251 -3.4518747 -3.2702281 -0.8875859 1.9536263 -3.9905128 3.4580681 -1.879292 2.5197303 -5.3486185 1.3221316 -0.1637334 -0.44056684 9.477457 0.58299184 -1.5653611 2.2637477 -4.64764 2.069218 -0.29721496 0.07440715 0.10176127 -1.0672379 -4.4640503 4.0061 2.2930667 2.2116215 -4.157288
year -7.1884775 -0.9362604 3.2274532 -7.472109 4.262475 -1.7641962 -3.7615435 2.5962763 -4.810565 0.16013968 1.2184705 -1.7574848 -1.6127276 -0.53018373 7.334686 1.2274103 -4.2289634 0.016362948 -1.4784434 -1.0373873 1.8423861 1.4714669 -6.847727 0.99672866 0.01117629 1.4741595 0.829802 1.7196738 -3.6215112 -2.8577688 0.056091435 -1.4588455 2.0615895 -1.6857282 -0.6569331 0.9972107 -2.798284 -0.054970235 0.99219537 3.2358456 -0.79484826 -0.7952558 -3.4119494 -0.3305448 -4.263398 1.1988763 -6.09437 0.07314176 -4.346031 -2.1961331
psychiatry 0.83332586 -1.313337 0.25902435 0.7737677 -0.20170252 -1.5748032 1.9305468 -0.6967974 0.6259797 -1.991921 0.65987396 1.3303902 -1.595736 0.26871547 2.3907003 2.5684426 0.6834746 1.3178135 3.4871023 -0.87286997 -0.17974754 -1.3971808 1.5316136 0.7787901 -0.66605395 0.24799247 1.784882 3.055801 1.2594073 0.033752993 0.37334844 -1.2583226 0.8230735 -1.6839145 0.4779 -1.2289069 1.186385 -0.57089394 -1.3216125 -0.07732746 0.035546117 1.0476855 0.18279168 -0.9911622 2.188411 0.6407429 2.158065 0.5147851 -1.2684861 2.0835502
asylum -0.54769486 -2.010359 5.883589 -1.3004975 0.18554193 0.44682166 1.990785 1.4064292 -4.647117 2.1484423 3.7028708 -2.2464728 5.841576 -3.536289 -2.6522496 0.7938067 -0.13071418 -1.3897046 -2.9120505 -1.2510715 -1.5252788 0.091704406 1.0317698 7.8285565 -3.1054251 1.2423668 -3.6397943 -1.1066425 2.2581444 1.3391105 7.2951574 -2.0179842 1.330039 -1.2796524 -2.3713806 -4.4016347 1.5255455 3.23989 -0.7293106 -2.9954374 2.285586 -1.3144568 -3.525262 1.962442 -3.532091 0.7991383 1.3440255 1.186301 -3.9864748 -4.1233335
manslaughter 2.823578 0.15594088 -0.19565827 -0.31144443 -0.16388658 -2.4235091 3.1489234 -1.1036472 -1.7652363 -2.3184934 1.566435 0.31094876 2.6005778 0.16909719 1.135164 3.294793 -0.6044496 2.7821453 2.256808 -1.5417622 -1.1663197 1.2644109 -1.5336562 -2.4948938 0.7438659 1.8243623 -1.040347 3.9375215 0.2878618 -1.038835 -3.2087965 -0.2650401 2.0062506 -3.1721222 -0.4079675 -0.5262615 0.8564664 4.3160706 -1.9103873 0.6853389 -0.88838613 -0.1275838 -2.37386 0.8239967 -2.928288 2.617583 -0.13775267 3.3182986 -0.059214298 3.9056745
music 0.42403403 -0.580203 3.3154118 0.9357538 2.0774608 -10.617463 1.5396745 -0.11921327 4.356276 5.292161 1.3000765 -4.605006 0.56517226 -4.2044516 -0.23834334 0.8648284 -1.3469218 -0.36297283 -3.3190525 -1.2381295 -2.1480908 -1.4266297 -3.5688498 5.3033943 -4.841825 1.0030763 3.6757925 -0.64596635 -1.149852 -1.0219433 -3.1152334 2.7096553 0.17156401 2.744684 -2.7689402 2.0605273 -0.04696961 -2.701463 3.4187076 1.645338 0.72478276 2.4075108 2.7684538 2.0696466 3.4203267 0.64473563 0.91023326 0.26163197 -6.726392 -1.3269609
record -5.1069617 -1.0561587 2.9769623 -1.4558372 -1.7994678 0.5984452 -2.822269 -4.2165527 2.844634 -0.77198786 -5.135465 -3.9720652 -1.814691 -11.707573 0.053779803 -1.2317791 -2.0343847 4.1557937 0.7415625 -3.8432422 -0.06836338 2.5388517 -5.157079 -2.2836838 -1.9181516 0.065722756 -2.5466778 1.763212 0.79574287 -4.5142593 1.6411275 2.4804924 2.1840868 2.2050033 0.73939955 -2.609037 -0.6468227 7.4120197 0.07046205 5.5800548 -0.46657276 8.92704 0.54932404 -3.0156822 -2.998777 -2.7051811 -0.44583517 0.48102668 1.7870543 -7.3013134
energy -2.5967863 -4.201303 -3.4585583 7.608408 -3.3896878 4.846428 1.4643618 -0.6235288 -1.1190581 2.3531306 -1.0338527 3.5018651 -3.9149985 2.081057 -1.4505157 -1.1205077 -7.1990438 -1.6262139 -3.982919 0.21012801 0.581744 0.71031874 -0.4220847 -1.8329394 1.8403902 3.2689874 0.16374922 -1.3338335 -4.5874405 1.2182025 2.8252554 2.905252 3.0599327 -2.2888498 7.3966684 3.8205845 0.33865187 -7.1258054 1.7209455 -0.7336227 2.2675152 1.8320045 -0.14407021 -1.5054047 -2.966501 -5.155057 -1.8810332 -2.952584 -2.9204445 -0.4235431
announcement 0.47284698 -0.5768845 1.1750064 -3.072753 9.309882 -2.2093165 1.1949297 5.151371 -1.4920018 -4.5465937 -1.5669754 1.4791517 -0.8684529 0.530482 -3.644644 1.2286347 -2.758741 -2.4397013 3.4441268 2.7226293 -3.8066816 7.5342026 1.5289712 -1.1842009 1.6639017 -9.223601 2.7444355 -6.1330667 -0.7706221 1.4150705 -2.149955 6.840473 4.7479324 -5.255769 -3.7164865 2.27585 -0.5729044 -2.2425678 1.4751323 -1.771197 -0.008886006 -1.0369945 2.3522403 -1.4063315 -6.181478 -2.9718876 -2.1769683 4.0751657 1.1468801 -0.020291947
mile 0.24767216 1.8002428 -7.4862623 -0.419947 -3.7457218 4.973691 -0.58864206 3.4077969 1.6777772 1.7362461 1.229626 2.7783554 4.548925 -1.1287506 2.4916723 -0.78492844 -5.8096595 -2.6968799 1.0203481 1.4522935 -0.8499203 1.3873103 -1.760495 -0.6940457 4.565525 1.9646881 1.7797538 -4.7619696 4.220864 1.4744356 -1.1882972 -4.2467933 -1.0205393 6.2901597 -0.64122856 7.3464394 1.2392013 2.3548698 3.2715316 -3.6237612 2.6463628 1.9068925 -7.623163 -2.3317919 -4.1626916 2.595343 -0.12182169 -2.0064688 -0.17236732 -1.4739953
airport 4.7020926 -3.2907906 2.003769 -0.7861905 -0.5623169 2.7661626 3.646124 0.049801055 2.0739539 1.0617554 -4.749318 2.0220826 1.6795851 2.200993 -8.708238 8.046097 -0.41437086 0.8344811 -4.0429544 0.5786482 3.3149564 -2.2626305 -0.10658927 1.9721874 -0.06221407 -2.032846 -1.9307259 -0.64051783 1.5475907 -4.5912375 -0.6215332 3.9576569 -1.5088637 3.8402736 -0.7334125 3.4769673 -1.3756315 -2.0717874 4.358824 -3.775816 0.25280318 -2.1293755 -3.715725 3.4306233 -6.067922 -0.7897436 0.029157382 -0.7937527 -2.1201184 -0.1809552
population 3.2340488 2.2300014 -4.269644 -0.85859185 -1.5583534 -2.8938718 -1.9188125 6.5230017 0.13531494 0.15298891 -0.80296576 -2.154709 3.133549 0.6082328 5.5547485 0.47627956 -2.5584066 -0.44515735 -0.5527762 4.4597745 -3.6391761 -0.15144329 0.8403572 0.5569859 3.318275 3.369647 -3.144746 0.5827985 1.245494 6.333885 6.4120474 -3.8293684 -4.9594917 0.46595594 -1.8410974 1.410403 3.2600157 0.7043485 2.167614 -4.7445073 -1.6336107 2.595117 -8.670654 -8.320522 -2.8618677 -1.0105844 0.30446193 0.56514 -3.73274 -5.949353
planning -2.382221 -2.452951 -0.19980256 -0.9228676 4.1224346 -1.8326554 0.7086291 -4.3546257 -7.4280057 -0.45655125 1.8094555 3.6564763 2.2658825 2.4531522 2.16357 3.080872 -7.5758753 2.6516554 0.06473787 4.7483606 -5.6468134 8.262808 0.8956642 -1.9510871 -1.7182617 -1.2468799 -3.2655778 2.8401434 -0.08740604 1.1288252 -2.8700552 0.82059246 1.8512942 -4.207031 -7.502888 1.866874 7.4428625 -2.2181017 1.1741455 -4.6033554 -7.621966 -3.8509665 0.3721864 -0.6876947 0.7814075 4.766973 -3.8259141 0.011897814 -0.97006345 5.523523
canyon -3.8616717 -0.2527475 1.909014 0.84462667 -3.669873 1.6807411 -0.0029355001 1.6991925 3.9328096 1.7142407 -2.7471092 -0.039255098 -3.7773592 3.1796207 0.49533018 2.1460145 -0.24338996 2.6873872 -2.774631 3.0140002 -1.4188067 0.41450983 -2.582371 -1.0444849 1.0176568 -0.23731479 1.0931553 -0.76297224 1.8783965 1.8286365 -1.4889951 3.2512236 -3.3420238 3.6181371 -0.40955508 5.484016 -0.7807169 3.918965 -2.7128284 -0.9590471 -2.4825995 1.1676177 0.78924847 2.5965405 -2.420207 1.576927 0.49369356 5.250921 4.648862 -0.96499807
delay 4.7166467 -2.9809804 1.6482335 1.749037 -3.8534698 -1.262429 0.648731 -4.3324695 -2.7167392 -4.094683 2.9720354 4.9873915 -1.409518 3.8800402 -5.54281 -4.1080413 -4.3278136 0.5854016 5.9418926 1.6789519 3.5764532 10.262633 1.5073694 -1.2536833 3.9445245 0.4887181 6.0190296 0.10511754 -2.5159147 2.868787 2.199475 -2.6296608 0.5475994 -5.7282085 -4.0288653 -3.5482168 0.4253293 5.541242 -1.6686175 0.5564298 -2.9392462 -3.1664808 -0.75072366 -5.348766 0.3854632 -1.9279214 -0.0037103677 2.9323514 7.6768436 5.814283
size -1.635718 2.0329 -8.81576 -0.8735454 -5.0070477 3.1900513 -1.3393964 0.5615778 3.0118306 -1.0828707 -4.131993 1.564829 0.11016856 0.5913697 4.1317286 4.7553988 -0.6602229 2.0446508 3.272909 -0.15886429 0.16420513 1.020601 -3.6792548 -3.3847218 -2.452617 0.65072876 -1.3189545 1.5301739 6.260129 3.9020917 -5.5689144 -2.5116801 2.7908764 -0.70052606 0.93822414 10.252974 -2.1255357 -0.5881836 0.21805122 -3.7136233 -2.3865628 -0.5878003 2.6690257 -6.200935 -1.3731958 -10.1102915 1.9496899 -2.2200685 -0.67327905 -0.0927773
peace 3.4806826 -1.0732168 1.7585913 1.4528216 1.0054075 -1.8520652 0.4699079 0.9044486 -2.0970395 1.2905056 1.1756227 -1.3592259 -3.94173 -0.9597413 1.1881065 -1.1475893 1.4925342 3.061615 -0.43030095 2.379486 -0.33209154 2.658836 3.5786548 0.4727436 4.8209963 6.95446 -4.9361215 3.1864913 0.081624985 6.043272 5.3581057 -2.7744844 1.8342358 -4.753297 -0.5080522 0.057920363 0.24992618 -0.80969644 -4.936379 -4.7322326 1.0018783 -1.5342357 -2.2142086 4.503223 -0.5615021 5.6259212 -1.0360388 -2.637375 6.152649 -4.8391414
science 1.104384 -5.0967693 -3.0994134 6.181388 -1.9406297 0.81209236 -2.7620766 -4.6154566 0.1587264 -1.3298979 2.5540693 6.326311 -4.602624 0.70520604 -0.7317869 1.7702717 0.4679968 3.3173523 0.71933776 4.383926 -6.903498 -3.2487042 -1.2050087 1.9756905 2.3357131 0.26187366 0.40800855 1.4107177 -2.5364852 -0.98543286 4.6349006 0.3549715 -2.990735 -2.6615818 1.2976165 -0.6518674 1.9024601 -3.1142302 3.27717 -0.26020417 -4.9454317 5.466281 1.831057 1.3204706 -1.4926943 -1.1475414 7.780726 0.5149725 -2.2934217 -5.7140417
dawn -2.5380707 -2.614864 1.0118959 0.734601 -7.6685295 -4.734419 -0.36080363 3.2645795 4.164381 -6.526519 3.656852 1.7788905 1.1771326 1.2429779 0.61701703 0.46449068 1.2793554 2.7697015 1.7487913 3.080177 -0.93802553 2.3690643 -5.5126843 0.5134259 4.1182127 -3.9578953 -0.22176597 -2.9266317 -4.1110373 8.524045 -0.47559834 2.8925018 -6.8995514 4.2529106 0.44426295 2.6817937 3.095069 -6.7856855 0.7619882 7.402781 1.0500897 -2.1071815 -8.219696 4.6730657 -1.6024358 4.686291 -2.5206294 -3.52 -3.1572561 -4.0683193
brother -0.26931953 -6.3628807 -8.813914 -3.951962 -3.5766895 -0.6513152 -4.0265265 2.422931 3.8433287 1.638062 -0.100438304 3.5591514 4.474329 2.3893232 2.3024063 1.1401229 -1.4920012 0.80792564 1.8966746 -5.824343 4.203763 0.44920504 0.0060323565 1.2234528 1.4105765 -0.8179106 -2.6233623 3.9240873 0.023943815 3.1309216 -3.4777184 1.2658579 4.7403827 4.1929154 -2.310598 -3.8398814 2.3370354 -4.0145216 -5.5304165 0.42725402 -6.0778356 -2.5228634 2.4162307 3.4114873 -0.91103536 2.8937502 2.5749137 -4.747279 -2.4358244 5.0456815
wine 0.7728573 -3.2647352 -0.7550935 -2.5637329 4.670479 1.9450681 1.4085996 0.85047334 1.0516267 2.827955 0.2894356 1.7525312 -0.13636439 2.46227 3.1664393 -0.11680442 6.9426327 3.7419927 4.6325955 -0.8836868 2.7971573 2.3654664 2.0605428 -1.4804217 -2.3668156 4.530401 -0.5890778 -4.2947755 3.284251 1.3145938 1.7109971 -1.5328896 -5.5900674 0.99331355 3.548534 9.404815 -0.013961134 -0.4430456 0.8149559 1.425737 -2.1830232 -0.112462096 -1.1504879 2.819335 -3.2971354 -1.707556 -0.6242635 -5.4474926 -7.58783 -4.2957644
object 3.6362853 1.5231427 2.866711 2.3769236 -7.059353 3.5085232 0.28297666 4.2582235 2.6084723 0.42884585 1.3392146 0.14156708 0.97601795 4.460929 2.8630805 0.1505293 0.66682297 7.2186346 -5.165633 0.71897954 0.5506193 -1.3919177 2.1523647 -0.14685655 -1.1610264 -6.751569 -1.9850284 0.1175609 3.1374617 6.150799 -0.74314225 1.9290464 -1.9334521 -5.235767 -2.3767178 2.760936 -6.7368703 -7.8224516 3.3954525 -3.299068 2.234313 -5.042928 -1.1915594 0.65479356 1.1377445 -5.197489 4.836354 3.1566153 3.2384994 0.5956063
attitude 5.574622 1.9695451 -4.2532687 1.5926418 2.926094 -3.545815 0.5916883 1.0159173 -0.4916177 -4.008122 0.283117 2.295522 -2.5801795 -4.5398836 -2.0596077 -4.08612 1.6237749 -1.8131012 -1.6945685 1.2453898 1.1962023 6.231591 -1.5949122 3.3029132 -2.8811176 -5.745894 0.95317084 1.5589895 3.3094394 4.847871 5.1911435 0.12292666 -5.2645297 -1.1454897 5.593396 2.4990697 3.8823235 -3.06422 -0.9816865 -4.1535587 6.6674347 1.7372129 2.4616468 -2.7858274 6.1972027 0.70745134 4.5626354 -6.72764 -2.4414396 -2.324587
treatment 8.210551 -4.2567587 4.0956 -0.8228112 -1.2773411 -0.43589965 -0.7308583 -3.061748 -4.820115 -2.5955322 -0.67692447 1.4393872 0.8868704 -1.842019 1.4013925 -0.94227546 -2.3489544 -3.219359 1.5475531 -5.1435018 4.6121945 -3.7508562 -3.859407 -3.1047704 6.1357417 3.2652671 -4.139334 0.9660931 1.2454109 1.6717513 3.906339 -1.353778 4.7547517 -5.8462224 7.659502 -3.6742134 0.46897635 1.6740009 1.4220021 -2.5553386 3.6688545 3.8254554 -1.9160137 0.2555679 -5.070604 0.8961689 3.8039443 4.1012917 -2.9278166 -0.7037469
flight 3.0379622 -2.8107126 3.7343972 -1.1569949 -3.611178 8.118918 -0.79731476 -1.2426726 -1.5950003 0.9245212 -5.2681394 3.0337346 -5.2279363 2.2080564 -4.2338037 2.3014941 0.6488381 2.5933542 -0.22176611 -3.1197948 2.2730536 0.98593867 -4.833111 -2.1797876 -0.01840006 -0.04338841 0.4226909 -1.4055941 3.6979496 -4.4913087 0.71975005 3.9007766 1.4226216 0.9419103 1.9460485 -1.530976 -1.6091931 4.4183803 4.883765 -0.22185244 2.6199656 -4.8188133 0.7929734 2.0259955 -1.0721555 -0.67262614 3.8221047 8.089672 0.9297527 -0.94351846
forest -3.8265183 0.073878765 -0.67228305 4.6088996 -1.1370785 -0.9580728 0.9578702 -2.2024324 -1.3579235 0.68076605 3.4794858 3.8609674 2.0039258 -2.0868447 -0.64295006 -0.046273775 -6.3720202 0.62337226 0.011128222 6.123127 -3.0299773 2.76722 -3.365114 6.3813167 0.45305952 2.1538339 -0.61482126 -1.7496096 0.9955318 3.2569196 -1.3712054 0.26653633 -6.117607 4.1170726 -0.20317695 9.586814 5.52559 9.273143 -2.1656988 0.42330202 -2.459535 -0.30188906 1.1385561 0.73414356 -1.3500743 -0.5441523 3.489837 4.2027197 6.4620156 -5.381477
abuse 2.359305 -0.07771884 2.9834566 -4.0981164 -0.42137283 -8.337823 0.7468769 -0.23670103 -0.87910986 -5.758457 -0.19741905 -1.1490079 5.4638305 -6.2621393 -0.47111228 3.5547009 0.7808661 1.2911179 -1.55997 -1.228395 3.6841915 -0.91325104 -3.0891013 4.6914077 1.4000051 -4.6618505 0.044372786 1.7610779 2.7388086 1.2736222 1.607357 0.8576084 -2.616565 2.0479026 -1.3682398 -3.3803973 5.0077596 -2.0332239 -6.072153 3.078172 -2.9119358 2.3090723 1.2924644 -2.0735683 0.7175146 2.0714092 5.8374257 3.510258 -1.1870563 0.8820517
criterion -0.014833042 -0.4996538 0.061877377 1.5440613 0.69149125 -0.20166038 -1.599196 0.16842926 -0.20688185 0.3922826 0.8333631 -0.8310993 0.947905 1.0105504 1.1583585 0.8508925 0.79917175 -0.93981475 -0.35537893 -0.5878593 -1.4140004 0.579267 1.2800304 -0.30902457 -1.0361689 0.2270381 0.5468479 0.6876419 0.4298202 -1.0211097 0.5803907 -0.0057563297 1.9969649 0.7221475 2.3332405 1.0443946 -0.13592936 -1.0012883 2.2760773 -0.28731108 -0.20579079 1.2541636 -0.19835688 -1.6303688 -0.38855124 0.11726176 0.9082414 0.2884106 1.3539817 -0.8517501
sea 4.642885 -3.855493 -1.8192222 6.2138906 -3.715758 1.9189678 0.8262904 1.8869382 0.0010374103 0.7975272 -1.2987581 -0.45760906 -0.35443616 0.48140103 -0.49063328 -1.847702 0.43102598 -0.80820334 4.0943284 0.80996525 2.6499314 -2.972263 1.0498353 -1.9359642 -4.026103 4.17934 -0.56404674 1.8857461 3.5424166 2.9514813 1.5419215 1.4189417 -1.1321785 2.9518287 5.711494 3.813051 -1.2135117 3.4548845 3.6373103 -1.0373843 4.5026736 -5.4406743 -4.1219907 3.8738086 -2.2118602 -3.4018114 -1.11643 -1.544876 5.528496 -10.710826
dollar -0.85293794 -2.098751 2.5528476 -0.03112356 5.7954617 1.4972903 -2.541761 -0.07600142 6.9307446 0.64022326 -2.4014134 1.8680376 1.1128317 -2.975529 0.42999667 -1.7276579 4.49582 1.2128999 2.6512594 -4.2001057 8.25836 1.173594 3.1682673 -1.0290413 2.9599118 -0.72132736 -0.3420263 -0.47139478 -0.121620946 -2.0375338 2.130687 -3.2055392 -0.09588622 0.8790928 5.635136 -3.8302257 -6.12443 2.1669974 1.8648416 -0.20856676 1.4065763 2.8132045 -3.6143126 0.39041013 -2.6319065 -4.8648896 -3.3704062 2.2211692 -0.19845939 -3.7823255
example -2.2156436 -3.2611187 -3.3360462 2.8686352 5.624464 4.8345914 -1.7006816 -2.573771 0.14253019 -0.067955986 4.4866247 -8.477667 -1.4008136 4.5110497 7.063588 -5.8089814 -4.0392075 4.5481696 -0.3942478 -2.6862097 -4.210725 -1.8324751 -0.55193293 -1.4667164 -3.522618 -1.5464697 -3.3240585 -0.8637254 1.8896517 -5.9149003 7.0349064 3.684529 -2.1308289 -4.6304016 1.5354702 1.6779907 3.991286 4.21044 -3.6539025 -3.9319985 5.598823 1.2765235 0.24186021 -3.801799 -5.0131273 -2.394279 -1.5419166 -0.8438081 -2.548899 2.897137
journal -1.6556021 -5.5916944 0.47115198 2.7557008 -1.0747322 -2.2935443 1.8856415 -0.014012432 4.982436 -2.8670366 -3.02377 3.4996312 -1.6905766 4.7714963 3.7414634 -0.39117792 3.096584 4.647464 4.3748517 -3.400988 -3.9082856 -2.073243 -0.558905 -0.15876502 -1.4911909 -2.7416627 4.4972787 0.39088467 1.277699 -4.2875123 -2.5080204 -2.486518 1.1681983 2.730765 2.874848 -3.2593086 -1.3069469 -3.7257957 -2.8873067 0.6383487 0.17413852 -0.8968715 2.8880658 2.01347 1.6278979 -2.5041 0.34666097 0.14845763 -0.9818288 1.0288792
laundering 0.61058295 -3.3393576 -2.413643 0.21513478 2.0496883 -0.12355855 -1.3917885 -1.2197335 -2.775945 3.4104111 3.8109426 4.318869 0.99145633 0.8663894 0.17893869 2.375736 0.45405528 2.0146406 -0.48274332 -2.1740232 1.6390188 0.23342389 0.030621016 -2.6912804 3.6117241 0.9011119 -2.2642622 0.61257374 -0.57176816 -0.6599164 2.3571916 1.2653071 2.5754192 -0.47114104 0.9950994 0.30156004 -2.721957 -0.017606579 -5.220189 0.17375678 0.30708492 -1.6041111 2.2519097 2.4240916 -3.7870464 -0.82171637 1.2079761 -1.1117067 -2.9112573 -1.0735788
hotel -2.020253 0.68830305 1.4163915 -1.7965084 -2.4873164 8.131358 2.1998854 4.9974303 0.26605886 1.7878065 -1.1251669 1.650236 -0.25506806 1.2989223 2.1634047 -1.5070723 6.1958632 1.1108454 1.710482 -0.9251281 -2.8273513 5.1254897 7.436789 1.9747066 -2.1835682 -4.768903 -5.391731 0.022288682 1.372158 -6.637111 0.3901491 -1.6880469 1.7313298 4.600023 -2.4585843 3.0123434 -2.4193509 -2.6792045 1.3392996 0.16176955 0.7184382 -3.2401867 -2.3344538 5.7647686 -4.6806674 3.0431209 -3.6216753 -2.8495746 -0.9924855 1.6363728
term 0.8844799 -3.4688025 -0.7639057 -1.7257496 -3.0071046 4.0524454 0.9719731 4.2675395 0.3196588 -0.69395053 9.028354 -2.7655432 -2.9661024 -2.0050178 0.56217164 -3.8018875 -0.82818246 5.648045 -0.40095186 -4.79896 -2.6505032 4.5785995 1.8423893 -1.584524 1.8678575 7.883282 -2.3977578 2.097658 1.4357558 0.59560436 5.557871 -4.753106 2.1067924 -6.247455 3.3185623 -2.2945852 -0.58754957 1.668061 -3.831112 -3.700052 3.98321 -2.6634412 -4.0768886 -7.187591 1.0938351 -6.5609903 -0.25143486 -0.2849858 1.4098405 1.8368902
listing -5.160707 -1.3357942 7.466648 0.3592372 4.8638835 0.90243065 3.6927562 2.5250552 0.048144914 -0.7213473 -0.5948444 -2.9863825 2.1417394 -0.37324256 -3.0475767 -1.6538748 5.854862 7.3797736 3.6831386 -2.081943 -3.0841057 2.5886545 6.7905455 -2.4970813 -2.76587 -1.4395095 1.8481375 -4.5352907 2.7975926 -3.7202413 2.048958 1.9425496 1.9026301 2.6664171 1.1855363 3.9202168 0.43805477 0.07705811 0.99450415 -6.248539 -0.6039045 2.1351712 4.8536296 -3.2144485 -3.31617 1.6282067 -1.6091915 -0.2783169 2.219939 -0.053689685
chemistry 2.1085682 -2.5715158 0.8338647 1.1314844 -0.50461894 3.057208 -1.7138282 -3.8201513 -0.5831979 3.8457634 -2.9485855 1.0673794 -1.2948776 1.2379233 5.352706 2.201365 1.7367626 0.90856045 -1.6219352 2.6673596 -0.087343335 -0.8660013 -4.0012255 -2.4565203 -5.6811123 3.1479304 5.9469786 3.0043943 1.0235312 0.78073746 1.5160922 -1.6296878 0.23698194 -2.025353 7.468631 4.6618023 0.45406806 0.61290324 -1.1066244 -0.7919725 1.9069039 6.5087533 5.4084854 0.3932505 3.2032444 1.3138976 6.1151476 4.9648623 1.263832 -0.74557155
seafood 2.2530391 -0.6610491 2.9952314 1.806217 -0.66659987 1.299702 1.806144 -2.274561 0.09093122 2.4009604 -3.4345865 0.5388999 -0.8001331 1.365058 3.6471481 1.9177272 3.932469 0.91275287 -0.028226733 1.907617 1.2248437 2.1534045 1.8881445 -6.286852 -2.7053576 -1.4152387 0.95189327 -0.058370326 3.8068671 -0.22940856 3.308344 -1.9897667 -2.4834821 2.7695332 3.665244 6.323247 0.7666504 2.350465 2.452022 -0.5915482 -0.25489792 -0.30204245 0.06947968 2.6052237 0.2653989 0.7771941 -3.485639 -0.5395043 0.099676564 -1.3891801
mind 8.1743765 0.21470533 2.6708856 -0.5596528 0.026505727 -5.3912783 0.57362354 -3.3737705 3.8926158 -3.573764 -3.0801027 -2.0676327 -4.934352 1.622129 -8.1929455 1.262187 5.860818 0.16502917 2.4198232 5.2044997 0.23369978 5.245765 5.2619696 -4.9462943 -5.2041717 2.669969 1.3185585 -0.104888774 1.7281961 2.802399 2.2317827 3.2586787 7.8155384 -1.1521269 -1.7040548 0.32188725 1.0286771 0.3955472 -2.7072277 -7.2172384 0.031041993 1.7003781 1.3372955 2.6551015 5.7055626 -0.04157159 2.473114 -0.7491934 -1.8942136 -3.2511532
sex 2.3826404 5.7977037 -0.09626035 -2.7662814 0.7078313 -8.283113 0.33472672 -0.08455754 -2.017998 -2.8012202 0.4872666 -4.4630613 8.49189 -3.8099937 1.0998933 0.07511425 -0.35775486 7.7531977 1.6847032 -2.0481255 -1.0192014 1.53017 0.8611537 -3.4811869 -3.3949497 1.7889398 4.4157324 -0.05965141 1.3641349 -0.30126178 3.7531483 -3.5230098 0.83136463 -2.9049025 -4.1950164 -0.59883934 2.3624496 0.5197755 -3.2784407 -1.2749226 1.2870418 4.2887254 0.4371823 1.6401753 -0.82115597 -1.5419265 3.9052234 -2.9825587 -4.3209405 -1.3137937
food -2.0734863 -1.3049054 2.9567416 3.7247822 -0.87325925 -1.1594543 -3.432279 -3.9508023 -1.1251514 0.59115994 -3.573201 0.028298113 1.4490734 7.0202794 0.2781139 -0.7157702 -1.8573283 -3.359289 0.6710894 -0.82700974 3.04118 3.4685044 -2.9564397 -3.1070247 0.17225762 -0.2570604 -8.149124 -4.5240126 -0.2154385 -0.522034 2.1569343 -0.8818509 -0.49300298 0.8790498 5.64562 0.8863812 3.1088603 -1.0689626 3.66332 0.8149102 1.4019878 0.25686482 -5.595974 -0.08888053 -3.2856658 -0.5839479 2.2919347 -6.9054537 -4.9564695 -2.4628224
precedent -1.8157519 0.56795096 -0.30662167 2.9472668 4.802786 3.7875688 0.16972849 -1.4171917 1.5959828 1.6265227 2.357008 -2.9465652 -5.225419 -4.2968016 3.5037744 -0.6907803 -0.7030339 2.5686054 3.4114623 -0.42408115 -1.1048334 -2.9305844 2.5476158 0.5823751 -1.8247404 1.8002466 -0.6493038 1.8114189 -0.41124797 1.525982 2.720277 -0.15030646 3.505488 -9.681512 -2.3462257 4.0210104 1.7824522 2.8076923 -3.1578243 -4.5572276 -1.9643301 -0.45046404 4.651309 -5.1864862 0.058507532 0.053547263 0.5417701 -1.557396 3.9915473 -3.567383
series -4.5242224 -2.9595108 -1.3626761 0.008186324 0.23238002 -5.271777 0.7688087 2.0245557 -1.7734605 -2.4576964 -7.1382036 -2.3139682 -0.7462791 -7.7269564 3.0957015 -1.9366034 -7.514676 4.986587 -0.52486134 3.455035 -1.3856944 4.447703 3.252302 -3.1853218 1.9691349 2.545527 1.8895885 2.575603 -2.872912 -3.022513 -5.637511 -1.6887856 2.9392476 4.0907383 -3.1457946 -1.5026258 1.8758633 -1.3173491 -5.271847 4.018046 -0.6779943 -4.2964416 4.0610847 0.95429724 -1.5703655 5.170287 4.6119666 3.4033928 1.44155 -1.3583981
kilometer -1.1610606 -0.5529125 -0.9040435 0.7342497 -2.0851765 0.59402215 0.66461676 1.8156407 -0.92268497 1.8590438 -0.114828356 1.8732208 -0.34198287 0.45743996 0.16225454 -0.04457411 -0.41830853 -0.12781549 0.36164623 -0.02246446 0.7848634 1.1306201 0.14057261 -0.7611129 1.2256395 -0.4552876 -0.87146187 -1.082717 2.3187976 0.7379746 0.0032563338 0.3419081 -0.58575445 1.0675827 0.6043411 2.4468603 0.35840407 1.0914028 0.84631675 0.6273323 -0.57016623 -0.18360128 -2.2439644 -0.3618782 -2.710359 -1.1038553 -0.52176905 2.05245 -0.11526916 -0.21277168
grocery -2.1686668 0.059230126 2.5389268 1.2105318 0.14472564 -2.5134819 0.78451157 1.468223 2.3062444 0.615671 0.2006205 0.92792976 -2.0880196 4.598781 2.0533903 -2.6157272 -2.3644533 0.6921634 0.52374184 0.96518075 1.6228516 0.62539625 -0.63006586 -2.841391 2.3260245 -4.438622 -2.7739954 -3.591235 -0.9112275 -2.2353144 -0.5687096 -2.0413508 0.5469666 4.3473043 0.4603702 2.054569 -0.29761803 2.75318 -0.9223346 2.3646176 0.48531684 1.693631 -4.080744 2.379 -0.12629688 -2.4178545 0.8732738 -1.5347531 -4.5207987 3.0433884
wizard -0.34557846 -0.049464405 -2.0431318 -0.67938864 -0.3270001 -2.3778899 -1.7909137 -1.5517073 0.7552149 2.3554845 0.86063397 -1.215993 1.2669882 0.46557832 1.5213593 0.861435 0.32494068 3.7030442 1.9550446 -1.7752823 -1.2522664 -0.59886396 1.1241702 3.1050858 -2.7083764 4.1264477 -0.007728103 -1.4092212 -1.9631953 -0.39714628 -0.6936689 2.1438434 -0.7433344 2.5709107 -0.65128803 1.4129095 -0.09294353 1.1465807 -0.65272856 4.4655404 0.06763111 0.86698955 2.858756 3.7148187 -0.40250883 -0.122733414 4.6983967 1.4658204 1.6124556 0.15459682
information -2.7303467 4.1245475 3.3513055 1.0192074 5.1602902 -2.0208771 0.5319823 -3.7334878 -8.3691225 0.51427555 -5.5797815 5.470586 2.995653 0.36735618 -2.6625028 -2.8220644 -2.091803 4.9212294 1.3225315 -2.3620877 -4.0144424 -4.152606 3.1719964 1.3630731 1.2478676 -5.974368 -3.1337016 0.75354445 -0.9370508 3.276213 2.6469576 3.840411 0.057069242 1.3388617 1.2206364 -0.7033021 -1.5777869 -3.0752857 1.3767959 1.4403443 1.3328682 2.422066 1.4225332 3.650075 -5.3137784 1.0484446 0.4365434 6.4241686 -2.5241852 1.9411608
brandy 0.19694582 0.6192004 -1.1942847 -0.7085695 -2.2273805 0.3845172 1.5903625 -0.17703255 2.0358548 1.5330275 0.7808932 -0.42253503 -1.4233056 1.0687052 1.4616412 -0.33391127 -0.04228738 1.6389351 1.5543917 -1.250089 1.0975708 1.8824838 0.22124238 -1.0539178 -1.7758312 0.5516724 -0.24077183 -0.21906656 1.7568988 0.152706 0.1719756 -0.23791102 -0.19886921 -1.1047621 0.37243563 2.0440762 -1.0148143 0.39355278 0.12843378 1.7346765 0.07863741 -0.41749924 0.052569702 2.2440555 -1.0140042 -0.07760851 -0.5036551 -0.0354602 -1.0682396 1.7843492
interview 6.7589717 -5.469326 0.39069808 -2.3582563 3.5912821 0.26087254 4.9001603 0.07014596 2.60278 -1.503892 -2.2116115 2.0234747 -3.5423377 1.0885338 -3.2408361 -4.182002 -0.18369858 5.74711 -0.9890043 -2.452267 -7.6386895 3.8386369 0.85848176 1.772572 1.863678 -5.9294615 4.516626 0.72921354 0.19787101 -2.5533228 -0.44035965 -1.3795086 6.308163 -0.056611113 -3.4240818 -7.1301675 1.7975936 -5.5046797 -1.9833474 3.480436 2.7083554 0.9717641 3.2247534 2.343021 3.7970896 -1.2313052 2.7648478 0.080943346 -0.9367008 -1.0530958
prominence 0.6837593 -0.5632568 2.0167718 -0.9694048 1.6167461 -3.3187952 0.064283885 4.2665176 3.0790265 -0.59116274 -0.66839325 -0.16460712 2.3362324 -2.2637448 0.4723592 -3.9810967 -2.5363152 5.3006463 -4.922386 -0.2654068 -3.9720113 2.4200656 -2.2552907 -0.641329 -2.6001906 1.4961439 -0.36147192 3.1095443 -3.1228933 -3.7284446 1.2004739 1.6343879 -2.24279 -1.0518066 4.738357 -1.2704469 0.61432064 -2.9907782 -2.3955598 -1.7519139 0.5887725 0.8148576 2.9666371 -0.12644947 0.5363975 -1.6590928 1.1633688 -1.1698493 -1.1140361 -2.0270653
bed 0.7206557 -0.50242805 -3.239777 3.6269937 -3.8583412 3.0272942 -1.1638591 0.18464315 0.9009138 -0.8979497 3.1235993 0.61812484 -0.32527852 4.743537 -4.231823 -5.3433986 -4.8974566 -1.6925879 8.169717 -4.859355 -0.47343934 -2.7533283 3.0489473 0.52942955 6.0028024 4.296892 0.7338375 1.2946516 0.5313223 2.4962044 1.8268507 -0.88409066 0.60557425 1.8268133 -4.707923 3.469367 -0.6771421 -2.5465925 0.8494112 -2.3428152 0.014146673 3.5643365 -5.999408 6.4694185 -3.2586672 -1.3103597 5.253825 4.5760493 0.965899 0.15957326
furnace 0.1865769 -0.15512124 0.7396006 2.7701962 0.04673379 -0.21130471 -0.12215478 -0.73571295 0.9633291 0.2865098 1.0051142 -1.3221077 0.9018032 1.6770135 0.009469658 -1.778379 0.17817806 -0.35938638 0.9886825 1.4066606 1.7994329 -0.14524119 0.01495617 0.184183 1.3523448 -0.82458127 0.20094343 -0.6469369 1.2848873 0.08958578 -0.13860486 -0.51622087 -0.06830347 0.9620118 0.040738173 2.6240778 0.33913746 -0.07715406 0.5408107 -0.08311506 -0.354778 -0.8128362 -0.517227 0.49437475 -1.4185407 -0.24150683 -0.66976637 1.1279217 -1.3262899 0.2248538
evidence 1.4343097 1.8482678 2.124948 3.362456 0.10452305 0.99417055 6.0390334 -4.973955 0.5555299 -6.598934 -1.4055825 3.7772827 2.6447787 -2.9961555 2.6929579 -3.467378 -1.2346222 4.429245 7.304614 1.2998158 -1.9290646 -2.3004153 -1.1425912 2.7707124 0.095462605 -0.3694369 -5.0888004 2.795557 0.940805 1.1880515 0.4287314 -0.9237748 -7.1886578 -7.215416 0.29200625 5.756332 -1.6287233 -2.747276 -3.2635586 0.54915524 1.3970556 2.6760335 0.35043868 1.5931506 -3.9682245 -2.522816 5.589003 -0.3686053 0.065906785 -1.308007
sprint 0.64261055 0.26536345 5.9536934 -0.40992406 2.2659569 4.823491 1.2262783 0.7697884 8.329878 2.8552918 -2.6518414 3.4286506 -3.6689825 -7.477333 -6.4152517 2.642287 -4.6164207 -2.7030058 3.8421717 -1.2163559 0.40050763 2.0792723 3.1230283 0.30842283 0.40717205 -5.1583257 -2.6064885 -2.6186674 -2.2474215 1.4830765 -7.61141 -5.364874 -2.6719203 1.6478918 0.8072518 4.3735943 0.06473635 2.615698 2.717881 3.6293955 -1.4618117 -1.6055667 2.1080418 1.446794 1.9127499 1.3191998 -0.45023116 2.2496305 0.9741516 -0.32507685
emergency 5.730382 -3.0069082 3.5606086 1.6618575 -0.83365 0.33594903 1.5660154 3.274412 -1.1240811 -2.350548 -1.0125098 -0.8649023 -4.1910334 4.5181 -5.696578 -1.5602443 -2.0203125 -4.2132716 0.9971619 0.75634813 3.5209692 -2.1946049 -1.7958871 2.0947628 3.5418448 -4.461486 -3.19577 4.037529 0.40939498 -3.256074 1.3413337 -0.58431524 4.265985 2.6069899 -1.4657369 -0.6870079 2.9379566 2.5035722 -0.89314884 -2.0316815 -2.9623542 1.0273427 -8.664505 -5.39664 -5.793213 0.19999257 6.657146 1.0581591 3.3352065 3.5058172
institution -4.748907 -2.566157 -1.3589045 -1.0439718 3.2948403 4.906608 1.7781465 4.4732475 -3.306534 -0.86151385 3.7408214 6.799878 -2.7823813 2.8533318 4.347489 2.7294748 3.617463 0.927958 -4.2892675 -8.98804 -8.195915 -1.9368147 -3.0543504 1.2902086 1.8372034 -4.732205 -4.1447597 -0.058081135 7.8058443 -0.7558151 1.0858129 -3.5949914 -3.46398 5.2363415 5.450234 -1.2740777 -3.7057457 0.76836157 -2.8387463 -9.988767 3.7697706 -1.5273535 2.8262203 -0.86690766 -0.31950283 2.6256275 3.9680307 -0.8904076 5.48513 -2.3663385
bird 5.7829986 -3.0303032 1.0114942 -0.94593686 -4.284331 1.1020672 -4.329178 -4.7505517 5.133409 2.2587988 -2.3980982 2.361759 -0.30145743 3.2805147 11.47698 1.1638788 2.1391714 6.2095704 2.725349 1.6070379 1.5458043 -0.35393512 -5.8958664 3.3089757 2.0831058 1.2128927 -1.8841823 -0.498256 1.1816751 -0.68407923 -2.891539 -0.1684335 -6.612717 0.5625186 3.5726068 5.124657 2.581928 5.851307 3.0701816 -0.14116617 -0.89700323 -1.0890169 1.982298 2.5193822 2.1591249 5.168874 -1.2928866 1.883088 0.5834187 -5.474739
warning 5.62482 3.2074983 2.9767358 7.434404 6.4031286 -5.9465785 0.9562768 -0.41076952 -1.9529411 -6.6042943 -2.4321065 -3.4473877 0.24398875 4.684842 -2.1226916 -7.059744 0.9079629 -3.9197063 1.1016699 -1.1789988 1.6255212 0.5722209 0.29098108 0.9801544 2.7509203 -2.4299424 6.266976 -6.0062943 -1.872262 -0.51968575 2.209875 4.3967834 -0.77186537 -1.5855964 0.8411411 2.4574263 1.83191 3.5508504 -0.17347084 -0.12931128 2.6631486 -2.2299306 -6.631394 -1.7912647 -3.9874074 -2.590878 1.7128208 -0.33875334 5.1182075 0.11293711
implement -0.083152816 0.8385263 6.304632 2.2863061 2.9095058 -1.6026714 -4.603042 0.54273146 -5.7305965 -0.5451886 2.2711024 0.7167982 -6.584706 -1.9752345 -1.7121574 2.6749747 -1.0921932 2.3826063 -6.1680794 1.6267718 -4.2114654 -2.7044976 -1.7420683 1.7592765 -3.5820084 -1.0417361 -1.3203524 3.737326 -1.5864085 1.584057 -0.72699225 -0.9489583 -1.0764973 -1.8359387 -2.3106735 3.7217944 4.6274877 -1.668837 0.46677378 -3.150762 -1.1994084 -1.3907245 -1.4555222 -8.71203 -1.8214291 2.3316822 -0.13033967 0.43544742 2.1134262 1.2795225
train 4.7619267 2.0933666 -2.1522934 2.0282128 -4.4033036 0.617499 -8.5428295 1.2378199 -2.676351 0.664115 -1.7972739 2.1621866 2.4913373 -1.0570513 -2.6986601 4.8503785 -3.1492872 0.08701524 -5.6826806 -4.385536 -3.011666 3.5649538 -0.24289358 0.69169456 1.1595408 -2.7547793 1.4142749 1.1881472 1.0730354 -5.2860484 -0.7589905 1.0017889 0.8570635 8.041663 -2.2622623 2.9515636 4.888404 -2.7445955 3.3055818 -1.0813233 4.2517467 -6.9361153 -1.8720633 1.1799837 5.774163 2.7729607 -3.4927773 -1.8916963 -1.9496107 -0.40566537
area 6.1637444 5.9468074 -2.9212995 1.3774619 -0.9900056 -4.377823 2.2697294 4.384904 -4.4037337 2.8082082 -3.1422887 1.4892229 -1.1422566 1.0955005 2.1768107 -2.1024067 -0.03679821 1.7537615 2.2877524 4.0722113 -7.1592126 -1.9936479 -0.18522182 0.074115135 4.000891 -5.2243295 -2.4054189 4.0195947 1.2241517 -4.418287 3.4916694 1.2752258 -4.691856 3.5263338 -5.609307 5.8463516 -3.3084183 4.6671405 -1.7133374 -4.3400836 1.9537656 1.963514 -0.9041707 2.7184856 -1.062 -2.6722205 -3.4748163 6.8650026 1.9689603 2.045239
image 5.4934626 1.9951556 -3.9411137 0.6471994 4.9195075 3.7722158 -8.085566 1.4023529 3.913333 -9.116727 -0.064891614 -2.1892111 -1.5564295 2.8548589 3.4043376 -3.3606503 3.6838675 2.5132935 1.5382118 2.1187725 -0.988629 8.474118 2.10262 -3.2215676 3.9209807 -9.241813 -2.796306 2.9343839 5.4276924 0.71487707 4.0221796 0.57575834 0.07608847 0.7707957 3.0824757 0.78503245 -2.5456052 -5.0245357 -0.46231902 1.0520836 0.7408075 0.14431915 6.7106047 6.5189395 -2.8049583 -0.19577107 3.2154043 -2.4065197 -1.2741072 1.1393411
murder -0.087705985 -0.045966644 -1.8261284 -2.168043 -1.374563 -3.14461 4.8450937 -0.18018615 0.8621499 -1.8578489 6.152296 -0.30957785 4.0481567 -0.58959335 5.1887627 1.9464481 2.4658272 4.8960433 4.388763 -2.0587742 -3.4149418 -0.39486817 -0.33002794 0.75681466 1.3612714 2.7905428 1.4946321 4.772049 1.0934254 1.6573651 0.7655311 -0.41050208 -2.2934892 -4.5939045 -3.330987 -0.7192256 1.0808828 -2.236247 -5.4215226 -0.048350375 0.97508436 -1.0524075 -2.2592711 3.2691753 -0.31784904 7.643251 -1.4521337 2.8970776 2.6111748 -0.64944243
journey 3.0625944 2.6987164 0.4626844 0.7899165 -0.18450318 3.2374496 -6.6921563 1.2388864 -4.9436274 -4.3594527 -2.1703901 -8.43488 4.791295 2.1794295 -3.0748827 -0.7173894 -6.1723547 0.9100986 3.2575808 3.1388285 -3.1467385 7.1328554 -4.426779 -2.832086 1.4918044 4.5175796 -0.073637344 1.8373561 -0.83837867 2.40663 4.069194 1.9514769 0.1225418 0.1778961 1.7556734 1.810507 5.901721 0.010444321 3.6134827 1.5309354 7.9833274 -1.9913158 -3.0725276 7.625295 -3.7313485 4.038059 0.45387068 2.943216 0.1639387 -4.791014
minister 2.4207468 -2.8976471 -0.96565825 -1.6054852 0.8935964 5.4058995 1.0355784 5.1972 -5.9448147 -1.0885588 -0.3792494 3.2276025 2.618192 0.6268367 -1.6410176 -0.6214922 -0.55978614 -1.2013601 -3.5066283 -1.0940207 -0.82824355 4.4253144 -1.1899716 1.5642356 2.631029 -0.6819177 -0.65692335 2.7061796 -4.5397635 4.3960185 1.7222022 4.404338 3.6352494 0.5121949 0.38640264 -3.2104723 2.062981 -2.2329664 -2.5279577 1.1299888 -4.472315 -3.9954553 -3.404924 -1.001778 -3.963477 2.1767786 3.4500346 -3.7630339 0.33285198 -0.41088688
planet -1.7078328 -1.2277478 -6.6981053 1.949794 -3.2893634 5.959863 -6.7721744 -4.5700307 0.12916733 -0.33107603 -2.964554 0.97421384 6.8028398 -0.75715095 1.5520633 -0.35730502 1.1958295 -0.24729943 3.1070974 0.6181349 -3.356224 5.0554786 0.7019847 -2.323351 1.7021725 -0.38699186 3.9609883 -2.301402 -1.4594069 3.2719097 5.4396043 -1.7487187 -4.041019 4.7216086 0.68084335 2.151033 0.82201165 2.1199386 -0.46103773 1.1388464 3.0453298 -2.3866384 5.6791925 -2.5210605 0.8801111 2.3049717 0.17247151 3.0612414 1.9187505 -7.695278
article -4.823505 -4.4930263 -6.324799 1.1505755 5.145979 -2.6229327 3.1254964 -1.1988904 -1.0039462 0.9202073 -4.8635416 0.8732047 -3.2203608 4.63585 3.9545295 -4.696249 4.263097 8.588684 2.3254187 -3.697232 -5.681067 1.9984291 0.37431076 3.2844236 -1.1512018 -0.1998721 -1.2148396 2.9234722 3.262672 -5.8426123 0.8749644 4.5961127 0.598172 -2.5059645 -0.48451573 -3.4055927 1.2249992 -0.58851546 -0.23586662 -1.1806794 1.5957783 2.6923003 -6.637688 -3.3250856 -1.3421607 -1.3105688 1.868177 1.3761437 1.8840559 -7.200574
anxiety 1.8224939 7.5333424 -0.7110356 3.5579884 -3.9539812 -4.152337 2.5241365 -1.4474115 0.59275496 -5.838491 -4.685162 3.540291 -2.6192443 -1.7687873 -4.0432053 0.21740907 -1.918875 -3.9178805 0.71249616 -2.6879811 -1.0104914 3.1425972 -0.9813563 -1.1481558 0.10944179 -1.7543793 1.4883811 1.9754726 1.86292 2.4350398 3.764231 1.8019928 -4.731005 -0.3003526 1.1142173 -4.0111127 -4.1618037 3.916798 3.4317288 -2.6463604 -0.007827808 4.74812 -5.3345833 -0.68331635 0.4874195 3.2614374 5.3420935 -0.79392296 -1.0783336 -2.0112393
month -3.2233632 -4.3087845 1.9946246 -0.46160594 6.263049 1.8814663 -2.7005541 1.4104164 -1.9625044 -5.54804 4.716747 -1.9067343 -0.10236241 0.6890429 4.676298 -0.18174434 -1.4002615 6.2762117 1.3059782 -4.8130693 4.020444 7.240569 -4.080242 2.9079947 1.8599206 -5.62114 -3.2432141 1.0637419 6.4936924 -3.2182274 -4.362479 -6.112349 -2.0309782 -2.265576 1.702622 2.4451792 2.0620182 -1.9170779 0.5407686 2.009309 1.1198441 -1.0883915 -4.695854 -0.5557122 1.3570553 1.9733763 -4.518352 1.3913034 3.3803182 0.04880207
carnivore 0.5774636 0.7681594 0.28969878 0.47281203 -0.2762093 0.34773588 0.047185387 0.34606814 0.56989413 0.67292917 0.27749082 0.26919952 0.08049475 0.7598837 0.635586 0.98384327 0.18741885 0.60618955 0.6657028 -0.010389652 0.19386177 0.65961605 0.4982842 0.19302475 -0.09842595 0.45363942 0.11951293 0.87887377 0.10683128 0.8037071 0.5622031 -0.043411437 0.5657581 0.70426 -0.1729315 0.52454454 -0.09570215 -0.22600055 0.37699026 0.03777019 0.28704804 0.50241977 -0.18794005 -0.1135585 -0.08343439 0.055878226 0.65427977 0.24589649 0.08755604 0.15124018
party -1.1959397 3.7624667 -1.2913815 -1.00321 5.2145796 -2.918936 2.7395575 5.6447306 2.1610124 -0.6816171 4.557803 -1.4985952 4.284591 -2.8782284 1.2815107 -1.2950828 5.2343745 1.4418296 -3.176215 -0.6133567 0.12498558 2.2275465 2.3710806 -0.8685993 -0.34832448 -1.4420683 1.3126223 -3.77781 1.8326374 3.430869 -1.0224655 1.1626275 1.4632163 1.76689 -2.8286047 -3.5980513 -0.77157766 -0.14875974 -0.25171185 -5.800298 1.1294494 -3.5054092 0.49756074 -3.3643951 -0.13651332 6.048264 -4.7712245 -9.066821 -1.2585063 2.3244085
production 0.037063353 -0.42683142 4.102377 0.26018262 -4.279499 0.13770826 -0.261399 0.10431803 0.1371524 1.6467401 -2.4745834 -4.3124504 -2.7397058 0.36374974 -0.42052293 5.4962835 -9.293601 3.9883556 0.9344065 1.2936597 -2.0974834 7.8897505 3.529896 2.4509556 0.41037565 5.0127053 -0.16730326 1.6004058 -3.9300137 2.319928 -4.263475 1.1181947 -0.37241173 -3.809379 7.786308 7.4203033 4.2860627 0.4594346 -0.039337844 6.2806134 -1.1613365 -0.08393509 -0.78244734 0.66789526 0.46299595 -6.6039057 -1.0271877 -1.16226 -2.1566832 -3.7431805
importance 0.71419656 3.35593 -1.6933787 -1.1158509 6.3949056 -0.7611334 -0.8510827 4.4085956 -2.8298676 -2.948708 -6.082168 -1.5672115 -4.082335 -3.3136523 -0.40588668 -0.3619143 6.2313943 0.4187543 -0.00733951 7.710618 -3.2443826 5.6593013 0.46818444 0.48823217 -1.1338453 1.1809999 -6.1193004 1.1261023 -1.966065 -1.0212083 4.1737127 2.4832711 3.4348006 -5.1956367 5.9621606 0.1900954 2.627543 -4.0822487 2.8199906 -3.9388213 1.9425867 0.30158255 1.8854921 2.324386 1.6105496 -3.6889806 5.1761656 -1.9779053 -1.9912822 -0.13386582
inmate -1.8721538 0.10964857 0.09257959 3.3337772 -2.3871152 2.7863362 -1.3037751 0.4441604 1.9180849 2.2449288 2.581699 -1.2622176 2.3476355 -0.29942903 1.9197847 -1.2043949 -1.7435595 7.0720553 1.2458118 1.6480927 1.5865031 -5.7644005 1.1405219 1.4172751 4.1497283 1.4894569 0.26526207 3.1422794 3.1634865 -1.0808883 0.7155812 -0.8472095 4.266904 -3.4549289 0.45399246 -2.1279092 -0.39487535 3.7859182 0.8640889 -3.272043 -0.20377457 3.31965 -3.0601585 1.1715424 -2.1014838 -1.8313322 4.028054 3.5388954 2.3044078 3.005912
psychology -3.181298 1.4244558 4.426901 3.9773884 1.4892747 -1.3412758 3.4103086 -3.4185092 -3.2515237 -3.0506446 1.3629717 2.3683808 -1.9521562 3.8948328 4.4540353 -1.6352001 1.2142832 2.7649522 -2.4223542 1.5901979 -0.40468407 -0.16630898 3.6114764 -2.5708675 -3.173102 1.0158119 0.7636969 4.195888 -1.173976 2.3293715 2.0412316 2.0311794 -0.8895474 -2.1865396 3.143359 0.8420614 -0.052108962 0.93285835 -4.603633 -2.0372589 0.3240141 5.49955 0.29916328 2.468153 4.4264174 -0.016563218 3.3358319 2.9081945 -0.9788827 0.36400005
medal 4.400401 -1.4300175 -2.2994387 -0.0129690375 0.7300075 5.6712756 -1.7070009 4.46733 1.8572674 -1.1813076 -1.9988817 -0.842576 0.774511 -3.9195008 -0.9897278 2.1387048 0.3512712 -3.1128407 2.6501808 -1.7340106 1.7264493 -2.6662505 -1.3113976 -0.17497756 2.4986224 0.37434107 -2.2638283 -0.78866875 -1.9255302 1.9483908 1.5684751 -3.1414685 0.177324 -3.7234473 1.4478759 -0.29928747 3.7231567 0.6826645 2.13976 0.009412691 2.5201988 3.8221781 0.10228462 2.635137 -1.6950645 0.41608572 5.1502185 0.050527915 4.3432817 -4.4094095
company -0.018894644 -3.171263 5.986957 1.7055502 -1.9974812 4.0128174 -0.8440691 0.43128172 1.9322665 2.5182853 -3.4954305 -0.070496485 1.9739301 1.3472669 -3.6856732 4.6576757 -2.250159 -0.88219196 -2.2096267 -0.33384645 -5.222624 3.2757494 2.2048566 1.7051612 -1.0148935 -0.5903984 0.06968525 -3.6520326 -1.2736156 2.6799567 -6.2753587 -2.3182406 6.888532 1.3962623 6.4799256 -2.778976 -4.7710094 4.1912856 0.10471317 -0.704097 6.184141 -2.4995308 1.4424441 -1.5292605 1.0214471 -1.7175757 -0.5810224 2.935246 -8.07951 1.5591962
live -2.509343 -0.446255 -0.7983665 -1.2392404 -3.5921125 0.2923298 -1.2670861 6.0840807 1.8147814 4.578174 -7.5402193 -3.6562731 1.401752 -2.1778147 -1.8180257 1.310573 -1.1119127 -0.23192368 -0.9501881 0.28196755 -7.1091948 -0.96810627 3.8993182 2.979348 -2.790287 1.7423171 1.6950854 1.6885191 2.1402073 9.440175 0.36741397 -6.864661 3.318782 7.3496466 -6.0787325 0.7830858 3.7216115 -3.1802192 2.0914302 -2.3423245 -5.2537427 -0.22124632 -2.7843435 3.8033202 1.9583943 1.8825182 -0.806868 2.565724 -1.9930396 -3.4633038
holy -2.9221878 -4.343495 -2.9530182 1.9130142 -2.870966 -1.3518825 -1.4461414 0.81099033 -1.6100309 3.8262935 -1.9610844 -6.100591 1.2560719 -3.1534364 -1.273863 0.07261201 2.032516 6.143576 0.6774146 -1.2336544 -1.4964799 -1.3176563 0.3635873 5.4845977 3.8382494 1.9271599 1.4256845 -3.3234663 3.463829 4.6541533 5.553855 0.88857967 -1.4962195 -2.4690676 0.3292979 1.2297239 2.960343 -1.8530427 0.9510288 -1.1833992 3.2881556 -5.0533323 -0.48845395 6.856211 -4.571251 2.1108751 -3.2324913 -0.1496642 4.043286 -3.729867
ticket -0.86336577 4.5945077 1.3235313 -4.794109 0.8620619 4.8558455 1.3820097 6.1706614 1.1514171 3.0995545 -3.5669868 1.1919328 0.70694894 -4.3478236 -1.3478884 -0.6706799 -0.6664735 2.3243117 -2.5901835 -3.377634 1.6502869 4.2856283 5.4507713 2.0655098 -1.1215022 -2.911644 4.107595 -3.894874 -3.2769146 -3.1602426 1.1526281 0.776155 5.726457 7.4533544 -6.4991484 0.024716947 -5.500627 1.6003885 6.706501 0.61555845 -3.5274534 -1.2554493 0.910746 1.9194025 -1.4160537 -7.0200253 -7.278859 -2.8062434 0.41569158 1.4823669
victory 3.566952 -1.4290782 -6.8440065 -0.114214614 0.59364724 0.64278376 -0.56177497 7.419972 7.17721 0.5605368 -1.623479 -0.60438484 -3.827282 -5.1606913 -0.17520905 -1.4635477 -0.17117102 -3.4018242 0.9723361 -4.7825146 -0.6414203 1.4024727 -1.2176837 -0.9078157 1.0419846 2.279856 -0.18178323 -0.5619949 -1.842739 0.7700935 -1.728198 -3.9827619 -2.1351588 -4.629484 -2.0810177 -1.8289734 -1.0812725 1.210709 0.10422782 -4.6450233 5.8602653 1.3043543 -0.7889042 -2.605548 -1.9730296 7.463 -1.5851855 -0.616434 9.227959 -6.101559
football -0.6664373 -4.821614 -5.620128 -2.4685686 -2.1562827 -4.3473787 -1.9322654 -1.3803319 -2.4420638 1.3006577 -3.3789737 2.2100968 -0.30077356 -8.812563 1.9176389 2.6621873 2.7847204 1.3769866 -3.9741566 -3.6181278 1.5488933 3.9366055 -4.7491446 4.2549353 -0.90462273 -1.6375436 4.290567 4.696642 3.998053 -0.9936132 0.15311097 5.7325697 -3.6198611 2.3678212 -2.7834294 4.229734 0.20787115 1.0574436 -1.1712097 -1.4898127 -2.4788935 -3.301392 3.303225 2.4510565 0.831774 -0.90450215 -0.21271715 1.7699952 2.1932638 0.048677363
seepage 0.23313922 0.40600628 0.10583286 0.7460546 0.06263693 -0.031224757 0.42788243 0.19308855 0.6515086 0.58353156 0.034524534 0.44353658 0.020533856 0.31309614 0.5489428 0.5885496 0.23819068 0.5776903 0.8091889 0.20678699 0.4148852 0.55022705 0.15844277 0.06754255 0.30331728 0.1540968 0.28062508 0.397452 -0.22837672 0.5538836 0.83708405 0.4490873 0.3680875 0.6720685 -0.15700991 0.37121478 0.31233475 -0.2565158 0.05070619 0.16639698 0.14921157 -0.032334022 -0.09481192 0.22913149 -0.09429077 -0.11641975 0.34074694 -0.021760773 0.13839659 0.028684871
rook 0.05332813 0.18776898 0.16168949 -0.029564926 0.04909709 0.71976155 0.06267434 -0.118559025 -0.10335479 0.09337095 0.035324316 0.5643746 0.07075405 -0.032104228 0.38680446 0.32374448 0.16563348 0.36891234 -0.4580687 -0.02802314 -0.0011818018 -0.5386483 -0.10421947 0.07462362 0.1289675 -0.03668829 0.34770784 -0.36563385 -0.57388306 -0.35527045 0.15558952 -0.3409284 -0.0047376794 0.013083795 0.116518416 -0.010406718 0.20910032 0.28601483 0.3845961 -0.22751832 -0.22577132 0.2331463 -0.033044506 0.52209985 0.0072356174 -0.30461225 0.36927566 0.11581555 -0.34771165 0.32618904
stroke 3.2262342 -2.492886 -0.120531455 2.5800867 1.7074558 6.5716558 -3.7931056 3.3014042 1.2072849 -6.029509 -3.3507743 0.20317593 -0.29193926 -1.2837169 2.5981817 -0.67328405 -1.9197834 -3.096664 0.10171053 -1.8013599 1.7887732 -1.1899449 -1.2152866 -4.812395 -1.411856 -1.0414441 3.4821608 4.850789 -5.4282074 6.6485643 -5.4850407 1.9697936 -1.3128357 -1.4840686 3.4175594 -2.2483883 -1.0856673 1.7358683 1.7903548 2.8783472 8.368688 0.32550305 -5.6431746 -3.338269 3.6449118 1.8222085 1.791693 5.782464 -1.0965502 -0.56841636
environment 3.9363387 1.459198 1.5482643 4.300295 3.441418 5.400517 -1.5563138 -0.48049715 -7.6208763 -3.384151 2.6375344 3.5181587 0.5253563 4.834526 -0.26021227 -3.229821 -0.45831022 -1.3647363 -7.2408276 5.7834816 -6.9055066 4.6833596 1.8545871 3.4000995 -1.2147323 -4.2694163 3.960554 5.508519 -0.7272426 -0.9673051 7.8022184 -1.8481607 1.7022207 6.304783 4.8260536 3.263413 1.4777997 1.3512313 -1.107667 -8.67648 -1.3242699 0.77377737 2.3648214 0.0315902 -0.29594818 1.4963545 1.0248101 1.5094856 -2.7373543 0.13957405
coffee 1.022417 -5.4833317 -0.58507544 3.036501 -2.3313093 -0.11731946 3.4176843 -2.2435973 0.14427975 0.9904167 1.3681805 -1.9204154 -2.4920058 1.2016047 -1.6009461 -0.52697635 5.1416326 0.9999149 -3.7010996 1.392551 5.1580505 3.7006402 6.580641 -2.3052804 -2.5315647 -3.0794487 -0.11155095 -5.1049504 0.47451845 -0.3576845 2.962938 1.8510618 1.3747013 4.9935203 -0.68520665 2.7244856 1.6894894 2.195803 4.0051165 -0.1441543 4.3017936 -1.0582113 -2.975718 0.8063693 0.94861674 -2.3931844 -0.6573167 -4.7311316 -9.310984 -1.1613135
baby 3.837224 -0.32434872 -0.013399423 1.7271528 -4.08577 -0.2545121 0.06526911 -1.0244722 1.9561204 -4.5629926 4.0862217 -1.2258636 6.9096293 10.563534 3.1206665 -2.212655 0.40591216 -6.471977 1.3532425 -3.4675136 -3.0593941 6.9499693 2.1912029 -1.0453839 -0.058553305 1.9351348 0.60168135 -4.3055673 -5.9426665 0.42888147 -0.5534446 -5.748798 -0.7180956 1.5826855 -4.35981 -0.7404248 1.7571193 -1.5808703 -4.418216 4.7938166 1.2504853 -0.109124884 -3.2059882 -1.3475676 -1.507535 1.4876944 5.788647 3.8166182 -3.475531 3.8561249
personnel -0.17435642 2.6989872 1.3118483 -0.9016995 -3.3143916 1.1378313 -1.4768302 7.17554 -5.0670753 0.8483221 -0.45241323 2.3672805 -1.4374456 -3.3067517 -5.0296063 6.49441 -3.0403259 1.0660506 -0.24089383 -1.3332039 0.7396387 -6.854126 -3.083768 0.91387093 -2.3547318 -1.2578267 -4.905919 2.5169196 1.2261413 0.87192714 -0.8601362 -1.4630141 1.6158259 2.1349716 1.3340857 -0.051645216 4.0152173 1.481665 -1.3200079 1.840491 -0.48961335 -6.655689 -1.5891758 1.8240045 -2.261873 -6.905626 2.86674 3.1831677 4.6832585 5.5559998
family -1.2783453 3.5998833 -5.4029517 -0.9656651 -1.6382725 -0.18617077 1.1481262 5.556415 -1.5050018 3.925748 -3.5796058 0.13109763 6.823514 5.3436213 3.0523732 0.33447167 -2.5211155 -1.6098124 -1.5811927 -2.8914604 -6.209806 2.7257028 -2.973228 3.3057933 -2.0390387 -1.2249595 0.6176768 -2.084075 4.891965 4.8412023 1.7783023 -5.3385963 2.013892 1.6986791 0.54188824 -4.895686 -4.094542 0.38113347 -1.2702752 -4.628298 5.0913815 -4.030223 1.5545171 3.1126828 -0.66663504 6.9821405 1.5627105 0.31762946 -4.01934 6.8065233
hypertension 1.367153 -0.8463869 1.9941088 1.4143568 -0.83327365 -0.3036706 1.334149 0.082831845 -0.38615534 -0.023410548 -0.043065738 1.4694657 0.81634724 0.6461482 0.513731 1.2555474 1.7260437 0.74526757 -0.47178325 -1.7884597 0.26679978 -2.5761163 -0.17646727 -1.5292635 -0.42252335 -1.1954517 1.065437 0.72012454 0.91309464 -0.018626302 1.559709 -1.3298321 0.027054863 1.0539128 2.9693975 -0.56564397 2.3379533 1.0426759 1.4535477 -0.79548925 1.0571195 0.81441665 -0.41528305 0.21582067 2.1555088 1.4649359 -0.14837034 1.5688725 -1.3591228 0.16376244
president 1.8234321 -4.6066833 -1.2568368 1.4693369 3.0169234 1.9539137 -3.090724 1.5919641 3.9856732 3.634887 0.2052582 0.8271153 -6.410007 1.0151145 -0.057125006 2.1858754 1.4038243 0.22341116 -5.340768 0.17618296 7.650666 2.090717 1.838407 3.2329164 4.2696314 -0.910192 -3.602154 -1.9280266 -0.24746327 1.0011824 -0.8079251 3.1176572 3.8812792 -2.1723402 4.951795 -8.24145 2.720698 -1.7489244 3.0701234 3.0132995 -0.308277 -1.7803956 -2.4088585 -4.040654 0.59896 0.1839632 -1.2684488 -2.1735828 1.8630861 2.6305428
atmosphere 8.547592 -0.21077947 -4.8858933 1.7042732 -0.12010918 -2.7412052 3.3053834 -1.9574302 3.2817829 -3.9881523 2.675261 -0.38540587 -1.7157911 -1.3992276 3.035006 -1.4617856 -4.2905707 -0.8463593 2.6633358 2.6235955 3.4431016 1.8149346 1.1395019 3.177349 6.1811647 -0.17929143 2.7055516 -0.49088532 3.4417799 3.2568228 5.027369 3.9447172 1.0453855 1.2748759 0.80533046 6.257538 0.25384757 -3.3366613 6.735335 -8.35455 -2.3763187 0.27967256 2.166832 -3.1419587 -0.98278964 -2.394934 -0.4877295 -1.9083112 -2.524506 -10.194186
practice 2.9396334 -3.206953 8.421346 6.2808614 -0.90960264 -13.200432 -0.59567523 -3.3057559 2.4637208 -2.5194979 5.7111387 0.77607757 -3.4430196 -7.6218815 -4.777759 2.207345 5.8754954 -0.13387415 -2.1050282 -2.3360963 -0.6912536 -1.7305883 -3.665514 -2.8641899 0.02576001 0.14489718 1.0906004 -0.014248535 -4.995187 -4.490921 -4.34283 -1.3354965 0.9668502 -0.31202677 0.5454479 1.713757 0.43608564 2.1293676 -1.2054056 -6.9312525 -1.8360273 0.022278681 1.3569386 1.2878752 8.508745 -3.6094425 3.9817417 -0.41123307 -0.87207997 5.3006344
movie -2.232384 3.8370183 2.666861 -3.1328123 2.2746253 1.6539556 1.4165572 3.3058374 6.1293044 2.9836752 -1.6252613 -2.9461844 0.88711274 2.1922112 4.337788 -4.684801 -5.2608705 5.4357433 -1.9364803 4.93573 0.13274695 5.370935 5.4359336 1.7924044 3.5081913 -0.39210072 -2.131942 -3.9396718 -3.960351 6.1650524 -0.24699666 -1.5204306 -0.939028 3.432339 -3.297847 -1.6310394 0.55644673 1.2078781 0.45210332 4.8828335 -0.6732408 -0.8530147 2.0743568 5.6754465 3.3375287 0.52647406 -1.5141633 2.2291887 -0.683498 -4.6394258
popcorn -0.27913705 0.5492999 1.1947666 0.42091218 -1.154105 1.6432245 -0.43465424 -1.0610771 2.3729992 2.3610609 -0.09406996 -0.38367608 1.7728633 5.263632 3.4326916 -0.9139018 -0.9879329 1.0693209 2.3018928 -1.1160777 0.6835292 2.5351512 -0.34681243 -3.0624404 -0.5610309 -0.0136604365 0.23173419 -2.1018405 -0.8880755 -1.3418115 -0.26731002 -1.3282062 -1.9528756 2.0256069 1.5036474 3.128829 0.5962843 1.1713816 -0.019224234 1.3426917 0.48817828 5.377741 1.1683933 1.4710288 1.2618517 -0.9944086 2.9188266 3.443683 1.278123 2.2892957
recommendation -0.527862 2.5307338 1.3459861 3.6983387 -0.6370538 5.2412744 -0.73813677 -3.1439266 -5.12708 1.5653237 0.88207686 -1.0874407 4.525909 -2.127275 -1.9816474 -1.0559078 3.3973916 2.6853006 2.0180075 -2.89489 -3.6661034 0.054432385 -0.5226995 2.2069774 -1.9311649 0.27654585 1.9358602 -0.13593584 -2.5081985 -0.15464038 -1.4230582 -6.4677267 8.4022 -9.103571 3.5265324 1.3725368 1.941827 -4.8776274 9.063636 5.38284 4.498045 3.996489 -0.6340334 -5.1543384 -3.1724467 -2.0487332 0.0839955 2.2664154 1.5610605 2.0505543
focus 1.0995305 -5.104092 -2.2697225 0.6782581 -0.7428031 0.016093014 -7.2352123 1.1724899 -2.1999354 -6.98603 -0.57064384 4.2951126 0.8548935 -3.9985917 -0.6120819 -1.1050655 2.3685665 0.2695997 0.9176426 4.260607 -8.265332 4.1620994 -3.7831984 -9.668258 0.2743116 -3.6329625 -1.0940177 7.1762533 -6.584906 1.0672961 0.16665001 -1.196104 2.5037215 1.2250497 2.7765627 -0.39718714 -0.3836332 -6.294035 -3.4299903 -1.8479291 -2.0314107 -0.94620603 3.927205 4.5980654 0.55602914 -0.5183857 -1.4658929 -4.320681 -0.5162453 5.03716
attempt 2.3726134 1.6010613 -1.9713889 -0.36619043 0.88653 0.42182457 -1.1316402 4.0450215 1.1117563 -2.7659605 0.21339129 1.2314858 3.1618369 -2.347879 0.51479006 -6.2526174 -4.734227 2.8382316 -2.4794743 -0.04607539 0.8411807 1.358544 -2.33545 -1.3039069 -2.2516336 -5.76657 -2.4547288 8.039816 8.1433735 1.1776005 -5.2030964 1.1958216 6.7746153 2.1640592 -4.0663953 1.5417876 0.3323266 -4.365802 -3.0414002 -3.317456 -0.54131895 -3.4425545 2.207204 -3.5370295 -0.6521776 -0.39981398 3.0773335 5.784166 8.014718 -3.1100557
approach 5.351286 6.8560734 -1.6410784 4.5077853 -0.06987438 1.6812246 -1.2498077 -1.5578264 -3.9760203 -2.9503632 2.046075 2.3104067 -5.5039644 -2.0039632 1.9047426 -3.0728576 -6.431842 5.711948 -4.537675 -1.1020617 -4.5698423 -0.59137833 -8.369631 -2.3265786 -2.5806365 -2.4698188 3.1992083 1.7247264 2.6164017 0.33796242 4.2823853 3.359122 -1.9862484 -5.141898 6.435082 1.712866 -1.694472 -0.7952943 1.2479913 -2.0816686 10.754396 -1.78119 5.7273726 -4.995186 0.46761954 -1.3377522 -2.8377454 -7.0554237 -0.18466303 0.94237345
number -0.02780126 -0.26726377 3.379471 0.73587704 0.045243908 -2.5230033 -4.868584 8.34864 -2.6308463 -3.1817029 -6.3607492 -4.8798184 2.0773654 -9.458564 4.5250525 2.3993633 4.899615 -1.4987686 1.8139044 2.1438034 -2.1194696 -2.5433028 0.07416198 -4.222795 -3.1548471 -0.17390417 -1.6124051 0.5046403 0.085311025 -1.4752438 -1.7233015 -3.701775 5.600007 0.35147947 -1.8723792 0.13081008 -2.9200106 0.8224445 0.33995074 6.6226473 2.4800603 -0.6111118 -7.9632235 0.87820315 -2.1905625 -8.455723 2.0732563 -1.6115563 0.19513477 0.6923118
property -5.8231378 2.0042753 1.6298758 -0.27328753 3.530771 2.2600675 3.2213442 1.5203152 -3.5383096 -0.85554534 3.3010309 0.58318144 8.818422 3.32309 -1.9824907 2.3284802 2.539714 1.5753715 1.2295524 -0.28271347 -2.7050402 1.1654918 2.2049978 -1.4760352 -4.9523864 -2.692157 -0.15180576 3.5604658 5.889019 3.8902645 1.2914637 -1.5613654 -0.44953132 6.192149 1.7422855 5.738004 -4.3550467 5.8176413 -7.33345 -4.749357 -2.886885 -0.87292844 0.8929691 2.6215646 -5.8454933 1.8542979 0.06774704 -0.55508894 0.199201 0.81783646
fingerprint 1.5529484 0.80291855 2.6607552 0.6585924 -1.4399701 -0.11599679 -1.1670707 -1.834213 -1.704313 0.9245792 -0.40993804 -1.4808027 1.6302526 0.7348138 1.7038966 0.17156659 2.0620174 1.1340798 1.5109975 -1.79341 -0.755513 -0.59200174 -0.25206935 -0.04868245 -1.5786526 -1.0178334 0.27562416 0.6286355 2.7949653 -0.9008402 1.5794567 -0.2292527 1.9576075 -0.40233055 -0.7242528 -0.69843805 -1.142325 1.0362847 0.0075586606 0.18211633 1.3555123 0.3205178 1.11279 3.4426746 -1.6717933 0.9929509 1.2927718 3.9408448 -0.58249235 -1.1281826
reservation -5.130907 2.7816021 -2.9401307 0.21842618 -3.1589968 1.2840177 -2.2896962 0.8802985 -3.5123453 3.8100069 -0.9662855 -2.4180367 3.1305845 1.4463992 -0.6094676 0.46591252 6.703275 2.5979514 0.78778136 0.43370953 -0.94845563 3.4864218 1.7144369 -3.7680442 2.1630895 -2.9481597 -2.4594576 -2.9892018 3.0180597 -1.4599526 1.7154591 -1.8157512 0.4807133 3.1221857 0.18553469 3.502075 -1.2855414 2.5779815 3.2539673 -0.61175275 5.408956 -0.8555583 -1.8875483 2.406835 -3.5670445 1.2722691 -2.1488135 2.8731256 0.20516495 5.090597
block 0.057043158 2.6868207 -6.1772866 8.178816 0.6669557 0.25939873 -3.0192785 -1.5352632 1.2961106 2.7822382 2.862251 2.4708157 5.80562 -0.33660015 -0.61436373 -8.83811 -0.61983055 3.577126 1.6763636 1.3237387 -2.60095 -1.3970116 -1.9228668 2.7701685 -1.9406068 -3.6505666 1.7470664 0.14363939 5.6181145 6.3197675 -1.6488582 3.1296756 4.477346 -0.18683828 -8.752057 5.1747694 -1.6004736 4.3049855 -1.9115193 1.0851656 -2.03948 -0.9625933 4.861116 -2.8291352 -7.1381087 -0.17498896 -2.8058622 0.04212194 5.182129 5.7867594
fear 1.0611511 -5.799769 -1.1014752 3.1965277 -1.4107122 -7.2584686 -2.2721393 -6.981292 4.6399055 -5.6304073 -2.3953853 0.7138538 5.7485623 -1.0630163 -3.4637904 -2.5549786 4.5259967 -0.013115909 -2.3862798 -1.1565311 5.984959 6.53104 1.935342 -0.50492454 1.1817065 3.719182 2.5521905 3.4315631 -2.1155121 2.1911786 4.1322594 -1.6690831 -5.7495046 0.45979354 0.34457976 -4.0523167 -5.5405436 0.61247224 -3.158977 -7.269823 0.22406664 -5.599238 -2.2148702 5.928378 0.8028437 -1.8313434 -1.8216484 -1.7277751 -0.5952973 0.10256336
surface 0.5230415 1.864579 3.0308619 1.1628051 -6.9319334 3.7196908 -2.2883885 -0.114856094 5.971962 -2.5540566 -3.7164357 -1.3480612 -2.042544 0.059413638 -0.0666628 -0.20474423 -1.1514574 1.2918824 5.8069134 3.2238204 -1.2306869 -3.336532 -6.93003 -4.1331797 1.0551239 3.3300645 2.7670293 2.6793904 -1.6839188 4.6604557 0.7592034 0.017566573 -0.8452906 -5.2617507 1.7225734 9.365319 -3.7390988 -3.1513999 -2.3239648 -0.9808867 -0.78247464 -0.88422126 1.606165 -1.7847086 -1.5093172 -2.498359 -0.72691387 5.1691566 3.953093 -2.639761
issue 2.6640372 -1.4682289 3.6974275 -4.7098684 -0.8820907 -5.707462 3.669249 -2.0535817 -3.1382854 0.029756343 -1.021412 1.4924849 -1.7289587 2.1046066 0.3110613 -0.81122476 8.243847 4.562198 -1.4370382 -1.536254 -0.2314321 3.9606738 -7.939545 -4.577449 0.81796193 -0.964816 4.465856 3.0525324 -0.66279405 -4.086608 4.384667 -3.1177666 5.541958 -3.2927237 -0.616365 -7.9576 -5.3161592 -5.03661 0.9038747 -0.80376476 -2.4846368 -1.6073751 -0.2704178 -4.2150702 -1.6471308 -5.0418363 3.0164206 -2.7438989 3.0775397 -4.745721
metal 3.7685354 3.887208 4.8739424 3.5644631 -1.6809821 -0.9269487 1.8389728 -0.014434331 4.9237213 -1.4010437 -4.6925592 -3.390631 3.0378852 -0.055946402 -1.7434207 3.3813784 -7.568633 2.4399278 4.3560524 -0.8933822 1.0134261 -1.0558027 5.753635 -7.02708 -2.8410773 -0.20685779 -3.9254808 -0.08196975 0.22866222 -1.551092 -4.3186173 2.0345945 -1.3012525 1.2499843 2.4535623 6.284965 -5.67313 5.6770897 -2.1358716 -0.5666955 0.7824151 -0.29795846 1.8222153 6.3717074 -6.4400973 -4.5893345 0.93826383 2.6198828 2.2615905 -1.3267748
index -5.1792626 -3.2049181 1.0459954 4.7729273 0.57387006 -1.7455428 -2.2654061 2.0563393 4.9513326 -2.400959 -0.89822847 2.7433252 2.635336 -4.834273 0.8516096 -2.568153 2.1178913 1.1192253 4.23577 4.160927 -1.6343397 1.8151348 2.0222728 -2.1930702 -5.500836 -5.3613396 -1.2734886 -0.15285477 -3.1011028 -4.67197 0.18882076 1.7831911 1.1830423 1.6040778 2.6944754 0.82912153 1.1811347 0.33406326 4.0214996 -2.1640017 -1.7291408 3.8389392 -1.9700089 -5.7987905 1.1516496 -0.4241269 -1.9515188 -1.3352079 -4.4393325 -2.1235633
isolation 6.1028156 -1.8191069 3.4150865 3.9196827 0.47077885 2.7699347 2.4796178 -0.6823856 2.6652117 -3.5406182 4.0607266 -2.3853087 -6.321027 -1.8004159 -0.8134059 4.0626564 0.8026942 -5.7692494 -2.040079 0.70861435 0.8453811 -2.2629952 2.3399363 -0.7762733 0.3376936 -0.06568003 -5.340472 2.991949 3.843552 4.443453 8.132598 0.55375016 -1.7425987 -4.9324718 -1.8220378 -1.113736 1.5559794 0.90295804 -3.6524062 -5.28661 2.228932 1.8781577 -1.6174594 -0.9254328 0.7902115 0.23685603 6.103638 3.7131996 -1.9971395 -2.0319028
impartiality -0.31525257 -0.1798343 -1.3193357 1.1381996 -1.0354704 -0.7023747 0.6986487 -0.867133 0.67616296 -0.21140826 1.5610093 0.10620332 1.001458 -1.7202722 -0.6618451 1.099691 1.7939662 0.2208166 0.7336229 0.0069249384 -0.36599833 1.9643233 0.28790218 2.5472972 -0.28387517 -0.9517541 0.457236 0.99344695 -0.73688036 0.577455 1.6849165 1.1812493 0.52739406 -0.14388295 -0.17248893 0.6194941 0.8975703 -1.5431097 0.9953046 -1.028231 0.36511248 -0.67201406 1.6348835 -0.89433295 0.11061319 -0.380699 3.0453613 0.6857684 2.070521 1.4659262
drink 7.352859 -4.9679003 2.2595773 -2.9676127 1.6267264 -1.2684274 -0.12575139 -2.7692902 -0.27313563 -3.8726392 -3.3271081 -3.3739927 6.7446976 2.4197123 0.40464303 -2.511977 3.5068433 0.7992488 -0.9769439 -3.9717355 8.2484455 4.667933 -0.27031648 -3.1229644 -3.6704059 3.9151103 3.539426 1.289728 -0.27222702 -1.0876307 -0.7978007 0.283391 0.35888058 4.0771575 1.4560826 4.2654734 1.9857937 -4.0019197 3.2748208 1.9366332 0.26507163 -0.29490843 -5.552634 0.6699243 -3.0469337 -3.5484324 2.9441557 -4.557861 -6.6958075 -0.19973733
baseball -3.0448484 -1.6531019 1.6191823 -2.1624205 -3.4479809 0.21768056 -6.056009 -3.5578437 3.6654308 1.9970343 -4.1947145 1.8900568 -1.8645847 -3.334451 2.5918353 5.241407 0.18272066 6.784185 -3.721893 -3.949546 6.448085 4.2263103 0.27800718 1.6616825 -0.2516616 -1.738685 0.60137665 -0.86359537 3.3932197 -4.0198803 -0.42044017 3.7117183 -1.4147831 -0.78012174 1.3293935 0.3188872 1.8376265 2.2153785 -3.8050222 -0.70961696 -3.044338 0.3630893 8.219531 2.034531 2.6976347 -1.3248875 -4.0101275 2.1837757 2.537927 -1.0595855
jaguar 1.1253669 -0.3328643 -2.770579 1.7858268 0.6972178 2.9544609 -1.1769551 1.3802762 1.8802332 1.0614599 1.2934177 0.874881 3.3978949 2.0327559 -0.055285707 0.70527565 -0.4342299 2.1753068 -1.2715266 -0.34175524 -2.2329257 5.551517 3.2277265 -0.92194676 -2.1405556 3.155562 0.9454145 -0.5446746 1.3907601 0.59543824 -3.3605146 2.0884078 1.0317119 3.2504356 -0.19953701 4.758777 -2.010245 2.581393 0.651731 0.7369858 1.9966054 -2.2911737 -0.99824744 0.2509677 -2.5846207 0.075102694 -0.34666094 1.4808223 -1.1773145 -0.2764954
trading -0.19879776 -4.3906803 4.499475 2.7433639 0.8699328 -0.5764053 3.079001 -1.8454247 1.7748429 -1.7537916 0.31294608 1.2809932 -1.7404013 -3.9930708 -4.650442 -0.3558354 -7.804431 4.7606587 4.395444 -4.214442 3.0029833 -0.1811684 1.2887595 -3.8058398 -0.8013833 -3.7197618 3.7698126 1.5860275 0.3945622 -3.5318346 -2.0858195 10.37295 3.4989517 1.3291742 0.44843712 3.662309 -0.7257808 0.88559437 0.22259317 0.5327541 -1.3313783 -2.5993905 2.6720035 -4.196705 -0.12583537 -5.016919 -3.448079 -1.8643205 -4.379004 1.1292061
viewer 0.18729825 1.7270238 -0.6057566 -3.4122636 0.9105921 -2.0546732 -0.7705384 1.8971584 3.924657 -2.8493288 -3.4593158 -2.3232665 0.32998508 -2.3879411 1.5006461 -0.9981966 1.8384323 3.5657618 0.48434335 -0.6475539 -1.4918435 0.796956 0.2512009 0.34564632 1.1091658 -3.7365406 3.30241 -1.5699726 0.90535605 -0.31457525 0.2399663 0.05282406 -0.743593 5.486271 0.3596444 0.107244164 -0.09424286 -4.9124184 3.2583249 1.5786941 3.1661043 1.6652853 2.7632735 -0.114891425 1.567768 -3.713038 4.6205826 2.448679 1.8323917 -0.34209839
hundred -4.170264 -5.8877587 -1.9346784 0.40564466 -0.616052 1.8882636 -5.1108823 0.7656669 0.4965118 3.8159006 -7.6494813 -4.2553954 -2.3234494 -4.0624957 6.0430694 -4.336568 -4.778625 0.08396471 -4.275048 -0.79224104 4.775873 -2.463938 -0.58236814 3.1220977 3.2528136 -0.089356005 -1.4423419 -2.9918008 -0.8222459 -0.73031294 -0.6768698 3.7361379 -1.6133839 2.2960916 -5.718484 0.38209182 -0.15951072 3.9636977 1.1398691 1.6499518 3.1211512 -3.7688901 -5.4198794 1.2836403 -6.022555 0.8324739 -2.9943056 -0.6023921 -4.6785526 1.1423485
woman 4.2564106 4.098227 -0.7225144 -1.2486784 -1.1860182 5.657803 0.6609535 2.402614 0.02443207 -1.4784663 -1.3146232 2.4915555 6.3742976 2.2212558 7.373756 -2.770108 4.587709 2.1924207 -1.121852 -0.4387339 0.18258597 -2.6835694 -0.42937285 -4.003263 0.028198943 -1.3785259 -1.2739409 -2.9110787 4.7648544 -4.4874864 4.605451 -1.4164325 4.9214993 1.9578078 -0.25823185 -4.8891745 -0.7347657 0.51727897 0.05215232 -2.75825 2.4204364 3.9005828 -6.0536613 0.17330825 -0.46628094 -0.92485714 0.74398017 -5.325889 -0.04481797 -5.4808764
queen 2.5009353 -1.8888457 -3.9195325 -2.7139378 -2.9081745 0.6362622 -1.4019009 6.922143 3.733045 0.17569476 1.2635431 -4.7363997 1.810792 0.37241933 2.2434862 0.67353606 3.4494922 -5.122658 1.9635321 -1.2779353 -0.48244098 3.6942198 -1.0551369 4.1596518 -1.1833264 8.529114 -2.0124643 -0.63805705 -0.56430066 -0.9274748 -1.2869496 -0.31819046 8.091266 0.5756486 5.131409 -0.11526326 -0.52510077 -1.7492236 3.7474122 -3.901505 0.42484662 -0.022049598 -4.0606995 -0.08364632 -2.7595916 -0.35387838 6.533256 -6.3386083 -0.5311936 -2.581016
fuck 0.10873898 0.20507133 0.18236478 0.16451918 0.22198124 0.36901656 -0.13007693 0.24585016 0.09554434 0.35874876 0.06255779 0.06417302 0.13120103 -0.4242024 0.27946436 -0.12918174 -0.12368436 0.20863493 0.14970137 0.04255294 0.39775345 0.01383554 0.20301872 0.18862101 0.31653208 0.27583227 0.28788936 -0.19491275 0.31615874 -0.2946929 0.21964754 0.6360676 0.116751015 0.2775755 0.45472363 -0.33840737 0.21348965 -0.36445904 -0.018211735 0.22725107 0.42895606 0.2244459 -0.44158527 0.33432457 0.01645727 0.04323574 0.29131454 0.089218244 0.42709062 0.079384305
skin 6.798079 5.0123363 -2.7040963 3.7741497 -0.5741168 -5.0174603 -3.692822 -2.1983764 3.8354077 -4.7523627 1.555629 2.1811876 3.7032828 1.5765152 1.7016833 -1.9591691 -1.0413554 -0.36925155 5.7866344 0.16679797 -0.11265893 -6.449637 -2.3861918 -4.695349 -3.2141466 1.811748 2.979995 -1.899284 1.0718803 6.327475 -1.0393283 -1.3168638 0.8227569 0.7952571 3.221886 0.295971 -3.458034 5.19688 -1.457224 -1.8256811 1.7399317 3.9059923 1.0940312 -0.2882184 0.4714616 -2.9980888 6.6510243 -1.0133272 -2.4683864 2.175637
tournament 3.0038695 -6.177875 4.1547036 -5.116817 -1.6043285 -1.1871052 2.038874 1.0747098 4.882393 1.0304556 -2.266109 3.481767 -2.3942654 -7.6767206 2.9614785 0.35582206 8.661221 -4.334581 2.2031083 -1.0400615 1.9790186 1.3351276 -7.0256495 0.13408944 1.8328754 1.2905701 -2.3434603 0.9233393 -1.7630472 0.81537336 0.32365918 -1.3832344 -2.5878165 -0.30345732 -2.6543329 -0.20508397 -0.6948499 1.4828709 3.0010037 -1.9337775 -2.4534247 3.1929748 -1.1669866 0.8502843 1.2370423 4.1180058 -3.7876232 2.9553902 -1.8594568 -2.3366537
cell 3.4421353 -2.2129583 -2.6911693 6.7714114 -6.117728 -1.083771 -7.195994 -1.4584471 3.8125434 3.390148 -0.14005001 -1.0158854 0.53546107 5.1576796 -0.6038359 -1.7228066 -1.9742081 3.197351 2.1716712 -2.4925783 -3.1517382 -2.4709554 -2.4236395 -3.6975365 3.939423 -4.1809835 2.2333493 0.46188322 -0.15137039 -0.3824005 4.298929 -4.0190787 2.0406723 -6.962083 -3.4404135 -4.171115 -1.1923246 -0.82392824 -1.1930244 3.8443859 -0.94284683 2.6420233 1.5818611 2.114918 0.0047203535 -3.5987184 -0.7060173 3.6647227 -1.5195119 4.602064
summer 0.33347315 3.424032 6.614774 -7.3164535 -2.2659042 -2.6366053 0.9804103 2.5469255 1.3470883 0.17645237 2.9130323 -0.103068985 -7.839715 2.4135222 0.7097068 1.5726284 -5.2908487 0.28565493 0.33936104 -1.5408924 -0.0024965536 10.401658 -1.1703464 7.2740684 -1.4242022 3.9816523 -3.2939339 -0.07779787 3.100555 -8.8939905 0.62617666 -2.9127386 -3.4004326 0.89384836 -0.9780645 4.454438 -2.8942351 -2.465084 -0.53549725 -1.5455699 -0.63126546 -3.602537 -0.07599708 4.738998 -6.2509356 -0.71114385 1.1898702 1.1490967 1.669679 -4.3690486
crew 3.451047 2.9030762 -0.81116086 2.098655 -8.131197 1.928909 -2.3010173 1.6014996 -0.99736255 4.6710606 -5.019738 -2.5927322 2.107547 0.2380365 -2.0203536 4.4867806 -3.4583158 -2.7681055 -1.28799 2.1590357 2.20767 1.7453222 -5.076742 2.479935 -0.725856 -0.6617455 -1.0063802 -3.2513402 -2.775202 2.1324553 -3.3429687 0.11096822 5.0336623 -4.496023 0.6174832 1.802586 1.3606694 -0.19374546 7.1368284 3.994252 3.1638305 -5.3949113 1.4119228 3.975012 -1.802912 -0.0025350023 3.6208928 0.37436348 6.15513 0.93764794
defeat 2.4791913 0.45585153 -3.8061926 1.482028 1.1976687 3.7177982 -3.7479513 4.779846 1.8335677 -7.1987686 -0.24348609 4.025144 -1.1156175 -6.544147 2.982118 -0.8631485 -0.44050166 -6.328916 -1.9421495 1.6440675 4.0332365 0.9965189 -2.3986797 1.8881178 -2.3821 0.88474494 2.3645353 7.5286217 -2.3555157 -2.4129822 0.5412528 0.66980577 0.69576806 -4.193987 -3.2570214 -2.646939 1.9104878 -1.8650202 -7.242965 -7.0140285 2.4519718 -0.9411059 -5.123726 -3.2302246 2.6778462 5.052602 -1.5951477 3.0617223 5.5988936 -2.6297712
library -8.452301 0.5530628 -5.0602694 2.5207107 2.4414861 -1.9927403 -2.7398543 4.440345 -0.84006923 5.004946 2.9733112 0.5342718 -2.794287 1.0828925 -3.4202585 1.2710756 -0.6481188 5.0088367 0.24760212 1.7177534 -5.3120832 -5.324606 -1.6381656 1.4319856 -2.1779141 -0.6975011 -2.5931015 -2.817655 3.7716951 0.47246677 -1.5797771 0.10872099 3.9829674 0.22494097 -6.0281086 -0.6334638 -1.7280142 -4.199816 6.128338 0.20882776 0.0762027 1.4218521 3.5700517 4.3921146 -7.92463 1.4702423 4.3814163 -0.17614505 -3.370258 -0.3390236
government -1.4532951 1.228785 1.9133168 1.627986 3.6252081 -0.6275403 -2.4039414 0.59681904 -3.4245524 -1.8134874 1.2253234 3.797241 6.0565996 2.6335223 2.1268947 -3.3128371 -0.7143718 0.3770136 0.453536 -3.2068653 1.9101146 2.4414756 -0.6236539 -0.6621742 7.094931 -1.802688 -6.760293 -0.9603689 3.795714 3.3649297 0.46784422 -3.3364158 4.5300293 -1.9453822 -0.32649118 -4.0450983 3.0608225 -3.2782266 -2.7916489 -0.12547557 -2.818741 -7.7748747 -2.4389057 -6.111376 -2.9912903 -4.107436 0.118736915 -5.7602015 -5.192679 -2.4076052
world 0.50976187 -7.6396103 0.93737304 -0.36288604 2.805377 1.0002879 -5.194636 -0.30565766 5.1656303 0.24881192 -4.59793 -0.13574687 0.25791478 -4.651505 0.95967597 2.8389318 0.65408254 -2.8370662 -1.693766 -0.746223 2.4577463 -0.3313226 2.3938782 -1.170776 2.935009 -2.0532756 -3.4729888 0.65771794 -0.6858394 -1.1268721 0.44120547 2.3825243 1.1477399 8.390575 3.0696952 -0.0743067 0.6775357 -4.407129 -5.0621853 0.76684654 3.857737 -1.1354082 1.5839672 0.16985102 3.6517246 2.0212734 0.7722891 5.6204567 -6.0096965 -8.2159195
potato 1.9492044 -2.806603 -1.9659194 2.8746548 -0.13905415 1.8667036 -1.7293885 -1.6564145 1.2350581 1.1067866 2.4006066 -2.3640745 0.6920043 3.9337223 5.6912026 -2.4324992 3.0292149 3.029062 -0.5883973 -1.191429 6.961157 2.4193387 1.1388847 -2.6316237 -0.7664402 3.0091312 -0.9883816 1.0203364 2.579843 -1.8161687 1.3557302 2.5266247 -2.704833 -1.9917986 5.015391 5.9730186 1.0476619 1.4088992 2.2979362 0.913334 2.8335476 2.7333398 -2.8087654 -1.9164755 -1.7506763 -0.07101886 -0.6430289 1.6060477 0.7136191 -2.8074152
astronomer 2.5902236 -2.3771317 -0.17626448 1.3935986 -1.549589 -0.15704131 0.45774317 0.7401606 1.7222025 -1.7574755 0.028757382 0.65030956 -2.758731 2.8279786 3.0119317 2.3717334 -0.16854239 0.6715024 -0.059252605 1.2575245 -1.5597502 -1.3593293 0.42712912 2.0564315 -1.5675141 -0.2968135 2.3814714 -0.40041912 0.5321651 0.5776148 0.06647754 1.3779757 -0.54272014 0.047572628 2.5816011 0.3266445 0.7305225 -0.9298825 -0.8516825 1.5051504 -0.06366352 0.8816636 0.63204217 4.9736724 3.1410158 0.48763013 2.0791159 4.3319044 0.52787286 -2.0714123
morality -3.131412 0.06993075 0.020573918 2.0949047 3.1407433 -4.0244246 1.1856632 -2.9193044 -2.5288815 -0.9480866 1.3816319 -0.77386785 0.679781 1.9384215 3.34385 -1.248118 3.5323055 3.3850605 -2.8867364 -0.8482767 1.2145399 -1.431804 0.10564053 0.18038867 -2.1891963 1.8439057 -0.5254666 2.4651468 2.1053565 1.5176513 5.3201985 4.271273 0.44352046 -3.2198007 -0.9838195 -1.3123372 -0.1430703 -0.44425523 -3.0185926 -4.962404 -1.5675617 -0.82814014 1.5538371 1.2733047 0.2233401 0.77572674 3.1516888 1.6744893 -0.19448589 -4.1793246
nurse 0.35960433 -0.35893577 2.1834273 2.7825024 -1.0697284 0.9738918 -1.344751 0.16636822 -5.3039646 0.23081574 3.1632838 1.6856141 0.18092954 -1.1387496 0.5798343 -1.9643908 1.46331 0.19465035 -2.0170062 -5.097096 -1.0275668 -0.9912961 -3.8552928 0.9981304 1.6174961 0.58160967 -0.5299298 -1.7019739 -0.22612922 -4.6246996 -0.75893784 -5.142921 -0.8774347 1.2446659 3.538942 0.52367705 4.656405 3.1592236 -0.41616255 2.0659897 5.4722 1.7251803 -6.124223 2.5692744 1.7121674 0.90059274 8.154875 -2.0801928 -0.9671422 7.0428257
prejudice -0.11592175 3.1664584 0.35919714 0.76462984 2.309 -3.9451704 2.5524826 -1.4999819 0.98585373 -2.5928826 1.5706369 -1.0218724 4.2968235 -4.1824226 2.7685776 1.010304 3.0671732 0.728531 0.38064912 -2.0384777 4.161997 1.7096393 4.9944053 0.1876545 -0.23474832 0.47716302 -1.3123606 0.8281116 0.66186935 1.3183048 4.646149 -1.7411457 -5.5325828 -1.8444412 -2.056803 1.6024988 2.8106537 -0.83838934 -2.73652 -2.709879 -2.0785632 1.0123429 0.18855104 1.7231264 1.5558573 1.6955972 6.51321 -3.2296743 0.44292086 -2.6927042
man 7.8457747 3.6144092 -5.394494 -0.42246068 5.5761285 5.965644 -0.8452497 -0.16759203 -2.0098488 0.018845329 -0.36151707 1.9307296 5.379027 3.1767228 6.2780595 -1.179293 2.7229254 5.726648 -3.565918 -0.17188807 5.494931 1.3092314 4.5428014 -2.6126206 3.3082051 4.412695 -0.122697264 0.6530276 2.2130213 -0.2143236 -0.83383846 6.9330387 1.9375745 0.95796436 -1.633241 -2.6531107 0.22577795 -0.21972597 -2.6617362 -1.2539463 3.418467 -1.5311763 -2.8219755 4.949849 -2.6328266 1.6902696 0.65671766 0.9481409 2.151076 -2.9185693
deployment 6.148074 -0.76701766 -1.8123418 2.591445 -0.5229101 -3.2366061 -6.047268 6.297053 -3.8691516 -0.008359351 -1.7462305 -2.511229 -3.4707923 -1.8348942 -1.4187409 1.5616281 -2.8323941 -0.6204407 0.78680086 1.3535765 -4.3733068 3.3939822 -1.7315458 -0.4875338 3.5316896 0.13886952 -4.9053974 5.168615 -2.2884045 0.0045006396 -1.4736376 -0.49696663 0.74324375 -8.955874 1.5089991 0.45488554 2.1043837 -0.028126493 4.093859 1.7870395 1.5873902 -2.3999412 -0.40284973 -1.3283532 -3.7835126 -2.1465847 0.92155445 8.081507 0.41778994 2.287684
bread -3.429491 0.5247681 0.21427935 1.9618118 -1.8384471 -2.1073656 -7.622811 1.6804599 2.3199723 4.39167 -0.22268823 -2.7486546 -1.6773909 1.33823 1.7871821 -0.9301765 1.2095984 -0.52825433 1.4881371 3.179537 8.863921 0.29099444 4.0723233 -3.1162598 -0.30109358 1.4016156 -3.3622808 -3.9511917 2.111923 -0.428738 1.7098819 -0.91234463 1.182297 1.5328302 2.3527014 5.1847253 -0.95759803 -0.44544932 2.3776357 -1.6085092 2.2280822 1.2523277 -4.02909 -1.3210235 -2.2455695 0.3267074 2.8650496 -3.5578742 -6.6741567 -0.93536305
television -0.8851614 -6.073059 -0.5077236 0.17734109 0.071859285 1.1276274 -2.587673 3.6723573 2.0193465 -1.5625432 0.18156263 1.6357603 4.711464 -3.2088833 -2.3134134 -1.3165426 -2.4953585 2.2645903 -2.88603 -1.2024101 2.0225856 3.9527519 1.402435 -0.9132281 6.752484 -4.57538 1.7950556 -0.6602625 -7.4699225 2.6414187 0.33576742 -2.5613196 -1.3506396 -0.46312553 -4.385505 0.18191451 0.8616549 -3.5966845 2.9367037 2.5191076 -9.237213 -1.3852154 6.318293 7.6483254 -0.40120548 -2.089316 2.4987304 -3.0338504 -3.538642 0.22877866
lover 0.6455079 -0.9634207 1.2677711 -1.3894819 -2.2567227 -0.45361933 -1.3183913 -5.036638 4.7296233 -1.4194419 2.4675643 -3.2740858 2.4873269 -1.7719167 3.7666225 -1.8649122 3.4855623 4.251436 1.032567 -4.2167153 1.7838128 2.205978 0.37862372 -1.772723 -1.831173 3.6073737 -3.9647636 -0.8268455 3.8219788 2.26245 -1.2047552 0.9063978 3.468702 -0.43378094 -2.357592 -2.545412 0.78764755 0.5449228 2.2653656 -1.0364816 1.7531158 1.3679861 0.83279735 3.9302466 -1.9148743 4.1418757 6.8745246 1.1955044 -1.2271888 -0.7414401
change 4.9717875 -2.8184154 -0.5029898 -2.49688 0.7991 0.06983144 -2.2130215 -0.10646198 -2.7315495 -2.9830494 -3.0335805 1.4037175 -1.5382841 -6.858675 -1.133121 -0.395854 1.3146017 6.196983 -3.5835924 2.581401 4.371448 7.743922 -0.87945515 -0.18480597 0.23279558 6.0062013 8.549395 -3.6489048 1.4936855 2.4624212 5.4837837 0.8813313 -1.9005907 -2.714228 6.030119 -1.252365 4.5547028 1.1513203 -0.3220678 0.011401048 0.17761761 0.6854613 4.4967613 -7.3889565 2.3388114 -6.123552 1.6351899 -1.1424993 -0.40670717 -3.3057697
health -0.17067267 0.6830471 0.24919286 2.2112556 0.24178505 -2.248017 -2.8760738 0.23675995 -2.3408377 -2.4305427 -5.4609103 5.191745 0.24302547 2.4323118 -0.051181514 4.300571 -1.7373091 -4.196098 -1.3444039 -0.99874544 -3.3737383 3.390917 -5.6046157 -2.4869423 -0.74701285 3.1912994 -0.08104152 -4.4574327 -3.8677137 2.4188085 0.30057985 -3.6662674 -0.6737215 1.2138848 4.1233425 -5.725042 2.4703639 2.4538403 -1.4186717 -0.9970558 -3.2415912 1.6145436 -4.3240094 -4.3999567 0.07038821 1.8012727 5.060741 -1.737972 0.93811995 1.2921219
computation -0.43568322 0.033993185 0.3044934 0.79926205 0.64038295 0.30800304 0.00226394 -0.052972775 0.08301114 0.3473177 0.12309931 0.36682546 -0.2195541 0.25813213 -0.117213346 0.19178888 0.13325611 0.29033613 0.73634857 0.07450573 0.20834526 0.25968963 0.49640828 -0.10546195 0.074814364 -0.08365715 0.24618801 0.018931787 0.20858909 0.07956612 0.37937406 0.02159204 0.35276544 0.050594505 0.43652335 0.04416481 -0.23248294 0.311772 0.23374622 0.112605676 0.109834045 0.25533628 0.4188991 -0.41509923 0.103149734 -0.7573075 0.39356136 0.7415913 -0.26287946 0.3944688
virtuoso 1.0507177 0.8458769 -0.5044041 -0.7034014 -0.51501334 0.20255478 0.8477043 0.519144 2.2956245 0.68241465 -0.1836756 -1.4379601 -0.4688882 -0.5967654 1.1673318 -0.7100582 -1.6826613 0.93360883 -0.5046058 -0.8529562 0.508523 0.6378694 1.3426855 -0.44970757 0.06847281 -0.27650133 1.2294534 -0.0043017752 -0.8132682 1.3037288 -0.39034444 1.3652703 -0.19612738 0.42620474 2.432267 0.88818455 0.726075 0.12369312 0.28166544 0.12953451 1.0708086 0.7991504 0.6527605 1.1340772 -1.0676156 0.22742695 2.1996253 2.1328487 0.5829024 0.13053918
century -3.6542332 0.47497222 -1.3470006 3.3634286 3.2922006 0.2160473 -1.2930076 3.9723966 -0.72931314 -1.7442769 7.4484935 0.6718796 -2.1412623 1.4515616 5.1284876 1.6578923 -4.8885546 3.714552 -4.1058245 3.5018308 0.24003513 -4.9398565 0.49190262 -2.1543093 -2.7406466 4.9262505 2.3586931 -2.3995888 -4.8058953 2.732472 0.90756434 2.7049763 -5.043303 1.8751314 0.69754475 0.9173574 -1.8725418 6.1882896 1.659478 -5.193977 2.7374537 -2.8898897 0.7707785 -0.29536363 -3.4273148 4.4160843 -2.1539176 1.607399 -2.9073992 -9.534986
discovery 0.39482123 -2.682321 4.273353 3.4027014 -3.2878528 0.019408882 -1.5534788 -2.5915663 -1.571277 1.013135 -5.7242727 1.0784817 1.5944985 9.17576 0.15655288 1.6912966 -0.24399741 -1.6589463 0.8525855 5.2450547 -7.473252 7.3785696 0.7922761 -2.5167804 -4.2589335 0.6586954 -0.32694438 -2.4036977 0.20308182 2.1395872 -2.660946 1.0314171 6.1763096 -3.1677227 1.4174408 1.933122 -3.0434825 0.19855736 -4.0515676 1.7137762 2.326753 2.1238549 3.462723 3.6420698 -3.4445555 4.546393 3.0034158 8.190977 0.67174685 -3.9914951
report -7.1061196 -0.26588458 6.505395 7.816863 5.6851335 -1.2235503 -4.550832 -2.4188206 -2.3958127 -2.589137 -5.3085413 3.6081235 5.92223 -0.48833242 -0.39642954 -3.3857412 -1.6040992 2.3039484 4.804937 3.165785 -4.0813413 0.45687497 -1.567242 7.2882586 -0.44522005 -0.14391507 6.6370344 3.6337118 -3.3563437 -7.924117 0.94617075 -3.0898054 -2.0014424 -3.1813526 7.061444 -3.7500992 3.1748633 3.264811 -1.8924023 0.1762236 0.97207534 -1.110566 -5.4895887 -1.1813604 1.7048113 0.95830005 1.910415 0.2878202 -0.3531667 -1.7413361
madhouse 0.1253022 0.1382536 0.20857379 -0.35125515 0.16753279 -0.13167538 0.13896503 -0.3454646 0.0868842 -0.58429027 -0.21708505 -0.58081347 0.21960403 -0.3672147 0.385142 0.40497538 -0.10126122 -0.25040254 -0.5620826 0.1149372 -0.35255063 -0.24865809 0.24720232 -0.26112068 -0.022532234 -0.5641188 -0.13804913 -0.20268632 0.13426833 -0.37125126 -0.118960634 -0.14090723 -0.23693123 -0.4103804 -0.03223274 -0.42119843 -0.07489526 0.2993045 0.05989936 0.17760128 -0.21207112 -0.024086343 0.0092585245 -0.26481956 -0.24842903 0.053260285 0.35469767 -0.25468796 -0.5480169 -0.77989656
entity -1.0020168 2.9110613 2.7787192 2.8387513 4.4658 1.7267437 -0.640611 -1.4472259 0.75932723 3.469908 4.7571206 -0.5791552 -2.2620454 2.047629 2.2743022 0.3271986 2.4026108 2.9201617 -5.7840395 -7.8616443 -3.9835205 -3.1500278 5.705184 -2.7605655 1.4244303 -1.3730936 -2.789661 0.21851307 2.8990338 5.818385 -0.0973854 -0.8419493 2.998424 3.0620537 -0.00826495 0.66584545 -2.6059368 -0.12485517 -2.671252 -0.5286335 -2.368899 -2.4281707 2.5517929 -4.8341985 -1.0222349 -1.8266042 -0.61607736 1.457508 3.38391 -0.9516141
opera -1.1837969 -0.27430144 -2.0530865 -3.7188785 -1.3925973 1.9853263 1.0846419 4.958968 2.2647572 -0.2998989 4.137594 -1.9990274 -0.8587692 3.084066 1.8157275 4.7779613 -1.0273672 2.0187218 -2.1212695 -2.8782966 -6.1066456 3.215335 1.6639992 4.462659 1.4500122 -0.55896395 0.5764497 -3.4135346 0.26603353 5.6105776 -1.0257224 0.21465875 5.90496 1.5937253 2.014168 0.87388355 0.15392253 -9.025552 3.1857605 -2.4456575 -1.3299975 -4.0381327 4.0923524 5.645648 -0.8601363 -0.13998234 -2.482673 0.20395358 -6.2807164 -0.34599108
sign 0.35740954 4.450218 5.5598216 0.8006503 2.949396 -5.162322 6.598105 1.0804902 2.9004269 1.4985377 -6.1973486 -6.351468 2.72202 -3.3227763 -3.6692326 1.1959019 3.768101 2.1409776 -1.680151 -0.7554599 2.6791098 7.17402 3.63679 -3.6586344 1.6832039 2.5382571 0.5995701 -8.658843 0.74004835 -1.0035396 1.2862477 4.5588784 3.056754 -4.2071357 -3.9495697 5.027908 2.1973562 -1.7636193 2.43041 0.8033587 -0.42645237 -2.1801796 -7.242501 -2.3048012 2.6065712 -7.4888086 -2.4573858 -6.5118003 4.0977125 -1.0753326
recognition 2.3938913 3.2155368 -0.27407044 -0.16343817 5.253557 -1.5207139 -0.94861025 6.236479 -1.6500189 3.2319734 2.021009 -4.848788 -0.09117954 -5.982284 -1.314065 -0.037854232 0.86801636 -4.389917 -0.9830969 2.3199732 -3.0867622 4.5182633 3.0121384 3.156803 -2.5808277 -1.2287433 0.079071596 2.4988658 2.0332203 3.4215531 6.1564207 -6.7328568 -3.701281 -10.441985 3.3259065 5.386114 0.83370197 -0.59726155 -1.1151696 -3.148939 1.4725041 3.9620235 6.3151717 3.813025 -2.38389 1.4821608 4.076191 5.87302 -0.4437344 -0.26223326
office -2.411871 1.8453051 1.4598298 0.060252503 4.7405367 5.315408 1.8883789 4.457769 3.5708532 -2.4094532 6.581543 -6.8038425 -0.14059886 2.4368582 -2.4757674 1.7364401 -4.1703286 1.6591859 0.14021766 -0.84422696 -5.0837946 -3.0811944 -0.6867973 3.6960492 4.8313885 -5.393963 -2.569317 -4.8085694 0.49659452 -3.357429 1.1846244 0.7614266 5.2993555 3.6417487 -3.3514495 -4.902093 0.022214504 -2.3040862 -4.4544067 1.0301019 0.21048197 -2.5391219 -0.5767766 -1.5300248 -5.3374276 -2.19423 2.2879157 -0.55261695 -4.1232333 6.373362
lad 1.6061771 0.7755468 -3.2309952 0.24905246 -0.48594427 1.138519 1.474562 -1.4889116 -0.5595074 1.2220963 3.2450974 -0.75922513 0.75943285 -0.69725865 3.1501305 0.2227214 1.3505675 -0.03641483 -0.4058199 -0.5429903 0.31965387 -0.16626777 0.700931 4.119022 -1.2341814 1.7942774 1.4919611 1.8054094 -0.58082765 -0.72879976 2.6150167 2.9576812 -0.9974078 2.757575 -1.023287 3.7210526 -2.069675 0.05706636 -0.55909455 -0.9433179 1.6455102 2.9394233 -0.5010532 2.3303108 -0.8279149 1.4226791 1.7797929 -0.0799693 -0.092688166 -1.8995652
radio 2.2219503 -5.275 -6.3602624 2.5889142 -5.6710944 -1.6124927 -3.0533197 -1.1184715 2.0590055 3.7116537 -3.0887885 3.6435864 2.0804036 -2.484024 -6.3479433 3.940409 -3.7403405 2.540667 -4.0028543 -0.5453109 -3.120989 0.5929494 2.4944892 7.4678435 0.74708706 -4.1646028 6.817814 -1.6491518 -3.5999396 -2.2433426 1.3167604 -2.622865 2.055591 2.2094479 -3.2109811 -2.457653 1.2122133 -2.6066923 3.79054 0.1416283 -0.53061813 -0.8401467 3.1871233 2.286288 0.6836024 -0.37861487 -1.4658184 -2.2247348 -2.5945723 0.4729056
smile 2.2765908 0.723534 3.6496994 -0.85317665 -0.39627287 3.2931712 -2.0970476 3.12902 4.8078494 -2.1572502 -4.8682365 -1.7395569 0.9094606 -4.470263 -1.2262036 -2.7370248 -2.5094144 -4.3475566 -0.2385471 -3.6483324 6.2586265 0.9736122 0.055872075 -5.7446294 -0.8370663 1.7103167 5.7733536 -3.7011204 -0.11085951 3.0536823 3.0703406 4.944188 2.1427727 1.7832557 2.052519 -2.0457253 0.377447 -4.9855833 2.2701066 1.0932455 0.91935503 3.315212 -2.7033446 2.1097314 3.1571884 -0.5662581 6.5678306 -3.3754313 1.6154718 1.4355197
arrangement 3.0677478 5.1853714 0.4634221 -2.105135 0.23610839 -3.4763954 2.7355738 1.6491742 -4.4512253 3.6840622 2.1617186 -1.5023504 3.558859 -1.0979916 -0.1969657 2.0522149 -1.2395153 -0.29827726 -0.498487 -9.286767 -2.6266663 2.6265142 9.885924 3.637023 2.4287586 1.2551666 -1.9154582 -4.547349 1.4556808 6.7573304 -1.7983601 -2.3341234 6.958496 -1.8178142 -0.5901417 4.7208195 -2.960424 -5.455477 -1.1992732 -1.2382774 0.1127535 -3.3290238 5.2725816 -0.93521994 -2.997701 1.792073 1.1804782 -3.0560102 2.827094 -0.9310341
credibility -0.7359918 1.3076762 -3.029483 -0.85342884 7.004898 -4.9146433 1.0386565 -6.2662406 1.1418303 -8.289459 -2.1075306 1.8556424 -3.5036302 -3.4454072 0.49282467 -0.1457546 1.0094866 2.04772 1.0708462 -0.8958253 1.3580744 -0.16121821 -0.5371225 0.6210279 2.3677568 -5.0973463 -5.444173 8.520261 -2.504407 5.858234 -3.981046 -0.8523935 1.2220143 3.4907093 3.1589167 -4.7877774 -1.678956 -2.066311 -3.1522214 -3.5196307 1.8111951 -2.5612495 3.5090792 -3.021374 1.0175941 4.931776 3.3611844 -4.5917463 6.1154056 -0.09503943
communication 3.7021625 -1.7406081 1.9177934 3.8160772 -2.3898585 -6.569106 -3.1636899 -0.94966686 -3.994158 -1.4687984 -4.5369644 -2.1907275 -5.0947933 0.7709716 2.2658591 1.4834987 -3.388518 -1.8463479 -1.1037842 2.7759054 -3.354101 1.501615 4.8508534 5.0239196 2.3594656 -9.886707 0.9577042 -0.2158558 0.6413912 5.950509 -1.4370999 3.6093879 3.3245254 1.0971897 -4.9311504 -0.86098915 4.0097027 -4.0193787 8.3311205 0.5417691 -4.8734756 -1.269651 -0.4364963 -4.871906 2.901011 1.3578972 4.710592 -0.8000139 -3.409733 5.055043
stock -3.0989108 -2.3228838 4.0439086 -2.3962684 -1.5296658 -2.6876485 5.9488134 -2.651814 5.5235763 1.6928364 -4.264202 -0.63902235 -3.9480944 0.6723145 -0.62894493 0.3429623 -0.9618516 5.5169306 2.377309 -1.0345321 4.196604 -0.4464782 -2.2693312 -3.3912792 -2.8822966 0.9637749 5.4548182 -1.100172 -2.6227744 -1.366803 -3.2403402 -0.6807327 1.9886211 1.358166 2.3345857 0.30053008 -4.1287556 1.3908061 -0.13100453 -2.0374663 -1.3587965 -0.60930336 1.4233875 -4.8566594 -2.7234654 0.32632717 -0.6313813 -3.8733506 -4.9923778 -2.2022884
credit 2.4642487 2.3234854 5.650046 -0.84752864 3.6179388 -2.3824797 1.3485636 0.051406473 1.1407375 0.84571093 2.8142712 -0.3756311 -5.184135 1.8837998 -1.3488078 0.2690333 -1.066575 -2.487437 0.046269804 -0.13287432 3.8814676 -1.7325995 0.86627656 -1.8720961 -4.465795 -5.0953703 -0.99760336 -0.8657434 -1.3602865 -2.5817814 0.4673871 -2.8429713 1.8197516 2.9228592 2.0024981 -4.7741876 -7.9068375 2.5811677 1.8930457 -2.050543 4.5787315 2.7227707 -1.728841 -3.9364898 -3.1592865 0.61364096 2.266762 -2.6442971 -1.5839896 3.2310195
citizen 1.1040444 0.8444166 0.61327654 0.74813735 5.309432 3.3588197 -0.13924226 3.2534573 -3.7257123 5.28051 2.2110195 2.5020182 5.3700504 0.86156446 0.31719637 6.4816656 3.6591473 2.9442468 -8.21178 -6.9655924 1.2859963 -3.5677752 2.9638984 -1.5322739 1.902312 -2.7585828 0.29035655 -2.5242682 4.3050523 1.3562013 4.1332808 -3.1277757 0.25081852 -4.54492 0.8780567 -4.020118 4.6577606 -4.186039 3.164766 1.5963622 -1.0603949 1.1629127 -3.9612353 4.147675 3.3219006 -2.7932324 1.5371469 0.52987295 -3.9711566 -1.5685728
terror 1.6943469 -2.927229 1.040779 3.5834305 0.8466323 -3.7079604 -2.2738678 -2.0622716 0.7611 -1.7468252 3.162418 -1.5662649 -0.30509886 -4.3599997 -2.0329547 -1.5008346 3.8559406 2.9247122 1.8100394 -2.3235643 -0.63284445 -2.137726 -3.974294 -3.7676651 3.7809556 -4.2151666 -0.087858684 0.6295573 -0.99222714 -0.1308062 5.449531 3.0846417 -3.737391 -2.68799 -3.136926 -4.6040125 -0.91228026 0.29247922 -2.5687227 2.6476312 4.9130893 -6.8788614 3.248562 1.013305 -0.23468013 4.908883 -0.27344847 5.231547 1.0186961 -3.2677119
law -3.6343842 1.6520811 2.2202234 2.704623 4.823186 -7.3502173 0.5409318 -1.4974569 -1.8085779 3.1742713 3.771959 -3.7735524 -0.5011879 -1.597862 1.1966795 4.235822 -1.3056648 5.46324 -4.272952 -2.2882 -1.9339851 -7.8537087 -5.126634 1.3487302 0.92643577 0.5153859 1.619304 -2.6387963 3.7110918 1.7795519 0.11643087 0.16704927 3.2554877 -3.1081617 -4.7349095 0.50956607 0.8957497 -1.9137878 -5.659397 -2.321387 -4.127538 0.3482114 1.7712096 -0.8758346 -0.99510974 -4.4013596 -0.07644476 -2.4097545 3.060767 -0.8150511
liability -3.8164485 1.1643003 1.4766304 -0.26754642 2.265762 2.8454394 2.8025327 -3.7617173 1.8147181 -1.5755055 -3.21815 1.6457329 0.8804675 1.2643859 -0.5311636 6.3090177 0.6138328 3.7773075 -4.3652973 -6.680021 -1.6871219 -0.83126915 6.022557 -1.662628 -0.88172 2.227413 1.3047688 2.6004279 -0.6087181 1.4915228 -2.4388208 -1.5408189 -1.6797777 -0.9508266 3.7863894 -2.9951653 -6.0455737 2.8644178 -6.9022603 -3.1064198 -0.82844484 0.2802419 1.085845 -5.4386187 -2.6861115 1.7764986 3.9762442 2.805806 0.12424757 5.1453557
equipment -0.04959036 -5.246432 2.2413776 4.338881 -2.796386 0.4268802 -2.0948348 -2.4913561 -1.0990076 5.3673477 -0.50811046 1.1091454 2.5348518 1.0848653 -3.1542149 1.1643876 -6.36586 -4.258086 2.9423873 -2.5567312 2.8283 1.3234754 -0.19163518 -1.2492847 3.171822 -1.8527864 -5.0444255 1.495026 -2.684933 -2.452135 -2.8518841 -3.0921972 -2.448159 -0.29142606 1.7998915 7.9822497 0.22996728 -1.4145011 -0.9277125 0.5764354 3.6735747 -3.928407 1.2284937 4.8322186 -1.7828279 -3.2203581 4.156482 5.0432925 -3.2335238 5.990386
film 0.39139092 -0.2457847 1.9316413 -3.0271068 0.84693563 -0.059858594 1.3456863 -0.030314868 1.4055481 3.875389 0.47807148 -0.8493536 2.938094 -2.8037555 5.153139 -3.6815257 -5.0657935 3.3751082 -2.7723265 1.0701745 -3.0179303 1.798625 -0.93175375 4.0008574 4.113952 1.2206444 -2.0819402 0.26785573 -2.7502024 2.7111876 -1.1979206 0.17735308 2.2373161 -2.6854744 0.9517476 2.2787893 1.3140732 -3.4779475 2.989782 3.890234 -2.3242462 -0.15903462 4.546056 7.304095 -1.4032942 -3.722539 4.545079 3.3208833 -0.5952858 -7.024668
admission -3.0810642 -2.6759427 4.9988823 -5.2819557 -1.7835307 -2.352874 0.26817223 1.665333 -2.1995506 1.4259166 -0.66309184 -0.8026825 4.3535504 -5.569683 -0.0154035 3.8796058 -4.201902 0.48986873 4.8747935 -2.2844179 -0.20768856 3.3511586 1.8360771 3.568624 -2.321643 -4.5747423 -0.20380309 0.3380561 6.7260795 -0.0436482 2.8093054 0.35299116 -1.3111335 -1.4214001 6.146924 -2.2346268 -2.726593 -2.4626768 6.1167855 -6.173059 0.54694325 6.131203 -0.5730164 -1.2562203 -5.565761 -0.48783857 4.29512 -1.8080736 6.1950874 1.4247286
tool 1.4933711 5.554071 2.802822 6.6977525 2.9622598 -4.38168 -3.9067743 -4.849078 -4.1478972 -3.1598063 3.804864 -2.178754 0.44546038 3.7419283 4.9671226 -4.242067 0.24461515 2.611462 -8.763527 -1.5234209 -1.430444 1.9933966 0.48807976 -4.2213817 1.2441341 -6.385824 1.5513291 3.8311117 -3.7108314 0.28264588 0.9901991 -2.3497384 1.2139198 -0.69863826 0.941748 -1.7371649 -4.243023 1.4406887 1.1614786 -0.42155012 2.2210314 0.6802384 2.4713922 -0.16164678 2.758735 -1.3589952 0.6264431 3.228873 2.1620178 2.96791
professor 0.75957346 -2.9481287 -0.116267025 2.990232 3.7302082 -0.0395646 1.1442032 -4.257395 -1.7294558 -4.014249 3.8457065 3.3073652 -2.091673 1.0971226 6.6470814 -0.86676437 3.500646 5.5212545 -3.986317 1.9469917 -1.153785 -1.7530938 -3.8253515 1.2270552 -1.2754434 0.8321142 1.8210572 3.3352726 -0.5236819 0.64850783 1.7461023 4.8226333 -0.24473603 -1.7330009 5.691623 0.5204823 -0.21580109 1.2391542 -3.9480495 -0.84798616 -0.41961393 3.2795815 -2.6417537 3.0876038 1.5304759 -3.274809 2.778379 -3.4111655 -0.18073532 -0.8156232
governor -1.8307884 2.6847 -1.2703528 0.27771354 1.3308612 5.680229 -2.04593 3.9617143 2.2331603 -0.6730554 -0.8879272 0.13467832 0.1583823 6.8419304 -2.2099009 -0.81030226 6.106254 2.89198 -3.9226806 1.8713613 1.266689 5.579636 -2.1982193 5.3139243 0.059419706 4.9535165 -0.99009943 2.5560567 -3.1813877 -4.5453606 4.503978 -0.44707245 2.2036767 -3.5366685 0.23573071 -5.1405807 -2.0072615 2.4913416 -2.7825096 -3.249402 -1.874045 -1.0722855 -5.7868595 -1.0022559 -4.816456 0.49024948 -1.1763414 -0.68668455 -0.35054663 5.7176437
student -2.3656 -4.9688315 1.5138695 1.8699768 3.982464 -1.6880459 -3.4211612 -2.0622554 -2.4984996 0.90997547 -0.15145077 0.30328897 -2.0964015 -1.6014278 4.9257402 -1.0554599 5.157449 0.19813636 -4.228971 -4.9622965 2.8846455 -4.949855 -5.065 -0.15939802 -3.876097 -6.6431427 2.608675 4.957299 4.6960516 -6.1007924 1.427154 2.5767329 4.9749727 0.74082774 -3.1872315 -2.7749808 0.8459149 0.5932911 0.84498686 -0.9385032 -3.6594603 6.0163355 -1.4646021 2.5491123 -0.6338114 1.4110271 2.0019372 -3.8467941 -3.5815272 0.56038487
fruit 4.9281144 1.7868968 2.3628044 0.48219988 1.9160106 -0.25800934 -4.648539 1.6159278 -0.30450723 0.46230653 -6.1745725 -7.0096154 -2.398613 5.0827265 7.2258115 -0.4773116 0.6156414 -0.98775285 0.12784308 -1.0443292 1.2212021 4.419775 3.7878947 -0.6868515 -3.5285904 2.717723 -1.5443628 -1.4496114 5.124267 3.992207 1.2196102 -0.12710533 0.70290756 -0.44691062 4.5243187 4.7120934 -0.4945464 2.9752266 1.6483586 -2.023403 3.5161507 1.5448161 -5.799834 1.0988456 -1.5028781 -3.0570638 -2.7056623 -2.5401478 -3.8190289 -2.4697695
media 0.99953866 -4.700835 1.5620903 -1.9693148 0.7468776 -1.3992457 1.2828027 1.5232843 -0.36836115 -0.571828 1.70223 6.6479573 3.094287 -2.8213768 -0.31078824 1.4530768 3.3218849 1.343587 1.1261859 0.20349023 2.867318 2.9352431 -0.347585 -2.425494 -0.8994677 -12.890258 -0.7967913 -0.18364736 0.7285021 -0.801755 -1.4867427 -1.1701982 -4.955942 1.0887586 -0.5674658 -5.6256604 -0.8791263 -5.468946 4.98223 0.49271145 -2.8589032 -5.221564 8.816285 1.577603 2.496469 2.5826457 3.1651428 0.015765397 -2.8217478 1.552929
racket 3.1207478 1.9416858 0.29721165 -2.1287527 -0.85829157 0.9013946 -2.4648783 -1.2086705 2.009084 0.05598968 3.0823205 -2.1975946 3.3385928 -1.2471431 0.16162632 1.5015447 -0.99158835 1.2901434 1.559046 -1.9273651 6.040524 2.175379 -0.4000487 -4.158567 1.4374434 -0.64523023 -3.1321948 2.1876004 0.5782521 0.6436268 -2.6662154 0.9319578 1.8457316 -0.7509047 -1.748352 2.422124 -0.5372736 0.6016742 -2.0448856 2.7703803 1.871323 0.9936689 -2.1287155 0.34567973 0.8735832 -0.1084342 2.0467892 1.2040707 -0.44623107 -1.3194011
boy 3.8273947 1.5096613 -1.0181999 -1.8750001 -9.8322 -2.072134 -3.9613543 -0.7378302 2.0428176 2.6068316 -2.8205643 -2.626607 4.2646136 -2.009404 4.3350816 -1.0634971 -0.29119873 1.3815157 0.44557884 -3.5853877 -2.2071393 3.4461076 -4.3808575 4.8860483 3.895174 2.6691122 -2.3851516 0.36097953 3.1165833 -3.5069795 1.9295923 -0.68884623 -2.2433555 3.096175 -2.2257211 0.4874084 -1.4803816 2.7861753 -5.7291274 -0.96175396 2.0486975 0.78211457 -0.90403384 4.183993 1.004638 2.52833 6.0018425 -2.4808047 6.729826 1.4350415
preservation -1.9800088 -0.8204254 -1.6192036 4.375241 3.1077304 -2.2146747 0.11438491 1.0326194 -3.0538342 7.290008 -1.5517985 -1.7381762 -0.9615263 5.526301 2.627149 1.4946012 1.3819638 1.8344698 -0.88858277 3.3590643 -1.4641391 0.02143763 4.2998843 1.544864 1.1512438 0.09024865 -0.512268 0.6431886 3.0816565 1.5577016 4.797668 -2.8741133 -0.35134047 -0.63622034 3.3227582 3.012252 -0.8805031 2.6840787 -0.88142616 -2.7559066 0.03960145 -0.1482017 4.0949135 -0.82878846 -3.2640944 1.0216383 2.2817838 -0.71114683 2.012054 0.9209261
vodka 0.7311602 -0.45557597 -0.6456421 0.44741097 -0.97063303 3.2634904 0.09250713 0.5809552 1.4812459 2.8019383 3.2954388 -1.0806769 6.50844 1.8430609 1.9096314 0.1489684 1.1151191 0.054131277 -0.8933299 -3.0966065 3.606221 1.4828371 2.7590518 -2.0017843 -1.4177963 -0.11115106 0.6872799 0.79382867 -0.40001515 0.9436287 0.26970294 0.37616336 -0.4438335 1.5473135 1.1510801 5.5912495 -1.0422224 2.0727434 0.8602614 1.5698334 -1.1983693 2.8920224 -0.689608 1.1014098 -1.473298 -2.4979103 3.0460432 -2.8853762 -4.418116 -1.0302539
oil -2.9023728 -1.2034292 0.039319377 2.923763 -2.4532807 4.3671217 0.116435535 -0.32180166 2.4325705 5.7119365 -2.4076698 1.5757626 1.2081453 1.3509684 -1.6671867 -0.45520592 -3.0310638 1.4520828 -1.4786375 -1.3895361 3.184823 1.3451825 3.8233361 0.6344183 0.5478167 0.94158393 0.27275816 3.615358 -4.9799256 -0.36277884 3.14519 1.9104356 -2.116423 -3.6481755 2.179725 1.0410688 -5.7640305 -0.5559598 -1.6661303 1.2137524 0.3984315 -5.8923044 -2.4686792 -1.8214371 -5.230006 -3.5297515 -4.93927 -0.7126932 -0.05115279 -3.5548306
victim -3.9658513 5.7497115 -1.036184 -1.4720922 0.46422303 2.7434342 1.2462095 3.173431 1.7643933 -5.8307304 3.4740398 0.66366154 8.509384 0.19332346 1.671075 -2.1824567 5.0371585 2.946732 3.9200072 -3.6541672 -1.0936581 -1.763316 -3.8197117 0.5285294 -0.84880877 -2.245173 -1.9475482 4.471191 3.0549462 1.5009698 -1.7050033 0.9602641 1.924628 4.2142096 0.74717253 -3.8922052 -2.655053 3.6414773 -8.395451 -0.18522102 6.130114 0.3716258 -7.0202484 -3.7728317 1.7196634 -1.0244753 5.6460853 -0.019284194 1.4432002 1.7184801
row 1.5954553 3.7956614 -3.2493167 0.6159715 2.9468763 2.211208 6.2942047 -0.045948993 1.4060237 -1.6987869 2.901275 -3.788179 3.7238855 -6.3567185 3.2531276 -3.696816 2.5846574 -0.7537396 -0.26919073 3.948986 3.5763352 3.946875 -3.043898 -0.29310417 -1.5870659 2.643061 1.4334506 2.2287173 1.9294989 -6.21948 0.7468871 -4.3021173 10.268515 2.9768536 -0.5463924 -5.472166 -3.1067495 7.5471005 4.0317717 1.1870786 2.2416348 -5.747803 -3.2075708 2.8761702 -3.7791884 2.1897783 0.8310386 -3.8087366 0.08049786 -5.2656093
possibility 7.809264 -2.5311518 2.2876754 -1.4025416 -2.1898086 0.5230686 7.597097 -1.1803935 0.38695034 -5.062188 -4.146557 5.5029564 -3.714328 0.71982 2.853638 5.5361533 5.7206063 1.2178181 0.024484511 -1.4749905 1.2263006 6.8738422 10.67355 -3.448782 4.446156 1.5645695 -3.016012 -3.8904111 1.3555589 6.8304687 0.47429782 4.0799346 -0.011530649 -4.703854 0.79320204 0.6762793 -6.4506493 -0.14712285 -1.908267 -3.765938 -2.2687395 -2.228263 -1.4790813 0.9567771 -1.6204445 -2.1168735 -2.585621 0.14100397 1.5177087 1.2101542
consumer 0.08649266 -2.1869314 1.0671073 1.8811915 6.369197 -0.19822255 0.40660408 -3.6775734 0.11522326 -3.9695415 3.8348475 0.49375582 -0.49961913 1.1394613 2.236211 -2.143493 2.7496622 -0.903019 -1.0260798 4.0260124 2.7896776 3.8221834 -2.8170877 -4.1999307 -1.8035356 -5.5780807 2.114659 -3.0096915 -1.9180138 -2.329552 3.0873332 -4.8263764 3.6965826 5.1909122 5.6136045 0.9124321 2.4122121 1.1704946 0.20900574 1.5849954 -3.903665 4.261499 2.4929934 -3.2670476 -1.7797103 -6.1125965 3.8589246 -3.7285407 -0.24632147 -0.9307519
direction 0.2974007 5.8556933 -3.009348 6.4352946 0.14784233 0.78561985 3.4719927 0.8284944 6.21194 -4.480624 0.48069328 5.3519177 -5.0693374 -2.738239 -5.4076934 2.473749 2.3245912 4.726132 -2.7691767 8.378743 -2.35625 -0.22747037 1.2609288 -2.710051 1.3045108 2.150031 5.6875186 -4.012508 -3.6151302 3.090324 -0.32349917 6.396825 3.1898355 0.1691079 -0.14219795 4.196547 0.50323397 -1.8937039 -1.5100908 -0.42132854 -0.08356995 -6.494352 1.0511816 -1.9201759 7.530853 -5.2473626 -1.6702939 -2.474821 -3.770215 -1.1431311
keyboard -0.6479393 3.510721 -2.9561284 3.1698694 -4.4366918 1.1321567 -1.7573448 -1.2568463 3.2851212 0.33538944 0.95537513 -3.4478378 -0.1463382 -1.1595209 0.13427399 -0.581899 0.15203749 0.86905897 -0.40561047 -2.424104 0.83893347 -2.349756 0.8419068 -4.4931617 -0.2026965 -2.6360917 1.6952436 -0.3778547 -3.7710497 0.68845004 -1.4036776 0.087958574 5.0308547 3.0321581 0.6968072 1.9662522 -2.3072457 0.80386627 5.243484 1.4659375 0.64015484 1.4652046 3.7682076 1.0023692 -0.53392994 -2.647357 4.218008 2.7102482 0.78221494 2.4571607
rooster -0.6498438 0.7113418 -0.6402723 0.029275108 -0.92838204 0.23350328 -0.86955106 0.09273685 1.2694757 0.40154833 0.8133304 -0.39670512 0.50634915 1.1334869 1.6437502 -0.3493886 0.3084231 1.3858889 -0.8890799 -0.6209619 0.38936087 -0.45880184 -0.14461467 0.53507584 -0.72503024 0.7205897 -0.44104612 -0.7022473 0.12722278 -0.5941035 -0.40138897 -0.27107543 -0.61724573 1.0750273 0.22722279 0.41495612 -0.21355517 1.365336 -0.03178876 0.0024594595 0.8469504 0.53561926 -0.88081867 1.5738579 -0.16514105 1.5742967 -0.24307841 1.2416605 -1.0432957 0.7849846
