418 50
plane -3.6209095 -4.110302 4.4731708 5.7893124 -2.445362 4.790757 0.55173737 3.3270032 3.4619434 -1.4664395 -0.012582906 2.501455 -3.3353364 -7.8796697 0.43257844 2.4778552 1.0879798 -3.1440496 -3.18947 -0.85878074 -4.327587 1.7080348 2.5105968 4.5047464 2.144566 -0.7957651 1.0320926 1.5430983 -0.9554853 4.249058 -5.8048043 -0.09609808 -1.1921418 -2.3312037 5.6894455 -1.908324 2.2072864 -4.1767545 -7.206467 1.1028353 0.63718736 -1.3182583 -2.419299 4.2143764 -1.003331 1.1182746 -3.1701734 2.3237827 -2.7491145 1.9725174
stupid 4.9531837 2.2697978 0.36146235 -0.006045729 -6.0566664 -3.1535401 -2.270936 -2.5671537 -0.123749666 -0.62464315 -0.15202424 1.092881 5.8281302 -1.846107 6.50815 6.2172036 4.065649 -0.8983442 -1.9938276 5.2931805 -3.581181 -2.1388361 3.0354953 1.8994945 -0.30510345 1.5280049 -2.3048954 -4.7882347 0.8729955 0.8896223 -2.6869104 1.8112227 3.432634 -4.5191965 0.8377058 -2.4108412 -1.3620715 -2.3444526 2.2186275 -1.9782603 2.440882 -0.20954928 1.7746354 -4.265254 0.7587901 0.47053167 -3.6094346 0.7613045 0.634559 4.4273167
egg -6.310611 -5.2516446 4.5500755 -0.51389885 2.9053884 -3.7427309 -0.7300011 -1.647368 -0.7039102 -3.938785 1.1595182 2.7765555 -0.66389805 1.4254427 3.9564652 4.3438606 -3.2553186 0.30270404 4.3561926 2.9236734 -3.089275 -0.40092307 6.9758496 -1.2962031 1.9230527 1.1594781 1.6018409 0.70262474 6.2059636 -1.0290287 -3.5235946 7.244897 -1.9186921 -1.3740052 4.2246685 -1.074427 -0.66118777 -1.3935373 -1.5370722 0.92111766 1.6839457 2.4852784 4.3394246 -2.4583776 -0.89527714 1.6618894 0.7470702 -0.8975426 -2.3260772 3.2083917
year 2.0278108 -0.05655362 0.808916 1.6612215 -6.127659 0.8084437 -2.4265761 1.5414736 4.4690475 3.7266767 -0.815012 -3.669344 2.5882406 8.38113 -4.4239516 -1.8051527 -3.702786 -6.01902 0.6648813 3.262603 -1.6687887 -1.4253081 -2.1327035 0.4332272 -5.4245987 -2.1250224 -4.062621 -1.3816563 3.910827 2.1750057 4.495955 0.24397758 -2.1820436 5.9384103 -1.6333919 -1.0136039 4.5610304 2.482761 0.36219475 2.9530287 -1.694167 -5.0190554 1.8782214 -3.1281197 -1.4870312 -2.1945672 0.8296216 0.47953033 2.490606 0.965628
psychiatry 1.1449876 0.9975728 -2.717967 0.5700018 0.9923092 -1.535615 2.1364162 2.064094 -1.2828437 2.1982796 0.26422846 1.1051621 -0.49238688 2.4620755 -1.4624257 0.6502156 0.62336457 -1.7688837 -0.5097543 1.4339589 1.2647314 1.4005141 1.1654962 -0.7200268 1.3240396 1.5632073 0.48172143 0.3501646 1.7829227 0.23861855 -1.4790459 -2.6405213 0.43318832 1.110727 -0.761632 -0.7903046 0.122256495 -0.25902137 2.742548 -1.979712 -0.5317357 0.43623278 -0.5006954 0.03709406 1.8683047 0.5710528 0.46740994 -0.9737152 -1.3363309 2.8539696
asylum -3.2212706 1.0578951 -3.0790775 4.8967304 0.78579503 -2.2843087 1.737461 -6.458907 -0.30215913 3.428808 0.16070701 -2.161311 0.7535841 -2.7811074 2.1467416 -0.37476423 -1.4427344 -1.576789 -4.422232 1.0598223 -1.4918447 1.803918 -0.9259282 -1.2956555 3.4521794 -2.405704 -8.24461 2.4191036 -1.6960814 2.582049 -2.5484385 -1.6191248 2.8231373 3.077825 -2.1383433 2.4536045 1.9263887 1.2110242 2.6444592 3.3495362 -0.60602367 3.9074633 -2.3915894 2.651621 0.4510134 -1.6575489 0.7368734 -2.1562717 -5.7971425 4.435431
manslaughter 2.1100345 -2.223981 1.5772805 -0.3586855 0.4122023 -2.387398 -2.125904 1.2261125 -2.3791127 1.4274904 -0.80052054 0.86752677 0.033779647 -0.78712785 -3.8542628 2.5739841 -1.8568672 -0.14373094 -3.6701546 2.513679 5.485158 2.4507463 1.3583581 -1.7172673 2.946824 -3.3092747 -2.6033876 1.2945801 0.7353521 0.16354978 1.1985914 1.7639999 -0.53672165 1.9695454 -0.18442988 -0.34844095 3.5155492 1.389856 0.4228015 1.2681663 0.65705013 1.3344697 -1.3980962 2.0765479 0.9039048 -0.17699671 0.6537979 -2.3668735 -1.2723733 -1.3838605
music 3.2189085 3.7280858 -1.8322182 0.86004096 1.4658632 3.0034616 -0.085147955 -0.4961026 2.0892503 0.34494126 -2.2294722 -9.247237E-4 -4.297546 6.9116573 -3.2063148 -4.7298822 4.268495 5.069219 -2.6241426 -6.8229628 -0.9829513 3.673243 -4.188346 -0.32504198 -5.0794315 1.4448222 0.5883421 1.1042026 4.8389144 -2.6741734 -5.8193126 -1.5822473 -4.135324 2.744255 -1.202706 4.6528296 -1.8834484 0.6110831 2.72804 0.66725045 -3.2313204 -6.736921 7.4790907 -0.9583692 1.4839942 -0.3763531 -0.7041724 0.7508621 -0.010448255 2.446257
record 6.4749284 1.7635067 7.5152574 -3.6155164 -0.33551088 -1.2403558 -2.161574 1.4587603 3.6302686 -6.540183 -3.2305546 -3.2907896 -5.8691173 6.751441 -4.3893795 0.44719332 3.1496303 5.7557316 -8.877107 -2.726203 -1.525101 0.28393427 2.5998678 0.33906078 -7.7228656 0.39731297 -4.3708262 1.8344303 0.14656776 -7.1682343 1.0411016 -1.3585111 -1.2335209 4.6845574 -1.3154885 -2.2621055 -0.7893996 0.4628558 0.24936593 0.49682212 -1.3400064 -2.5224724 -0.34382653 -2.5557854 4.437315 -7.291359 0.88654256 2.0059686 -4.9033766 -1.7277774
energy 1.1321027 5.373084 -5.9994607 -1.4771273 7.3803177 2.4198885 5.799989 -0.4888434 6.729636 1.8565488 -4.4667797 0.46271464 -5.573499 2.735187 -3.4951503 1.3053278 0.10875834 0.079814404 -0.8474691 -2.8367636 1.1850123 -1.7804776 0.65559214 -4.468218 -4.1866517 2.2659554 3.8682349 -2.0152628 -0.4149629 0.644951 -5.0692205 3.639167 -7.001729 -5.4342046 -1.0750897 -2.092415 -0.26689187 3.4340808 -0.33936352 6.6945314 3.243156 -0.9808436 2.2606866 -0.4339057 -0.74415076 4.31007 -2.318788 2.4088821 -3.3335695 -0.76179403
announcement -4.5053954 0.8377145 -0.0827257 -0.081487894 -0.73650175 2.7932951 5.2465086 7.1988087 -0.099163875 -1.0829247 -1.0934404 0.45364955 -1.3182693 -1.3188319 -8.3199 2.626131 0.96670914 0.033826627 -5.7744346 -4.11856 -3.9726644 0.3667041 2.4000037 -3.6251187 -2.1828628 -1.2837486 1.6061438 -2.7018201 3.1202028 0.2044766 -2.278275 7.0115643 -0.31423107 -2.9791052 -1.5011492 -0.27789986 -1.7450892 -1.1477803 -0.38374284 6.554687 3.1390529 -4.211554 -2.0466015 2.4329972 0.40832582 1.5628492 5.94088 4.174378 3.6257644 -0.86878866
mile -0.28714222 -0.71371126 5.536224 -0.27753237 -0.50242513 4.6867347 0.74802315 -1.4285383 5.628611 -5.953215 3.0735905 0.51461184 -2.21229 1.7636285 -0.4050622 0.08239241 1.3025429 -1.6826357 1.8959315 -3.7794757 -1.2413715 -0.9061872 2.5106611 5.791873 2.2386203 0.35663253 -1.9318298 -3.8183398 4.803071 -1.4847957 6.5943294 2.7640398 1.8292143 2.681889 5.4487033 -3.7687082 -6.1823716 0.1805515 -1.6595553 -1.294893 4.4682565 -0.9006746 -0.34100777 4.388965 -4.131346 -3.2868354 1.3349197 -2.9551456 0.20914695 1.7472289
airport 5.7301846 5.3073144 2.8484933 -6.1893673 0.6851359 0.9198521 -1.6872687 0.5508275 4.7164164 3.5961807 -1.8293858 1.8359272 1.5763717 -3.4428153 2.6202598 2.120056 -0.76602143 -4.391602 2.3323798 1.5724841 -3.4566216 -2.0193214 1.4550341 -0.18974708 4.6796007 -0.8817576 -0.14620888 1.0286219 5.802046 -2.135027 -0.48460603 5.0621924 1.280037 -5.212329 6.652204 1.4690875 -2.1662111 3.663409 0.13644952 2.2659698 4.9062495 3.3930938 -4.6566358 3.2126534 -2.8880565 -0.41758445 -4.0866427 0.67324233 -6.7972507 0.6280855
population -1.5862226 -5.212809 -1.5295395 1.110856 -1.6228344 4.945541 0.20090331 -1.7885695 2.040094 -3.7463021 1.8821465 -1.9311367 0.27854466 2.4767683 1.009723 -1.1029656 -4.4660206 -3.5071223 1.6291891 6.228193 -0.45407268 1.838119 0.4825995 1.0202569 3.775542 4.121906 1.80674 -2.5670068 -0.586485 0.5177561 -2.9407418 2.878546 -1.7325697 3.612332 3.4882998 -4.9196887 -4.898395 -3.9209795 -0.09561803 -4.8740206 4.8580494 -0.7107616 -1.3232533 -5.1275616 3.2464418 -5.8135376 -3.1712267 -5.5091014 -2.908665 9.502952
planning 6.3393693 -0.4745343 2.867276 -3.0422704 -0.503455 -1.201443 -3.8074617 5.6586795 -0.29435626 9.985801 -3.8232932 -1.7690687 1.5984256 -3.7905927 -1.7884971 -4.994656 -4.627607 7.190011 0.13268737 0.7048711 -0.48793912 -4.324862 3.0190654 3.8035645 2.5291626 -0.85851294 -4.243277 -1.9753054 1.6554402 3.954176 1.206842 -3.3694313 5.3220115 0.024903247 -2.2690907 -2.1127694 -3.637535 -1.5144193 5.788731 1.569817 -1.7172855 -4.7183046 -1.8382828 -3.6689692 2.032265 -0.49932724 3.8675108 -7.2065625 2.0811126 2.119867
canyon 1.5755705 -0.32976335 1.5399212 -0.8422618 1.6896722 0.55617523 -3.587976 1.4691886 4.009996 -0.78463733 1.3765587 4.0719776 -2.9600813 1.4403512 -0.092141196 1.198516 1.5837665 -2.5020738 4.7925873 1.2569124 -0.553205 -1.8262658 3.6905959 2.8562953 6.064832 4.9821095 1.2345855 1.8023489 2.0448256 -6.009319 0.5107053 -2.87816 -0.099252924 4.134268 5.3950076 -0.21694535 -1.7304444 1.999429 -0.06785388 -0.67832744 1.025741 0.98703736 -0.62735856 -0.77963525 -4.4208612 1.117193 -2.7616425 1.69405 -2.1153617 1.9309255
delay 3.0410523 0.36696672 5.6830716 2.3937397 0.87838304 -2.6591125 -3.746748 0.0031740833 1.0028594 2.894397 0.94977117 3.1892564 -0.7261475 -5.3000035 -4.9141917 2.069668 -1.4814062 -5.673025 -0.2809157 1.3531244 4.66654 0.41563302 4.0635743 -1.9946033 4.859273 -4.8094134 -1.2438527 -5.84434 -3.3143845 -2.4756541 -2.4828064 5.1055145 -1.6101264 -1.4193368 -5.538451 -0.9703353 -1.3639706 0.65346265 4.299436 2.6263855 1.486551 0.11514221 -5.471303 3.773155 3.9585292 0.241392 10.200205 3.7722757 1.4969659 -2.3070626
size -0.85917854 -2.1650054 9.360493 -2.5115566 3.404027 0.15190732 0.0064550936 0.2570391 2.274024 -2.467746 -0.44968387 0.48201224 -4.8496065 2.5143685 1.0384277 4.441218 -0.33049053 -0.6289133 3.0541537 0.9462259 -5.9513507 -4.301175 7.5609865 -1.4130282 4.1787667 2.4967911 -2.2455547 -4.99452 -3.4022214 -1.5738893 2.085904 0.0028174776 1.3189383 0.22560832 -0.28577703 -4.6913495 -3.4484975 -0.7316613 -5.134383 -7.5559144 2.3398266 0.85238004 1.5307255 -2.9369295 3.2461784 -4.275769 -1.491146 -5.6804037 1.2901151 5.5234337
peace 3.8347569 -6.859063 -1.7110109 2.513318 1.4827081 -4.554161 2.7321484 -1.498776 0.23478146 1.4811385 2.2751396 -3.2110872 3.713529 -2.1047466 -3.6112645 0.0379306 -1.9815276 4.2221446 -0.31516403 0.65548974 0.6935792 0.9293023 2.813288 5.6132874 1.5805451 6.8591757 -5.2358146 -0.72426134 1.0328702 -4.406564 -6.9406204 -0.24367514 -7.86371 -1.1067135 -1.1929027 -2.3676353 2.3177197 0.7984874 6.3780866 0.6405398 -3.546092 -1.473989 2.1636133 -1.5589385 -0.48219278 2.8677282 0.34683013 -3.0232933 0.5474366 -3.3546603
science 1.3302602 1.2909766 -5.207453 5.6131606 0.54612195 -1.8139604 1.887933 -0.9882047 -1.7079552 1.0361629 -6.524001 -1.5988884 -5.6508183 1.1235605 -4.57729 1.8004618 4.9151835 -1.0871677 -1.335731 -4.1399465 -2.5100574 3.1153207 -4.1588316 3.9426036 1.251022 2.800988 -1.5139905 -3.4591575 -2.2980847 -1.6975033 -2.2877452 -1.9627619 0.8781972 4.198267 -2.0537658 -1.5573964 -3.2150295 -2.4637322 5.611363 -5.501573 8.531005 0.18337846 0.95991206 3.128639 4.4571776 3.2344627 -0.82680255 -0.07565439 -0.74069303 4.993874
dawn 3.7538807 0.6997159 -0.3259731 2.7789817 2.729552 -1.6726 -7.6691604 1.0017142 1.523732 2.804988 4.786159 -0.45852005 3.3504112 -5.1293306 -3.5030782 -3.0053272 0.31040037 0.027876412 4.8179407 0.359093 -5.257767 4.289518 1.3871568 1.8158468 -0.27500814 7.4056554 4.161319 -1.1373024 2.987153 -2.6640902 1.5780716 3.1211545 2.130616 1.0978894 2.2100706 -5.3946214 -3.030131 -1.5174197 1.7610223 2.1586437 -0.16916193 -5.7519245 -1.1985452 -1.9177952 -5.1019106 -3.3983655 -4.9608507 7.270615 -2.0751803 1.103013
brother 5.049795 -4.380831 3.7190976 3.4011998 2.1914113 4.036534 2.861672 -0.6769576 -0.834907 -0.6058444 -4.285727 5.5385456 4.3255887 4.9952097 6.1189485 6.257926 -3.2863996 4.66036 -0.6097764 0.51557493 -1.0473783 -1.1904244 2.7538157 0.73806876 -3.736044 -0.78596294 3.2939053 2.9991992 -0.009572235 -3.8475163 0.63888615 -3.0262952 1.5492837 0.7604125 0.046121906 2.6398287 2.1573825 1.9019074 -5.069252 -4.478445 1.6919255 1.1551583 4.2880807 -0.76380235 3.697603 2.428456 -5.8468256 -0.10185227 1.3996196 -5.6187267
wine 0.1740346 -3.7909133 1.8390844 -2.9203873 3.42677 -1.4467864 -0.28626665 -0.6248356 1.7700151 2.0504625 -1.622276 -5.2584147 -5.456016 7.706984 3.388118 1.6380192 6.5067377 0.96215993 2.6479065 -5.637157 -2.1616523 -6.5159993 -0.10950663 -0.4387095 -2.0522316 1.9576064 -0.73472476 0.4724352 4.4998975 -6.5430546 0.3242835 -2.2769082 3.1774209 5.9886703 2.3462784 1.1217637 0.32656157 1.8662373 -0.1649435 0.93511957 1.0816742 -0.07331079 6.0570307 -1.9794707 -0.5673514 1.6138772 -2.169583 1.2542695 0.7319437 6.044584
object -4.775659 -4.773263 0.85629034 2.3982446 3.2983944 -1.3784373 -1.6026593 5.9189224 2.4657867 -0.129671 1.1679878 -1.0761604 -2.560457 -0.748298 3.7966266 5.5088525 -2.3443632 -4.213433 -1.7222197 0.12085719 -1.792477 1.8974032 0.42859024 -4.361496 -0.78702605 -1.0236274 2.5748608 1.8643767 0.9430062 1.2161913 -6.2647305 0.44916138 2.2453048 -5.1731715 0.27010897 -0.44560772 -2.1700501 -3.7355285 -0.90030646 3.481573 -1.9040114 -2.6384954 3.2357595 -1.8401984 1.119422 -1.6978016 -3.0820405 3.1066446 -6.3232536 9.193448
attitude -0.97377145 1.0460637 2.35348 -0.43190747 3.0152116 5.1621304 4.192931 4.8169394 4.0731955 -3.8565214 3.1291401 -3.2736583 1.2491935 -1.350161 3.2216501 -0.89279574 -5.6142855 1.0237505 2.7316256 -1.6570023 -3.158938 3.3792412 -2.3707345 -2.2027462 -3.031401 3.8509908 -2.566516 -2.5426886 -4.296879 5.1093507 -7.791549 4.0640826 2.9808195 -6.4021587 -2.979448 0.14682442 -2.437997 -0.9585648 2.335881 3.8859997 -0.95985055 -3.627899 -1.508488 -0.51582086 4.9440107 5.4860115 -1.4852076 1.0110214 -0.1485729 1.8587034
treatment 4.2953224 -3.3701632 -6.051998 -3.6391265 8.182045 0.575417 0.25364605 -3.8789597 -0.25315043 0.6054466 0.8603825 2.9372718 -3.9421024 -6.811909 0.29702556 1.0284488 0.36795634 -2.5844307 -2.2269611 2.8411021 4.250207 4.939009 -4.3643055 -5.0274973 0.8783291 -2.5894637 -4.1342497 -1.5676135 2.9239328 6.5179095 -3.7640202 6.7330303 -0.9806989 2.0516267 1.3187791 -3.3092568 2.3825488 -3.0053778 1.9018869 1.8010031 -0.9732989 -0.45261997 -1.695985 0.111958034 -1.2170166 5.3059196 -1.0630281 -2.23097 -8.4742155 0.61057025
flight -0.156454 -4.4634066 2.150011 3.3357449 -2.7317383 3.3866534 1.9327607 -0.6801858 2.1775198 -5.3540897 -4.1669264 -0.03909798 -1.8548715 -2.1925669 -2.4722168 0.22907788 1.4207876 -0.74976367 3.0452175 3.023945 -2.377995 4.374253 7.831503 -0.34350044 3.8672755 6.196686 1.3522574 2.2876894 7.524029 2.9384456 -0.43610147 3.5844376 -0.1755544 -1.5199387 -0.604137 -3.0313926 4.0468597 7.3975706 -3.5877793 -0.20798491 -4.2646794 -0.08908808 -6.57962 4.482431 -1.9029391 -5.6588945 -2.372223 -0.060841203 2.5733643 2.1438997
forest 1.9173185 3.544987 -1.1625565 -1.490848 0.7771166 -0.12174267 -0.280131 3.052728 3.8921335 -2.8555968 0.37736487 0.46882132 4.229189 -0.96195674 -2.6903603 0.8428859 -3.5195117 -5.7385135 8.591815 -1.6220657 2.6074648 1.7413107 3.2235978 2.6233716 3.771219 5.348213 6.768134 -2.3704457 6.022073 -0.47070724 -0.5578113 3.9543793 -5.084158 -0.51962465 2.312926 -2.895489 0.76479906 6.496634 4.615524 -3.914418 -1.3137189 3.7536602 1.0270032 -4.021743 -5.132518 -3.271817 -1.1687543 -0.0050984193 -4.4845376 -0.3852294
abuse 6.270223 1.0530603 0.7278267 -2.127202 3.1257613 2.7652943 -3.959673 -2.9560187 -2.1003435 0.5641648 -0.8732001 2.7261453 3.0054405 -1.6167821 -0.636106 -1.4211881 5.6518445 0.0500675 -1.7700548 2.0162368 2.5392022 5.3689384 0.84507185 -4.0322094 -1.8641094 4.245593 -6.089591 1.7166233 -0.3185432 -4.0184784 -0.37533143 -1.5167125 3.452912 0.41604844 -4.439489 2.1737573 4.6738973 1.2848053 1.2005756 3.4193056 -0.75732404 0.8444155 -4.8753176 0.62731344 -2.4499862 -1.9956279 -4.568636 -1.4848884 -9.615538 3.466233
criterion 0.13585486 0.032312207 -0.2504977 -0.6332735 -0.025960956 0.889688 0.047182176 -0.014178706 -0.71118927 -1.2928598 0.003936224 -0.09068857 1.4067109 -0.26846227 -1.4650382 0.7775852 0.18987522 -1.266121 0.86031485 -0.14305781 0.42557153 0.40855554 0.055125624 -0.7466791 -0.47940716 -0.057280213 -0.0151228355 0.008512899 0.9664322 0.8947099 -0.46050513 -0.11648901 -0.26168832 -0.44062096 0.3069766 0.20644112 0.272814 -1.1419498 -0.2427823 0.1291793 0.656222 -9.74976E-4 0.46779424 -0.29127377 0.5895537 0.6941652 0.15690239 0.42994896 -0.19992426 1.8527366
sea -3.590252 -6.7152457 -1.1671618 4.3734818 3.415407 -1.8897738 -5.921345 -5.3771915 -2.336552 1.1040423 -1.453674 -2.704867 -2.6929436 3.0950744 0.27550283 3.8632517 2.753184 -3.0873253 2.4583976 1.5256559 -4.196761 -0.23555128 4.5289993 3.8265333 2.767505 2.118129 0.4964623 2.8456013 5.3517647 -6.0270276 -5.6255045 5.383424 -4.3289227 -2.0571191 0.3882684 -0.0891274 -1.0482056 3.9958727 2.7926416 1.7497405 3.423614 4.6086707 2.88246 -1.5018018 0.39259785 -1.935588 -5.1279926 0.3076979 1.2659119 5.8877106
dollar -2.2746303 -4.68243 4.2875457 0.32971454 -3.9042876 3.2318373 -3.9366205 -1.2494493 2.9382594 -2.0010002 -6.573942 2.1313293 0.2411765 1.201146 -0.2763188 -3.953042 2.3555555 -6.1247377 -2.9571798 4.6101427 0.47572583 2.4345558 1.8328291 4.191703 -2.7881646 0.9436314 1.0592575 1.0187141 -0.035018817 -1.5249931 0.32479858 6.058291 2.3936906 2.4260225 -3.3349767 4.533014 -2.6846805 -5.326445 2.053203 -2.5507696 4.719948 -0.8762585 5.2871585 -0.05911748 -2.8214946 -2.5677617 2.6095593 5.2988267 1.493591 6.006192
example -1.6184329 1.7437637 -4.234571 -2.5921845 1.8063525 -3.0770974 -0.5616887 5.7470903 0.8438476 -4.4318705 -4.1504917 1.7768168 6.995056 4.987012 -5.2505236 -5.2326236 0.65553796 0.23416387 -3.869094 -1.2538074 5.0647206 -2.095993 2.4307325 3.050147 -2.4445736 -1.859797 -0.67963666 -0.33617735 2.3523932 -3.6805515 -7.2795467 -2.8633742 1.2194355 -0.26705146 3.2397795 1.9466603 2.742475 1.255358 -5.1296644 0.58287495 4.4183965 -2.8503604 1.3842332 -2.9748306 -1.0233294 -2.7718287 -0.00835681 -1.9237032 -3.381106 6.8647656
journal 3.2440722 2.2120485 -2.2519352 3.1691263 -0.96401197 0.64249974 1.8673066 8.161337 -3.5919983 -0.63903433 -1.341586 0.9569322 -1.0484812 5.4453435 -1.8792233 1.0481718 0.4238786 -2.88888 2.9865124 5.585092 -2.1469433 1.0375274 1.8802514 -2.97055 1.1797665 6.81246 6.0023274 4.635336 -5.774067E-4 -6.2548194 -0.6156495 -2.873803 0.48152292 2.8861024 -0.98647565 1.1846406 5.6756783 1.0075691 0.42676187 -1.5508401 0.1585566 -1.2361531 1.1749249 -0.5447186 1.5151294 3.0716696 0.76880807 -2.7236242 -0.9593702 2.7040317
laundering 0.7656766 -0.95236456 0.07990207 2.4884794 1.0064205 1.8320551 2.1642306 -2.3184617 1.5413343 0.22561757 -1.0616682 3.1270432 1.381107 -1.4593159 1.8494332 0.2658953 2.3034012 1.0033005 -5.517083 -1.432531 1.1909264 -0.19018127 -0.04661605 1.0101864 -2.6062148 0.23124096 -2.9400263 1.0214511 -1.3413713 1.2869929 -0.271473 0.32557368 1.6197786 0.25121123 -0.7025614 -1.3200848 1.7999994 1.8325901 -0.9618549 -2.4283185 0.16397572 2.1741729 4.4951615 -0.39386418 -2.0707605 1.1615989 3.2164032 -2.0651445 -3.2246182 -1.4461455
hotel -6.448374 4.2346983 4.772871 -4.624695 0.09485221 2.8221798 3.5208554 2.3571122 2.643542 -5.4409604 5.452101 -4.153178 -1.1218959 1.6076087 2.4468172 -2.5146372 -3.631613 -1.902481 1.4855775 5.6865425 -8.4431715 -0.06882659 6.6722383 2.544047 -0.5707342 -0.21357015 1.43689 3.2036495 6.1790075 -1.3806162 0.88446283 -0.7733161 0.29272962 0.03418615 5.242708 3.1524024 1.3545973 -4.1867886 -2.7972217 1.959533 -0.5667512 -2.406133 -3.751452 2.7264817 -0.2232339 1.1563026 -1.4053013 -5.823024 -4.7098722 2.0885448
term 6.653789 -10.767996 1.6165214 -0.5083232 3.6721961 -2.7884328 3.3986678 -1.1086248 -1.2031503 -2.0846827 -2.715257 -2.040993 0.73575574 1.0262003 0.9461056 -1.5964422 1.5016211 -4.291842 -3.4093778 7.141997 3.585506 -1.4964627 -5.0667334 0.10043438 -2.2126656 -0.018169304 -8.483918 2.1800852 4.777275 -2.8736725 -0.56248045 3.4688897 0.48396403 1.0829891 -5.632923 6.119662 -1.0957069 -3.4805217 -4.24476 -0.03178482 -2.9346693 -2.734846 0.91269857 -5.2557383 -1.2915717 -0.19492376 4.010011 1.1827732 -0.7846921 4.146918
listing 0.61366755 3.1042044 1.5356739 5.0780015 -1.5134611 -4.6937714 -4.3852725 4.0266314 0.83601046 -3.0624924 -5.995565 -0.07749348 -0.25056332 2.353787 -4.829747 0.8834513 -5.2038493 -1.6771537 -0.4390207 -2.7630973 -1.107761 -1.9641846 5.730214 -1.9352806 0.7909692 -5.8801584 1.482365 4.3495603 3.2964272 1.0618104 1.3893148 -1.6025631 -0.91730714 -0.5698868 0.416601 6.4846935 0.85758775 -0.44629386 0.328114 3.3466334 -0.9252888 0.19357014 2.7259548 3.083906 3.2617307 -2.4624324 9.563027 1.7235479 -1.9387183 0.56404763
chemistry 5.259305 0.63993865 0.42536494 -0.5748996 3.5485275 -4.6016974 2.729215 0.68904245 2.5603974 -3.6641524 0.7012203 -2.6225476 -2.8226852 0.30669138 -1.6185338 0.66273767 3.3850515 -1.0063576 3.3830872 0.043833088 0.059236877 -0.75862056 -3.1277606 0.7635361 1.3716323 6.047008 -0.92238337 -2.5069396 1.892114 1.4213554 -1.1700678 -3.4495318 1.6563975 1.6778158 0.4200594 -5.0548563 -0.13954867 5.4343677 2.6836596 -5.359723 0.66535354 -0.068708226 -2.1443236 0.1540338 1.827867 2.8784714 -0.3021688 -4.8319907 2.1781301 5.6405025
seafood -4.5823736 1.0740887 1.4874474 1.3023313 1.6641804 1.8186878 -2.5681424 0.06479518 4.1068745 -1.5057288 -2.1868064 -3.1813793 -3.6847835 1.6781602 0.8681756 -1.6205437 -0.87968326 -0.69418764 5.7809916 -0.6076239 1.2149259 3.7732341 1.8224874 3.22496 -1.7473545 -1.1802689 1.6675719 -1.4718028 0.67961997 0.80101466 -2.83945 -1.730709 -0.10635483 -1.0628104 1.1457138 -0.8539853 2.5288281 0.2338008 1.5047882 -1.7458302 1.6672014 0.99490577 2.8174052 1.378266 -2.1203148 0.84899586 3.359992 -0.38070777 -2.7345207 6.9929194
mind 1.568261 -1.3479816 -0.3874437 -3.2928479 6.603634 -6.135489 3.0884912 2.7348864 2.7356095 -1.1415433 1.9853384 -2.2204587 -2.6880896 -2.9329562 4.166419 5.847777 1.8212476 5.3894196 -0.04207611 2.419209 -4.5469475 0.6661987 5.68001 -3.0945928 3.7510524 5.354723 0.104315035 1.4629744 0.99315387 -2.952227 -6.211853 -5.811329 0.07930658 -0.3163744 -5.3499794 3.7224443 0.84367895 2.840352 -2.9592524 3.0962272 -0.24651372 -1.9641212 2.1651788 -4.0881524 -3.5304565 2.700928 1.3050723 0.5197259 3.6406577 -0.8257272
sex 6.687637 2.0853584 5.3248 1.0608112 1.2526683 1.5080273 -6.2588615 -2.4320116 3.4518042 -0.99599636 0.25831714 1.7302927 0.6694809 0.48511955 5.3078427 2.0101168 -4.366522 3.4298444 1.1513125 -0.29983553 3.0141513 -3.619841 1.0092705 -1.4214689 -3.1823661 0.5176758 -5.2390027 1.0958157 1.1670296 -5.6827536 1.0944055 -0.26578984 5.0872393 4.7713995 -2.9712245 0.032681957 1.8300325 -2.4334674 4.206702 0.10738602 -5.8110833 -4.030871 1.4974588 1.3202547 3.4393008 -2.8059459 2.963134 1.1172329 -7.824886 3.152141
food 0.8638484 -0.5696779 -1.8026936 -1.6614841 5.44801 5.1110754 -6.3521776 -3.9129732 7.5053177 0.037085444 -3.4334757 -0.5472743 -1.94864 2.2025828 1.4200104 -2.559979 5.4160147 -2.659361 1.4168761 0.9404076 -4.816372 -2.9704318 4.5137873 1.0670402 -4.1559553 -0.45694008 -2.3115146 3.3429043 2.0559182 0.53873634 -5.8518806 -0.9219878 2.501741 0.7577965 1.4680253 -6.9380803 2.98555 1.7290891 0.10277732 4.067832 -5.5942974 0.5617779 1.0914627 -1.6273985 1.0230995 -0.9166854 2.9858408 0.1386994 -8.216185 0.91029745
precedent 1.8450135 0.1613145 0.019535486 -1.2985384 1.4140873 -5.851401 -2.8046496 2.6045449 -0.38595152 -2.0593266 1.5356295 -4.1257887 0.09885267 -4.362395 -4.02149 3.2359269 -2.278949 -1.0179436 -1.6926987 -1.9281384 3.5574677 -4.158433 2.7226615 3.8976104 0.10125175 -1.9276011 -6.4508533 -2.8968263 -0.019871779 -0.54421407 -2.0747461 1.7200279 -3.7961125 -0.09017746 0.41923347 -0.13045493 0.49034953 -3.8508248 1.3603041 -0.37852418 -1.5817941 -0.016410887 3.583566 -2.5501397 3.9975784 -2.645601 2.5695438 -1.3920759 -0.787611 0.22391334
series 6.371884 1.0683209 2.5855772 -0.674553 -3.2340515 -0.8495199 -4.7615037 -0.39164558 -4.0212245 0.4576379 1.6246082 0.06908098 0.528906 -0.30648956 -7.085644 4.7166123 1.3907486 3.0276687 -3.377523 -5.157666 -6.3440204 -0.47068694 4.6146517 6.2018356 -5.6088004 4.376919 -3.638343 -1.6786388 -1.6617612 -2.7367303 0.587875 0.8622947 0.34537777 1.6448606 -2.9798207 -1.9233435 1.0197606 2.7063766 -1.4250938 0.79461974 1.6333752 3.174454 -4.5445604 -2.0299227 -3.8583045 3.9646559 5.3270087 4.3122625 8.289595 2.2723508
kilometer -0.7308229 -0.020509355 1.0827575 -0.022313181 -7.4527785E-4 1.4598714 -0.17266072 -0.22515635 0.42876905 -0.9476969 1.4264019 0.18968783 -0.47565526 1.528133 -0.89002347 0.19732733 0.815867 -0.26124778 0.11855899 0.2544578 0.051649 -0.7501045 -0.21837528 1.2833977 0.90030026 1.0271927 1.5682044 -0.59098727 0.852969 -0.1446459 1.3024251 0.84479797 -0.6164266 0.13768981 1.6345842 -1.2040416 -0.079828255 0.17037767 -0.49048758 0.7299495 1.6078856 -0.4212897 0.6479067 -0.1557056 -1.8479148 -0.027517974 0.08009528 -0.13664837 -0.60906655 1.0538414
grocery -1.4682125 2.7691412 4.4177966 -1.6447905 0.9344792 1.7546511 0.074601084 -0.26522565 1.2398121 1.8789723 -0.21411225 0.37867895 -1.8051137 1.490935 2.3996077 -2.0561259 -1.1486921 0.8364331 1.503398 6.134499 0.38872746 -1.5452367 1.3536732 -0.808235 -1.3360062 -1.309596 0.8225476 0.6434733 -0.38892338 -0.49241096 -3.2825296 -2.4437864 2.2185063 -0.7644055 2.1617687 -0.2729817 -0.33595943 -0.4460837 -0.22352105 0.4338391 -5.3696084 -1.4694791 2.2737856 0.9180268 0.6237433 2.5337174 1.5300354 5.323763 -0.87782156 1.3989457
wizard 1.91621 -0.5841296 -0.6170963 1.4154098 0.87431467 -0.36264727 0.54182786 -1.3050938 -1.5672065 -2.3122149 -1.4608331 1.7931747 0.46451464 -0.65758824 1.0973781 -0.033647697 -0.1265883 1.0851969 2.4425945 -1.7378578 1.5087948 2.0569348 0.51439816 0.19718137 -0.42704448 1.6011329 -0.9665878 3.2696278 1.3064348 -2.0918813 0.65916294 -2.9732618 1.1151426 2.843305 -1.0674015 3.4898748 -0.34443322 -0.22827068 -0.12978849 0.046570078 1.0186131 -0.5198205 3.8481798 3.6432335 -0.8981208 1.6916417 -0.114185214 -0.15203121 0.66101706 2.5007143
information -2.7240367 1.2326927 -5.0266037 3.671888 -3.804479 2.0371494 4.0877113 1.4791037 3.8776336 -0.46831322 -3.235405 3.9244192 0.15022606 0.68460965 -5.1013308 0.27224103 3.1161566 0.93896097 -1.4963821 -2.1540756 -0.49923098 2.8650498 4.363354 -5.035538 -2.029164 1.5676218 -1.4585564 3.8639226 1.6267657 4.5147276 1.663752 -4.710497 -1.5305133 -2.3372552 -4.4379683 -3.4168181 6.1519313 0.3947848 0.17531702 -1.5524845 -1.4606105 -4.740248 1.0881706 4.255633 2.3377578 -3.9938643 3.7618759 -2.4117763 -6.195547 1.2354231
brandy -0.78538626 0.8447264 0.90522105 0.43290284 1.2963576 -0.47650385 0.39834204 -0.5170697 0.09398285 -0.60655975 -0.2619832 0.035939317 -1.0563345 -0.30558994 0.52034485 -0.3474556 0.8499262 1.569498 0.68911266 -0.14072141 0.31660327 0.41926187 1.075202 0.21893409 -0.6737854 0.7876529 0.606449 0.024837332 0.8698976 0.04376973 -0.7834332 0.10894989 0.6290812 -0.0056089554 1.3047025 -0.40433827 1.5587835 0.85353726 0.20544864 -0.1577307 2.17169 -1.9901445 1.5095588 1.0124416 -0.6204581 1.5201647 0.9169048 -0.053439677 0.14152361 -0.20969631
interview 2.6044133 5.403879 -0.07448639 -2.5607586 -4.2289786 -2.0759127 4.5614457 3.8821669 -0.6339426 -2.0162287 2.1384947 -0.25892466 -0.582029 -1.88204 -1.4981266 -0.71714646 -3.4313588 3.4872394 -2.6116974 6.1346884 -2.572003 2.3362625 -3.920976 3.0517128 -1.0440637 1.7668124 0.23031457 3.4003174 5.6780114 1.6314317 0.30747262 -2.3028133 4.7838783 1.7448287 -3.5734966 -3.7865098 4.5488896 -2.5982196 -7.073852 5.1708045 -3.0358672 -1.554882 -4.521242 4.968283 2.023016 0.97228324 2.6869733 0.46164295 4.1591177 1.6583302
prominence 3.3797395 -0.2699006 1.5254824 -2.0862448 0.106515765 -0.94356835 -0.8805256 1.8288826 0.15179011 1.6010002 -1.135946 -1.948693 -1.5536183 1.6824994 0.11254693 0.8377623 0.16924727 -0.30978334 -2.4557388 -1.0573324 -0.06694781 3.4850101 -3.4892342 -2.8582113 -1.4527998 1.8642076 -4.2038097 1.8439863 -3.1309114 0.40622702 3.2069786 0.7258565 1.54261 0.62412107 -0.7598238 0.68955046 -3.8861196 2.1524725 -3.507446 2.515682 0.3200842 0.10982552 1.161505 -3.4676986 2.5371764 0.17016111 0.07412866 4.1770735 0.94256204 2.8981524
bed 6.1557765 -0.45467767 3.573232 7.21763 3.5355334 -3.3616915 -0.620335 0.8265596 0.3751239 1.9732716 2.1277914 5.3182993 -3.0791066 0.5280749 3.8646247 0.8557192 -0.21919556 0.21963145 6.682765 -1.205074 4.3979826 0.9459448 0.8104644 -1.3843852 2.411941 -0.8809497 -5.8340087 0.30078587 6.6792684 1.1077473 4.6762037 -0.4259524 -3.7910213 1.1972458 -2.2058759 -2.0363908 -5.080809 -0.95805615 4.322245 -3.034211 -1.9851578 -0.9824741 2.2369802 2.4377189 -6.0839195 -1.7024586 -0.6891271 -0.39116704 -2.72004 -0.36702502
furnace -0.5295542 -0.38073146 0.8493102 -0.60745996 1.4641107 0.79837006 -0.010704447 1.3468939 0.2811116 -0.12159523 0.24498224 0.9199829 -2.2007716 0.17250873 0.008160644 0.7200514 -0.96688783 -0.68977123 0.99261487 -0.22696863 -0.12058631 0.6117327 2.0140526 0.21765725 0.6125974 1.0032984 0.68778294 -0.0580741 1.3990735 0.08482595 -0.2559909 0.86595607 -0.80935806 -0.6420245 1.9299188 -1.0642492 -1.1498387 0.30663326 0.39246684 0.45725375 0.18426111 0.30693945 0.113143355 0.58396804 -1.6297017 0.22745761 0.80877477 0.7093783 -0.6255598 0.24288884
evidence 1.4105849 2.9873245 -2.3516386 -0.7950729 7.6062565 -3.3035698 0.24858025 1.5907019 -1.2653102 -1.2806545 1.5464147 -0.21202937 -1.4290173 -7.167262 -3.3891048 -2.5891168 1.6870494 -2.481713 -4.6995816 -3.6369336 4.1655173 3.6282647 -3.2780797 1.2800393 -0.21638663 3.2005858 -2.5077667 1.0669634 -4.7699475 4.6146355 2.398292 0.25005063 2.2179675 -1.5871532 -6.373309 -2.8794284 -2.2891207 -1.3072797 0.6007636 1.2469918 0.98258144 -3.7818744 3.3763251 5.9225845 -0.1782293 -4.2214327 -0.88038963 -2.6656532 -7.261376 0.49633107
sprint 1.2446549 -3.921894 6.166352 -3.497931 -1.1687032 0.4896894 -0.77606565 -0.72385293 -0.658664 -2.0169444 -3.1049511 -3.0928085 -2.2272718 -0.088562615 -1.7352127 -4.661991 0.3365881 2.764707 4.918987 -3.3482845 -2.5658162 -6.2980933 -4.350316 2.7740073 -1.2138808 4.048226 1.6168163 0.8650146 2.4455225 0.03177633 2.5157394 0.29220372 0.38274425 3.8829894 3.0300252 1.0701239 -0.18859813 1.6778953 -1.1298318 2.0648031 -1.6024075 1.5364285 6.2533226 0.89807785 3.8319392 -2.9520574 4.750092 6.924494 6.830637 -1.7797241
emergency 2.800609 -2.683669 -6.886796 -2.2083137 4.8121943 -0.59210855 0.54801756 3.043307 -0.9653255 4.944591 -4.204098 1.542854 0.55783683 -1.2769524 -2.067672 3.2212515 2.9006815 3.1575582 -3.709966 5.5937643 -4.2249527 -1.6614807 2.6991816 2.1478827 6.9399242 1.911592 -0.40599993 -5.775694 6.265506 0.8630108 -0.5185318 2.6099632 -2.9178228 -1.3154786 1.1918539 -2.7126176 -1.1148819 5.5264754 -2.3826215 -2.1486268 0.55249125 -3.7842913 -7.0843997 -0.9260092 -4.3836675 0.36601767 2.1985402 -0.37999937 -7.088447 -1.160755
institution 2.4861612 -0.9843564 -1.0985996 -1.6447455 -3.347039 2.6465619 10.592685 1.0312651 2.1343405 3.9290662 0.089466125 -5.241045 2.9437275 1.8975215 -0.76151836 2.3565438 0.4879545 -5.8393826 4.36451 0.012775581 -1.366682 7.876865 2.1975844 -3.393136 0.9535467 0.25402907 -2.6939507 -3.3814547 5.645312 1.0161066 -3.3294032 -5.224497 -0.7440883 0.03176413 3.3959363 -2.131897 -3.0083795 -7.637665 -0.011366522 -1.5738852 -3.2498736 3.967282 -4.167392 -4.5082126 1.3503654 -2.2174058 -2.7445009 2.426289 -4.899275 5.3422446
bird 4.762435 -3.358069 8.291163 -0.06045308 2.0596855 -0.36793637 -4.637951 2.0436718 1.2143508 -0.7394339 -0.7387479 -1.9297496 -1.1830549 -2.4012916 -0.674788 0.11734705 1.3765156 -3.0511467 8.182758 3.7807226 -3.487895 -3.3616426 0.5825499 -1.594723 0.99240774 4.057971 -0.14931768 1.9600859 0.17431588 -1.6775202 -1.2890669 0.43836573 5.763932 4.3717637 4.0930552 -3.4189065 1.1522199 -1.2665964 -0.72918004 -3.0852177 3.450909 -2.9983113 0.7266345 3.0330772 -2.4482396 -4.4201283 -6.074598 1.0594047 4.412726 7.6422906
warning -2.600753 -6.722999 -3.8365571 -4.0627465 0.84924346 -1.3466249 -6.096375 4.219245 -5.3062067 -2.304965 -6.0260434 2.43384 2.30054 -1.7733577 -1.478489 0.38382736 -1.852289 2.8865535 -2.397018 3.4320881 -6.133938 -0.8295557 0.15825596 4.4545355 4.650551 3.9008248 5.7540884 -0.9987459 1.2349966 5.488402 -0.3956164 5.719552 0.86401093 1.0283022 -3.7316258 -4.501751 6.1703396 -7.788887 0.3658925 1.3732284 2.5317395 -1.5302976 -2.9811912 3.501514 -1.0120149 1.423045 0.7922532 4.4699216 -0.11637618 -0.54100555
implement 2.1467855 -2.204357 0.21729577 -1.6801142 -4.031316 -2.5031729 -1.9597242 1.1584921 -0.984066 1.9779295 0.4202242 1.8082256 3.4602249 -0.8758383 -1.2532043 -0.78556997 -1.352542 2.1123242 2.0044904 -2.822242 0.93989104 -1.2498181 0.009319482 -1.2932624 0.123973705 6.928569 -3.0587351 -7.35457 -0.36727333 3.1447048 0.72071177 4.232287 -2.6945848 0.7913013 -3.1552334 -0.05050261 -0.5327777 -0.57819897 -1.8630152 -0.63190275 2.5847907 7.22084 -2.3785994 -2.4423614 3.7222939 7.117978 3.5393238 3.2070506 -3.0648265 1.700028
train 1.5569887 6.0542793 0.772476 1.1766372 -3.395038 6.1893363 -4.8179417 0.66896576 3.6828892 3.626115 -5.2350807 0.8356379 0.51437354 5.469872 0.49625486 2.5897822 -2.9421637 3.65676 5.7601933 -0.5056311 -1.1745597 -0.63669705 1.8408886 -0.23249276 1.5716174 5.1459184 -0.78294986 1.7630324 4.879714 -0.5465066 -3.6923578 4.5964656 -4.1237364 -3.6063077 1.6536608 -5.132842 -3.318563 7.823944 1.4753195 2.2352307 -1.8829697 1.2417585 -1.1366884 8.433571 -0.4886593 1.3244605 -2.9233856 4.630788 1.9112427 2.1718488
area -0.75389326 4.3658786 1.8065549 -3.1820917 2.8061788 2.5885735 -0.877306 -1.1608535 6.1960897 0.50311375 -1.3851453 -1.9352102 -1.774884 7.1887455 -3.509789 5.639484 -6.552065 -2.0756333 3.5643678 5.292089 -4.392902 -3.9341075 -5.4812036 1.0964478 4.768351 1.8908782 -3.8793867 -3.614925 2.4466624 -2.237338 -3.0314975 0.14246029 -0.77311873 -2.2527115 -0.30264556 -5.1268797 -0.47070134 0.5552975 3.4022539 1.4821838 1.8122251 4.25939 -4.049439 5.4131813 -6.1446733 -3.5853357 -1.2410425 -1.4663067 -4.730324 2.9150062
image -1.4478309 -2.7255776 1.1908734 0.50363344 -1.4081433 3.215454 5.2415814 5.527477 4.7112975 -7.884534 4.456143 -1.8845131 -3.9865866 2.3389795 -1.8297951 -0.60436964 1.9390554 -0.09687948 -2.6962469 0.09498692 -0.31562668 8.830052 2.3203697 -4.544015 -7.101089 6.815417 -0.64287573 4.1820655 -1.7817944 3.3691864 -8.216621 1.8151288 0.51301956 0.30145198 -0.43964913 1.9420289 -2.731919 -4.8466086 1.1692324 -1.3116212 -1.0587999 -2.4518712 3.6921947 0.017389523 -2.4306767 0.9986551 1.7298789 0.19581002 -3.6964638 3.2617414
murder 6.461068 -2.8709805 1.2911011 4.183349 -0.5862912 -1.0891851 -4.057273 0.34722632 -3.748542 -2.3129928 1.5218028 1.972785 3.0461822 -1.1507719 -4.103801 1.9796817 -2.9858286 -1.0348932 2.575589 2.396155 1.263435 6.021062 2.384017 0.2646281 2.8646538 0.6014379 -3.8406835 3.5825865 -0.09463771 -0.38362452 1.7770851 -6.728847 -1.6092982 8.334676 1.4542903 -1.5060353 3.7294152 -1.1414815 1.4223129 1.3414553 -2.0253143 -1.0203377 -1.9549698 1.1091264 4.374937 -7.0719876 1.4214802 -3.0168793 -0.35276324 -3.6688054
journey -2.3019218 -2.8548417 0.9235778 1.4037685 1.3963691 5.6556954 -0.41510776 2.1818392 6.5077796 -3.2471163 3.2036786 1.4833425 1.2048222 -2.723171 -0.33434272 0.050586555 -0.96693707 2.9928422 4.4102435 0.6921706 -1.6966242 -3.4646163 -0.3004054 -2.416356 0.2623848 -0.65291375 -6.0036783 2.018554 3.3879995 3.0740645 2.0326545 2.0721412 -1.5901327 0.6974184 -1.9864415 -3.7213156 -4.6097794 2.0132217 5.203577 3.5639539 -1.9937699 -8.107059 -9.053641 -1.5861046 -4.274741 -0.42722195 -4.466556 5.0447693 2.505199 3.5877905
minister 0.73367065 1.0575153 1.6247644 3.2996204 0.039042685 6.179913 3.372524 -1.4707161 2.0307066 3.8102345 -1.6011233 -0.9559644 1.894343 -1.8198925 -3.6361556 -3.4765754 -2.9431071 -0.8826826 -2.8033464 0.12290013 2.6012 4.040076 3.0921314 -4.480149 -1.847248 1.0988812 -2.8315 1.1299094 -0.95625913 1.2477856 -5.632363 -2.2499576 -6.2737722 3.8852 -1.2968798 2.339241 -3.1722255 -1.7498273 -0.26339164 5.4139004 3.607896 -3.332712 -1.9023914 3.7725477 5.692843 -1.0086869 -6.0253944 -2.010352 -5.1235228 -0.24352047
planet 0.6247971 -5.1194425 1.9940517 3.3873036 -1.9662112 6.231397 -3.676252 -1.374368 6.1358485 -5.3838267 -0.8986953 -7.050574 -1.4925946 -4.373217 0.583556 3.6750376 6.4933634 -4.201498 0.99337405 -1.4510499 -2.045879 1.9862444 2.1471171 -0.5546478 -3.1234508 5.653997 -3.473426 2.643877 1.3288298 3.3930213 -1.1628959 1.77465 -2.0725718 -1.141982 3.505552 -3.945829 1.343994 1.5293832 -2.292113 -1.2085304 1.5765932 -0.971291 2.3312907 1.043728 0.46720815 -2.326817 2.1800306 -1.5040563 1.742552 6.6188188
article 3.6905432 3.4983742 -7.1339226 0.052192163 -4.504743 0.4226446 2.594769 3.011034 -1.378158 -2.5129666 -7.249454 1.9356819 1.861498 2.9013746 1.4199245 7.652091 -1.4612138 -0.1761963 -4.2221246 2.7933338 1.4704562 -0.6472541 4.1631365 2.6364746 -0.6060111 2.9637558 4.055349 -1.8286768 1.8105086 1.629182 1.32879 -3.0184846 2.1938305 3.5120716 -1.4414141 0.47371602 -3.8186011 -0.25856623 4.9488254 1.3993104 -1.8704734 -4.0112896 -3.2899911 -5.26476 -2.3078272 -4.7552466 2.6913264 5.380226 0.88172865 5.683765
anxiety 1.2033743 1.0535115 -0.60168254 -2.901254 3.589853 2.0626652 -0.53960776 4.032025 -2.1283593 -3.0135536 1.5213531 2.1753337 0.9626026 3.450882 1.6594812 -2.3851366 -0.39322948 1.781185 -2.1264594 1.8965981 -2.629696 5.21336 3.0324397 1.6228434 -1.9680212 2.1117988 1.0557209 -2.1315749 -0.9360736 2.4865541 -4.761337 5.1908345 4.7334085 -1.7894092 -3.168802 -6.706168 2.1908689 -2.3941965 6.223695 -2.9540381 -1.4703562 -5.209129 -5.5774255 -3.4205782 1.3011106 -1.5230122 0.28948456 -1.9182365 -2.3882306 -1.5739334
month 3.8591917 -1.578922 0.9835551 -0.1325295 -3.8946745 -2.8969986 2.402533 -2.7948465 2.8084707 -4.4786687 2.353345 0.97823745 3.1637235 2.8267875 -5.8635726 -6.1009045 -1.0370532 -4.3507156 -0.8584465 6.8691416 -0.7472147 1.6052251 4.5628495 2.0964553 -1.850658 3.4939172 -1.5274105 -1.345145 -2.4250312 2.1778483 -0.6960373 7.5904164 0.6718952 -0.4647757 5.3365116 -1.252507 5.3926315 -1.9070827 -3.991093 6.244092 2.6201155 -4.8782973 -3.215377 1.2554426 -3.344362 -0.96420217 3.5785985 -0.7398884 -7.316618 1.4735897
carnivore 0.0015792475 -0.01788162 0.27373406 -0.08095559 0.46800834 -0.17408472 0.2796295 0.16592585 0.31969684 -0.024455938 -0.22928947 -0.17648898 -0.08748364 0.05099728 0.4266718 0.12508327 0.05413769 0.1848036 0.060924523 -0.08356039 0.08944263 0.18130584 -0.29309192 0.07560886 0.26675692 0.3625135 -0.05426699 -0.03569062 -0.29348665 0.5036466 -0.0023931072 0.22988524 -0.26394868 0.1312446 0.010041377 0.7175858 -0.35723814 0.29732448 0.111607686 -0.07715672 -0.066613756 -0.06110654 0.36766097 2.2959779E-4 -0.12837043 -0.06494686 0.050615884 0.21717231 0.045269128 0.45710158
party 6.042573 -2.774518 1.284485 1.409461 0.031639352 0.46770948 2.1298602 -5.247224 -1.345386 2.24505 1.2670064 -2.0929034 -1.7039077 -2.334754 3.9456952 -0.64800096 -2.223917 -1.4493041 -0.43728837 1.4633118 -4.753286 -2.9872506 -1.8995304 3.691209 -3.9361506 -3.2025669 -6.644017 0.91387606 -5.0119295 2.612505 4.073497 -1.1184634 -1.0058578 -2.5001764 5.7403593 1.6673946 -3.2834558 -8.873742 -2.4894478 2.276871 -1.341138 -1.0775142 1.8104564 -2.2922332 3.7284374 2.500156 -6.724183 2.6885662 -5.269564 4.1403275
production -6.0468726 0.5992568 -0.031035576 -2.1432326 5.208446 4.06773 0.906266 3.6188862 2.5412683 3.4369023 -0.16756846 2.8645697 -6.9026194 1.8173753 -10.075212 1.4122925 2.5102108 1.0787253 8.379454 -6.2888145 -0.21102719 -3.7692235 0.5672699 -5.925799 -2.2259445 -2.2944176 -3.509279 2.6543596 2.9612026 1.7703706 -0.6894321 1.7045885 -0.18447396 2.262825 -1.8777577 -3.1303806 0.043141514 3.0273147 1.5663134 6.5487404 2.1667428 -1.1898156 1.8244807 0.8372668 -0.55199224 0.30178204 -0.25458813 4.75157 1.4395567 -2.1892407
importance -0.5984123 0.9511992 -5.348566 -3.6225948 2.0054836 -4.6721087 2.4744563 -0.79372805 3.3209302 1.1597188 0.9154879 -6.429954 -0.20894614 -2.6648545 -1.9981025 -2.3499763 -1.2991997 1.3348602 0.013896136 1.706611 -0.8977388 3.5984156 -2.4945018 -3.775303 4.1604185 2.727134 -1.4572314 4.1463175 -3.7384276 2.0744843 4.1076627 -4.896122 -0.23983793 2.4004092 -5.8490024 -1.7651962 -2.451078 -1.3501867 6.9846354 0.5746667 0.31317583 -3.863083 3.0276997 -2.4958699 4.747552 -2.916135 -0.55065584 -1.9122388 1.6226531 2.9237356
inmate 0.978003 -0.770371 2.374908 2.1281939 -1.2398659 -0.6520625 -0.07131946 -1.0324798 -1.7442592 2.313241 0.3431645 4.2770824 0.2834937 1.054293 -1.0984815 2.8190732 -1.5813935 0.60021424 -2.2721033 4.9388375 3.22661 2.877733 1.9287647 -2.7068353 2.5618553 -0.71636844 -1.0883492 -2.8369863 5.7138133 1.3743174 -1.0748888 1.7373371 2.480247 3.7333179 2.8541014 -1.0421499 -3.831402 1.835633 0.3626242 -1.726674 -0.42415357 3.21784 -1.5271525 1.5465249 -2.1962523 2.6652505 -1.5640348 -3.695073 -3.1041422 1.001105
psychology 2.9885232 4.175687 -0.43966728 0.49038398 2.2702785 -3.9238746 5.6219025 1.40368 0.87148744 0.2633261 -1.8754945 -2.743611 -1.7452309 1.1570873 -1.0512744 0.80005616 2.5259714 -2.149271 2.5961049 -2.4167337 2.1418989 2.4355648 2.8309286 0.12611903 -0.24845889 1.0195682 -0.64500475 -1.602895 -1.853575 -1.7448795 -2.2587025 -4.279927 3.6691833 0.25800934 -4.308021 0.9313623 -1.703958 -0.9570125 1.8932261 -2.5898044 2.9982042 -2.7717571 -1.7508452 0.47020185 1.9055684 0.98127806 2.1749756 0.71592987 -2.2809348 6.1627097
medal 3.9830654 -6.0638413 -3.3396318 -3.7842262 1.5734651 -1.5210453 4.8221593 -2.2006726 -4.505379 -6.0975657 3.0662692 -1.4585484 -0.002635763 3.3757503 -5.4744353 1.6668103 2.229255 0.86762 -0.27573574 1.3922845 -5.165214 2.7049792 -3.4978824 0.34015116 1.7793902 0.83716077 -2.858614 0.6147238 -0.18079072 3.4294198 -1.4602782 2.9900784 0.013561284 5.5990376 2.7132866 -1.0306896 0.7065986 -3.1496942 -0.004894345 -0.71053797 -1.8334786 2.0482857 -1.622835 2.0671718 -0.8734048 3.1889975 1.0060173 1.6068157 0.73110914 -0.8265706
company 0.24119359 -6.377104 7.5897546 0.40643 3.2074728 5.0160704 2.713556 2.8008416 -1.2333889 2.7927186 -0.48935816 -1.8769429 -4.053146 2.6470869 -4.2785215 -3.4969678 -1.0245463 -1.9173458 1.7364316 1.7688965 -1.5980763 -4.1437273 -4.1103697 -4.7885456 -4.8905206 -3.2117102 -0.788861 4.645095 6.2204685 0.14873473 -1.2950583 -1.2744819 1.5839287 -0.07104064 -5.2516565 2.7482138 -2.6425164 0.7012228 -3.4440217 -1.5529568 -4.5823603 3.3608012 4.337804 4.596566 6.1989856 4.086258 2.6544816 0.48976594 -3.0439715 0.4462765
live 4.5369987 -2.9953005 3.674088 2.7464645 -2.9584827 -1.337108 0.24335614 -2.5164332 9.4019447E-4 -0.21212392 5.0549216 0.86202765 -0.28266487 5.5950985 -2.6418626 -4.183567 -3.9169877 10.003021 4.887071 -2.8476696 5.862616 -0.15821053 -2.3273444 3.6408372 0.013113504 5.0864825 2.0248222 3.9673467 2.8883038 -4.037382 -1.1221251 1.0853412 -1.383424 -1.5312909 1.1362864 2.6313145 3.5910416 -0.41127184 0.05267669 -1.1559881 2.9852424 -7.004504 2.1665754 5.2448797 0.46076605 -5.6475964 -1.0637429 -3.9514532 -1.2357129 8.76147
holy 5.85051 -2.7384815 -5.14538 1.9546518 0.63998485 1.5271538 2.946804 0.55093235 -1.651578 -4.320316 2.167923 2.754125 4.0949974 -0.8149392 0.97620404 -3.0957773 1.4944448 5.3929105 -2.3962326 -2.252652 -1.5502613 -1.6758415 1.3978896 7.7510314 0.6287571 3.4847567 -2.1305842 -1.1276921 1.171019 -4.71986 -1.6255628 -1.793442 -0.54818803 -2.0675178 4.5709257 3.8201492 -2.9629383 1.4909824 0.9086736 -0.602197 1.797823 -5.089431 -0.46103752 -0.2549585 -3.5867853 1.0109975 -1.9623178 -2.4678302 -4.1620092 3.6990216
ticket -7.181063 2.4807587 4.8106437 -6.968715 -5.246144 -1.5966325 -1.816808 4.1157656 -2.0717356 -1.0882653 -4.314202 3.0217345 -0.98156834 3.520133 1.4578257 1.9886516 -2.5876036 3.000187 -1.3969574 4.7681074 -5.7850347 -4.8442945 3.6468723 0.6969379 3.473014 1.5045986 -0.6720105 0.60517746 2.9729695 3.8080277 0.5988769 -0.22447094 -1.897164 3.07732 -1.2582443 8.083904 -0.6371438 -7.15116 -4.632223 1.1150012 -1.4446042 -3.1993253 -2.9117582 -0.7010264 -1.5258842 0.92148274 -0.051403366 5.315539 2.4509406 3.1373146
victory 4.0763645 -5.923898 2.5443156 -5.1839128 -2.687658 -1.8935286 6.9497337 -2.6161711 0.5462413 -5.7287335 4.049298 -2.5412707 -0.47233817 1.6492213 -0.49051628 3.0404303 -4.6448503 1.2137676 -5.2273774 -2.6731386 -1.1602622 1.8487194 -0.32618013 4.0366206 2.2005353 -0.4123945 0.34685802 -0.5233694 -1.1781425 0.16954036 -1.5951507 6.0595813 -2.5921657 3.4226384 5.3930993 -0.7695433 0.40194997 -6.5049663 2.0675228 6.94813 0.51101583 -0.45180687 -0.12017383 -2.676536 -1.7343997 0.062887736 -3.483994 3.7590575 2.0501726 -1.695368
football 7.427623 -2.1303911 -0.5891153 -1.9830799 -3.728322 2.4375894 -1.2222792 -2.0267906 0.6384413 1.2494082 1.382331 -5.88705 -1.1364977 -1.8528721 -8.674887 2.1975045 3.0964043 2.901312 3.562818 -4.673657 -1.3378502 3.7339118 -2.1757064 3.094395 4.688414 4.521778 -4.2145224 -6.289029 -0.44453496 0.64883953 -2.1112947 -0.26985812 3.373859 5.7162848 -0.05796064 2.1739783 4.5299115 -2.078501 0.78513896 -5.895632 1.247695 -1.8731403 -2.4808667 1.7522017 -0.6159374 -3.474774 -3.168637 -2.1663806 1.5785669 0.62822354
seepage 0.1964106 0.199373 0.59898084 0.23759608 0.47020853 0.27431205 0.19563806 0.3550633 -0.11537431 0.059508014 0.35495526 0.09024205 0.111692816 0.01330094 -0.0957442 0.07891229 0.11911997 0.19642444 -0.24847998 0.1835215 0.033502437 0.043894276 0.39199787 0.40241182 0.2794645 0.23391904 -0.35929763 -0.12229172 0.46523052 0.2887298 0.19760507 -0.29697102 -0.07490853 0.008487429 0.22951311 -0.06622722 0.3071356 0.19264229 0.3259865 0.18843007 0.4788629 0.15659896 0.35547206 -0.019387377 0.29629716 0.067235805 -0.05264032 0.48491427 -0.013348451 0.59293723
rook 0.34669667 0.15401675 0.62147593 0.13732766 0.47953227 0.56407225 0.1651196 0.28931817 -0.22181073 -0.045873802 0.38032433 -0.0498951 0.24307005 0.21958195 0.011291386 0.18159573 0.09636321 -0.10350051 -0.2606974 0.15985037 0.22960374 0.00787346 0.110700876 0.5956693 0.31060785 0.16746892 -0.0059770043 -0.09824335 0.46192077 0.47474256 0.40158963 -0.33532146 0.34570932 0.08837726 0.3509708 -0.03898986 0.46773794 0.2316048 0.34892532 0.19908921 0.60737437 0.008287806 0.8445069 0.14845605 0.37468588 0.010443967 -0.015300423 0.6435233 -0.025221167 0.43872213
stroke -2.5804687 -2.6237063 4.899072 4.5947323 4.218286 0.6274922 -4.5666995 -4.2781973 -3.770599 -2.6868331 0.10614619 -1.8386382 -3.3813276 5.1633296 -5.569867 3.380392 1.8753526 0.227319 -1.6828979 -0.70838886 4.6103845 1.050601 -2.1667404 -1.95299 -0.7158493 -1.2619658 -2.3213189 3.3491702 -1.1518239 2.8772922 -1.5347284 6.8662386 -3.7418718 2.925089 0.2830397 -4.014437 -2.8436434 1.8906469 0.111543894 1.5235324 1.1926411 -5.3459144 -3.5610402 6.883406 8.231462 0.95450544 -3.0829604 1.7579322 2.514997 1.3656353
environment -2.6473815 6.437 -1.8383104 1.3595402 -2.3107753 7.9783444 1.4820353 3.6527376 4.9242067 0.0021107425 -2.3361328 -1.7388651 -1.9719789 2.0337582 2.022378 -0.2618711 -6.0092216 -3.703151 5.010386 0.11293543 1.8849304 -1.910058 -1.8937962 -0.72461706 3.8218615 9.173589 -3.4965386 -2.5857232 6.3173594 3.3596723 -7.786858 2.312431 0.14152944 -0.1893752 -1.8282733 3.6356728 -3.374211 -2.1523662 1.2946365 -0.49322808 -1.2957047 -1.6404098 -5.567475 -0.7902592 4.190298 -1.3673457 2.8606842 -3.5052376 -4.2134466 3.1202602
coffee -1.4828864 0.35321692 0.103853345 -0.32336324 6.0826206 3.252214 -1.0863265 -1.7683187 -0.10687857 2.516048 -1.5171546 -2.2941582 -4.2369 3.3940058 2.7531478 2.0060968 5.4581404 3.5704985 -1.7347951 -1.8168381 -1.6266943 2.1884902 8.173996 -1.9563619 -4.9911284 -2.5237694 -2.9709544 3.1185603 3.6528618 -0.9051429 -9.036682 -3.5879526 -5.4345007 -1.661207 5.8928885 2.6421487 -1.7752876 -0.15767357 -1.4870298 3.712197 -2.1090071 -2.8862977 1.6210848 0.0663681 -1.2729436 2.2327304 3.1970878 2.2822495 -1.2528533 1.2224987
baby -2.9346814 -3.9454107 4.296201 0.91814184 4.561084 6.175555 -1.8786595 0.22271973 2.2014785 -3.4870155 0.7575491 8.324106 1.9162225 -3.070923 5.8990545 0.5900285 0.48963663 -4.489871 1.226531 2.6718798 3.3844137 1.4663156 4.939542 -2.4309845 0.4991501 -1.0761245 1.4134667 3.158143 0.5348767 9.154379 -2.9320533 0.4454209 -2.3953543 6.7002125 1.4385449 -2.8437088 1.4878498 -0.43991086 -3.9748635 2.332581 -2.655207 -4.6482773 -0.02119422 -1.0671684 -2.8560576 3.9033713 3.1863124 -1.9916418 0.72443473 1.0979509
personnel -0.04641509 -1.5323831 -0.4193905 -1.2582088 2.736719 -0.7467274 6.7086515 -6.019399 -2.9992716 6.757173 -2.85187 -1.3540106 1.0667824 0.054922376 -3.533194 2.6840005 -1.6837046 0.38235864 2.8754091 1.7837528 -3.5706933 3.7946095 1.6847292 -2.5253527 6.770062 4.560856 -0.59041464 -0.40817147 -0.5098851 0.22908108 2.089808 4.8697205 -2.0994549 -0.03462623 -3.3284464 -1.3542125 0.61445266 0.3966553 -1.2990525 -10.15326 0.19464776 3.8584213 -0.25997216 7.3670373 -1.9258255 0.50040734 -1.3839071 -0.23181516 -2.5784938 5.6362386
family -1.2551948 1.912013 1.6574316 2.467338 -0.045042332 4.14182 4.8820825 1.6600113 4.205929 1.9691728 2.0048466 3.056324 3.0252678 6.1161275 -4.202986 -1.6777139 -9.104495 1.2155887 -1.663783 2.4356673 -7.8955045 2.5644548 0.740018 2.1274042 -5.4279656 -7.6935287 -1.0588814 0.33800158 4.505338 2.7816408 -3.9101195 -4.0809064 -3.582712 0.43145108 -1.577401 -0.3629825 -4.7603984 0.7647291 -0.29049194 -7.335427 -2.3385544 -4.6684427 0.35984442 0.5119301 2.1166115 -2.3609307 -2.2727401 -2.925791 1.6511792 2.2128234
hypertension 0.74739516 -1.298636 1.1793908 0.6264846 1.1128272 0.15663224 -0.59571916 0.9314086 -1.9537458 1.1890924 -0.38360816 1.2781888 -0.12968953 1.4499813 -1.0382146 0.5903282 0.9152156 -1.7156348 0.016939472 2.4164958 1.3837502 1.1887574 -1.7867624 -2.4049902 -0.7436378 -0.44937265 -0.6189833 1.0831413 2.9962204 0.33663535 -1.2151064 -0.44814909 0.8570259 0.69530743 1.2108599 -2.026743 2.054696 0.6534687 0.6102899 -1.8007212 -0.35472527 0.016524222 -1.29728 -0.6578095 2.4036567 -0.15287817 1.173825 -0.895276 -1.2718095 2.810551
president 2.2569003 -7.036363 -3.6181674 -4.8279157 -1.7813371 1.0023618 5.320148 -1.0605578 -1.1512362 2.9435356 -1.7483143 -0.14244983 3.0233698 1.9041289 -1.824003 -3.8330114 -0.7564216 -2.6296215 -6.06191 0.2033054 -6.1113563 4.770577 2.0953372 -0.2128625 -1.5690894 5.2798324 2.5275557 -1.3025675 4.553194 4.707008 -2.1628082 -2.9348607 -0.6989729 2.272853 -0.20141661 5.5074086 3.8365803 -1.1904734 -2.9724905 1.6753472 -0.11765528 -2.8569982 0.85402423 -1.412307 2.0101507 -0.46771255 -3.1242907 -1.9132763 3.9520113 -3.716205
atmosphere -0.613135 -1.1527138 -4.152624 0.833369 3.400541 0.7220301 1.4898276 4.6624646 0.2304162 -1.7167604 2.640486 1.4171522 -5.1165266 1.9902654 2.4694772 0.34434953 -1.6474435 -5.6255174 0.30504683 0.06042964 -5.374921 -1.6448509 -2.6434572 4.39457 -0.48847976 4.0722523 -2.334688 -0.23171654 3.2832632 4.7199197 -6.727647 5.277931 1.713625 -3.917555 3.353051 0.46086904 -3.790395 -5.1401434 6.6277304 3.5218432 3.1605184 -1.9807156 -2.9960828 -2.8879244 -4.850619 0.8989326 -1.4165155 -3.6980627 2.6160023 4.440002
practice 7.543619 -0.13749465 -1.6856346 -5.923302 8.689574 -3.7164996 -0.91659427 -0.60105103 -0.013537796 0.16984841 -0.6422578 -1.3481344 -3.3127308 -5.2809095 -4.53355 -1.7324784 -1.0410947 -1.6093961 -0.3183967 -0.56117386 5.8095975 -0.9019906 -4.755632 1.1696372 1.6324241 0.8718849 -0.70356286 2.923506 1.8020893 0.5459164 -9.271241 -1.4998803 -0.5133015 0.22719887 -4.4790664 3.2198896 1.0650243 1.7296809 7.6370945 2.7656965 -10.501076 4.744296 2.3920968 3.095431 -0.71856165 -0.77025425 2.2289813 3.3040805 -3.5782602 -3.1774647
movie -3.581774 -2.248771 3.7571645 4.8131166 -2.4002874 2.6528609 -1.1531788 1.6574459 3.8837488 -3.8235643 0.41611382 3.7519326 -1.1618848 4.2132154 0.52961767 0.62151426 -5.4442716 -1.8348047 1.6522456 5.647437 -1.2625996 2.38109 -1.2130612 0.0988122 -7.296122 1.328246 -2.960008 -1.0400375 4.9131904 -3.158014 -0.2258296 3.6268117 5.5942416 1.8900297 -4.664035 2.8445063 0.57899666 1.1055834 1.5798007 -1.9259099 -3.3273506 -5.125313 3.631898 -0.7554891 -1.5564305 2.7323887 3.7241664 5.1085544 7.6637435 0.95246166
popcorn -0.6288467 -1.291437 3.0629902 -0.14957398 2.5628586 -0.909411 -0.25181082 0.26410744 1.2232131 -1.5759693 -0.89381313 0.26601848 -2.4480586 2.2667034 1.3208069 0.3960793 1.4598099 -0.041693132 3.830777 -1.0794396 -1.053416 0.8005471 1.4207474 2.8859076 -1.9821815 -0.44307658 2.1541119 -0.33518186 1.7463557 1.4187953 -1.6472452 -2.0780592 0.9076898 -0.97946143 3.0663912 -1.3997251 0.8110253 -0.037262067 1.0244117 -1.5464141 0.72723246 -1.0822363 2.5205243 1.7024782 -1.4495046 1.2369797 2.5757935 1.8669136 1.4402932 1.9022778
recommendation 3.6010094 -3.7057476 1.401691 -0.5837334 -1.5205001 -1.8538027 5.2255945 1.3431418 -2.7568457 -5.4938893 -5.3241653 0.37492257 2.5473213 -1.5914713 -7.9455943 5.248986 -0.24510983 -0.46070462 0.15563641 -3.261768 -0.76019377 -1.9564713 3.428643 -4.019252 2.994417 -0.41555002 5.0691004 -0.19026665 3.0434124 7.837881 1.6801628 -0.2599242 -0.2938774 1.1943216 -2.2165794 0.7221104 0.61592096 -1.0260417 -3.9508185 2.0353477 0.24956688 3.5403023 -3.1577601 4.0161414 5.892029 4.6950054 0.85359013 -0.18633607 1.4681088 0.4458797
focus -1.2402663 -0.84220666 -2.6985018 -1.8158478 2.002957 3.1907842 -2.8568041 4.663638 4.9066744 0.013716146 -3.2730064 0.32971507 -0.9155105 -1.319216 -5.5970526 -3.3376427 -1.6316975 -0.44220585 1.7132965 -2.821473 -0.9684817 -0.31944442 2.5303686 -2.0765805 -0.4878407 5.5914397 1.0517727 5.3914356 -3.6733449 3.9702702 0.027460176 -1.7970544 -4.5636425 0.49398297 -8.814858 -0.8072493 -0.62100285 -1.3069603 3.897231 -0.82845193 -4.116058 -1.9393104 -0.892344 -0.9424736 7.5859165 1.5061879 -10.746075 1.2642744 5.0866365 0.53173
attempt 10.646496 -5.350007 5.119842 -1.332388 -1.9388299 -1.0479292 0.8996455 4.183013 -3.7067587 -5.275704 -0.9897328 1.0208611 -2.470664 3.389904 2.0944898 5.3805385 0.6097231 1.8988664 -3.503909 1.5354363 0.3049849 2.0705063 0.45558038 -1.1965802 -0.5270691 4.657679 -0.8687698 5.0426197 -1.9791219 0.7962478 -4.1395283 8.56543 2.397297 -6.02461 1.6460531 -1.5856638 -1.5020441 0.92521375 -5.8187084 2.9513657 0.8805476 2.607776 -0.98296314 2.233517 1.3810949 -0.5036737 -3.1090157 2.4804893 2.1000962 3.1491878
approach 6.20856 0.86766773 2.0551357 -5.1695704 1.24014 4.0516014 0.46938 2.0867376 8.041766 -1.0613726 0.09422356 -4.112334 -2.7477815 -2.2555559 1.1812664 -1.3302153 -2.6538491 0.36687282 3.120279 -1.1414781 1.392061 -2.1233702 -4.3435526 -4.004474 1.0959563 5.2450094 -5.5118623 -3.4317932 -1.5730153 4.137665 -4.256716 8.77644 1.3595699 -3.9185274 -1.1700895 -4.989702 -5.0786633 -6.629574 -2.0374289 3.112731 -3.2631931 -1.336199 -4.598842 -2.9610758 0.3151719 4.0701447 -2.9508975 7.1058574 -6.262727 3.9774582
number -4.881378 1.0116888 2.5232806 -3.612514 0.14133476 -0.1874062 -1.0923945 -5.285487 -2.9664888 4.8519783 1.4497209 0.78052497 1.1030512 9.355557 -7.8703136 4.551769 -0.23306799 1.4496841 -3.9892478 -1.3278662 -0.5333479 -1.7964209 3.7945504 1.8002495 -1.6679239 1.0302607 -1.709761 3.7408895 -2.337135 -3.845234 3.4164958 0.4782009 -3.919273 0.894385 -9.156914 -1.7679164 3.585316 -1.86444 -3.4612935 -1.8676625 -0.15768798 0.94158125 -2.5937235 6.272091 -0.9803715 -0.34675702 -2.1796975 -1.8592045 3.1801045 5.1863084
property -4.36336 1.4810283 5.8562956 -3.5267606 -2.3964918 5.405141 1.7811838 -0.7652901 5.183616 3.3968759 -1.3441358 -0.009496264 3.4274018 -0.77939636 2.0547144 4.0158467 0.5374528 0.0028343361 2.0113769 2.7076337 1.3039219 2.461798 9.960367 -2.4783287 0.08817273 -1.4991645 -1.1606108 6.193872 2.2127645 -5.178966 0.018028697 -3.4491918 0.6613979 2.432038 -5.90744 5.683377 -3.2278714 1.0522753 -2.167546 -5.282336 2.2281518 0.6804712 1.1943759 -0.73043114 -0.8005394 -1.2137814 -0.9068908 -0.32686424 -8.105491 6.1764774
fingerprint -0.2305051 0.8901392 0.5402873 1.0982981 0.08374128 -0.6899739 0.29065597 1.2482103 -0.6124616 0.1604557 -0.5810696 0.37766078 -0.49449953 -1.905776 -2.602659 1.3546811 1.505246 0.18975557 -0.45066845 -0.38029203 -0.99151635 0.2693702 0.9973399 0.42122364 0.40108407 1.1652366 -0.36340612 2.6072404 1.3885803 2.324775 -0.93298703 -1.3125497 1.0402 1.8561175 -0.67959166 -1.5891874 0.790429 0.21619163 0.19441728 -2.6738982 -2.6082728 1.249345 0.10012866 3.3110068 -0.34192666 -0.7566196 -0.30253327 -0.16503224 -3.110399 1.9930912
reservation -0.8701945 -2.2149658 3.5743363 1.4935937 -4.043831 2.4358077 -2.4653583 -1.1222687 0.3656713 -2.3615346 1.1245222 -0.39543465 -0.8365908 -0.202479 -2.7865899 2.0101073 1.2605796 1.8840164 -1.5793502 2.0840533 -4.360086 -2.42517 2.1426406 2.2553186 -0.037312448 -1.3396041 3.0377676 0.2597233 4.6198335 1.0975056 -1.390291 -3.84074 -1.9018757 1.4389575 1.2768095 5.5072823 -3.1063519 -2.5713773 0.94401973 -3.6520083 -0.786543 1.9956614 -1.2610513 4.2787814 -3.5021799 -2.438946 4.7678604 1.9713477 -2.1571841 5.145223
block 6.1108713 -3.204258 4.212183 2.6711602 0.24281257 -1.1058503 -0.8231305 4.232333 8.889802 1.1524447 2.00299 2.1212637 -0.0021318933 -6.8891535 -0.6212631 5.059817 -3.4485393 2.2720666 -2.0147471 -0.46626344 -5.6132975 -4.145667 0.56255126 -0.92596614 3.753384 -8.254317 1.7270542 1.8952713 -3.6283379 1.5027524 -1.9468372 1.0319963 1.1259644 -4.369156 -1.0413475 0.30335328 -1.7557234 2.8232152 -1.7837421 -2.5447812 3.2439115 -1.9726384 3.31557 1.2694132 -8.845673 4.0005803 8.893339 2.888314 -2.676041 4.298119
fear -5.294336 -3.887199 -1.3067644 6.3951097 0.46554598 2.5011199 -1.3413451 -2.8914344 2.1805875 -7.5127764 -3.8870971 -0.9780094 4.941424 0.9425601 1.9810258 -0.8586627 -1.9764894 -0.35397887 -0.38834745 0.94965047 -1.7917082 3.1844764 3.2960615 4.5670586 -1.3708705 -3.9949613 -0.9262542 -2.1565402 -5.4029765 -3.5262654 -4.929992 0.6309817 -2.7387412 -2.6607726 -5.385437 6.012783 4.1136765 -0.7712729 4.870189 0.0012808007 5.0093703 -1.4187249 0.88688284 -0.73029447 -1.1434385 -3.78948 -3.7287104 1.5041196 -5.759124 0.88122356
surface 0.37225616 -5.3672304 2.0362651 2.42715 2.774245 -0.45239478 -6.2714486 3.2456088 6.4334683 -5.1896205 5.2399297 -2.6465058 -4.913596 -4.458128 -3.2726233 -0.6845943 4.299726 -5.869682 -1.6772646 -0.07190261 -1.2947083 -5.234683 -4.232475 1.7248485 2.617496 1.6499786 -2.2649536 1.203327 0.6568721 0.08742462 3.9798276 5.0441923 -1.639265 -2.7654788 -1.007514 -3.9061794 -1.019062 -2.3412786 0.453891 -2.8151696 0.5181144 -6.324113 0.80970323 2.3218758 -0.13202663 -5.538278 -0.45226792 -2.109862 -3.128128 3.9498065
issue 3.3588593 -4.5158963 -0.8433209 -2.2168121 -7.302741 -5.1590886 0.9058356 0.9331392 -0.04029892 1.6663238 -3.2594435 -3.1713734 0.13101654 2.2215657 0.51879305 7.0039425 0.44846153 0.26138067 -3.0078824 9.099584 -1.3129408 2.8289526 5.421617 -2.2831492 0.25388384 1.8557136 -1.6434482 -0.88478136 4.5885744 -7.994495 1.6407003 -2.2750494 -0.0076102223 -0.9862199 -6.878755 -5.789934 4.4732714 -6.508307 3.0604591 3.8158915 0.8748871 0.74171877 0.6733159 -3.3959613 3.5225706 -2.2515526 1.6285791 2.08394 -0.8849844 3.2395093
metal -6.3896093 -1.4360915 2.4029305 -1.7204831 8.86942 1.1978962 -0.83215934 0.08603157 -1.459777 -2.5092547 1.1475155 0.03681576 -2.805628 -1.5647955 0.41129574 2.1948526 -1.5613803 -1.349947 1.0569122 -2.5310752 1.7286117 3.0993147 4.601034 0.91612244 -3.8366277 -0.89292043 0.94375986 8.793151 4.218275 -2.8653183 -5.092542 4.5028577 -8.02827 0.108492285 -1.8520962 0.53878665 -0.72981906 -1.3161389 -0.03658945 -3.1731615 -0.35700572 2.4770691 7.1726966 3.7057083 0.93799967 0.6724682 -1.3259778 -1.8032801 -3.2904313 -1.4045985
index -1.6739469 3.3078215 6.6895 -6.6087875 1.1143372 5.6834645 -0.0341106 2.7616556 0.92881036 -3.052027 1.213555 3.508577 -1.4609907 -0.5593211 -5.1152344 -1.8148274 -0.3459325 4.2621346 -3.121627 -2.1672032 -1.2354616 -0.059111264 7.432685 0.24452803 -3.719214 0.06493958 3.1804705 8.1674 -2.3838012 -2.8081207 1.4926442 0.84727204 -1.6670092 1.6523579 2.4253113 -0.785044 -2.3902125 -3.6958072 0.5644428 -0.12527348 0.3353779 -3.9396224 -0.35945222 -7.0350437 5.235433 -1.8108706 3.4016953 -1.754829 -6.62098 0.92371035
isolation 1.610526 -3.9055812 -4.6082044 0.104386605 5.257342 -0.052115995 5.013272 1.289568 -2.7397072 -0.6909976 4.4596796 -2.7582343 -1.1713327 1.0380206 2.2330513 1.0426626 -0.67481035 0.19297703 -1.0323855 0.122738004 -1.680596 0.8015193 -1.5317955 -2.7440417 -2.6687565 0.7114252 -7.992556 -3.5818577 1.4731213 2.6933262 -9.51544 4.4523892 2.156743 -1.1858801 -0.49596816 -1.3973475 1.4591913 1.846732 4.9511647 -1.1045804 1.6338497 5.5207496 -1.1422502 -1.3221823 -1.8500569 -3.1718802 -1.3913528 -2.6525912 -2.5981047 -1.1076552
impartiality 1.0887171 -0.09400892 -0.83489764 0.99617976 -0.21812256 -0.60484856 0.66669613 0.3082574 0.19280487 -0.4492019 -0.35381174 -0.6001019 1.0709732 -0.6323549 0.64086646 0.7154143 -0.30751574 -0.43385664 -0.13115165 0.23679534 -0.77001226 0.7467653 1.3278852 -0.6003815 0.9428141 0.6706094 -1.2263991 -0.54070467 0.37889466 -0.05044489 -0.54294044 0.2894984 1.20509 -0.50941765 -0.88883567 1.6720288 -0.32000566 0.037273802 1.2188265 0.047149707 1.1314644 0.16171698 0.63343096 -0.03615037 1.1652333 -0.57518804 -0.63904494 -0.28448507 0.50167 0.7135815
drink 1.7436157 1.0472413 3.1553571 0.19961476 7.290839 -0.59695303 -12.71314 -2.6665204 -0.13264053 -1.4916646 -3.188803 2.3604224 -1.6713893 4.507561 2.5719674 -2.8801544 1.5658215 1.084659 2.086549 0.91117644 4.483302 0.6762615 3.3179178 -4.390794 0.26223505 -2.154474 -4.039753 0.6649363 4.2433286 0.4254638 -4.0469213 0.6714787 0.9497494 2.6050897 -2.063431 -2.4966073 -3.3411589 4.0924363 -0.37901708 7.004609 0.43858498 2.0208633 2.591326 5.848198 2.09039 -1.0331069 -0.5429044 -0.9262448 -1.0852305 2.3180463
baseball 6.820894 3.0908303 5.1804667 1.1903477 -4.137318 -5.613313 -4.142997 4.9205904 -0.7948925 -3.3205652 -3.1568387 -4.843355 -3.4702692 -2.4445577 -1.4353186 1.6516008 1.6717929 0.4279421 2.0529134 -2.9279852 -0.62246966 0.20926343 2.511567 2.479535 0.086407356 3.3359165 -2.1687076 -4.5814943 -2.8298042 -4.379161 -1.4270303 -1.9289849 2.8010182 2.0635426 0.98029435 3.5509722 8.163972 2.9438772 -0.052561197 0.5193857 -3.2744932 3.0774734 3.9168963 0.5222418 0.20160288 3.316735 -1.4117779 2.3942745 -1.2789418 0.40412745
jaguar -0.95165277 -0.45625368 3.7046597 -0.6482303 -0.016971327 1.0239258 2.662701 0.9007883 1.6916947 -3.3978174 -2.4738958 0.8519503 -2.551975 0.13840283 -1.2703372 -1.2637818 1.3136268 0.48691937 4.8993115 -2.2276704 1.1436625 -0.39949104 1.5365001 -0.14588632 2.7079709 0.7465932 -2.8953032 1.7329578 0.50137705 0.8260075 0.44376653 1.8659456 -0.7912273 1.7319225 -0.02478575 2.5558157 -2.0416803 2.7486925 1.204347 -1.4203792 1.995952 2.1339192 2.633056 2.034716 -1.4455016 3.1383674 0.20552714 -2.002542 -1.1608245 0.7025122
trading 0.90200865 2.2717369 0.8281851 -2.2914603 0.9735049 1.4227887 2.249873 3.050865 -1.3983157 5.8396435 -5.9743037 1.8913096 -7.8091455 0.8576786 0.18012367 3.7815738 -1.9847833 -0.72558105 4.658541 -4.6499715 -5.3544497 -6.0868044 4.158167 0.95166343 -1.627508 -0.3118848 0.1032826 2.1151881 5.5402546 -1.1470041 3.6318176 4.22806 3.729793 -2.1662264 -1.7455269 4.006297 1.6716415 -5.375105 3.2443697 3.4042773 -0.7846247 -0.032350935 2.3192928 -5.5439696 1.1297815 -3.1480277 2.1304355 5.1650534 -0.0649925 -5.174557
viewer -0.38231552 0.81437725 -1.3377154 -2.0901587 -2.4448197 -1.9403034 0.8058125 0.8514126 0.2109371 -4.7088466 1.8794268 1.2807108 -0.90858936 3.2377152 0.7494354 5.1052256 1.8531777 -0.011709374 -2.2560258 1.5698504 0.636714 2.372377 -1.4934618 -2.9389684 -0.20584409 0.61161447 0.30951592 -1.4266059 -0.66303355 -0.18718487 0.72133636 -1.6104583 0.35005066 2.2804866 -1.1566167 -1.7840747 0.48069414 -2.8297722 2.4948344 -0.7233913 1.2195847 -3.611204 1.1003115 1.5467262 4.216555 1.4345828 2.926089 3.0722952 3.5783043 4.344357
hundred -0.21210064 0.70665586 0.45845523 -2.0835547 -0.9142693 -1.4140953 1.9141258 -5.359586 -0.6710649 2.8430994 -3.0759737 0.15469116 2.7473586 0.015261094 3.4879663 2.941417 -4.425098 3.2699733 -0.15499571 -1.023163 1.512606 -5.5893393 -0.40398955 7.366512 -0.8146056 -0.01958758 -2.02717 -2.0457215 -2.96398 -0.80689716 4.9867396 3.1970673 2.3015738 2.3856623 2.5809922 -0.39951393 -2.1051874 -0.5804784 -2.2984288 0.7043322 3.8868513 -0.14673764 2.608255 3.363488 -6.5336556 0.0116971275 -2.2817583 6.499441 2.256073 4.334326
woman -1.3406118 -3.9133732 -2.7934885 5.706512 -0.73749775 -1.4780843 -4.241033 -0.26341876 -1.3315567 1.0009495 2.404681 3.0415409 -2.0436296 6.379789 6.1295757 3.1659274 -2.7902234 -1.3554741 -0.7305146 9.590839 -2.208989 -0.9987163 -3.415663 0.32207856 -1.8271114 4.0059967 3.602753 0.4432236 5.135052 2.6296847 -2.6181464 -3.37884 1.0656433 6.785556 2.948605 -4.465078 -2.848053 -3.849493 -1.4085324 3.5677128 1.2463777 0.24795365 2.6247315 1.9847592 3.0947325 -1.2884973 -2.2480028 0.12320898 -0.5049049 2.25121
queen -0.44470355 -4.7567406 -2.3951225 5.068352 -0.18614432 2.9219787 1.0610458 -2.4279249 -1.8493942 -5.1969476 1.0468116 0.7065165 -2.7039993 1.4071364 1.7171067 -2.2077026 3.5598388 2.3442945 0.49764737 0.75160176 -2.2766693 5.421621 0.56260276 -4.073988 -0.046318583 1.1516438 -4.167822 1.9721524 3.7131162 1.6468084 0.37212548 -0.12788048 -5.320872 6.4426775 6.8192163 0.7844883 -3.6818619 -6.7540064 1.8577689 2.684757 1.549433 -3.9341938 3.0663502 0.62431985 3.2348688 4.6332297 -1.5932349 -4.7382407 -3.9800222 2.9554482
fuck 0.23444474 0.32216236 0.4159216 0.40957192 0.23029253 0.23179449 0.40501526 0.56416225 -0.11431302 -0.12596937 0.57112837 0.38922098 0.34539506 0.4325459 -0.12416764 0.25817645 0.26033846 -0.0059984997 -0.5573478 0.22584541 0.15274127 0.16788961 0.28520173 0.36491522 0.37578174 0.3595318 -0.13638379 0.16550462 0.6067202 0.47289142 0.35300618 -0.4320063 0.30394444 0.15870932 0.47494373 -0.14996824 0.3750542 -0.09199897 0.33842933 0.016691463 0.23481429 -0.14711681 0.25671804 0.23111978 -0.18169102 0.34626946 -0.030264717 0.71928555 -0.11120026 0.43596518
skin -5.536105 -3.4782102 1.3255254 2.1369545 6.664633 0.8835239 -4.0922904 2.073205 3.5130498 -3.611863 -3.0983686 6.551273 -2.1101577 -1.4244835 0.62284446 6.3388267 -4.702506 -0.5859711 2.5825095 3.386624 4.6978083 -0.69624984 -4.9651694 -4.8622785 0.7686541 -3.9355087 -6.6938996 2.2294533 2.4931061 1.2213598 -1.1887444 0.089890406 -3.3626146 1.4371331 -2.6536293 -1.2581079 2.4085019 1.4805995 -1.4366138 -5.1880565 2.3923688 -2.0063157 2.7244868 -0.3369977 -0.060875867 0.70299095 -3.7164106 -0.24798831 1.3586688 -0.012029057
tournament -2.5512364 -4.5401287 -1.2948728 0.30563945 0.531666 -0.9180493 -0.575606 -2.8545215 -2.7902713 -4.7580194 -0.44278646 -7.072803 -6.487904 4.97972 -5.7642965 0.673509 1.7778815 3.0526786 -2.3926291 4.546345 -6.698999 -3.8730197 -5.509595 2.2251453 3.740586 0.88508075 -2.1284332 -3.5272086 3.2841818 -1.7855247 -1.0822343 -2.2809172 -1.774532 2.4441967 2.0903277 7.6256695 -1.8305259 2.2297657 -1.1271139 3.6976433 -2.4231648 -1.0883273 -0.58693635 0.7323962 5.2890687 -4.7106485 -0.5299838 3.7327147 -0.594274 -1.6114969
cell -1.1750563 0.7008522 2.002955 -1.7370266 3.7999609 1.5840435 -2.1417446 7.0924745 2.3152473 4.7880683 1.2443085 2.8491652 -3.6814246 -0.94362533 -4.041685 2.1934922 -0.81922823 2.8665247 -3.6806974 3.2126927 2.756537 2.841128 -0.80162424 -0.9424071 -1.7005149 -4.981777 1.1505328 6.579856 3.4638562 -0.33425272 -9.749557 -2.4690158 -3.2167654 -1.3184755 -0.36621833 -0.11588682 1.1921352 -2.1241825 -2.4032094 -6.0743165 -1.1647607 -1.0166445 0.55485886 1.35742 -3.2141874 2.5794754 0.5351651 -1.3406224 -5.881702 3.3237636
summer -0.7465066 -0.2325331 -1.7719487 0.13077728 -0.63482153 2.2080464 -3.1222427 4.0424337 -1.0450345 -3.9257562 -0.051400848 -4.6309 -0.24526526 2.073357 -1.1338907 -3.0963383 3.7337694 1.9919401 5.3412886 4.1369452 -2.9061818 5.554235 -2.8428211 -0.6937281 2.101717 1.6568114 -5.280153 -6.594307 3.8614616 0.3725848 -0.28167605 4.9886823 0.52740055 0.67381775 -0.30666584 5.47776 4.8491125 2.753464 -0.21006763 5.329661 -1.6201656 -5.4927974 1.834895 -5.865062 -6.944548 4.5371084 3.1476421 -2.405179 -6.143421 2.3549774
crew -2.6625938 -6.385734 4.3495874 0.74653137 4.3842773 4.1045504 -3.3610036 -0.4995494 1.059166 -0.572267 -4.5068245 1.5275363 5.8644137 -1.4668404 -5.2253394 -2.0860386 -5.1451373 2.0006373 2.6349716 -0.14245029 -7.5056148 -1.0879104 2.5553768 -0.89400077 0.3762243 -0.06376119 3.3285398 -1.6888242 0.05060084 5.0952773 3.2190745 0.49837077 -1.448527 -1.4252214 1.3457637 -1.7113938 -0.7900281 1.5426393 -0.5530304 -4.8918157 -2.9080544 -2.927164 -0.65503174 6.53784 4.99546 2.3565943 -11.260689 1.6938843 3.2236693 0.32758534
defeat 6.007324 -5.561711 3.146035 2.433423 3.9356022 -2.0887144 -1.6505814 -1.9461646 -3.8686118 -4.609887 4.300558 1.6993934 -0.6352339 2.2308939 -2.3651655 0.176157 -5.0210676 0.2308594 0.09849644 -1.13484 2.2144268 2.3270807 -3.0887268 3.964069 7.2924304 -0.095464304 -3.9978518 -3.0143046 -4.4694376 -2.1094353 -7.3539696 5.30035 -2.4469507 -0.9810768 2.9360054 5.587808 -2.9955862 1.0974216 -1.0929478 3.370341 2.0720432 0.32546398 -6.518857 -0.30686837 5.479068 -2.0322866 -3.9051595 3.035693 -2.2838376 -2.583684
library -3.6467419 6.040534 -3.5412633 2.0010717 -1.8305871 4.9111047 2.372762 1.7858888 5.5509634 2.2229395 -2.8413382 1.3410411 -4.473658 -1.6004176 -2.1374671 1.3227278 -0.12176988 1.9968987 0.4697187 0.96764034 -2.8333838 4.270053 4.9985127 -1.095244 -5.4108677 0.1916358 -6.2625 -3.0884202 6.4268603 -2.407376 3.969953 -3.2179334 2.0171564 -0.07530685 0.78727627 2.5947027 -9.56109 6.053312 -4.4466906 -3.2011013 0.03228845 -0.6271813 -1.613727 -2.121602 -0.83792746 4.5778008 0.856827 1.2886152 -0.7039765 4.6934695
government -1.2507014 -2.8133495 -1.673015 6.319186 -2.3856668 2.7150223 0.2853081 -0.09103747 1.5450753 3.7131395 -3.0033097 0.49564853 -0.46378276 -2.07006 2.0090609 -2.2226307 -4.0764575 -4.4325547 -6.32593 4.6431546 -4.140975 2.733731 3.5294836 -0.27830726 -3.7125444 0.37252572 -2.913517 -0.024168983 -4.328723 6.3872905 -0.7744523 -1.4158854 -3.8460252 -3.5659497 -3.3463008 -4.1122985 -0.091262475 -4.726548 -6.0226216 2.2514203 2.3189914 2.1095827 6.0310884 -2.0211306 2.3620443 -4.6208634 2.681903 -1.4306588 -4.8798275 1.9662858
world 1.5804862 -1.3919293 0.12025789 -0.56966674 -1.2287933 8.190487 5.720428 -2.3730183 0.15078595 -2.5618272 1.7936811 1.2449479 -3.732617 5.1161413 1.282485 -2.0541866 2.8050218 -1.6534599 1.648678 -6.259187 -5.9909186 3.7581606 3.080615 4.406042 -5.71872 4.499319 -2.778117 1.6774395 0.49617872 -4.604082 -5.218072 -0.5605583 -1.6616732 -2.5671334 2.1459231 -3.6992114 1.2184904 0.19243073 1.8372346 0.79057646 2.5502062 0.26708505 1.4448079 2.4000351 3.4578965 0.13176575 -4.0550222 -0.040624075 4.4728117 -0.19225395
potato -1.8619959 -1.7983364 0.55209565 2.1566637 6.614522 -0.4016671 -1.7137206 -0.47991624 -0.46509954 -0.22185817 -3.8347785 1.0118338 -1.1510841 0.62146205 3.8802612 3.5850117 -1.5183654 0.010747822 2.0758712 -2.5810978 3.607167 0.2156758 0.05466059 1.9197823 -2.7208939 2.583589 -1.6757795 -0.44122463 0.93561137 -0.24855249 -0.5264526 -0.41726673 -2.4582705 1.1627656 4.963722 -1.579431 -1.252391 0.5105899 -0.19686492 2.3936615 3.9187522 -2.236811 2.7338324 -2.3041747 -0.2525727 3.376514 1.6044956 -0.03901431 -1.848567 3.675857
astronomer 0.97455776 2.1592667 -0.24207821 0.3036389 1.795225 -1.6555681 3.9028018 1.8179591 -0.24423449 -1.4009 1.5725802 0.14028642 1.6532413 -0.08772828 -2.7173166 -0.08420605 -0.9887022 -0.71889496 0.9470696 -0.9646148 -0.31661025 0.6187262 0.42943478 -0.6382925 0.45378715 1.9601219 0.6458848 -0.3159529 0.9133412 0.8957218 -1.8814089 -0.040026914 1.4123154 0.9083634 0.6141479 1.4117246 -0.24651334 1.0154585 -0.6008944 0.4162108 0.7108663 -0.39547607 0.09793031 0.9948229 -1.6054411 1.8840846 -0.23269843 -0.95829034 -0.2925367 2.669953
morality 4.318124 -0.054391973 -1.6871793 1.9094058 0.4594918 0.35925764 -1.1594603 -0.84122425 1.1935248 -2.4379957 0.9445039 -2.7430875 1.4470377 -1.4572448 2.7055929 1.8098276 -2.6737087 2.5290318 -0.6357385 -0.7845845 -1.1803856 2.0008643 1.990494 1.3946999 -1.5864878 -0.7706879 -2.4743187 -0.96991843 0.7992635 0.035177205 -3.9068391 -2.2860446 3.1745107 0.6114521 -1.8203672 0.9132321 0.046733838 -0.48475248 2.6431322 -1.9977976 -2.2183824 -0.22711438 0.30435628 -2.0718706 0.28878027 -2.8471527 -1.6364206 -0.33618748 -2.5486856 4.1739545
nurse 1.5519081 0.97791404 -1.123943 4.2629056 2.7603292 0.03132033 0.51769006 0.76109004 -0.2790621 0.09104473 -3.0556962 0.4360402 -0.73395854 1.8821023 2.6406891 0.38198984 0.87279403 -0.5689983 3.9560544 0.25671473 5.071206 3.790603 -1.165154 1.209324 3.1774287 0.4284565 0.5085672 0.6386031 -0.6299534 2.7110193 2.5785913 -6.1351933 -0.33771178 5.1300635 4.528365 -2.7313745 -0.5508938 -0.11613091 -3.4172776 -3.029044 -0.8368951 -1.548193 -1.5794479 5.7006454 1.0976206 2.4991558 -1.9354337 1.8725555 -10.615065 3.306042
prejudice 0.63553154 -1.6963174 -1.9711772 2.6911855 0.58427006 -1.0927801 -1.0300634 -0.49349767 -3.1657937 -2.013015 3.1237779 -2.3730571 4.051057 0.2613937 0.8431333 1.4205151 -1.0511984 2.945208 1.2013203 1.7107104 0.7397856 0.31400982 0.21856302 -0.47326332 -0.71331084 1.3655852 -4.3105726 -2.7015064 -1.6473465 0.46047595 -2.4710178 0.94023746 2.0594234 3.7970014 -3.4660985 -0.17139943 3.2072845 -1.6273158 3.6167774 -1.7094523 0.95202327 -1.3394964 3.322997 -0.718044 0.8831736 -4.776731 0.15675044 -0.81222403 -1.2654786 0.3953298
man 4.8484488 0.2747373 2.264668 -1.7860289 -0.84387326 3.747627 -5.16561 -1.3014957 6.384954 -1.7191184 7.3063064 -2.052347 5.2465734 2.0255864 -2.2479048 4.6480446 1.0330359 -3.750365 -4.145565 2.0811484 -1.7017876 7.143131 2.2859843 0.7161033 -1.1878222 -0.22577035 -4.552916 0.28367308 -0.3918993 2.6189444 -6.100106 -2.5346758 -2.756594 0.6967889 6.2370896 -2.4279857 1.0956973 -4.0734396 -4.146516 1.9191098 -0.014851987 -2.4520519 -0.2712664 2.9879391 -4.4485364 0.76663774 -2.352665 -4.9305778 -4.33758 1.0381194
deployment -5.003096 -3.624079 -1.8962096 -2.7781126 4.381595 1.417259 3.919752 1.2347281 1.388765 4.1138806 -1.7076807 -0.49614835 -3.5414584 -5.6065965 -7.692304 -1.8106977 -0.62930626 1.2743026 -5.3266854 -2.1482031 1.3023411 3.3426306 0.3142601 -1.0202228 0.9776239 2.3737803 -5.6900225 -2.54255 0.44492602 4.2968917 2.0219371 6.117147 -1.3571019 -4.799265 -1.3444395 -3.4780383 1.5985028 4.80755 2.6694431 0.70814675 -2.3417695 1.1285537 -3.0639884 0.678351 -2.1469245 2.323688 1.9211282 -2.3246422 0.8781512 -3.7826345
bread -3.0925727 1.9488273 -0.55691284 -0.30814433 5.592746 -0.46743718 -0.82385767 -3.4601996 2.477527 1.0679892 -3.1273935 0.9302525 -3.699183 2.8199935 5.616352 6.40517 4.243333 0.09743337 0.3606815 -6.157198 -1.10503 -0.06837126 3.5568678 3.0619252 -0.99432784 0.47999626 -0.7345967 -3.7651312 4.66666 -1.9360543 -0.41146478 -1.4116862 -1.2973058 1.2982731 2.0076647 0.73575884 1.0442022 1.9816247 0.60956645 -1.6119531 -1.4478902 -1.624751 5.768503 -4.2202325 0.4934131 1.6232407 1.5872968 2.0044286 0.07737941 -3.2569914
television 4.088543 -1.6908191 2.3285153 -0.19061759 0.5188723 0.9052695 -1.4404922 -2.5289972 -1.2643287 3.1264913 -2.649085 -0.2666233 -0.57175237 -4.2400064 -7.383517 -7.9939523 3.140519 0.88353705 -1.7768544 -0.3305171 -1.530729 1.4494365 -0.31420037 5.452209 -8.295528 -2.0626397 -3.5755439 8.228391 -0.5308509 1.4199113 -0.6188661 -2.1534233 4.3726635 0.7149457 -1.5204225 7.718498 2.1766021 -2.3456905 -2.3920138 0.45005405 -2.333255 -2.0930011 2.9121675 4.4343705 -3.2158244 -5.2895303 -3.2140834 5.9873343 0.8888514 0.25194958
lover 2.7394588 -1.4455359 1.4862922 0.3995927 3.8560314 -2.4008045 -0.631123 -0.5254422 1.575651 -0.9156517 2.8776097 -1.527936 1.1475537 0.4633998 -0.31158987 1.4789164 -2.1311328 4.0495706 0.37827504 -0.9201008 2.1612499 3.8070683 2.008683 -0.4202783 -2.4325285 -3.428572 -3.7169166 5.106447 1.5388039 -1.4180169 -1.7677839 -4.037584 0.4975417 6.253716 2.527901 1.4159104 0.46423593 -2.3240554 -1.4503417 -2.9961033 -1.9843239 -2.4851966 -0.55106646 -1.2018002 2.3407104 1.8985277 -3.7360394 0.79973644 -5.5070105 1.9608284
change 7.7153597 -1.9315673 -0.30605823 -0.73591924 2.1777081 -1.0103871 2.0176506 -1.9457529 4.6573052 -4.566791 -4.1464243 0.70307595 -3.322067 -4.872591 2.9205384 -0.8926847 2.815916 -8.716916 -1.7099907 -5.946706 -3.0033412 -3.6184468 2.2415216 1.4085956 0.6371909 3.4902093 -7.248499 -1.4652625 -4.09342 -0.40910193 -3.7170746 2.894026 3.8133397 1.99297 -6.5208488 6.309742 3.4152844 4.0252733 -0.52509433 2.5774958 2.3141897 -0.04749159 -5.011726 1.5170962 2.516323 3.6643465 1.3818654 2.5996516 1.399286 1.3890046
health 5.9582524 -1.7239985 0.6457902 1.4782983 -2.3658419 6.1588163 1.7357352 -2.1255732 3.1306443 0.39321595 -4.9273076 -2.68077 -2.788399 -1.9712673 -0.36469144 1.150689 0.98155516 -4.808699 3.2280116 1.0143013 -0.27827406 5.1382685 1.820282 2.1518748 -0.05999754 -1.6322284 2.7002912 -0.6574255 -4.1745315 1.0682566 -2.7256432 0.37269405 -1.585155 3.5754304 -4.124265 -3.9222827 5.031354 1.5525372 0.5063054 -2.9309876 -0.46173993 -0.12569232 -3.860067 -2.8793402 7.517867 4.9586835 -5.221254 0.15242383 -5.7041187 3.2711618
computation -0.04353066 0.031970836 0.3380863 0.28547695 0.022639954 0.3149185 0.35099328 0.28968078 -0.12610595 -0.069107294 0.14031792 0.046399847 -0.1755759 -0.098069 0.07159474 0.22669356 0.25742528 0.018109763 -0.09078464 0.04601505 0.16054358 0.043792043 -0.26707244 -0.03575275 0.21152785 0.4551922 0.22360979 0.3214293 0.44977468 0.3979189 0.10753996 -0.2338812 0.12187431 -0.26230615 0.09042439 0.03961326 0.31937653 0.1475579 0.24882792 -0.19696556 0.5255415 -0.08735539 0.18880472 -0.09685261 0.50458366 0.15542118 0.16638038 0.33533213 -0.24927501 0.8158544
virtuoso 0.7492413 0.46057275 1.0166863 -0.72115 0.9823035 -0.6966434 -0.40965503 0.99848086 0.5972363 -0.46696347 -0.8760763 -0.5053226 0.3151172 0.5616882 -1.5456077 0.67841125 -0.582961 0.99103343 -0.4812264 -0.72776484 1.1993496 0.2840147 -0.94129425 0.18494463 -0.98255587 0.81901526 -0.40824267 0.3347395 0.7617424 0.044831485 -0.539212 0.32666662 0.7437279 0.12938203 0.6320679 1.8169913 -0.49020222 0.41705796 -0.4553154 0.5727627 -0.038571615 -1.7250048 1.483278 1.2992108 -0.6325308 1.2020948 -0.27941984 1.7721342 0.87969995 0.25362125
century -3.610027 1.0264964 0.27975646 5.4332376 0.14737411 2.5705028 2.2394476 -1.6748463 2.8635561 0.6354671 -1.7826242 3.006275 2.201448 0.1611003 -1.8801558 0.40390292 -6.3148556 -2.6242907 3.5798988 -0.059931226 2.7831523 1.7918768 4.7079625 3.5455909 -1.0404189 4.817628 -4.387171 -3.68694 1.5620183 -2.9571373 0.91475487 4.7941155 -2.7335227 0.79493135 1.054676 2.0742319 -5.2357945 2.8808422 -0.94889593 1.6096704 1.6342856 -3.2781096 -2.6591716 -8.693513 -3.1418426 -0.21353166 -2.8354688 4.690589 4.824509 5.0275598
discovery 3.3826356 -3.1209977 0.48038584 3.6454203 4.5249395 -2.6806872 -0.42244875 6.3478146 2.0509298 0.16923964 1.6199867 0.18073387 -0.2167642 -0.8437866 -4.8496227 0.30419382 -1.3944441 -4.1226106 0.38003013 -4.8939323 -9.168653 0.63783944 1.3911598 -1.7461381 -4.0921226 -0.40299127 3.9309874 4.750211 6.392778 0.46461177 -2.0242813 5.093932 -0.45549124 -0.5797185 -0.16487591 -10.40204 2.2794814 0.6592236 3.1043532 0.96308863 -0.70338905 0.45185992 -1.9725776 -3.7463896 1.0394363 2.57305 -0.13176566 -1.7884433 2.3648708 3.9293995
report 1.2367009 -1.0214263 -4.3675275 0.9399172 -5.726422 -0.52782065 0.48405722 2.2139904 -1.6645746 -3.252854 -4.356354 5.621999 1.586198 1.0829214 -4.132193 -0.051806957 3.4717166 -6.604409 1.98152 3.3274922 -2.6012275 -2.0206425 1.5987253 5.0942373 0.2814923 0.27049118 -0.11989873 6.9547825 -1.4084954 1.8355521 3.4702108 0.5639886 3.4954228 1.3243449 -9.664927 0.68390894 -0.3001809 3.586018 -0.2720749 1.7629936 1.3673654 1.1902107 -5.6118817 -1.0233902 1.5114527 -0.10926255 -0.7306429 6.1019855 -6.521603 1.4727339
madhouse 0.04473903 0.013450202 0.4481698 0.28604838 0.32256076 0.16257034 0.43803644 0.4050181 -0.0033878367 0.19803986 0.6100048 -0.09873722 0.2225734 0.262341 -0.02203492 0.16175736 -0.105543084 0.14007175 -0.53461325 0.06347092 0.18421887 0.032676287 0.46325818 0.550845 0.5968129 0.32957867 -0.2267555 -0.09112457 0.5181694 0.62706494 0.24325404 -0.10021471 0.44239426 0.306941 0.60629237 0.01940814 0.20129444 0.4593534 0.3599513 0.16593385 0.47967726 0.16162224 0.30436736 0.12814385 0.30535462 0.09039083 0.046560906 0.5861208 0.008787295 0.5181459
entity 3.244777 -1.7795172 0.81830585 2.4285703 -3.3965993 -0.7901689 2.9812872 4.519594 -0.09946115 2.1547103 -2.6362956 -2.4939818 -0.43123576 0.98590606 -0.34565037 0.77297676 -4.699706 -1.5520236 1.2799028 1.5350392 2.397107 -2.4099271 2.764266 -0.007829869 -4.6375546 1.8053973 -3.7967398 -0.98557025 4.1208982 0.849985 -3.7382388 0.39624485 -1.2172909 -2.2078836 1.8892784 1.887482 0.6441013 -4.8966517 -6.399212 -2.5685966 0.37122774 5.9979687 4.5770364 -1.5483329 1.7148697 -1.760359 3.16605 0.5730203 -1.3515648 3.6511993
opera -0.8654506 5.336917 0.93641937 2.074232 0.95107466 3.8886862 -0.89571685 0.9079593 0.9503049 1.8404568 1.8885221 -1.7788551 -2.6121898 -1.1736574 -2.8146513 2.2653913 -5.8957005 -2.116187 4.3184423 -5.2898345 0.25896353 1.0255762 -1.4669555 -5.011331 -3.9291015 -0.8729231 -3.8941994 2.4101465 7.066042 -1.7660348 -3.479172 -1.3507367 -4.201314 5.121543 4.8796024 7.306196 2.1233616 -7.798563 4.735561 3.7324762 -1.9027447 -0.66695887 -2.165192 -1.836957 1.3746005 0.5161166 -2.67668 0.6303497 -1.12312 2.3335829
sign -2.219462 -7.6307664 2.0386086 -8.233642 2.9355912 -8.712822 -2.1003 1.7647678 2.3221102 -0.21402617 0.50267965 -1.3860035 5.898651 -3.704921 -1.8169155 2.380419 0.27513638 0.16739494 -3.3445203 0.7819074 -0.66035545 0.7816466 7.5081973 3.8659308 0.7931146 2.0146015 2.8562272 4.3857694 1.2344573 -5.4954658 2.1013966 -5.303317 0.44709036 -2.816282 -4.64533 5.006135 5.5114937 -2.2848217 -0.13739121 3.3759334 -0.02540653 -2.4288049 1.8295947 1.790832 0.74579984 0.6760441 2.6261787 2.1956818 -0.49530268 -1.9840256
recognition -1.2766696 1.9317153 1.375156 -0.38050243 8.0919075 -4.001543 8.490394 -0.53002495 -1.1837757 -4.18048 -1.5643327 1.4140745 -1.0394577 -0.33217 -6.844233 -5.8843307 -4.1174655 -0.7065245 -1.5546353 -6.0972986 -0.31875917 -0.24799314 -1.6923944 2.6705432 0.3325751 1.2441087 -7.2188277 2.6490507 -4.8661113 1.922017 -6.678609 -0.92774713 2.2468638 0.60788417 0.311078 4.4551296 2.1572616 -0.46162757 -4.256616 -1.1374139 -1.6826417 1.1967827 -2.5572011 2.1869278 2.0319335 -9.453301 3.2477481 1.0459151 -2.2966783 -0.45493054
office 1.2672052 3.2724566 -2.8313515 -0.8252166 2.4750144 -1.0206469 8.472427 -3.6209662 1.7049835 5.6499224 -3.2452662 5.6434913 -5.6489005 -0.17457813 -2.711003 -1.3534365 -0.745264 -2.997975 2.9444017 5.7167497 -5.7057786 3.4551091 1.793472 -2.986287 -1.0378197 -4.0772953 -1.8134809 0.15829025 -0.20939158 3.4948494 1.2078052 -3.6240618 1.8752832 -2.5590298 0.15602744 6.7317886 -4.6388297 -5.0699935 -3.0355754 3.0150907 2.4504297 -1.7221316 2.825465 1.41405 -2.822118 -3.3459623 -2.1201062 5.374218 -8.379044 -1.3135276
lad 0.7166598 3.0188212 0.4639661 -1.1225553 1.8993336 -0.9898202 0.6288509 0.49045345 -0.97099286 -1.3467894 0.80742913 -0.49943402 1.7193773 1.5733618 0.7778386 2.165664 -0.38839856 0.3545906 1.6646585 -0.59783864 -0.7212596 -0.1577581 -1.2386136 1.6990865 1.2971691 2.674132 -0.076296836 -0.77829784 1.9390302 2.534345 0.057817828 -0.62204605 0.7932171 2.2677212 -0.29586667 0.05260994 -1.5057114 0.58076715 -1.2703333 0.1349272 -0.5508268 -1.232876 -0.16162722 2.3193645 -1.0885793 0.52398425 -2.6638784 0.70293236 -0.32629696 0.84421057
radio -5.0821586 1.5883077 -0.015961548 -0.5997549 -3.2333553 4.369842 1.2648045 3.0815885 -3.5491502 6.310772 -3.6280007 1.4431003 -2.340635 -0.68019915 -0.18324208 -0.895413 2.1538057 10.875306 1.5621544 -2.9737873 -8.368034 0.530483 -1.5275801 5.3139653 -1.0379298 5.291198 0.24829043 2.58685 7.020808 -0.26569405 -1.1927053 -1.4705222 3.3068402 4.905743 -1.662703 3.017334 -0.62391466 -3.9300714 -3.3805754 -1.7762259 4.77438 -4.1435776 0.46012697 3.0515718 1.4095416 0.7549733 -1.5075426 1.7645067 -0.9283514 -1.2744563
smile -0.925276 -3.747386 2.8156295 -1.6243749 3.9399035 -4.2266183 -0.6733751 3.6536875 0.11551059 -2.9100978 5.344651 -1.8676369 -1.0117015 3.147054 1.8367125 3.4652455 1.9457262 -0.40841025 -0.010797345 1.9285685 0.84598315 -2.2984374 -5.5427346 -1.1548313 -4.775652 -1.1134747 2.6650357 2.842901 -0.29688317 5.15992 2.0853963 -2.1236546 -3.78607 1.6154981 -2.367883 -0.06536423 -0.5642523 -0.95133716 -1.1149209 -1.1316651 0.401439 -6.469326 0.17111686 1.143832 3.4353151 3.6751597 -1.2545459 7.5596905 5.0057206 -2.508363
arrangement 1.4491465 -3.8549216 0.7584311 -0.9685728 3.1606185 -5.293522 1.919335 3.9441767 1.5166179 -1.992411 2.060421 -1.5549269 4.6974716 -3.3288789 -2.9994323 -0.21203485 -5.1484547 1.5141652 -0.5362102 -0.82515424 -1.394147 -6.038336 1.9716804 -3.625033 -0.4044913 4.4249463 -4.602193 -3.724615 1.574301 3.9600897 4.160455 -0.042455073 -2.768475 2.1759288 0.10285659 -0.4137835 1.3482515 -6.120114 -6.8736215 1.1918188 -2.3147993 -0.74223435 6.917027 -2.828639 -1.645399 -1.9399648 3.622025 -2.3530324 -3.4733963 0.17157045
credibility 2.0042431 0.15681271 2.5959907 -0.66949713 2.63702 1.5955672 3.856167 3.0356438 1.6421657 -5.3944826 -0.25036293 -3.3090754 2.5973244 -0.942285 2.9711628 -1.128942 0.27665257 0.42448124 -5.279097 1.8779722 -4.4036164 7.252234 4.895835 -3.720625 -5.534339 0.6843563 -4.916953 0.68360436 -5.7273307 -0.62235785 -1.8664964 -0.6597074 -3.5315244 -6.1684356 -6.6851783 -1.0021209 -1.9933325 -4.8097873 -0.49712858 -1.9453607 2.690598 -0.49960783 0.5375678 0.3276157 4.4244537 -3.3271325 1.8290603 0.6957249 -1.9707764 -0.37631238
communication 0.18784721 3.039757 -5.881269 -2.399404 6.817692 5.627726 1.8617889 3.9004328 -0.95327944 4.065988 2.8263416 0.2353562 -4.83664 -3.2951686 -6.2558193 3.4428458 0.515561 1.3565274 -2.5682602 -6.7496347 -1.3702972 -2.2885797 3.8705666 -2.7980883 -2.3505223 6.1770616 2.5575583 -3.4646327 2.524452 1.7010906 -8.262748 1.4355425 4.990339 -1.9667511 -1.4732267 -0.045087084 0.79345924 -1.6142055 -0.26967824 -1.723097 -3.056551 -2.7159107 -2.492835 5.2553296 4.7211685 1.253326 1.7249701 -0.98181546 -3.348181 -1.7721516
stock 2.633768 -2.2321954 4.112419 -2.9965432 3.9993281 -5.404908 -1.7017964 2.393629 4.0757804 0.46439195 -0.33722433 -1.2798519 -4.093883 -4.6279025 2.9058254 -0.49140078 3.1044612 -8.476388 -3.9491515 1.0822018 -5.1233373 -3.3795946 4.282522 -0.82797575 -3.9187298 1.8149523 4.033057 8.359722 3.7903085 -1.2026864 2.3292937 1.5786973 -0.19060731 1.3866172 -0.6116267 2.1753132 3.9739532 1.3195099 -1.9989871 0.36848474 -0.29774758 -0.6106749 4.29855 -5.699221 -0.19271798 -3.689443 -0.23393689 0.12750795 0.90724045 1.5570782
credit 1.0802895 -2.2315054 6.5560713 -9.335876 4.8262043 5.9623647 0.2783199 -3.3824608 2.8354208 0.22787322 -0.13199525 3.1924076 5.618495 -1.9440451 -0.9351515 -2.7612052 3.1865582 -0.9488737 -1.5945673 1.603028 -0.8226193 -2.0261211 3.0371766 0.07531971 -5.433405 -0.7490413 1.9499046 -1.4653497 0.87151694 2.0286608 -1.3220677 2.9355307 -0.031005256 -2.1845086 -4.0721974 -0.061648145 0.60043997 -1.177759 -2.330615 -4.058318 -2.0251615 -3.29542 0.6392511 0.63593644 3.213327 -5.2276664 4.154074 7.029662 -5.07199 -5.078937
citizen 0.36154673 -0.9578157 -1.970941 -1.81673 -5.751872 -1.1181101 3.0407631 -4.214276 2.455895 1.215852 2.9445133 -4.4534173 0.8097949 -0.12366409 -1.1291564 -3.716567 -3.1531088 -0.9278159 -3.5443046 2.9488418 4.213763 1.7984582 3.7619777 1.0682162 -0.16417979 3.596972 -1.0059419 7.326961 3.690349 4.486364 -6.800016 0.6337805 5.277025 3.8183682 4.178319 -0.19610661 0.9014604 -5.5389276 -0.22800976 -2.1114311 -3.2279978 1.3217688 0.9769142 4.711694 4.239503 -5.796876 -1.7313962 -2.982282 1.8900136 5.402145
terror -0.20262076 -4.5695844 -1.0617871 0.03605548 0.055565875 2.442404 -1.1616329 -1.516583 -0.04820548 -1.9100658 -1.1823461 -1.4755613 4.6455903 -2.1933632 -3.1273391 4.2211146 -0.794961 3.8135376 -3.9918385 0.09128795 2.4356546 3.1007624 -3.6371028 3.5125644 -5.745259 3.2550716 -1.4693402 3.2562268 1.5431247 -6.875372 -2.4848785 1.4322304 1.8400917 -3.3154635 -6.911898 0.52430314 0.82517993 6.701164 5.521992 -0.73170906 1.960975 2.7975135 1.6339374 4.4671645 -0.69239944 -1.1968374 1.2413691 3.280329 0.5371302 0.3841214
law 6.2264757 -1.5805404 -1.4151738 1.4706079 3.9252498 -5.71618 -4.285788 1.6443132 1.6212448 3.871706 -0.5657061 -0.7072675 0.12778094 3.2233868 -1.4637953 2.9426763 -6.0774055 -2.6001346 -1.5114286 3.7563124 -2.232913 -5.5271187 -2.1900823 -4.7080946 0.15405628 2.1358569 -2.846002 -0.66064185 1.3672931 -3.6048112 -7.8839936 -0.53200424 2.3855925 1.1981502 -2.3357053 2.6322365 0.77476794 -1.7578892 -2.9365373 0.94910985 -0.9756991 8.20771 5.5599256 -4.141022 -1.7458228 4.000915 -0.30219448 0.91423756 -4.401732 1.8577898
liability 1.9765859 -2.4126062 4.930266 -2.168555 -3.087414 0.007593861 3.5273123 4.9256015 1.776146 -0.72514474 -3.7942722 -4.0999365 1.2024618 0.026324281 -0.07814115 3.5396187 -1.8467258 -4.113087 -3.6849897 1.2000465 3.9239583 -0.504279 -0.6808015 -3.2296042 -1.5342442 -4.3277655 -2.804415 -2.3256052 1.0529954 -0.023343341 0.10322838 0.5744883 2.8480742 3.8115895 -3.0853775 1.8304361 2.7156448 -0.07321468 -3.1870723 -6.848183 0.48678732 3.794471 -2.291995 -2.2488184 5.438794 -3.6013873 3.1815479 0.5166688 -3.6147697 -0.4331406
equipment -1.4882339 1.476651 6.3520317 -0.55184 7.9552593 -1.9429547 1.6426765 -0.88667846 -0.102080345 3.8681505 -8.795582 1.3676105 -3.2236023 0.025464071 -4.2890453 -5.3703117 2.6031423 2.9993088 -1.6620147 -4.032928 1.3658576 1.9125118 -0.0076368144 -3.0209897 1.6973349 0.43957716 -1.3100852 -0.30627838 -0.37025812 1.7891302 -0.3458765 -0.3240371 -3.0308444 -5.278889 -2.0882695 -3.6228147 1.1563008 2.9677923 3.633993 -1.3081495 -1.3739214 -1.6890435 4.258688 7.977223 -3.4568708 -4.67685 -0.9278258 -2.663925 -3.0415726 0.5941866
film 1.6401374 -4.4628158 -4.3339086 4.501872 -2.395344 1.2673949 2.674043 0.0050651697 3.4027958 -4.941423 1.7801306 5.90217 -2.257992 1.1396897 -7.6096373 -3.5769615 2.4231656 0.4030539 3.1536674 2.3662374 -2.1817677 1.6417482 -3.400602 1.2864851 -4.816253 9.682996 -3.1706238 2.7171555 1.7482339 3.0835006 -2.3952057 -0.6172067 4.5666375 3.4535484 -0.7127127 -1.5285382 4.2593517 -0.91446507 -1.2359142 0.44177014 -4.4934072 -0.49974108 6.2149944 2.9485452 -4.542967 -0.2480954 -0.24074784 2.4782622 2.2570887 -1.3636891
admission 1.9978895 1.1657497 -2.4903257 2.0886562 1.4657131 -0.2466895 5.9526353 1.3436873 -4.1785183 -2.0755389 0.23987605 3.3667336 1.3942245 0.14749934 -3.924131 -3.3993294 2.0834527 3.102224 -0.6060561 -3.5819526 -3.7755768 1.5235709 -2.8579378 -5.499642 3.403178 -4.462621 0.78282017 -7.110414 6.496115 4.645846 3.9966648 0.5509988 2.648161 5.382272 -8.049092 -0.26963755 -5.550124 0.54857194 3.6059716 1.5118158 -1.2240931 -1.3373996 -1.8550075 -1.7806981 -0.93192714 -0.55825824 2.5289102 -1.2906392 -3.9439452 1.2403088
tool -4.632744 1.8455118 -1.3075724 -2.7708457 3.1918569 -2.9353786 -1.3502113 3.981028 2.3393598 -1.7007676 -6.154952 -1.6011292 -3.015415 1.894358 -3.90773 2.670155 -2.6511803 -2.3428252 2.0365384 4.3528514 5.732805 1.1063715 2.1713386 -1.1370208 -4.753524 3.4150982 -5.5138426 -2.5043972 0.1660884 4.9905396 -4.307701 -1.8565769 -2.183219 -4.1192207 -4.067568 1.8303912 -4.1980953 -0.2830144 -3.4286458 -1.6593032 -3.0314069 1.8220133 -1.2714913 0.4316311 3.1744459 3.456278 1.7909362 5.938132 -2.2356305 4.602005
professor 4.0170326 0.0575561 0.92752737 4.0338755 4.33979 -5.4535956 3.3286977 1.6266967 1.632121 3.9372299 2.2975147 -6.3433976 1.1771088 3.8239627 -4.8850036 0.15097617 1.6584939 -4.7143197 -0.48627013 4.364528 0.8590382 3.0426006 -0.38873658 -2.2395127 -0.01704954 9.749995 2.3557887 0.48398906 -1.8714578 2.7597914 -1.0190384 -3.6395068 3.409263 1.2534271 -6.5639405 1.5151128 -6.6803675 1.6881752 -2.6855392 -1.5204111 1.015288 -0.47761583 -0.6586051 -1.4572376 -0.5967724 3.3366277 -3.14972 0.831404 -1.1503861 2.7432222
governor -3.6324472 -3.195625 -2.5904748 3.1042814 2.094923 1.7430195 2.8884504 5.8869805 0.8159728 2.4592125 -5.6073985 0.03303487 1.1848727 -0.96188164 4.7414064 -1.4582679 -2.6991365 -2.0020092 -5.212536 2.3497984 2.6034575 6.2007446 -5.2000747 1.6126953 3.0253873 0.27668187 0.17016298 -4.5112147 2.759068 -1.4230641 -0.37732723 -5.3458495 -4.965487 4.2152567 -0.46946028 3.306155 -0.5407394 -0.38556495 0.37707913 0.944702 2.1224687 -4.2796464 -3.548379 -2.8124173 3.3974288 1.1047236 -4.0132885 2.1385708 -6.8989167 -1.758742
student 3.1456985 2.6877017 -3.190032 -2.3958104 -2.5241542 0.6509906 -0.5286176 1.2272173 1.8565266 4.0360603 -1.9665141 -3.8096912 1.3125119 8.380416 -1.3393369 6.6401825 2.587816 -0.37699127 -4.433849 1.9266192 -2.7978716 -4.024073 3.170957 -2.3153646 0.9814411 -4.392513 -0.822988 9.996391 1.1726605 1.259565 -6.0147595 -3.0968754 -0.57700765 6.9729753 1.9382724 4.6476436 -0.9271698 -0.14407043 -3.627666 -1.380079 -0.7164515 -1.8640777 -3.8504922 0.13730665 0.5667783 3.7556422 -1.1597492 -0.06957276 -4.209729 6.572736
fruit -2.9373164 -0.21441554 -0.7992798 -0.0348506 8.854543 -0.8326436 -4.762681 2.1196887 0.939423 -3.0513947 -4.176858 -2.5288594 -2.305519 2.6706762 0.9401348 -1.3100352 2.8020957 -1.9584671 2.8372128 0.61964554 -0.76630986 2.3534138 -3.028264 3.0065033 -2.5992258 -2.6098652 -2.2759635 -1.0884187 -0.8433705 1.520431 0.88382816 -0.09228719 0.8912806 -2.2402644 3.0909739 -3.9037914 0.017155254 0.014556781 -2.4588392 1.2578042 4.0573287 -3.046237 3.4598415 2.804981 -3.6474245 2.9998186 2.2617722 -1.2862474 -6.545012 7.0941834
media 2.5079265 4.2791133 -0.24061218 0.41217637 -5.1788993 4.2044053 -3.6173372 0.8041801 1.6762886 -4.5269766 0.5707246 -3.0085514 0.28301528 -0.23894191 -3.9663823 -5.506525 -1.5925838 0.68499166 -2.2328863 1.4939702 -2.2717633 7.5070786 4.0126724 3.6262953 -3.255039 3.0761979 -1.3562785 1.134388 -3.8317573 -3.5684326 -5.101788 -1.0907265 3.9962847 1.0112201 -8.374087 4.582026 3.507631 1.3344808 1.3059593 1.0333363 -4.3363276 1.6936084 2.7854986 5.9529757 3.7901833 2.2765746 5.84079 -2.9461706 -3.9944708 1.3739058
racket 0.10743357 -1.8343158 3.916288 0.41289464 1.8961853 -0.5235344 -0.91706836 -0.653422 0.20064478 -0.23553577 0.36548448 3.2333243 -1.1436718 -0.53898555 1.6932856 2.780412 1.4459846 0.6031964 -2.163319 0.78577095 -1.2334626 0.27504548 0.6393775 0.5195118 0.024154674 2.1103823 -1.5501789 -0.08712251 -1.0525917 1.8376886 0.3298735 0.62500536 -0.40377417 0.6638715 0.40205714 -1.7109982 -0.5074895 -2.1062334 -2.3605886 -2.5515702 -1.2199225 -0.77326554 2.950127 0.26610914 -4.3866167 -2.0810165 -2.378881 1.9103469 0.22227432 -2.159401
boy -1.0373992 0.27694252 2.779111 -3.2438903 4.476751 4.940541 -3.861337 1.897174 -0.10859328 -6.7956924 2.1772084 2.2029202 6.568858 3.6439772 3.2650163 2.832968 0.86291903 1.8140813 -1.7701963 1.0289942 1.0887102 3.9945195 -1.6025794 5.360058 1.1970804 -1.5459025 -1.1007168 2.8415751 -1.6010619 -3.1877983 -3.1672804 -2.1143157 -1.7210567 6.1627445 -0.49269253 1.7486991 0.7984485 -3.0081909 0.8208075 2.0735428 -0.8529631 -6.4008017 -4.336176 -0.46865106 -2.4955435 5.7113786 -1.8166671 -2.2857046 -8.651914 0.60538924
preservation 2.0262058 0.6833382 -2.3961506 -1.6585404 -0.9035197 -0.24454993 1.6159068 1.9437308 5.2189803 0.20216858 -2.9477756 -0.34600607 2.2102058 -1.1551925 -0.34460783 0.20172174 -1.7684283 -0.6699823 1.3128831 -1.4014398 0.77223486 -1.6196543 3.5893965 -1.7278224 -0.30272114 1.0467428 -1.3817286 0.7431655 3.5791054 -2.9231513 -1.2981578 -3.7351458 -2.084258 1.0792807 1.4247534 0.9960145 -0.31978756 1.1616472 5.019383 -4.729086 0.63664097 1.8705093 1.438972 -3.5437012 0.9263476 -0.3629868 2.9250145 -2.0522654 -3.3988461 6.204102
vodka -1.2467257 -0.718949 2.6875215 1.0685285 4.6740227 0.39600012 -3.5650976 -0.58250105 -1.136798 0.28238916 -1.4886553 0.011396699 -1.7006778 2.7275078 3.6681914 2.099892 2.0189435 -0.15037465 2.4359689 -2.4013107 1.0814277 -1.602616 4.101844 -1.1541767 -3.0078337 -1.0980015 -0.31238422 0.76985765 2.337449 0.67954767 -2.476784 3.1569564 0.614346 0.81712455 1.889845 -0.367474 0.14870799 1.3246869 -0.8103289 1.2682334 1.085485 -0.63906616 5.6951637 1.3894315 -2.4789193 1.954095 1.5883465 -0.34558782 -1.4101417 2.0553486
oil -3.1524978 -6.1589007 -0.379365 1.1718566 3.4984002 2.8499563 -2.1839375 3.3349993 2.6204503 5.1509094 -5.4048676 1.6929475 -1.3047974 1.1975685 -0.28930822 -3.2310286 -2.1001973 0.6427025 -5.1735954 -1.2671912 0.30726945 1.3751683 0.23820706 1.4464301 -4.8804746 -1.331133 2.481186 -2.036973 7.7009683 -4.2086525 -2.7954311 -2.1342704 -2.2174535 1.295383 -4.117713 -0.5166738 3.1822367 3.5982065 -0.5098875 2.8545156 7.3521333 0.52807003 6.595669 0.71262795 -0.4004098 -6.1998115 -0.01801232 -2.8581138 -2.1547148 -2.4000914
victim -3.9493728 -0.26315758 2.86501 -2.1958487 4.5633945 2.5099735 -2.9533548 6.732785 1.4276066 -0.16375098 4.7926345 7.1807632 5.899576 6.8087487 -3.8848245 0.5111676 -3.4691167 -5.674744 -3.8232527 2.0059652 4.99759 5.424393 5.1546373 -3.079153 1.8753594 -1.4737966 -2.5211217 2.8479424 -1.8012745 -2.0676553 -3.7675717 -1.3042296 -2.78934 4.625392 -4.7355795 1.0193577 -1.3086367 -1.7198436 -4.4994936 -1.4698505 -1.9985967 -1.8147054 2.3276594 0.9933815 1.8215978 -2.968313 -2.7115788 -1.9927111 -1.25022 -3.688077
row 0.020777222 -2.3713605 1.894696 5.1868434 -3.5098665 1.3538729 -0.5158413 1.1040213 1.9436954 1.5715858 4.338536 -5.4153047 -1.3152567 0.4494088 -0.7483979 6.640718 -7.0476737 0.7603445 1.9899048 3.7662468 -6.4421844 -0.7339533 7.5028253 -0.66964906 2.2760324 0.4552248 -2.9759793 4.4710712 -2.6173987 -1.8399398 5.7887797 3.9613383 -0.031822518 6.1375566 -3.819238 2.9437683 -2.7133844 0.705606 -6.4827185 -0.9255872 0.13067085 0.05969646 2.7915792 -0.92641085 -1.277535 -1.5016711 -4.325246 1.3957602 5.668556 -0.13223207
possibility -2.9309268 -2.715474 -0.13387896 -2.8850527 3.9296653 -3.1750407 -3.7364902 3.6926486 -0.28939003 1.9651314 -0.11541298 -0.73405594 3.9256577 2.179044 -3.439703 0.51198673 -2.5027235 -8.090149 -5.284974 -0.21957706 -2.2118585 7.437539 3.3540828 -0.25316736 1.716315 0.08428929 0.66063094 -7.5778437 1.0015725 0.32360232 -3.1550004 0.28809527 -3.817354 -0.8318955 -1.2091457 -6.496395 1.227423 -7.0870657 6.0223355 2.4111214 2.6236575 1.2855084 1.9803326 4.6165223 1.0124755 2.3945684 1.6448674 -4.386499 3.8421364 -3.6502864
consumer -1.2753379 4.1510987 -2.622612 -3.3400443 0.72570676 -1.3350434 -0.51633227 0.4222922 3.4582613 -3.79324 -7.4592547 2.902008 -4.1349897 0.2864845 0.6299952 -1.5924917 -0.9187303 -4.430076 -1.5775137 2.2044618 1.2383476 -1.6492097 2.3689334 -0.026708482 2.3315997 3.3966427 4.7470155 5.4526286 -1.5441705 5.1539407 -8.152111 2.3559933 1.4885958 0.18038303 -4.6983776 4.1542773 -4.481725 -2.720541 3.213631 2.8338006 -1.2325001 1.9236473 4.3540277 -3.1101885 1.0669839 -1.3179331 4.0927763 3.7898297 -2.5410933 2.8687453
direction -2.9073157 4.972246 -4.5163655 2.1739814 6.796671 1.2055436 4.749496 1.5380766 5.1743665 -0.1581849 0.49548826 1.0468972 -8.474696 -1.9124783 -1.9695103 7.7815776 -0.79444987 -7.026069 4.388957 -1.9599036 -4.1930127 1.4031461 1.0203419 1.0042826 3.0609152 -0.7776802 -2.2165139 -2.0241685 -4.6749077 0.49540347 -1.0762869 -0.25240934 -2.3266182 -3.8088717 -0.8438971 5.513413 -0.2632067 -3.9319122 1.8098967 1.6624321 5.0961795 0.22162743 2.4701715 -2.5168295 -2.241372 4.3068714 2.369978 2.3770213 -0.13223721 -6.118337
keyboard 0.028265085 -1.9193183 6.132041 -0.6743427 2.4374762 -1.9148651 -0.2949876 -1.1907293 -1.1196527 -5.2017555 -1.3267957 3.011713 -4.1210938 0.46902722 -0.97792095 1.6343892 1.2959156 2.0236554 0.87402827 0.48269412 -1.6724257 0.7203949 3.0428386 -1.1098447 -3.4056978 3.9354699 -0.08616792 0.17950223 2.7788882 3.3467414 1.0482117 -1.6437219 -1.4179 0.69116294 -1.9882668 1.2263641 -0.83029133 -2.4369113 -2.485237 -3.9319434 -0.13719793 -0.5715022 0.7717685 3.0511396 0.7060396 -0.19153924 -0.91482854 0.040719762 3.384914 2.5651233
rooster 0.08149835 -0.27287677 0.035461992 -0.004823151 1.0332477 0.12914045 0.11842295 0.19195053 0.10029185 -1.4309354 0.9030007 0.07591802 1.0587214 0.691911 0.8940839 0.30188584 -0.71871394 0.041378517 0.34822804 0.70933104 0.33421358 -0.6204722 0.15650761 0.68426687 -0.34867477 0.14589784 0.3185661 0.25041136 1.2821565 0.7150503 0.27572402 0.48936686 0.5432848 0.7907272 1.4311403 0.6846847 0.55486554 0.087155774 0.13724092 0.15493989 0.18444124 -1.5582576 0.96501476 0.738624 -0.6027657 1.0753745 -0.32408503 1.500886 -0.74134624 0.880536
