420 50
plane -1.9230266 0.82123274 5.2476726 1.1193775 -3.5334356 0.23102075 -1.9098293 3.3165374 2.6385708 -1.0372628 4.073063 -1.5069804 -3.8503106 -3.109921 2.4283638 -2.528147 -2.8999846 -2.5963993 -0.8485132 1.1027595 0.951632 -4.4026613 3.9954305 -0.7360289 2.8133826 0.01748622 -1.3585247 8.230547 1.5124382 -3.1531014 -2.0671194 1.0280348 4.883607 0.32600927 -3.023085 -2.5090508 2.9236841 2.0167058 1.9813223 -3.8280492 -0.6513258 0.23593535 0.6959148 -1.6322227 2.7422194 2.0241797 0.63668525 2.1418338 2.8425145 1.7642812
stupid 2.5232117 2.092592 3.3582773 -1.2685146 2.6810699 -3.402354 0.5220376 5.8180385 -4.1435933 1.5089697 0.17091887 1.6751566 0.18022567 -2.2019713 -0.91410923 2.4157531 4.138666 -2.1043987 -0.94241935 0.20335247 1.4348066 0.407098 4.872484 2.0790431 -0.40736842 -4.8153343 -0.5210796 -0.47728533 -4.2168484 2.5513043 -4.50232 0.59466195 0.7892577 -2.2460637 -3.6029103 -3.7994373 0.11080156 3.1439698 3.1825237 0.008016017 0.2446569 2.0790582 -1.3416206 -3.9678745 4.451824 -1.5572057 -5.294627 -1.5741485 2.705724 4.56612
egg 2.665991 0.31473738 -4.7244086 1.9734845 0.7431491 -1.5067189 5.4227242 4.368809 0.7485211 1.7372279 0.9807785 2.777416 -3.2914934 1.5544717 -0.4169458 -1.1975986 -5.480086 2.4677022 -4.4844985 3.0141985 0.3916883 2.3548586 -4.2939506 -3.214411 3.0703986 -4.110544 3.401808 -1.7408278 1.3671016 3.8886178 -1.9032792 -0.7688676 0.22904274 -2.3759344 -4.8380466 1.7537082 1.9846537 2.5131567 2.666123 -0.95276886 2.2697701 -1.1680171 0.8022349 -2.7782538 -4.5853515 4.1055465 -1.8457559 3.5189626 -0.7705367 -2.7073357
year 3.1432948 -5.099304 1.7404695 -2.2553513 0.53544486 -6.790532 0.91861457 0.5466445 0.5241218 4.4986224 -2.1958387 0.394898 -3.0606039 -3.1085968 -2.0169294 5.3994575 -2.7037377 -0.5873806 3.618866 -1.3135293 -0.18696505 -0.5750603 -2.969396 -0.9645811 0.031768695 0.40220952 0.6993473 -1.8135449 0.7492823 -2.2114167 -1.1487806 2.2001674 0.6083595 -1.008703 -2.3358827 0.2904593 3.6335244 -2.3160334 -0.31697488 1.8618785 -1.8395158 -2.1817906 1.4119222 3.3305287 -1.9419801 -6.5957417 -4.8960104 2.1783237 -3.1373963 -2.0341609
psychiatry -1.0330822 1.7650135 -1.7440917 0.9297451 -1.4306803 0.21348074 -1.1934737 0.17097084 -0.028557658 2.3156788 0.54302967 -1.7659568 -0.4230304 -0.01827932 -0.3073255 1.8715668 0.5827538 1.2862644 -1.6729866 0.19760448 -4.0865626 5.083983 1.093863 -1.6241108 3.4863102 -1.6682707 -1.9360461 -4.0527344 1.0583106 -0.41378424 2.7210667 0.44705486 -0.124524355 0.6675223 -0.9187671 2.1398933 -6.201846 0.20424266 -3.0911782 0.9867233 -4.247805 2.7232344 1.9273174 0.25123525 2.2524781 -1.2673358 0.04934422 -3.7242646 0.914936 -3.8858547
asylum -1.576824 -1.3644392 -0.3087648 -1.9144272 1.2342393 1.1506957 0.7405004 -4.099268 -2.182257 -2.1133583 1.7146571 4.1144633 -1.0256627 -3.652738 -1.568013 -3.2786474 0.41802698 -0.23016706 4.275648 6.090008 0.32946366 1.5151048 1.4485867 -0.2325291 -2.4092195 1.7293582 -0.7036859 1.4574655 2.5916512 -4.292226 -0.4643551 1.7270812 3.700566 -2.6848693 -5.333433 -0.32643792 -1.8447489 4.960895 -1.6066942 -2.4612048 -5.5600142 -1.0042313 1.5984327 0.011551575 -0.6219717 2.4874856 -5.2220235 -0.13707489 -3.7535121 -5.9333344
manslaughter -0.79186934 -0.35015783 -4.293245 -0.75923246 0.18424647 -2.9463732 -0.66389465 0.084434606 -0.92134166 1.6890894 -0.9274166 1.7377155 -2.627479 -1.1341546 -1.3697762 -0.06592605 -0.14490157 -3.5828755 1.5158379 0.87923604 -0.020949015 -0.27229232 -0.4841766 -0.52112496 0.53136355 -0.13359016 -0.9903957 3.3292825 2.5240881 -0.8390729 -0.51689017 1.2942399 2.2354298 -1.87603 -4.15111 6.541921 -2.09402 1.0781631 -2.2466812 2.361115 1.5247917 2.7233512 0.31776187 1.2392255 -0.7287194 -3.4318073 1.6675011 -2.0862088 -1.0090617 4.8498898
music -2.1437156 2.7071795 -2.1214793 -2.0094934 0.65581304 -1.9022069 -4.515533 -2.4145734 -0.45504504 1.5281812 -2.5495558 0.29057464 -0.5727104 6.590339 5.708374 0.9672058 8.169783 3.070921 -1.217688 2.6398208 -1.7735498 3.4498074 1.0853133 4.0404267 2.3981802 1.3212385 0.011110126 1.3012861 -1.2721094 4.249552 1.5166696 4.9154387 -0.46128976 -1.6992427 2.4386277 -2.468458 -3.0978012 1.0955106 0.74782896 0.34902382 1.806898 -2.0173144 0.31889105 0.8794403 -6.102644 -0.436406 1.8104589 -0.9436757 0.8001527 -0.9259975
record 0.44338337 -0.6383391 7.5059104 -2.3428295 4.0733495 -2.7063444 -3.5207734 4.375647 -4.585464 -2.1463275 -4.5995717 0.21148926 -1.5595014 1.0287808 4.3631077 -4.421333 3.4804978 -2.2417152 1.8901488 -1.232993 -0.271577 -1.9564123 -2.11191 5.2192 -0.2667976 2.1174357 -3.7856236 -0.568517 1.7522744 4.8296056 0.81318945 -1.667489 5.0987453 -1.12645 0.8408334 0.3068539 7.4976244 3.4475403 -2.432633 5.264948 1.5844074 -0.2458069 -3.8551912 -2.4327128 -2.0698113 -0.6738754 -2.9502718 -1.3506283 -7.698566 -3.6105478
energy -0.49982888 4.9488916 4.945489 4.914008 -2.1584258 3.224797 1.4811003 0.24400172 -0.9995915 -2.6510444 0.9657351 -2.322989 -0.17312635 4.226555 1.0559654 -2.8245635 -5.4356217 3.1291442 -6.0051312 3.7137687 -1.0760525 -4.8094583 -0.15102501 1.0331746 -1.4461536 0.4188492 -1.2554932 -3.9383228 -4.960369 1.5896238 1.7977856 -0.84216434 0.12960766 3.5773482 3.7078428 -1.8160574 3.1160192 3.9726033 -2.721594 -0.16062266 -0.29974073 -1.8199157 -3.0367575 -0.8102761 -3.2202127 -3.1527994 1.2186968 -0.7281223 1.2860849 -0.81234837
announcement -2.418392 -1.5105705 1.298375 3.8865488 8.877752 -1.1991887 -0.006893383 -2.2527 4.110294 -1.1256608 3.0112226 -7.8039412 -3.5466235 1.0834336 2.7531273 -3.4651935 3.004864 -0.5855405 -1.367835 0.85135716 0.3798615 0.057513908 2.633475 -3.5673084 -2.9645653 2.1174772 2.126752 5.311117 0.77462053 -0.1525171 -3.4511614 -1.4822626 -3.6541188 1.6883862 3.0367985 -4.147029 2.7120845 5.1398425 -3.9093258 -4.1183696 2.0998793 2.1624131 4.90766 -0.20733158 2.4666038 -0.037024215 1.640797 1.2962154 1.2524987 -1.527869
mile 3.2153172 1.8188416 -2.189463 3.2088335 1.2709248 3.547025 3.166789 2.9034016 -2.7147474 3.4587064 -1.4462577 0.1878392 2.937309 3.7185917 1.8393279 -2.0333192 -5.679307 2.2212527 3.4695373 0.86049455 -0.5295668 -6.0966134 -0.81182915 -1.7747452 -1.4969535 -0.009307098 -1.4235203 1.5501431 -0.659549 -3.6326368 -1.7112647 -1.4743721 -0.7008541 2.8097365 -1.5625126 -0.25265366 0.7877673 2.7013493 0.11274551 0.14765495 2.319382 -5.120639 2.0584877 8.057816 6.0907965 -0.55696553 -3.490029 3.3565078 2.3078394 -0.5166807
airport -1.4482288 -0.42424035 -0.33115327 4.917882 -2.6198735 -0.1382459 -1.421478 -2.201294 2.5475786 2.11397 3.0716224 -2.897757 3.3031142 -1.4166461 0.33365333 -3.2423968 2.9481988 -0.18340328 0.92881167 -0.4169558 -4.977244 -4.3395143 3.1823633 -2.4483392 -1.2455218 3.166679 -5.095912 5.518992 -0.0317581 -2.3951693 -0.6693037 0.9357532 1.3194256 0.09519809 -1.9034271 -2.8341217 2.5041971 6.5615516 1.6203122 -2.5042863 -0.17531429 -1.70531 -0.8170636 2.010355 -0.14862375 1.7078563 1.5042598 1.3521757 -1.3412234 1.4781024
population 6.171257 0.3768049 -5.6142774 2.5883145 -6.158295 4.6072097 6.5278764 0.0437761 -0.84458023 -2.974467 -0.029058263 0.7625502 -0.8389214 3.4120393 1.8618964 -0.41358232 -1.614433 3.383794 3.2580855 -2.0864546 1.9081196 -1.1315951 0.7773877 2.8174005 -1.212951 -3.5265543 -1.2287452 -0.16896917 -0.31583667 0.8698071 0.025753118 -1.2247431 -0.98533297 -2.3686552 -3.0479958 3.0089915 -4.8801584 0.05920521 -3.9563224 1.2746298 3.0630271 -1.6828784 0.82388526 0.82035434 2.8362515 0.47490865 -8.952263 1.0805237 1.8163233 -6.5261164
planning -7.3351746 -1.8161755 -2.119416 -1.7070858 -0.90614206 1.0241948 2.9798903 -1.6450533 -1.8764971 2.9687219 -3.9710836 -0.63357246 -3.1572747 1.309691 -7.923424 2.6175916 0.49864513 3.8550694 3.3402176 -1.8995794 -1.5778086 1.7880073 1.6541033 -4.5626526 -11.584325 2.1161976 0.7909548 3.2085276 -3.931009 -4.5499687 -4.58934 0.79883343 1.4200042 -3.447288 2.0807436 -0.39592278 0.10832635 0.50733536 -2.5538816 -1.1690731 0.51242656 4.758045 -5.590121 3.6450355 -3.4602392 -4.4040833 2.0175724 -2.9793334 1.8746456 0.2332055
canyon -0.050310113 -0.13030453 0.23922206 1.0853935 -3.7670398 0.7596039 1.5104307 -0.17054002 -0.6566658 3.2419786 -2.5105014 -1.5101026 -2.1865473 0.35485747 -2.1362 -2.8388257 -3.7660565 -5.103315 2.8867207 -0.5066415 1.0618057 -3.9592037 -0.8639198 1.1863325 2.8824656 0.46251464 1.5115303 -0.20929486 -0.35164142 -2.133474 -0.34860182 -2.7595782 3.7059844 5.9869785 4.083895 0.24518357 2.1752672 -1.702007 1.561402 2.7284946 5.3361745 1.2167634 2.0888147 5.032995 -0.5726293 3.634723 -0.58830404 1.0337241 1.1251209 -2.0527406
delay -4.7430515 2.681867 4.780836 8.912914 4.985386 -2.327306 6.1153784 -2.7986045 1.350815 -2.227969 -1.0921161 -1.8827946 -1.8744885 -1.0056221 -4.7956853 -4.3574457 0.19730423 -0.48381865 1.3029605 1.5899594 0.75750154 -4.1015944 7.6249237 1.4250649 -4.3585057 -1.3498966 3.9750311 -2.8521926 -4.2957096 0.8033433 0.49904314 1.052113 2.4143069 1.1001691 0.35601985 4.620409 0.8500422 4.738463 0.15678759 -0.09314515 0.07602507 7.208587 3.2480307 -0.46911177 0.6786549 -2.0893087 0.5309378 -0.64835316 3.8032322 3.5973039
size 0.6014074 -0.90570277 1.5803336 -1.3941815 -4.843307 4.3685308 4.8462114 -0.62415934 -2.4958508 2.510157 1.3502969 -3.4244938 -4.445847 2.4545887 1.5043969 2.2238858 -3.5746777 3.3307178 -2.3407235 -0.8731692 -0.78217846 -8.384861 -3.9638193 -4.585385 3.776491 -2.8740954 1.5669549 1.4316689 2.7237833 4.8790956 1.447996 1.2316628 -1.5678265 -1.1807748 -3.928761 1.7821432 4.37789 0.9875294 -3.434769 -0.5323718 10.305516 -0.3848339 -3.7730463 -0.8815206 1.5818369 3.57071 -2.1922324 1.2545631 1.8836737 -1.3041956
peace 0.15904804 2.1996644 -2.7435856 2.7720752 -0.029234715 1.5230749 3.9367006 -2.3305194 0.58657885 -2.5170403 -1.2566606 3.4265807 1.1880972 -0.43709677 -1.8212566 -2.311437 0.2813331 -4.7804284 1.436326 1.0676602 2.851646 5.928213 -1.4325647 -0.08766799 -1.2313019 6.037196 2.0630004 -1.1287546 -5.549129 -4.9791493 0.53197694 -0.1005286 0.25556043 -1.7403837 2.2033734 2.4202847 2.2446527 -1.7181591 -4.6038175 2.0012934 -5.562447 -0.14097895 -0.740023 0.2376854 -0.8150888 -0.087093994 -2.8866973 -2.6180398 -3.3275383 -1.844989
science 0.89206755 1.1920108 2.4965599 -1.5232421 -2.2587447 2.3543565 1.1424276 2.4245641 -3.128489 -2.9390047 -3.9722698 1.7319514 0.7666105 4.44934 0.9092351 -0.8432787 0.5112033 -1.7238852 -5.9733515 0.95982325 2.226455 0.45366466 2.2729034 -0.9058811 -0.62945634 -0.44987893 0.7822501 -1.4177762 -0.41334826 0.30379814 0.7177573 2.1520364 2.412259 -1.2546895 1.8594543 -5.962672 -1.8497616 0.1320701 -3.0041351 3.3522673 3.6817524 3.6794312 -4.752522 0.78923994 -4.8718414 -3.642746 3.761758 -2.7847562 1.1631944 -7.3396106
dawn 0.72871464 -4.83621 -5.4052353 0.6033393 2.6617494 -1.1125965 0.23074749 0.95568717 -0.21371645 -0.5844588 -0.718872 -0.20298816 0.5090775 -2.2878766 1.5183907 -2.2249267 -1.3313433 -5.994043 -1.2371138 -2.6454952 -1.9813017 2.9942117 4.3516107 -1.9124541 0.025627276 0.31856766 4.4543853 -3.4555385 -7.9841423 -4.668621 1.8185685 2.4230897 0.78659815 -0.6522345 -5.134849 -9.204038 -6.0015745 -2.64396 0.45986247 0.39740044 0.48303425 0.3511408 5.7423005 5.875596 -0.20060222 -6.2749677 1.8903801 -0.94042087 0.2682525 -2.4345465
brother -1.395633 4.4921374 -0.8368702 -3.154728 -1.3723716 0.057153456 -3.5533397 0.3157502 0.46395126 3.1520622 1.5192393 -0.8977297 0.046175264 3.8299663 0.23266417 8.560686 1.615568 3.793398 1.4980989 1.3209767 -1.0938964 2.3406892 2.658572 -1.9496424 -1.6786263 -2.4485435 2.319148 9.058044 -4.3757277 0.5512528 3.657566 -0.9200142 2.9976888 4.2475343 1.936431 1.0094554 -6.2624044 0.41898456 5.2157016 -1.1190262 -0.8405728 -1.14008 1.5698028 -1.9481758 3.80325 -0.5773492 -0.029919561 -2.283107 1.6034287 2.1265998
wine -1.2697607 -1.5150045 -2.200912 1.9711316 -1.1410161 -0.6445315 -0.017162867 -4.7414737 -0.60371274 1.2706752 2.6863058 0.51717603 -2.1957257 5.631523 3.2953 0.4326759 -0.63586074 -0.36014208 -1.5540075 -0.52638125 -3.1279154 0.71622497 -6.194877 -0.76637465 4.1690097 -3.9670355 -0.82791066 -0.39549085 -0.8281136 0.38131267 0.38549766 -3.9158316 0.48757833 -0.3099478 -2.2172213 -1.0408114 2.8155189 2.1217887 -2.622285 -4.143061 0.8995978 -5.2675138 1.7650621 1.0013901 -7.7094703 -0.5700837 -0.7737363 1.5339481 4.1943617 -2.7723622
object 5.3585887 -1.2237575 0.40863663 5.1878853 -4.6942725 2.3650627 -1.8445525 2.5055115 -1.7182662 1.7304152 6.4145103 1.4644864 -5.4468102 1.1863278 2.5830407 -2.3354878 -0.8970728 -3.0762258 0.7900601 3.0377572 3.0894415 -5.6860046 4.7274694 1.3877563 5.8722796 -1.2203526 4.1255236 2.3608706 3.2740736 1.4374549 -3.5034785 1.2407959 -2.543387 -3.0312214 -6.1879067 -3.53058 2.201929 5.2866936 -2.0257902 -0.18001202 -0.9807701 3.2011635 -0.6115117 1.3853576 0.047812387 7.9268055 -0.65063673 -0.57828814 4.3503933 5.218991
attitude -1.0458988 -1.5633049 -0.3062414 6.358965 -2.832503 -1.800134 -4.4380317 -3.3901772 -1.4723727 6.9893885 2.3359692 3.7389126 4.9019203 -3.6830728 0.69096196 0.6412311 -2.589517 1.3364494 -1.2403377 -3.0063708 -2.9366076 4.756982 0.25194934 1.1631128 -1.9775431 -1.7621312 1.2547634 -4.4784875 -2.9947262 -0.38262275 2.613096 0.0018578218 -9.233703 -7.2901273 -2.6308713 -1.6888833 0.103807025 1.286193 -1.3534231 -0.6556193 5.4222507 2.8023562 0.7770876 -2.9323404 2.724591 0.30860695 -4.3916883 -1.2684093 -2.9441812 -0.6312753
treatment -1.9173129 5.2884407 -0.30913317 2.2593675 -1.7113545 0.9619482 6.4091163 1.6991414 0.00533376 0.07312582 3.384251 1.7167798 -1.0445607 -1.7318032 2.4237907 -2.042339 -0.08341863 0.4756415 -2.0099883 4.599804 -1.4745063 1.5476073 -0.5908121 2.003494 0.95491004 3.8710299 0.77204275 -2.0049767 4.086657 -0.4174651 4.6034484 5.1213927 -3.2925901 -3.0934737 -2.5000403 7.860042 -4.1089153 2.4705243 -3.4803815 -3.2607665 -3.7519317 1.5359321 2.1483843 -3.912391 -3.0877495 -3.6108158 -0.9715255 0.9385438 1.0095675 2.3635242
flight -2.0759306 1.0003419 6.4516234 4.370812 -3.0591626 -2.0250983 -4.23829 2.9608476 0.04253228 0.9403686 3.380745 -3.3869927 -1.1637874 -2.445988 -0.8291396 -5.187752 -4.177697 -2.4102407 2.2957547 -1.5593777 -3.733929 -1.5220822 1.4517897 -0.84262204 2.5554843 0.022718124 -2.5082197 2.538815 2.2679503 -2.2869365 2.5378993 0.651947 2.4345744 0.2185961 -0.72172666 3.502393 1.5238901 2.6031785 -2.2396798 -7.340734 1.5525984 -1.378403 -3.15707 1.2676121 0.14264728 -1.4134418 -0.029807342 1.9786558 -2.581755 1.2277157
forest 2.330251 1.197021 -3.2600834 5.318497 -0.9099503 -0.5712751 4.9561386 2.0936594 -0.4348644 -2.6106834 -4.4167395 -0.69474316 0.572239 5.162342 -3.8093534 -6.267156 -8.441761 0.82216007 2.9608002 -2.1379938 0.05321388 2.579291 -1.80975 5.1021256 1.3585728 -0.3324384 2.725837 -3.285326 -2.047783 2.1861322 -1.8986266 0.3101932 4.308622 1.162465 3.118693 0.84917474 -3.5403612 4.6168594 0.78745973 5.113132 -1.1393788 -1.9379265 -2.0902665 0.078262635 -2.9470904 -0.20325099 -1.1877267 -4.3290253 -5.2114058 -3.616659
abuse -1.070574 2.0191364 1.1056492 1.5157167 1.2006638 -0.57522285 -1.0087233 0.4104566 -0.4736341 4.9946427 -0.7946591 0.6037786 -1.822964 3.5458 0.2702956 2.2342973 7.881121 1.1510315 -0.88097006 0.062293846 -5.6775107 3.1855445 2.9032602 5.480953 1.2539469 0.44384703 -5.316919 -1.1536752 3.5113313 2.2619507 4.5233874 2.2973394 -0.4486672 -3.9296675 -1.6507596 -0.13617736 -5.403642 1.777836 2.5888495 2.9916232 -2.832772 0.082901895 1.8895009 -3.7534063 1.6910027 0.5595459 -1.1928939 -2.168704 -0.48804623 -3.5269296
criterion 4.002253 -0.5204266 0.7459778 -1.4471787 2.2614863 2.949072 -3.4220347 -3.2730823 -5.047615 -1.3488233 -1.0839095 -0.42398372 1.0900098 1.7186637 -2.610718 1.614225 2.8854432 -7.080947 -0.37194067 5.5074077 -2.304162 3.2638907 -5.836042 -1.4121486 -2.9163 -5.544149 0.67035854 -5.2165413 2.1731207 1.8100698 -3.3605971 0.029566746 0.43949965 -0.8268924 -4.064168 2.5981925 -1.7038742 -1.0380697 0.39888728 -0.5013971 3.5924003 1.1914849 -3.7724254 4.7409964 0.88905054 -0.19536723 1.609825 0.91035116 1.1853806 -4.0501914
sea 2.9640718 1.550485 -2.186826 5.778542 -4.096571 -1.8064466 3.9858127 2.3097599 1.1085138 -0.6147995 -2.4936762 1.1824481 0.71184075 -0.39066356 1.6726595 -2.9755874 -6.038092 -1.9966022 5.9350843 -0.88995385 2.436232 0.6238308 -0.27070358 -0.8574774 1.5523365 0.5843142 0.19592561 0.66798085 -2.3584344 -1.6526849 1.0084499 -0.06167921 2.514722 -3.9481623 -7.4600563 -4.1978636 -0.22606856 2.5027766 -4.377256 1.6630617 -0.39081314 -0.764629 -1.1306217 1.834361 -0.978248 -0.8367956 -2.5418086 3.8230534 -0.26549044 2.8588402
dollar 0.8163675 0.25738496 1.904798 3.0462785 2.2775075 -1.5239521 1.0548683 1.2839835 2.2156265 -5.3073235 3.8843267 0.16432661 0.1127511 -0.2292425 4.2942057 2.266992 -3.8020248 -0.025652086 1.0993662 1.2155706 -0.018492205 1.3748811 -3.644804 4.355032 -1.9345981 -4.8153815 -0.4004973 -4.3295655 5.6828556 -2.8856406 4.4629965 -0.54812413 1.4212345 1.4785191 1.2076064 -0.95025456 4.9705625 2.1138632 -0.80995685 2.348899 -3.4033868 -2.5823216 1.8576071 -4.552203 -0.9997033 -0.10188223 -2.14657 4.1171155 1.3732636 2.1143837
example 1.8901259 -1.1235543 -6.0401325 -3.3621194 -3.5765257 -3.092319 -1.3296686 -2.1657674 -3.182253 -3.4130638 -0.32470992 0.37838042 -0.4736344 -2.636036 -3.0296328 1.8626249 -1.0636393 0.43642783 -1.6074709 -2.9432847 0.57699925 -1.2660204 -0.8903261 -2.0760434 0.18369533 -11.078318 -4.3083916 -5.3579335 -4.878517 1.0998938 -2.9753556 1.7933556 5.0981407 -2.9804676 -0.18153901 1.6653829 3.5168402 2.1771252 -1.256652 -2.720563 1.5163863 4.802094 -7.6726594 0.7147302 2.790223 4.061214 -0.19689956 1.5292193 4.184246 -4.3513083
journal -4.040229 -2.361843 -2.9801595 -0.4500175 -2.4856415 -1.0956923 -3.7832234 1.373164 0.02045066 4.0696607 1.9113761 -1.1241137 -2.6212554 3.3358114 3.1078014 0.49682665 -3.1629608 1.5418334 -4.6022735 -3.3696659 2.9377263 3.5714958 0.50862753 -0.7344785 2.6255763 -4.306363 -0.957962 -2.8382068 3.2017703 0.9318497 -0.5282481 -0.06906034 2.9440765 0.69087875 1.2470429 -1.2790753 -1.9237676 -2.019192 -2.9185681 0.45555696 -0.70226556 2.8118727 2.261322 0.5765585 -2.2605639 1.900686 4.6560516 -2.7508547 2.0669713 -1.6967988
laundering -5.6271067 2.5676265 -2.2153192 -2.0678725 0.28751048 4.766473 1.875135 -0.8188101 -0.10860888 0.97850204 -0.1419487 -1.1935105 0.057016708 0.32483155 -0.3298424 1.2370667 -0.34066904 1.188681 -1.3424543 2.821864 -1.8784211 2.242373 -1.5071483 1.1232578 -1.9928967 2.5611823 -1.9738742 0.50547165 0.53924954 -1.1629977 2.520043 1.1204445 0.5261934 -1.4383476 1.7754538 1.2548246 2.3690774 1.3640096 2.8475127 0.87338495 -5.6073875 -4.652048 -0.687433 -3.2949824 -3.960192 0.5941257 1.0744026 -4.1201344 0.99996597 0.075982906
hotel -3.017556 -0.21672747 0.719735 -1.0386255 -2.7402735 -2.706167 -0.50838256 -0.8205439 -1.1067157 1.6455717 6.502304 -3.0304399 2.4351785 1.3880807 2.4780169 -3.379548 -0.9990528 1.9371327 1.865243 -2.5776567 -3.8287337 2.9869702 -3.5822458 -3.9560876 0.7944 3.0452366 -0.5892165 3.7900996 -0.6871319 -0.25527552 0.69780844 -2.59205 4.345047 4.1650677 -0.5001389 -2.505522 5.0113683 -0.698359 1.4599798 -3.427108 -3.3048542 0.3242317 1.2526608 5.2821693 0.61625147 2.646306 1.9952707 1.328623 0.656326 3.8461578
term 1.9746746 -1.4235982 0.98088026 -2.3155901 3.3584146 4.159641 0.17337134 -7.1473536 1.7883195 -2.2832465 0.096994825 5.3059745 0.6327815 1.98483 -2.21427 3.921298 -0.46782452 -4.060605 0.43011242 3.032992 -0.01746533 -0.5049797 -1.5109473 2.7065148 -0.056864645 -6.803075 1.1750808 -5.0131483 -1.7425681 -5.4019685 2.5744705 1.5477765 1.4607542 0.72239214 -2.7132244 9.28785 -0.025251038 -2.5344155 -7.389417 3.7238803 -0.8784814 2.4878542 1.222981 2.9208553 1.0474333 -1.270102 0.43237382 -4.978094 -1.066283 3.0160038
listing -1.894132 -3.4770715 1.9014106 -5.62588 -0.013130248 2.1084569 -3.166185 -2.7590005 -2.1491847 0.2859034 -0.99117756 -2.589987 -1.3287625 3.511072 -5.4475656 -5.7711143 -3.2422879 -2.4147391 0.16783687 -1.3681747 3.3545685 2.691468 -5.4959793 2.001399 -5.9116187 -1.5476482 1.6219721 -0.223417 6.57282 1.8869542 -1.8438264 -4.436872 7.1306024 0.61252576 -2.8711517 0.3467064 5.903511 -3.4548311 0.2424459 -0.37958688 0.27229986 5.7861257 -0.8950978 4.0921493 -3.004438 1.9743234 0.6905314 0.60329205 1.7088902 -2.57228
chemistry -0.11258947 3.510344 3.0695286 3.0583334 -1.1500251 1.777409 0.23929882 -0.26925632 -4.3482614 -1.0101755 0.48982003 1.1935999 -2.558703 -1.2745701 -1.8050122 -0.351535 -1.9542059 -1.3358651 -3.8827152 4.454066 -3.3550851 4.128253 -2.2622592 -2.4881148 3.247198 0.68721396 1.6533567 -4.677018 1.3153455 5.3694024 2.7063808 5.347259 -2.4865227 3.269647 0.7570945 0.7802652 1.931124 -2.2572846 -3.1328466 2.57312 5.4442105 0.33649838 -2.827426 1.6383164 -7.7361383 -3.7208102 -0.7565128 -3.5775397 0.8601885 -0.248387
seafood -4.0696244 -3.653634 0.00845883 1.5475547 -5.6539736 -0.7650922 2.0769794 2.3144677 1.5287638 2.0826585 0.6471653 -0.72502536 -0.4993014 -2.3622346 -0.7353159 -2.8239255 -2.996902 0.61841774 -0.22046636 -1.0317552 -3.644496 2.18813 -7.134902 0.5058724 -0.034404237 -0.62343645 -1.9351565 0.80113846 2.3736145 -2.0572617 -0.8155722 0.42596582 0.87371 -2.7438922 -2.2062645 -0.5479868 4.1499624 1.7040362 0.13997234 -1.0508119 2.3096762 0.27558228 -4.2747464 1.0246624 -4.722847 -0.8909638 -1.6482968 0.6751875 2.0864766 0.11197553
mind -0.45699844 -1.2302468 0.023416277 3.2529407 1.9468058 5.9442606 -1.3123374 -2.9867063 2.2963903 -0.78330564 -1.360624 6.258847 -3.5905526 4.656498 -7.5250583 -2.2079775 -1.8912537 -0.8396278 -2.5475502 -0.58079815 0.22114518 5.553257 2.5822027 -3.6578324 4.4466877 3.5632083 4.1203117 4.2773848 1.1991755 4.9826508 3.4839578 0.61903584 -1.8777306 -1.7542175 2.5240731 1.1827755 5.9030485 -1.6339847 -1.0644121 -0.6545095 5.0831704 0.15432264 -2.0146708 -1.5592557 -0.5678318 4.0079784 2.7457592 -7.6059155 1.7344977 -4.1410823
sex -5.7621098 1.8843538 0.98022854 4.1313915 1.5411111 -2.0197341 -1.594545 -1.8641771 -6.27412 4.1722646 -2.8635676 4.9335523 -5.127631 3.0175529 -0.060281545 -0.68287855 4.5077786 1.051317 -0.47159517 -1.7177578 -2.2715364 2.4945135 -2.8629725 2.016312 -1.3411409 0.33848202 1.4177341 -0.92312026 0.9048849 5.2395716 -0.257575 4.0040436 1.0124507 -4.3474984 -1.9699495 2.5266616 -2.8691518 -1.0001522 2.9878447 -2.4831135 -2.5758324 -0.19577657 2.4247594 0.5255778 -2.8598928 1.7701102 -3.9208236 -3.6562793 1.7128682 1.2197678
food -4.9131117 0.9766825 1.7675955 0.13471629 -5.3971477 -0.93680704 4.309111 0.79586506 1.223918 2.9338417 0.3457752 -1.1526984 0.8443813 -0.3525144 -0.30653626 -0.42437944 -2.9509647 2.2587397 -2.5989754 -2.1500819 -5.392056 0.72496855 -1.5326297 4.1936936 1.0870643 0.92621815 -1.2787399 -5.7917953 -2.01586 -3.8511808 0.37152374 -0.13127601 4.6773396 -3.6757183 -1.9580793 -2.0703082 1.5047342 1.3054087 0.06800364 -3.1061797 2.3675246 -1.689304 4.4183884 -3.5543253 -6.147513 0.018564204 -2.0385075 1.8309681 1.3212711 -2.6724775
precedent 1.7210479 -0.038893353 2.1746411 -2.1646574 -1.7013733 -5.02592 1.4004755 -5.3116503 -0.76469123 -4.342823 2.4942956 3.610541 1.0468224 -5.551047 -2.9357424 -0.73629963 0.11569269 -7.0330567 3.1412814 4.9539905 1.3220109 1.8194821 -2.335227 1.6872985 -2.5437014 -3.5761085 0.4824258 -0.7321183 -2.9733636 3.1019578 -0.91713846 -2.0714269 -0.37703434 -3.2261949 -2.1880488 -1.6333244 4.6464562 1.0663184 2.0104792 4.024901 -0.46086183 6.6824174 -3.4758797 0.85928744 -2.9645631 2.8216846 1.6846312 0.20743187 1.0375731 -2.9711087
series -2.129764 5.3006263 4.2498503 -5.945064 3.6210432 -7.7678814 -0.042228386 4.418367 -0.054223984 -0.57633764 -4.4241595 -3.1035166 -4.2568026 -0.4146737 0.07419499 -0.8375814 -4.311514 -1.8503448 3.548424 -5.6994286 -1.6939192 1.4524049 -1.6795942 -4.0720544 0.73705566 -0.12557335 6.2242985 1.6179433 -5.3477397 5.7007384 0.57706547 1.773182 -1.2441001 -1.0993363 2.2749786 -0.72188115 0.9498041 -2.5259826 -2.8248622 5.073197 -3.9576693 1.1156721 -5.4788504 -2.247432 1.0965384 0.54937744 0.9185293 -3.5171785 -4.2351465 -2.5919023
kilometer 1.4005457 2.773999 -2.8603954 1.3376552 -2.529882 4.2416205 1.2907599 0.75444233 3.699267 -2.7551131 -1.0222776 -2.9732332 -0.94254804 -1.8327922 2.8080907 -3.1684067 -3.8932748 -0.4700059 4.1559525 -0.80417097 0.7788349 -4.303411 0.7604833 -0.4273893 -2.1662607 -1.2606981 -0.8050792 -0.07248451 0.378784 -1.7731965 -0.5618652 -2.6213093 -1.3566436 1.07606 -6.5859375 -2.3673885 0.6639628 0.057988297 0.03713959 0.3073592 2.4709165 -3.271772 1.2129172 5.373939 2.6786397 -0.42339703 -3.8657825 4.201253 3.802 0.48682085
grocery -3.4729152 0.71499574 -2.4887388 -0.72083795 -2.4311516 1.7347121 0.8612277 0.22761577 0.1231479 3.6462882 -0.6148415 -0.4687726 0.29586592 1.6217624 0.7870996 0.49441773 -2.158499 4.7224574 -3.8632407 -0.24235484 -4.1539745 0.14318779 -2.1943011 1.5075132 -0.06902898 -6.6212196 -1.5810302 -1.2127075 2.9888117 -3.9329364 -0.924268 -2.156376 0.386937 -0.19283399 2.4387956 -1.4185338 0.71282315 0.040921446 5.525754 0.897252 4.2820606 -2.9209023 3.552753 -0.05865492 -1.63662 1.2271339 -1.020687 -0.91850835 1.9092005 1.5707867
wizard 5.661483 0.32534787 -2.283638 -1.2685301 3.6841366 1.3194435 -1.1929897 4.302235 -1.5566392 -1.5298572 0.99586093 -4.472413 0.55034477 7.4506774 1.5908865 -1.8929025 -1.9017562 1.6438402 2.862334 1.9740245 -1.729969 2.3681479 -0.09202929 -2.2718763 1.490738 -4.821641 2.2909286 5.3867555 -1.8659276 -4.0057673 4.428249 2.0665655 -0.40357774 0.9568589 1.1220639 -4.222397 -2.6597214 -5.0762124 0.5499138 -0.76919293 -1.2661774 -3.7512388 -6.367263 -2.7074964 0.08883882 -0.45855215 -0.85616493 -0.31697616 -0.26055405 -0.3259637
information 1.2604228 -1.1253115 -0.5972477 -0.36506897 -2.6775277 2.447942 -2.4066756 5.4257035 -3.2595067 -0.27648687 3.3692074 -6.1066036 0.76020646 0.41779032 -2.441934 -5.7080836 1.8362063 0.34516487 -2.8177018 4.1517825 0.5927081 1.7751664 6.0908628 1.7066358 -3.3390753 6.545313 -3.2596831 -0.78656036 6.107302 0.40849692 2.246647 0.3794822 2.2254732 -3.9790428 2.3142288 -3.7487125 -1.123148 -1.1963838 -3.7191157 -0.87740695 -3.818622 -2.102695 1.6022327 -0.79155767 -3.0618293 5.178671 -0.64747274 0.98940134 1.2953762 -0.42623818
brandy -0.2226255 0.9195663 -2.5823038 1.9386349 -1.1280013 -6.8965406 2.4666474 1.4804449 1.2234765 2.9113915 1.3017411 1.0003428 -0.744802 3.5117505 -0.5975381 -3.6146708 -1.5876905 -3.9836402 2.2997324 -0.18394902 -2.0804768 2.062514 -3.742569 2.610899 5.2329283 -0.28480235 2.175715 2.716585 0.61442846 -2.1049664 -0.3639218 -0.8303078 4.8795314 5.3518004 -1.2794465 3.6888804 -0.087846965 -0.5471274 1.7254382 -2.3179038 1.1283619 0.37899703 5.5864606 0.28075615 -5.680965 -0.95492333 -1.8475031 -0.5224592 1.871613 5.9939013
interview -5.284701 0.5612312 0.8133594 3.0043485 5.15829 0.22326623 -6.386125 -4.770123 -3.3125389 -2.2500927 4.54327 -1.5482543 -2.0296977 -1.2627512 3.2811356 -2.0642126 -0.22201656 -0.5862521 -2.443689 -4.8958964 2.2322845 3.0172877 4.1693764 -6.909235 0.07516837 -0.77322304 0.25011432 -2.4777884 1.0100224 1.485006 -3.0050182 2.9917953 1.7905645 0.76063025 4.384674 -1.353517 0.898674 -1.8890985 -1.766012 -1.9190462 -0.12734415 5.710429 -0.22608578 0.2902956 2.0139825 -0.6340583 -3.6005285 -1.2004216 3.0160708 -2.1319673
prominence -1.3181616 -1.2346951 1.0972205 -1.2796941 3.7318552 0.47008288 -5.8971 -3.1383348 -1.1399062 1.8111439 2.6281657 2.2192147 -0.23112684 4.585589 2.818891 1.2719858 1.4821086 2.4150174 4.1460385 -0.05567926 4.8226233 -0.54969287 0.063296355 6.8037853 -1.8341825 -4.898775 2.293042 -0.35420558 2.6633313 2.3018126 6.5287447 3.0384853 -1.2481225 -1.872208 2.9226975 -6.830287 -1.7718102 1.932014 -4.865217 4.3824306 1.7859784 -0.72347784 -1.7246951 -0.7994889 -0.942689 2.1497724 -2.323523 -1.0827069 -6.28516 -5.724806
bed 0.88366276 4.0682735 0.87950426 -3.3372707 1.7795529 3.6561944 5.597331 -1.8298092 -3.2869773 2.0686574 -3.8716774 2.872648 -2.666283 -1.6149977 1.682506 -2.379498 -3.5108833 -0.33585855 0.84905565 0.09392227 0.14444289 2.7538323 0.09215099 -5.5769444 -0.2103828 -1.9550319 -3.6911013 2.1952775 0.39488292 -7.07839 3.5597687 0.67003787 7.1971297 0.19746366 -2.395401 -2.6341276 0.1263983 0.25224605 -0.9284831 -2.1233459 1.4640396 -1.2074059 5.250147 -2.7482972 -6.5886536 2.7576284 2.8976097 1.6914591 4.3397956 3.3979137
furnace 4.6845584 1.5855055 0.17126778 -0.008153645 -2.428488 0.82049906 4.891309 0.22447497 2.6802642 -1.1288236 -2.238648 -2.0789437 0.40159836 3.6555352 -1.2586402 1.5531526 -6.5956445 1.1851295 0.5358282 3.3680973 -3.6628919 -1.5694051 1.7337275 -3.3423514 2.5843275 -5.0265007 -1.6254337 4.914773 -3.6742601 -0.5230532 4.3709784 3.3909922 4.7780094 4.0234222 1.1960028 3.1002996 0.55659044 -0.7975749 0.24415952 -0.7183209 4.5097914 2.3259048 0.7747398 2.932718 1.3830396 -1.5811204 4.3932815 0.011728872 2.0149026 0.96165556
evidence -1.8279197 -0.282049 1.2026438 1.2625958 0.7651665 1.161245 1.5657984 -0.5375973 -2.8653436 -4.818497 -4.49573 -0.65099263 -0.3183458 2.1651525 -2.6155546 -6.1024547 2.347747 -2.8550441 -0.82398516 5.5657883 0.82054996 1.1547383 1.7475097 1.6273054 -0.69311255 1.6023145 -4.235079 -0.34257755 7.0863533 -3.2780545 6.094996 0.8788829 -0.7301241 -2.3827643 1.120941 -4.18101 -3.0783052 -0.595182 -2.7278025 2.294372 1.5809658 2.6857197 3.0024292 -3.7841926 -1.1300808 0.9213899 1.8265456 -5.2034297 -3.9645836 2.6183436
sprint -1.3958346 4.4604173 0.33237913 2.124311 2.1527796 -1.1260971 -4.0954666 0.9541524 3.9170656 1.0403193 0.2175298 -2.0549457 1.7447199 -0.713674 2.7912722 0.34942907 -3.449852 0.26484016 -2.5638049 0.9672165 0.5040757 -5.680527 5.6566486 -4.6169963 -3.6805046 -0.08052714 2.003018 -0.292385 2.83127 5.242388 -0.6665151 3.519538 -1.3565538 3.2342331 0.46226993 1.6640342 4.196882 4.382135 2.9065897 -0.21546668 1.995401 0.012045298 1.5487473 2.825091 1.354189 -0.95518845 -3.0398247 5.309443 -0.47649214 4.0630074
emergency 1.0105957 2.9479825 -3.1419194 -2.942592 1.1766789 -0.53047216 4.463576 -2.3841355 6.789948 0.2924224 1.8564316 -3.8675332 -1.0033873 0.21507299 -2.3864071 -5.573766 0.070436485 1.6771443 -7.007889 -3.090295 -1.3171843 -1.9822819 4.1705327 -0.92536676 0.8026664 -0.40220216 -5.7319922 5.703399 -1.4689187 -1.3623426 0.90026104 1.5605788 1.2333187 -0.09918112 -2.6297185 5.82007 -2.6287804 4.7255654 0.71186477 -3.1311157 -3.6196578 1.7830195 2.7030072 -0.114013776 -1.3466303 3.031408 2.5545485 0.08708138 1.9049083 -3.3565047
institution 1.4541849 -3.4379432 -6.0685325 -3.3392649 2.8261683 3.3413403 6.11726 -1.8011073 -2.8358133 4.283696 5.4141307 -3.4947798 -0.57792103 -0.038568363 5.6442556 -1.7016362 0.55688256 1.208569 -0.47173434 0.031296354 2.003601 2.858947 0.27671254 3.017136 3.3369305 -4.2998133 -4.392663 -1.6797239 2.4348788 -0.6936297 3.8392074 -3.8990273 -2.7962823 -2.2074342 -3.1271927 2.4739828 2.7178378 -0.15849903 -0.033918645 3.0515013 -2.5946012 3.2834334 -1.2100837 6.865065 -2.2710896 1.4605569 4.5628605 -1.3028271 2.1221757 -10.412653
bird 1.1974108 -1.0266895 -0.6500236 2.4698465 -4.9118643 -5.311529 2.2321105 7.9268284 0.9448863 0.09895645 -1.5253093 0.081721425 3.4041934 -0.62480026 2.2546666 -2.293124 -5.2440786 -2.8076708 -3.1053421 -3.2538302 3.3888392 -0.31016272 -2.4485693 0.44857365 1.790155 -1.2534846 3.7458246 3.2926266 7.345688 0.038798545 -1.7676878 2.0010407 0.048283853 -2.3170033 -0.24037896 -2.6780798 -0.63526684 2.4330916 3.6802623 0.95133555 4.9928155 4.709515 -3.1813514 -0.6193262 0.48116758 0.045856897 -3.757976 3.4238076 -0.9954811 -2.6915417
warning 0.5722884 2.0369043 -2.6579528 0.7655134 3.3258786 -8.612582 0.96319765 0.39408502 3.6261067 -1.8363365 0.38559902 -3.5756845 -3.1544876 0.6435956 -4.9912 -5.9590015 -3.6087115 -2.6359236 -1.5686971 -4.5352755 1.9935179 4.0650063 1.6723754 2.403055 -1.2095236 -1.871577 -5.228522 2.1807666 -2.3990455 0.3780005 -1.6489848 -3.5441422 -1.8780608 -3.4250302 -4.214674 -4.118714 -2.0919175 -1.6441642 2.368818 -0.69720143 2.5533805 4.4188313 2.455548 -5.2366667 -0.7775215 -2.2438033 -5.068177 3.042231 2.062922 1.8027029
implement -4.3846717 -2.4550107 1.7456534 -4.571901 1.4240898 2.8506825 1.3755046 0.32850164 4.4942145 0.1779204 -1.7094355 -4.336424 -0.24194469 -1.652026 -3.2128618 1.3455807 0.22272997 -2.5566802 0.014787605 -0.29690823 2.4256608 0.031367216 1.4649831 -1.5132219 -2.5777392 -1.7952678 -2.9030437 -1.2798574 -2.1056988 0.43911076 -4.044394 4.734771 -4.978455 0.56720537 -3.114653 4.864127 -4.5024257 0.17301458 0.323514 -1.2472167 2.1761487 -2.0515993 -5.3304005 0.7908739 -0.5617723 -1.430935 -1.3065164 -5.887172 -0.6564747 -0.7843777
train -0.7856734 2.4762533 2.5547469 -1.784718 -3.851048 -0.6487186 1.5597788 1.5374436 -0.007094221 4.939612 1.6751409 0.33188987 5.071891 -2.0779858 5.2911344 2.4051428 -1.0487794 1.3168925 1.7901306 -7.5864477 -2.5367112 -2.451139 2.2505372 -0.39996403 -3.8433366 -2.7602744 -2.0003476 3.788068 -4.9607882 -1.974268 -0.58935195 4.0887313 -0.5338693 -1.3141328 -3.9149234 -2.68448 -4.161253 -2.1912246 3.9131207 -2.8351965 2.7489579 -1.4305354 -2.2836785 4.4315124 -2.8527257 -3.1523762 -2.1774259 2.8843617 -1.4774307 1.6364008
area 3.752285 1.7797927 -3.7585554 1.533964 -4.9475255 0.35929486 3.6581306 -4.8446374 -0.6054847 -0.46300775 -3.1186483 -3.9833922 4.306499 -0.784317 -1.5716195 -7.055806 -1.1377218 1.435948 -1.5535241 -3.451317 1.2010128 -2.191719 -1.3671347 -2.4482145 -2.3771985 0.2304785 -1.432451 2.0077398 8.037146 -4.0496483 -0.44898567 3.197907 -1.9232032 -0.92862797 2.6449254 -0.16840358 1.5700874 -2.6849132 -0.6549331 -0.63383204 -2.477533 -2.7629313 2.1347866 6.8681636 4.033032 8.017624 -2.3973792 -1.6572624 1.0154401 -0.10258941
image 6.3731422 -1.0616187 -2.7016985 3.1373713 -4.9997516 -0.04888518 -4.3575797 0.4697304 -4.9703264 2.8084035 0.15190494 0.52099764 0.87626505 2.907962 6.093138 -1.8707685 -2.797129 -6.3881125 2.7112286 -1.3239869 0.24795797 1.0409777 7.983433 1.159147 -5.11706 -1.5702507 2.4223318 0.5059302 -0.60598534 1.6866996 2.4806361 -0.44276837 -1.8886867 -2.7428014 2.008609 -5.7418222 4.4846816 1.6358662 -0.914231 0.42589092 0.6199477 5.4806266 5.6552143 -5.305353 3.1475344 3.0666213 -0.3460171 -2.1303911 -1.6720258 -1.2052119
murder -2.176569 -2.0693347 -3.5616467 -1.6772063 2.0973823 -0.82004017 -4.0270267 0.57236296 -0.10878373 1.6917251 -2.6921659 2.2016582 -1.2454476 -1.9645008 -3.8491173 0.4551366 2.2264295 -1.785518 2.6899009 -1.6397527 1.5037028 3.645812 -2.180253 -0.1669631 2.1855357 4.28358 -0.8221012 3.320039 0.8756968 -2.3490202 2.4937487 0.92429936 3.7234485 -3.1114206 -5.2241826 1.6727675 -1.3109305 -3.9457455 -3.1902738 5.128432 -1.4086154 3.168542 -1.1549451 2.5768301 0.84825206 2.1550567 -1.6576912 -3.9068613 0.90413755 -2.1603837
journey -4.0561175 1.3523746 3.0470576 2.3175344 -0.12950565 1.9223263 -0.28516078 -0.021376504 0.8190742 4.5573406 -4.7341585 -0.4046141 1.3514049 -1.8703892 4.812514 -0.7626116 -6.563944 -3.6312644 6.919329 -1.2313226 -0.711246 0.96860266 3.7098393 -4.7574897 0.66948885 2.3933845 5.506323 -0.3121518 -5.2893677 -7.0305424 -0.2358836 2.562932 -1.1734143 -1.9178377 -1.9247808 -0.0860555 -3.6676834 4.8541713 -1.9113133 -5.262555 2.852441 -1.9288902 1.2662354 2.4275804 1.3238583 1.1695937 0.101519026 2.0539494 -2.0235214 -2.7391613
minister -1.9587252 3.8168557 0.4750656 -1.8489585 1.6425704 2.251439 0.07377421 -5.861641 -1.1869203 0.6549731 6.0782595 -0.63385886 3.2350314 0.07638451 4.325407 0.15618616 -1.0008327 -3.2861762 -1.1285815 -0.14369315 4.3115587 -0.24892724 -1.7261735 -0.46858057 -4.638168 -1.568334 -5.058682 1.5160164 -3.6170018 -2.0764983 2.8675988 -4.161374 3.7114148 -1.1671717 -1.9011432 0.054527357 -4.4951744 2.9048815 -1.9482409 -1.1614811 -2.0287747 0.94135123 3.621673 -1.2890799 1.3663673 -0.690595 -1.3217627 0.38851637 2.3395731 -2.7196152
planet 0.9858372 1.0587354 -0.3916414 5.571282 -4.07218 2.8917737 0.1400848 7.1377053 -3.1258864 -1.5142258 -4.0337296 0.014502346 -1.2188811 0.11790086 5.1600513 -1.4521278 -8.894849 -1.1477959 -0.6470922 -0.66379017 6.4306483 2.5142825 0.6982245 -1.7880976 -1.3412951 -0.84335786 3.8162894 -3.3736498 -3.6452203 0.8369245 -0.90368694 -2.2786715 -0.06680122 -2.7895846 1.2471492 -2.7677011 2.4743836 2.2261055 -1.3570429 -2.0406785 -0.2581291 -2.0434644 -1.4039145 -2.9155774 4.8567443 1.2980863 0.8773829 3.9851015 3.678392 -0.26506028
article -2.6258712 4.888472 -3.9216843 2.0126297 2.9043453 -2.328808 -3.510725 4.983661 -3.1255205 1.729485 0.68689966 1.288801 -3.2505603 1.5049378 -1.6184077 2.6259794 0.21946868 0.2817646 0.65011543 -2.590619 1.9761856 2.0783875 -2.8456316 -2.6519005 -0.61384803 -1.8772436 -8.004025 -2.6915312 4.639807 -4.4819994 0.25493073 1.5747739 0.6744723 -3.0573835 -0.034841225 -3.670565 4.969871 0.073211186 -8.750368 1.3038402 -1.4107043 2.116359 -1.6985551 0.6481979 0.9298465 3.3022647 -0.36775276 -1.2381618 6.4701576 -3.5300806
anxiety 0.14896867 0.27007952 -0.28638652 3.0987914 0.6814976 -1.766474 -1.9013752 -1.8300742 -0.62680477 6.380887 -1.7170317 0.34974307 -2.4337776 0.15837027 -1.4685633 -1.3072865 -0.95175856 7.433572 -3.3205597 -2.1390533 -0.5173555 2.1130137 3.0268261 3.497546 1.2079357 -1.7826362 -2.5824215 -0.273732 -0.5172882 -2.0949564 8.67147 -5.3674173 -2.6107402 0.08124851 1.9556237 0.993419 -2.314458 1.8475239 -4.437649 0.9577939 -2.459859 2.9493148 3.8360174 -1.0588039 -0.8922502 2.8805819 -1.9807209 2.2715425 3.6540923 -2.7897785
month -2.781302 -1.6349252 -1.3392149 2.6664894 4.8284 -2.1934216 -2.778128 -0.4643984 1.7982905 0.16526051 -0.4041713 -5.287477 -0.38809872 0.5884395 -1.7975206 2.3891962 -5.9272537 3.6218033 -1.1594751 0.46275026 -1.9686396 -2.72763 2.0281758 -2.1142309 -3.0386887 -6.4538035 0.34803563 -6.7407303 4.445325 -9.34495 -0.8302035 -0.68708307 1.5066547 1.402605 -3.8970864 -0.2712831 1.2805842 0.52977365 0.24465047 0.35540286 -4.0113406 2.2599313 -0.7778229 5.2043533 1.5659142 0.49159607 -3.1395159 4.504915 -6.905448 -0.9667422
carnivore 1.661646 -0.95322794 -1.5544175 1.9881047 -5.008378 -1.5018802 1.8746254 3.594205 -1.9399695 -0.8504367 -0.7686153 -0.65123695 -0.8588988 -0.5676941 1.3486441 -1.0547242 -4.818776 -1.5372318 -0.14958462 1.0274184 1.5979207 2.3175724 -4.4133425 0.69246286 1.6974226 -2.7066498 1.0485176 0.6528349 0.87713504 0.35834482 0.4750486 0.54636806 -0.9928104 -3.1367419 -1.968089 -1.2961648 0.8211639 -1.073611 -0.9543089 -0.5823233 0.62044954 0.8847379 -0.96541834 1.3005073 -3.0322933 2.2726982 -1.8917657 0.5781377 2.640638 -1.0695119
party -0.22909762 -0.5512926 -3.3199782 -3.4702463 4.5766582 -1.1434797 -1.8164047 -3.7435677 1.0441056 3.667607 4.0639772 3.232073 1.6560493 3.5807302 -1.144575 2.5305502 3.4388192 2.0597696 1.3924195 1.2316669 1.6992418 0.49689057 -0.98187435 0.23583648 -2.6479673 1.7341888 5.5838356 0.20812331 -3.8706906 1.5936549 -3.7022834 -3.2807765 0.49638885 -1.6738998 -1.3890376 -1.0805694 2.4373956 -1.2520504 4.32035 3.5357404 -0.45100957 0.50210667 1.8695488 3.315791 6.549934 0.09472108 0.6975774 -0.031103326 1.5883152 0.7587517
production 2.995817 0.51866585 2.0555124 2.3707557 -1.2751372 -1.6960601 4.1002545 -3.9932766 0.84646076 -2.6734045 -0.33543265 -3.3247175 -2.622004 1.087986 2.9082859 6.94274 -1.9335964 -2.6866033 0.785494 -0.19303621 -6.327134 -1.0662249 -2.0226498 -1.4601126 -1.7882272 1.6450405 3.331584 0.42975906 -2.3586123 2.5650456 1.3727871 5.6870365 -0.39880857 6.5273657 1.1955067 -3.5757742 -1.4666653 1.6928878 -5.096999 1.4962466 6.0181146 3.171216 1.9794515 -1.0527369 -6.2308335 -8.36535 0.5494919 -0.57220507 1.9317775 2.1571882
importance -2.1390626 3.0683384 4.2542253 -1.0526989 -4.36871 3.1450267 -1.8597031 -5.0112267 -0.20386592 0.59259224 1.4489918 -0.58642304 2.1105492 -0.7497677 -0.9938008 -2.8493402 -3.4657536 2.408836 -5.172293 -0.74528337 0.54874915 4.65706 -1.7898371 4.043705 1.9450012 2.0894513 4.8573904 -2.7196505 3.5217178 -1.1004733 1.6421994 -2.0886414 -2.4063144 -0.020127216 1.9117818 0.5059673 0.72392374 4.3337755 -6.6530046 1.4697701 1.656327 -1.2382113 -4.5493155 -5.867263 1.4029856 1.6152785 1.8268569 -2.9163432 -3.979282 -4.8755674
inmate 0.23380274 4.6643057 -2.3176293 4.3840547 0.5605609 6.012763 5.732326 -0.56534576 -0.30828723 2.8713343 1.5360261 0.92945147 -4.9081106 0.6980966 -0.18656558 -2.1955683 -0.27056745 -3.3024204 0.06771884 -2.079544 -1.0983502 -4.6303687 1.8114754 -1.2164038 -2.3596487 -4.1249523 -0.36106208 -0.12562856 3.749206 -4.637541 1.798663 1.1024086 4.887838 -0.9551255 0.6680691 5.8802476 -2.5535371 -0.030750614 1.0977862 3.2252836 -3.0959897 4.686174 -0.9227421 -0.4388101 -0.1956894 3.0525136 -2.774589 2.2413597 -0.020347252 -3.0432205
psychology 0.32559127 -3.4929419 2.7072248 0.34737372 -0.12221169 1.8135118 -2.7404296 1.3152294 -2.1349914 3.1116822 -0.5516667 3.7666833 0.46641546 -0.2790819 -1.8065577 -2.5416474 1.911265 2.860346 -1.0794194 0.265467 -3.8415751 2.4856863 2.1132262 0.4296482 3.1051571 -3.374905 1.1706263 -3.3971574 2.539057 4.976205 4.748057 0.26066452 -1.4513485 -2.7684672 0.7361599 -1.9697121 -1.2370313 1.160717 -0.9121541 4.722725 1.5274972 1.9707544 1.7645864 0.93231606 -2.6818514 1.3232704 0.30239743 -6.0188107 1.1912668 -4.2417073
medal 1.5143679 4.895885 0.21677423 1.2256237 -1.4184836 0.45467576 -1.2504637 0.0032298416 -2.2263494 -2.7383862 2.198451 2.0448625 1.6603944 0.22749712 1.0377749 -1.3872699 -3.0096235 -4.7645426 -0.4366015 2.8643522 1.6911175 -0.04905756 2.996157 -1.0764287 0.20331664 0.51850736 0.3911318 -0.39355046 3.2254682 -1.8686612 -1.1661665 -0.27282584 0.04651217 3.0837436 0.5569931 1.7727703 1.2021928 2.4712472 -1.612501 0.895206 2.477189 -0.35243347 -3.071888 -0.29884732 2.0334408 -3.9951148 -3.4505997 3.6544108 -3.6283374 -1.9559224
company -2.0293581 0.118443936 3.0989442 -0.33348146 -2.1881819 0.035206385 -2.7911775 1.3322873 1.1538094 6.074996 6.3687487 -3.9053104 -1.1965698 2.4525578 4.326251 4.3463693 -1.4390941 -2.7230027 1.3660812 3.3173351 -3.2326365 -0.003824845 2.9948819 -1.8156445 -1.7423072 -0.6754013 0.33415097 -1.1647595 1.4116458 6.80774 -0.9452884 0.044171438 5.9397078 -0.94902813 0.606547 2.8999803 3.5446577 -3.2497065 -1.4105289 -0.35634273 3.0737753 -0.21719612 3.0958622 0.6617327 -0.19360161 -4.497398 1.6884102 0.81840754 0.6007439 2.5218594
live -0.33112264 2.836754 0.6771841 -2.156055 -3.6009204 2.8309226 0.06289362 1.5186535 -4.767477 -6.605067 0.42633143 5.316801 -2.746239 6.4869514 8.971574 -0.9967023 -1.2936711 -1.3042477 4.790243 -2.2621558 5.4224114 2.8552244 -0.13775796 0.74609894 0.9074385 8.42952 -0.023778953 -0.6424286 -0.51923144 1.543217 0.25610787 -2.062407 1.2116323 4.62579 2.7162557 1.6172401 -2.787198 -1.6826187 -1.0452285 -1.9966407 -0.9013342 -4.3497624 0.6061828 4.836587 -1.8281147 3.6152446 -2.9366257 0.34110135 2.1881454 -2.4391863
holy 0.5929935 3.9356706 -3.573588 3.5396872 -0.69037527 -0.11036694 -0.6343089 -0.792957 -0.8425172 -1.6504173 1.2725867 0.42996705 -1.635345 3.9525046 -3.7286224 -0.58470553 -4.470585 -4.5386753 1.9921091 -2.915085 -0.15310274 1.470254 -3.929146 0.5804075 1.1030577 -0.6797635 -2.1779263 -4.3596816 -1.5405154 -7.5297904 -0.37206906 3.3097887 -1.7489958 -1.2568294 -0.5754399 0.72994983 -2.7067537 -2.4024065 2.4936118 -0.6027241 -2.6893172 -2.5659807 -7.3943973 2.6246183 2.2933848 4.154636 3.187265 0.0026226917 -0.51184726 -4.1949224
ticket -0.40376082 -3.5765333 3.5010097 4.642266 2.8461401 -2.327934 -4.481656 -3.903877 -2.938784 -0.5795476 2.7253807 0.34862453 0.179856 2.970002 1.2728872 -0.90819025 2.2748573 1.4036702 -1.1281333 -3.5373356 1.2582278 -7.774895 -0.6774769 -2.0229805 -3.9311216 1.5226133 3.1498353 1.3850534 1.4385095 0.64709324 -5.6624403 -1.4398892 1.8475894 5.548525 0.38417736 -2.623969 5.3418756 3.292211 1.2958727 -0.4878258 -1.2040253 -4.179592 0.83091384 2.9472644 1.0448625 2.9321315 -7.3661885 5.1920853 2.3750196 6.507517
victory 0.8666187 5.1223283 -2.506319 3.9387043 2.2198477 -0.97250044 -0.66987175 -0.30021068 2.5208752 -1.325442 -2.3435886 4.463049 1.1577842 2.691419 4.758585 -2.6611001 -1.6149846 -4.547604 -0.21255742 0.20548002 6.0893764 0.638962 -1.6886505 3.0335495 -0.849119 -0.11620438 0.06692293 0.10524805 0.69422454 -2.0570085 1.4072058 -2.142156 -3.424541 -1.4420309 2.5651574 5.293176 4.541867 1.8902125 0.56876785 1.0754204 0.5096875 3.8769476 0.8551821 3.833691 6.55711 0.5417289 -3.1863174 3.2652352 -5.9439216 -3.0237796
football -1.0218668 1.3471224 -1.3834815 5.4807715 1.2735759 -0.22316977 2.6978183 0.8982313 -5.378544 -0.024222506 0.54834265 -1.2535902 -1.0842307 2.5588243 0.41143355 0.8225039 0.52841645 1.384969 -0.6068044 -3.8363981 -2.433924 0.36996675 -3.9236422 1.6349134 -0.9819933 4.86945 0.31075594 0.47712436 -2.6881325 2.7562242 3.0807538 -0.3591008 -7.0572534 -1.9182147 -1.2582142 2.833712 -0.030815296 0.5868047 1.9907001 0.9137058 -2.2065144 -2.962979 -8.963241 3.6015375 0.45916256 -2.2309067 0.21980982 -2.060036 -1.0209382 -0.74810153
seepage 1.3451816 -0.75172913 0.24919741 3.005559 -2.3930106 0.81371135 3.6868007 -0.24978831 1.1728333 0.9557826 -0.59609354 -0.8251125 -1.1328661 0.271045 -1.1401058 -1.7281812 -1.517985 -0.48141825 -0.101879016 -0.6450923 0.095965 -0.57709014 -0.8588454 0.5876388 0.52046466 -0.8156479 0.33846185 -0.057319064 0.4177453 -0.615095 0.40128344 -0.09303546 0.4417535 -0.39898056 0.12180799 -1.1085848 0.40519655 -0.097631134 0.7667999 1.1808054 0.41981557 0.0018375553 0.6818541 0.20231016 -0.625491 0.08958407 1.3260427 -0.7134142 0.4079929 1.8943712
rook 3.147413 0.4742304 -2.9942343 -0.03779795 1.6987249 0.087099254 -0.24803792 -0.44497392 1.1836045 -0.039431974 -0.7492424 0.3883488 3.1995676 0.90701145 -1.0949465 -3.098747 -1.2766266 -2.1317487 0.65616596 -0.14391601 2.0777912 2.5592878 -2.5002365 -0.91995555 0.66581863 -2.660269 -0.39288223 0.5539818 0.17923404 0.87397957 0.98031485 -0.5261947 1.212115 0.652168 -2.2013965 0.8016762 -1.5821747 1.0215198 0.84618723 1.3437452 1.0470259 0.6911694 -3.516141 1.1891513 0.8079639 0.57687664 -2.053175 -0.025764648 2.8198586 3.1288683
stroke 3.1116683 5.241098 2.47989 -1.9186153 -0.26685214 -1.521582 -1.141298 7.239244 0.06611865 1.3989276 -0.59687036 1.3884393 3.1383202 -2.7964773 3.3250828 -1.8607647 -1.5956651 -1.9825679 1.4891024 -2.2601788 2.2080474 2.68714 6.007393 1.9621776 3.2251842 -4.9902143 -1.493615 0.3609146 -0.15911971 -1.745456 5.0945997 -3.8589437 -3.0582554 -1.6249375 0.1943327 4.059805 -2.5567307 5.2296276 -5.3345 0.26739442 4.882778 1.5727882 0.10324893 0.669187 3.1382568 -2.8107753 -0.45131552 3.6500812 -3.3887382 0.7741205
environment 1.5675853 1.0394872 2.981374 1.6321307 -3.2770994 2.4391415 4.687924 -4.966393 -5.71757 1.6077785 3.005755 2.9173331 3.5403292 -4.5991955 1.7438025 -4.7946534 -8.876506 -0.8907814 -1.845897 -3.079504 -0.09392824 3.7225277 -1.3203611 -1.861221 -7.951182 -0.1000013 -1.9066242 -3.956126 -1.6651014 5.799263 -3.5004964 2.0698094 -0.6737879 -1.7041308 1.2126634 -3.8558555 1.7697676 2.2396755 -1.2534069 -1.6535553 -0.7666775 2.7780707 3.235935 1.828569 -3.7838035 1.10327 1.5798867 -3.026463 4.86017 -3.9051878
coffee -5.426647 4.4854927 -2.4277282 5.0720434 -3.9885502 1.2023238 -2.437836 -2.1485806 0.43635958 2.6644 3.1531134 2.958007 -0.63465726 6.257103 -0.06464513 -0.4423427 -4.131548 2.3222957 -5.7232113 -2.0531194 -3.524563 1.3424735 -2.1073673 1.3191247 1.4769579 -0.4947717 -1.9605135 -1.2641925 2.1732876 1.138454 1.7782028 -1.226365 -0.3312159 -1.3701823 1.6569389 -2.3574288 7.762141 2.0501275 2.2005076 -1.7371218 2.2994142 -3.8643503 0.85323024 -0.48424107 -1.4397168 -0.84078825 0.09100495 0.37369618 1.7014151 1.7865599
baby 1.2963585 2.2243738 1.1521696 1.4440931 -0.3891522 -1.9175826 0.74797153 3.2559338 -2.8093464 0.97459733 2.0132883 2.8350937 0.5221416 1.7357081 -3.4332123 -1.8140336 -6.743974 0.4056099 -0.04852721 3.2190576 -0.43378243 4.2582335 -1.9409165 -2.7355554 -3.093099 -6.9607854 0.6706581 2.204395 0.5996267 -3.1790829 2.7963393 0.07117084 6.6545053 0.123197064 -2.9115803 1.5878619 -3.5134652 -2.4043794 -0.22438465 -4.653686 1.0289955 -2.424896 8.241123 -6.941529 -2.0618591 -1.4471365 -2.2109 -0.20013587 0.6656389 0.13632827
personnel -0.14338593 2.2213435 1.286566 -4.475254 -2.8032718 -0.32666764 3.6988459 -0.18617037 2.232741 1.4615436 3.5380867 -2.6706824 2.4454134 -6.2595005 0.008249005 -0.82834685 1.4454904 -1.1943815 0.7830054 -2.952561 -0.2108764 -5.684334 6.302134 1.9263868 -3.71579 2.8878946 -0.23149988 1.9762274 4.4608703 3.5374725 1.7835144 0.0842494 -0.6888129 6.6714005 -1.7462866 0.52927375 -1.5950478 3.871437 1.512796 1.6870869 -1.6434712 1.1357282 -2.9454813 1.5107409 3.1590953 -2.6338346 -0.4618478 2.4503968 1.4468485 -1.2606877
family -2.018211 -0.5484729 -3.7324944 -4.641859 -2.137597 -0.20526016 1.6846222 0.5191601 -4.3538227 6.257779 4.3948407 -3.3845177 -4.041701 1.0171883 2.9813797 4.5060687 -2.6851008 -1.4523717 2.1833692 2.813344 -0.6756878 0.984394 -0.90758836 0.044864707 -1.0496994 8.874377 3.6787043 2.549217 0.0784753 -4.8413153 0.010142563 -1.9751924 -0.75366735 1.2533362 0.85163844 7.0978646 -0.95956236 -3.4524105 0.6771207 -2.1368735 -3.288122 -0.5572709 3.9766169 3.553869 2.2480402 2.7337759 2.6953003 -1.089859 1.847992 -2.9242592
hypertension -0.6772335 1.9754043 0.09234861 0.2841264 -3.8219748 1.2726243 -3.861587 0.47753674 -0.4532383 -0.40896374 0.93846846 -0.4322558 -1.5514578 -3.8173146 0.42720821 0.83898497 -0.15049924 0.4718264 -2.1563077 -2.411433 -0.21797901 2.2247193 -0.0134886075 4.6886573 1.6523588 -2.552058 -2.288195 -3.630558 2.6628232 -1.7508851 2.7127745 -0.42019102 -0.4770121 -0.6966833 -0.7808891 3.7736862 -2.782759 1.2459579 -2.0043123 1.2770355 -1.8887118 1.4259428 -0.8189734 1.9233637 -2.222003 -0.3114027 -2.7473664 0.37017378 3.6097562 2.5739849
president 1.2721406 -1.349749 -1.218363 3.3354478 -2.5021234 -3.4109547 -4.522947 1.9340043 5.8222146 4.0720487 5.1621904 -0.8998554 3.9996755 -0.8452379 2.275944 1.1308788 4.0323215 -4.9372354 -1.7689359 -0.07953138 2.1713047 -1.2169964 3.5479681 1.4467933 0.37125638 -1.4725174 -3.0358856 -1.9047433 -5.579146 -3.9952195 -1.5515971 -0.7011302 -1.1940103 -0.5895728 0.19992773 1.7027881 2.9728634 1.512926 -4.151895 0.4551575 -1.226175 1.4809111 -0.28960076 -1.9544212 2.1838 -5.500968 -1.0647415 -0.37191954 0.5442842 0.81769806
atmosphere 0.15707894 2.6711688 0.758627 8.059914 -1.5943606 1.1127967 5.9771056 -8.342274 0.679752 -0.43199515 -5.1548233 0.0014175605 -2.408665 1.8793532 2.7902777 -4.2174377 -3.0900264 3.2074034 1.2563648 0.4883432 0.15900336 0.5615485 -1.4504756 -1.7989684 0.87543017 3.4684057 -1.1656216 -1.3939968 -5.2513914 2.2203932 -0.99296784 1.7777984 -6.0116234 -2.1190023 -0.7591052 -7.96896 0.22160172 1.5479873 -1.4583081 -0.90284073 1.3507372 1.1678436 -3.114317 6.082351 1.1476907 -0.13925448 -0.73866373 2.8458989 3.688556 -0.042454876
practice -4.9347053 3.45886 2.9958565 -0.53925616 -2.0329914 -0.26451576 -1.4998236 -6.7566166 4.80462 2.2913623 0.8240593 2.9592798 -0.17856793 -2.8352833 -1.8755008 -0.19831763 2.2165926 -0.75280076 -5.955645 -5.5821524 -7.619118 6.2359133 -1.6433115 3.4932454 -1.4135065 -3.7740142 4.7588396 -2.455227 4.142031 2.4576042 0.19096811 2.9706397 -1.0694242 -4.7733755 0.23501152 2.6348147 -1.2736682 1.1983252 5.1457376 1.8607576 0.6722926 2.0024483 -4.4759836 0.5470116 -5.0846643 -2.7437217 8.698672 -3.0516667 -3.001368 -1.4158896
movie 1.6755446 -1.4250402 2.405914 0.9397244 0.10434395 -4.232134 -2.6253445 -0.4481062 -3.0589855 -4.572861 1.0368704 -2.0545592 -2.46049 0.3034297 2.944479 1.8066549 -0.36547312 1.4208494 3.7104146 2.2549386 -2.9775794 -0.6602584 1.6891638 -0.25549543 1.5272201 1.2542269 7.1217046 1.0064707 -1.5424278 -2.4303358 -0.8734117 4.493169 2.7750466 3.0395842 4.3478355 -3.6012478 1.0033803 -2.640594 1.1032754 -0.5706114 -1.1996459 1.3893999 1.4610728 2.9963646 -1.2572901 4.8172617 -2.110299 1.0902784 3.4674418 -0.23995692
popcorn -0.6224083 3.2959864 1.0518554 1.3953178 -1.7150189 -3.679823 1.7013593 3.707664 -0.007733587 -1.434871 0.5228147 -0.9589688 -6.6957674 3.3369367 1.9931726 0.36016902 -2.983593 1.668733 -2.8636029 0.21572518 -2.3876235 1.0696273 0.4913562 1.8218431 4.787838 0.07483609 4.9028788 -3.8788455 0.08582786 -0.8861093 0.312555 3.6365602 3.6086519 3.8410776 1.761845 -1.4876786 2.708093 -0.03278961 3.2245712 -1.4042922 1.8455354 2.7584734 0.39444453 -1.6880822 -4.1945586 -0.7025139 0.18900026 2.946386 4.5407863 0.55463547
recommendation 0.7651079 4.5158014 1.4097297 0.025540976 5.0604463 3.8350484 -2.1189 4.1395235 0.17469338 0.16987987 4.2793155 -3.2854295 -1.5759225 1.5724407 -3.4876733 1.2828563 -0.25260156 -4.4993706 -4.173186 2.3361843 -0.6374676 0.36658508 1.121302 -2.9038901 -5.8757477 -1.4021289 2.0499263 -5.897183 2.543877 -2.5012915 -3.7319796 -3.2589474 -2.1220806 0.65274346 -7.3072076 3.1160662 -1.191061 -1.2948656 -2.196409 1.566915 6.125651 2.7844098 -2.4272768 -4.5140567 -5.2605476 -4.6251264 -2.9884894 0.45329344 0.28927165 5.239575
focus -2.3417096 -2.3254414 4.2972827 -0.69371045 -2.5344782 3.116035 -4.4513597 0.28409475 -0.4305572 4.4527254 -0.23216419 0.4240036 3.5108845 -1.2862504 1.8741937 0.946554 -4.6966505 2.2056282 -3.33382 -1.5445797 0.63559246 0.81213766 0.32437876 -0.9222939 -9.705029 0.43126026 5.8655233 -1.2390779 -3.6549082 0.662222 4.3901987 -1.2901886 -4.123482 -3.3982127 3.3931208 0.76147383 -6.884964 2.2697256 -2.350446 3.418451 0.24706767 -1.1245031 -0.76820844 -0.639944 0.5516063 3.059845 6.222446 0.5822079 -2.1761515 2.1736805
attempt 2.4292574 2.2907007 -2.4991179 3.0665755 5.560815 -0.87604725 -0.514045 2.7238743 0.49813104 0.5940704 1.7694854 0.6002355 -4.416011 -2.6486778 -1.178039 -1.4835066 -1.9960964 -1.5246115 6.991909 -2.512507 1.7586001 -0.33326507 6.0556636 -2.492521 -6.1973934 -1.7892052 0.6001035 1.3737972 -1.6161401 0.3082396 -1.6993282 4.350605 -1.5349844 -4.079931 -1.660506 -0.82750374 3.915286 2.772885 -0.7705667 -1.5197616 -0.26911658 4.315898 1.3791946 -0.14800406 3.2769725 8.767137 2.1566365 -2.012104 -4.3986826 -0.49023688
approach -2.0740342 -4.5223465 -0.61214584 -2.2335231 -1.9408461 2.718489 -2.5425797 1.836193 4.301695 7.8653646 0.38591304 -0.81018484 3.0453622 -1.5954938 0.40709227 -3.1585214 -1.9818248 -1.285928 -1.6697732 -2.130954 2.1816645 3.0079885 -0.19221778 -1.3601011 -0.8617759 -6.7540026 0.9160506 -3.0035646 -1.1124014 -1.6669551 -0.51991254 2.8641365 -9.450074 -9.659585 0.08118234 2.2564447 0.36141515 1.9746456 -2.493521 -2.2257059 1.7748632 6.4424253 -3.0160668 -0.10044185 1.500583 1.8436681 -0.6291022 1.2597452 -3.1855905 5.2200828
number -3.8104305 2.8236458 2.2798603 -6.2075834 0.60207266 -4.742229 0.024036888 -2.6502976 0.05671101 -0.33175704 -2.2281778 0.8442501 -0.07484542 -0.5463392 3.8014638 -3.321647 2.7727509 -2.5539691 1.9911048 -1.00193 -0.3631917 -4.637146 3.447053 -4.303052 1.7041837 -8.810529 2.006648 -0.46376467 5.1229 1.7539856 -3.4724383 -8.456514 2.5018058 0.07652332 -2.526752 -0.17601681 -4.08754 2.4585502 -5.9192696 3.3995352 1.4106078 -5.216918 -0.33362752 -3.8267262 -0.70883536 1.9864566 -4.15951 1.9277488 -4.892052 0.9986206
property 0.48608583 -5.0461316 -3.2150931 -2.490153 -3.1497078 1.0578827 0.93327063 -2.0127938 -5.150761 7.1400223 -1.2720817 1.9048327 0.6650259 1.7631289 -3.962366 -0.21703903 -2.3000035 -0.9648045 5.37141 0.46068764 -0.349793 -0.88306046 -0.29051903 1.7464769 -4.8776193 0.38817748 -1.5877867 1.7659246 2.299086 3.635472 0.6936863 -2.1305683 6.6669483 -2.4408545 -2.4624522 0.58974755 4.6689377 1.5122315 0.755697 2.7426493 -4.4334154 0.30834064 3.2874897 4.6565504 1.1687318 6.1604676 1.5177425 -2.1070483 -1.752233 0.48388135
fingerprint 0.89485574 -0.67776865 0.7476394 -3.9023106 -3.1139903 0.32250836 -2.8918552 0.15573588 -0.4801238 -1.2207329 -1.2403046 -2.1101885 -1.1556858 -0.5305506 -0.37387344 -3.8479605 -1.0252184 -4.458248 0.9550903 0.9499842 -2.2654881 0.6804286 -0.35034907 -2.72385 -0.32818115 -3.7193859 -1.171436 2.9723115 6.353153 3.6862621 0.86254686 0.4878381 2.625358 -3.450215 -6.8550873 -0.9384691 -3.6368191 -3.2962146 5.242019 -1.0240825 1.3618177 -0.06875215 -0.9346438 -0.8065388 -1.2855717 1.607041 -3.4981484 0.74360675 -3.3005648 -1.4871444
reservation -1.6208832 0.7426534 2.2777095 3.035707 -4.556732 7.25613 1.5534264 -2.9512236 0.84269935 0.5681244 3.0937655 -3.0428169 -2.128173 -2.8917093 -3.8948426 -1.0996611 -0.815148 -1.8356812 -1.8678417 -5.6943717 -3.6994379 -2.8182502 -3.2960835 -2.5521169 0.38301912 3.6589274 4.376178 -2.4760625 -0.39494845 -1.5223619 -6.284166 -2.907742 1.4429674 1.02279 -3.4854805 1.8646038 2.537026 0.34261125 5.3707223 -2.6308873 -0.70672494 -4.868692 3.2636135 7.7488723 -3.4937787 9.455323 -3.214557 0.5572296 3.0457003 -0.21183574
block -0.9357487 1.8621898 -4.7051864 -0.3213377 0.024404606 4.2068834 -2.0034325 -0.9513209 6.4054537 -1.7547542 -2.2822056 0.8713857 -3.974115 7.3953886 -2.64889 -2.5485427 1.6188979 -3.090388 0.025917362 5.6370935 4.0448475 -4.5113473 -1.1812943 -1.0073363 -3.8415208 -3.449188 0.8490917 5.953622 2.5351958 -3.691698 -3.8893855 3.1199837 -1.7738063 -2.8460407 -0.37702188 -0.9507414 -0.26318088 0.6344921 5.3543973 0.28604832 -2.6387985 0.5029898 1.3890564 2.0583606 -0.9159652 9.983176 2.4079683 -4.005176 3.0801463 7.7711096
fear -1.4102693 -0.25856763 -5.971495 6.656729 -3.4358473 -7.4492416 2.1137934 -6.9404655 -1.4681953 -2.2953522 0.3775969 4.594533 0.47524735 2.7610013 -1.6602733 1.9933387 -0.77845806 3.107558 -0.46319863 -0.32710883 0.010330774 2.841693 4.7117677 3.0332043 -2.0589182 -2.4504313 0.9669122 2.9007688 -3.956231 -2.6068192 6.750062 -4.749878 -1.3561304 -2.1647763 -0.13142586 1.317236 0.34746048 -1.7046508 1.8862532 0.2172143 -1.8236381 0.2369829 4.9421096 -4.4556513 2.4421875 0.32948276 2.8902113 -4.017331 4.1173525 1.7335106
surface 1.2618833 -2.1961281 5.7606726 4.143883 -2.0964198 5.2437406 1.2715303 -0.9401911 2.157259 1.3188927 -7.878206 -1.2686511 -2.477386 -1.5898491 -1.1791949 -3.549327 -1.0658594 -6.221929 2.2838075 0.5806162 -0.35833403 0.0899212 -1.8783019 -0.10103868 -0.9853067 -0.3611263 -0.57944363 2.9548213 1.3743675 2.4087012 6.1674438 1.7186764 0.62382746 -2.8532114 -2.3718781 -2.8223877 0.73023164 -1.9422274 -0.10587385 2.1405773 5.7874603 2.5686479 -2.9615984 1.6907599 -0.97173333 0.71538734 2.6599357 3.1766398 -0.2726709 1.9011984
issue -5.708556 -1.2397026 3.731056 2.498193 0.84396 1.3015641 -1.6420206 0.68315154 0.7306023 1.3688098 0.22865348 3.0164368 -4.749795 -3.6779552 -2.6940353 1.9431252 -0.17881697 3.5228474 -4.173549 0.26511535 5.917948 4.2276187 -3.004648 -0.3592485 -0.37327123 -0.9600878 3.1074343 -3.1961114 -0.5050554 4.0863957 -2.9111683 -2.9348333 4.6067834 -7.6652 -3.8915477 2.2656343 2.7223692 -0.78737247 -5.3557553 4.6799984 -2.68141 7.1955147 -2.9879644 0.10187434 -3.5517657 3.3421166 -2.732818 2.0651772 3.5663826 -0.3809468
metal 1.2762128 2.7754061 -2.6850727 -0.9047643 -3.295 -3.6929576 2.2879508 -2.903069 1.2709951 -2.671018 -2.3990898 -0.57938886 1.716002 2.1766698 3.8393614 -4.035004 -0.77035934 -4.369808 3.1623812 3.0428255 -3.7304072 -1.7601144 0.7264515 2.862073 1.9183925 -0.9321274 -1.8756577 1.9618613 3.1086714 1.2599077 5.4775085 3.2568083 0.26368418 -1.5107263 -1.3951633 -3.0362012 0.9284839 3.2499337 2.6371207 3.8090222 2.104288 0.67306197 5.420267 0.9931719 -4.210094 -0.43619752 3.0655797 -0.087405086 -2.809285 5.9842324
index 0.116746955 -1.4299077 0.68742937 -0.6750779 -0.62273014 2.1556695 -2.8896403 1.1577317 3.724384 -1.2877948 -1.3938262 -0.95916426 2.9717007 1.8757547 -2.699882 -2.9216862 0.80942076 4.9069023 -2.1460643 -2.3661966 -1.2084615 2.416554 -2.7640738 3.0415564 -4.388329 -4.7712297 -0.40968847 -1.5375193 4.7818704 2.8498566 1.7820269 -1.9201403 5.2391944 -1.919679 -3.466153 -3.8031774 0.2269469 4.589644 -0.910377 3.5641541 1.9828002 0.33220607 -2.8951378 0.32940772 -0.5215558 2.439874 -0.037852973 1.3926306 0.7720138 -3.19465
isolation 3.420176 2.8041534 -0.70649296 0.6418884 -4.3616176 5.4871116 3.3923304 -8.433736 4.831044 -4.130145 0.9124976 3.0460322 -0.98917043 -0.77054167 -3.5448482 -1.3480853 0.2974751 -0.46932954 1.823523 -0.23851225 -5.1484556 8.502647 6.5136027 1.3950771 1.5180365 -0.43244144 -1.8913981 0.7390305 -1.0272858 1.1022246 8.448546 -3.8003097 -4.9780684 -4.9697294 -2.0501363 2.1027155 -0.5415673 4.4565196 -4.262041 -1.0750421 0.4914766 0.97988236 2.7050383 3.1490188 -0.46826407 -1.2797344 -0.36854723 -0.75450414 -3.0837207 -5.8836184
impartiality 1.5751163 2.4560163 2.6604366 -0.0015520011 2.5637062 2.7128525 -2.7861712 -3.4547026 -4.966823 -0.5234577 1.4684459 -0.007764021 1.0718206 1.3560035 -3.4611616 0.066421054 -0.9016217 -1.8972664 -3.8995345 1.2651682 1.6218126 2.7750037 3.1303265 3.2066412 -0.7141472 7.0038123 2.9370048 -2.7481334 -0.09238148 5.4255853 -0.24588937 -2.5733702 -2.445454 -1.0181911 -4.5127764 -1.2471747 -2.3245516 2.3309426 1.6050507 4.320912 -0.041983612 5.4676943 -6.2734046 -2.099338 2.98354 -0.66516507 -0.176137 -0.73326075 0.43565306 -3.6670268
drink -2.9271824 3.5583682 -0.86457604 4.471038 -0.767151 -4.0924687 0.4350109 -1.8532897 -5.454181 3.8434365 -0.6722389 3.6984246 -0.79181087 2.693038 2.2127986 1.7585883 -2.4457421 1.3499448 0.64992005 -5.187941 -1.5988564 2.4420245 -1.6668293 4.014654 2.2695205 -1.6556076 -4.056689 0.018315233 -0.5651103 2.1047282 1.6614182 -0.4232034 1.5084937 -3.4137654 -4.972257 2.7621324 0.544644 2.3204427 2.4483905 -2.6331565 1.6062187 -3.6896453 0.74255097 0.30928686 -6.3361483 -1.9535309 -1.4523866 0.36851037 1.5511179 4.2955217
baseball -0.4490919 0.2639086 4.293333 4.5761967 -3.0927854 -0.802662 -0.35872707 1.8654544 -3.5589104 0.25157565 3.3836079 -0.018968701 -3.138676 -0.5700851 -0.5048185 -0.11567295 1.2603713 -2.6907315 -0.3554779 -5.1907463 -5.348719 1.726782 -3.8458195 0.8543966 1.1359383 -2.192811 -0.10342205 -0.41786814 -0.21803273 2.183876 2.3219945 -0.419886 0.673311 2.1573386 2.2729158 -1.8032206 5.1504006 -3.8591752 2.655323 -1.4237008 -2.4999056 -1.4140702 -8.507536 1.7119932 -0.37059665 -0.71751696 1.1630399 -2.3739955 -0.5143626 1.3528156
jaguar 3.3476539 -2.4405267 -3.546193 -1.2021037 -2.3417346 -0.8423596 1.0005232 2.1014442 -2.819076 1.2797934 -0.6552892 -3.055142 4.4186916 -3.4078515 0.5305615 4.3255568 -6.1269193 -3.1443765 3.1417086 2.2099602 -0.060036905 0.29328576 -1.9783372 -1.5264152 -1.4293444 -2.1619701 -0.29281527 2.8541124 -1.2611369 0.51088905 -0.19797714 2.271958 -0.653726 2.4018002 -4.28089 1.2313908 1.3082063 -1.2765371 0.5809618 -0.18559383 2.6135817 0.9410777 2.7253916 3.3642476 0.9843094 0.60003555 -0.48694786 -5.376317 -2.6830153 4.6630683
trading -3.5471542 1.8437784 2.0585907 -1.2208623 4.3652697 -0.90901655 -1.6123458 -4.083088 4.8423147 -2.0587149 -3.3604786 -1.7444727 -2.8273199 -0.7386961 -2.568964 -0.6343624 3.1540473 3.0173078 0.5455161 -0.45401785 -2.8508432 2.571356 -0.9672617 1.5125432 -2.643411 -4.043301 -6.1691246 1.2967281 3.86034 4.3837028 1.220411 3.1787822 -0.4941456 -3.7291026 0.24474059 -4.8876753 5.179667 0.8137427 -0.32373413 -0.5906022 1.0713077 0.4229213 -1.0651504 3.891317 -2.7117648 -3.5219245 2.9935381 -1.3088982 0.79119855 7.4604797
viewer 3.5927403 2.331275 2.985329 2.81638 5.773008 -0.1000857 -2.5157447 -0.5496777 -6.436719 4.088586 -0.28781712 -1.8464013 -4.1296844 -0.4115849 4.453502 -4.0731926 -1.2912382 0.29318565 1.4501958 1.274494 1.0289438 1.1850586 3.846323 -0.33356443 -0.3955487 0.27550155 4.614929 -3.4070728 3.7962453 4.9317226 -1.2879934 -1.7167081 -0.04423374 1.4527407 -2.412139 -2.8250887 -0.8764186 -0.99278957 1.3825942 1.465431 3.844717 4.3241835 -1.135577 0.017342627 3.3347194 2.1450553 -3.614127 6.783922 4.6944284 -0.9995209
hundred -3.1397927 3.2905507 -2.9105027 -4.0735455 1.5364828 -2.5500677 4.799205 -1.2960725 0.020789362 -1.9214551 -4.868397 -0.6982533 -1.1578124 3.4189823 4.185069 -1.3542407 -3.0715272 1.223805 2.0324059 2.6566582 1.9247732 -4.824231 0.25492 -1.3881096 3.7275863 -3.7426677 -1.9111509 1.9873592 -0.14897539 -7.5915437 -0.8156556 -1.0627583 -3.100465 3.0106788 3.380643 -1.0509825 -1.1999596 4.088685 2.314594 -0.9361532 -3.1674826 -1.2857217 -5.8746724 3.522126 2.2773767 -2.2856777 0.2576713 1.8938749 -0.8620272 0.5809594
woman 2.5564713 5.150436 -3.0895045 3.0545712 -4.92014 -2.2558448 -2.4736798 2.5547485 -1.5913461 3.2021081 4.091034 4.499971 0.008716822 1.7048262 4.019563 -0.8765825 0.46467412 1.4203943 -1.921435 1.4809618 2.3040228 0.10387035 2.801224 0.08816264 0.61543506 -2.3556812 -0.61960655 2.724919 1.2821282 -0.05191474 -2.2190614 -3.2010224 3.2727818 -0.53021586 -6.352583 0.3156514 -0.8788337 -2.9353075 0.93438107 -0.18045595 0.8432129 1.3633937 7.68332 4.738947 -0.9820242 4.843391 -4.2209115 -0.054186806 2.044131 -2.0719914
queen 2.5081325 3.0363448 -1.3360249 1.9051487 0.5115544 -2.3558307 -2.1731222 0.22137168 0.2112446 4.7381463 4.03533 4.143383 2.9729593 7.807119 1.886169 2.2227778 -2.8990297 -4.2966714 -1.3809552 1.5096221 1.4388748 -1.048823 -4.5323486 -1.3623477 -1.1206182 3.553745 2.1590889 4.2972846 -0.5105627 1.3535317 0.9938241 1.327917 2.0584953 1.7552259 -8.750326 0.8419402 -1.4504063 4.187396 -2.1567962 -1.591738 1.06289 -0.016687345 1.102896 -2.3065374 -0.044179074 -0.32983086 0.18968287 2.8956766 -0.047722183 -2.6360989
fuck 0.6851552 2.9066103 -1.9953015 0.6823987 3.151006 -0.6604332 -0.22882916 2.6475763 -1.5137688 -0.82116294 -0.7173405 1.1704489 -1.2130812 3.0767384 -1.9591777 1.3258746 -2.0738177 -1.4424003 -1.1867694 -1.5006937 0.8153023 0.79994446 -1.8844068 1.1387281 -0.32229894 -0.6162996 -2.4720423 -1.7034466 -0.924428 -2.2576091 -0.5023956 2.8487456 2.9842126 -2.0575855 -3.3100638 -0.61303955 -1.9090967 1.9841738 2.066211 -0.08565488 -1.9987686 0.6092704 -1.52664 -2.908121 0.46719578 2.2178938 -2.9928927 0.78280973 2.865012 2.134422
skin 3.4708717 3.8820677 0.4063851 -1.0490514 -3.8667428 2.9654386 -1.2252554 3.7277877 -0.46374345 -2.7975116 -4.2000823 3.4852195 -3.1064203 2.1615353 3.9913843 -2.3291755 -3.2819343 -2.0438259 -3.6209474 3.1903844 1.2884355 1.9201239 1.7532417 1.0332973 2.6008294 -2.2587533 2.7993402 -1.0827223 0.118151575 3.0389073 2.1871557 0.47668442 1.5453887 -2.94059 -2.3987153 3.274647 -3.5285182 2.7845268 -0.24255997 -2.3252385 3.9404771 1.0723438 3.6102464 -7.0709453 1.7619501 0.92099077 -0.7452703 -0.6630194 0.4857004 1.9558321
tournament -2.147141 2.6275294 0.6949722 4.1550245 1.8124826 1.4717811 2.3018947 -0.5549373 1.4624393 -1.4033862 1.9997628 1.4435884 -0.71745473 -1.3357964 3.0159142 1.8627813 -0.7843743 2.2208252 -0.84064496 0.5670556 2.77981 -0.048835516 -4.843022 1.4387982 0.4501297 1.8972802 5.4333777 4.3995156 4.494248 2.2040725 4.108188 0.24581617 -1.4078615 1.0165266 1.1252726 3.0542767 4.3258414 1.8576105 -1.387857 1.7478048 0.46549663 -4.435432 -4.250949 3.8930945 -3.4036412 -1.951169 -0.7957697 5.639187 1.1317396 -4.605554
cell -1.891802 6.839517 0.05008945 0.25129205 -3.754226 6.217247 -2.1018784 -0.2597957 -0.14716327 -4.6936336 -1.2883956 0.6017912 -6.348951 4.696413 -1.3868598 -0.99501824 0.60629874 0.7674273 -3.940661 2.1496959 -2.2236073 -2.1495209 6.095697 -3.2571917 -4.3757663 -3.5749285 1.6147918 0.7721717 -1.8272033 -2.5767236 2.4078615 -0.9076 3.412661 -1.7025182 3.7939227 0.35936847 -4.7572837 -1.1366333 -0.11161216 -1.077417 -1.519668 -0.40105462 2.4071383 -1.046842 -2.025115 1.2440517 0.6105763 -0.67585385 1.0127819 1.738029
summer 0.5797525 -4.687231 4.4474826 4.431078 1.3143643 -4.8621454 5.4073014 -5.45866 -0.7394517 4.497417 -2.2367008 -0.1432665 -3.4910996 0.23465288 -1.0230658 0.73040307 -4.399441 1.6075099 0.22378075 -2.9235 -0.6224981 -0.3267945 -5.821841 -5.390535 -0.87861294 1.5848299 4.283189 1.44404 -0.18185177 -5.6077266 -0.17101412 5.0902543 1.0746225 4.5900545 0.42107195 -1.5106046 4.27219 3.114004 -6.2145963 -2.529516 -2.0339544 0.3535874 -3.0038805 -0.084635876 -3.76854 1.2427104 -1.5077484 0.8414873 -6.753147 -1.3556794
crew -1.2950923 6.15304 -0.5209509 1.886116 -2.5676785 -1.4273348 1.3744195 5.1624355 -2.7355382 3.1992846 1.4641435 -6.2807918 -0.046955585 -2.9584386 2.6716595 -4.1945586 -4.460567 -0.28542274 -0.87652606 0.97465116 -0.5784414 -1.1916729 3.4976993 1.0478207 0.4162962 5.6808796 6.4509573 2.5215862 -3.4711096 -0.47476426 -0.7382538 0.3320511 1.5434712 2.708596 -3.6585846 2.2226832 -1.6238925 0.41070578 0.7466839 -1.5876337 3.0984018 1.4711761 -2.9263492 -1.6971655 -0.44405296 -3.9957922 -0.829407 3.8069391 -1.8566718 3.460249
defeat 0.76525736 5.887408 -0.96539444 1.0810597 6.2712564 -3.6175725 2.557288 0.8069194 2.2018912 -1.1363705 0.43171844 3.858041 0.14650825 -5.4504967 -0.69038665 4.1588187 0.53591895 1.6408235 2.6740634 -2.0252838 6.0231705 4.7539263 -0.028492287 2.8040686 -1.2845165 -1.9472048 0.22627163 1.8755888 -0.86790293 -2.0120203 3.2622638 -3.2886603 -5.174526 0.7496051 -1.0359689 5.311445 -0.770076 3.1934042 -2.6079535 3.4716501 1.8035975 0.21797751 -1.1310059 2.556588 6.876371 2.295141 1.0707008 -1.117651 -2.5964134 -3.2946339
library -1.3703648 -0.5960326 -0.6628221 -3.8346834 0.28248087 4.5866055 0.5367286 1.6528797 -1.6228268 1.50354 0.54225 -1.7308234 0.9041486 13.0598345 -0.3793884 -3.1489937 0.7767639 0.80980194 -3.0913746 5.3363957 0.45545933 -2.3770669 0.08007975 -2.7939913 1.9757522 3.8282688 1.0995423 -1.1647577 3.4845624 -1.909401 -3.0604446 -0.02738865 2.279961 4.3004007 3.764185 -3.1284902 0.30023363 1.3463299 0.19970961 1.8956882 -1.9537526 -0.6162322 -4.7234774 1.9767894 -1.5402628 2.4943478 3.4364338 1.3229169 -1.3597895 -7.3939834
government 1.4597346 -1.8206037 -0.63988096 -5.5613747 -1.368788 2.6880012 3.7465224 -2.0699592 0.62543803 -1.9659599 3.5361114 -2.6788712 -3.6402428 2.035734 0.03203857 1.8416399 -0.94918454 2.3640692 0.82940453 3.6692576 3.3589227 -0.5940831 3.0036292 3.5257945 -3.0666087 -0.1811039 -2.5543745 -4.208434 -1.4319347 -6.2402973 -0.739823 0.010191441 3.347052 -6.671134 -6.3211236 -2.3144119 2.7678277 -1.0095868 1.8674818 0.24183702 -2.734801 1.4794797 5.7976947 -3.012836 1.1522343 -3.0853395 0.5142178 -5.6754627 -1.4004269 -3.227366
world 3.0976944 5.0921884 1.5282332 3.1860366 -3.6819975 -1.8810186 -2.7006698 1.6150293 0.26109585 -0.3598159 0.96957856 -1.0868725 0.8347775 -1.2750582 4.7326345 1.0514351 -1.3854314 -0.25508127 2.6972914 -1.6411908 0.9120501 5.2697253 -0.124959394 -1.5388389 1.361682 -1.0047265 -2.2617931 -2.67524 -2.2119782 3.6943407 4.4288807 -1.3437281 1.5552192 -4.8874497 1.1514797 -4.785615 5.000603 -0.5971876 -0.6230395 -3.421546 0.30611175 -7.2290936 -1.8758314 -5.2821517 0.3931422 -3.4429266 0.10955951 2.0793474 -2.4063585 -6.476365
potato -1.2348158 2.4800255 -1.0054619 1.1513116 -3.22863 1.3355738 -0.18200056 0.3516634 0.63462144 -1.0474929 0.395524 3.9161143 -4.271813 -0.4434201 0.95060277 1.0757642 -2.5648167 -0.8285416 -5.137052 1.6023533 -0.79371166 -1.3986449 -6.4995456 -2.201032 -0.6097924 -6.2644753 1.2606992 2.197688 -1.5291054 -3.6488836 0.75356513 2.8442776 0.34367532 -5.028956 -3.1646733 -1.8381035 2.753433 1.1010058 -0.733296 -1.4897226 0.79241437 -1.7518958 -2.0441568 -3.4222598 -5.8593445 0.26485023 -2.042807 0.44384712 3.3200557 -2.1504781
astronomer 1.3756973 -0.765045 -1.300514 2.4370654 0.35683432 1.7467102 -2.2306628 2.320748 -0.48853058 -1.5625923 2.8403225 -2.5011594 0.9361639 0.6766937 2.2672255 -4.314442 -5.154119 -4.303973 -1.6635574 1.7300318 2.68433 1.3657671 2.3740354 -6.6529737 4.0626802 -4.238133 1.3033727 2.52969 -0.6897048 0.948356 1.1271254 0.22621106 -1.1826906 0.725576 0.9435849 -3.478675 -1.0292611 -0.5608849 -2.241651 -1.9147934 0.029867807 -0.37253457 -4.5364733 2.9908924 -1.4259139 1.1963577 0.74736845 -0.6112146 1.6287146 -3.992488
morality 0.65730464 0.46820706 -0.15339735 -0.89093786 -0.20507585 2.6674988 0.76434004 0.0011826406 -4.9163437 0.8841097 1.6921576 6.584263 -2.310781 1.799279 -2.716745 -0.40226632 2.1742084 -0.813097 0.824897 -0.5307337 -0.5495482 3.8948123 -2.7528455 4.5228868 2.5349627 2.4459743 -2.1630087 -4.1940417 -1.7393804 3.8343441 4.2051225 -3.8148556E-4 -1.6271535 -8.056855 -3.9660237 -3.0375018 -0.42871392 0.94485104 -0.29000652 4.884596 -3.5815833 1.4696138 -3.7938025 -0.92685974 2.5982802 1.7294778 1.3572834 -3.8241742 1.8113837 0.2937853
nurse 0.6581206 -0.31668395 -1.6907787 -1.630073 -1.4416162 0.7387203 3.6981375 0.7020933 0.029156657 3.9200768 4.386452 -0.3157546 4.126692 0.3901941 -0.88754225 -5.4612556 -1.5898393 -2.4401994 -2.733353 -0.30995223 -4.822984 -0.64690876 0.869671 -1.2166519 1.8459474 -3.1755552 -2.283834 -1.0710655 3.0683918 -6.6840367 0.17124996 1.374326 0.31266525 0.45164856 -3.8643966 3.6486087 -5.4710593 -1.1574126 1.5227172 -1.8146024 3.0444477 3.4493651 2.7892482 -0.87416065 -0.66662794 -3.0373473 -5.2220182 -1.9171424 -0.07897479 -0.48806286
prejudice 1.2309947 1.181044 -0.011598319 4.3749623 1.8800272 -2.0472016 -1.7086262 -1.2533201 -3.0065043 2.9544377 0.45923185 5.8500695 -1.0507419 0.61573493 -0.22440074 3.752167 -1.0077915 -3.9068978 2.652445 0.89707357 3.1676755 5.2401505 -0.33975828 4.411986 1.8033695 2.8173785 4.4305634 -2.8835785 2.7947547 6.136089 1.3315943 -2.3841827 -5.2485704 -1.7751651 -3.4105227 -1.0782119 -2.9667487 3.0564888 -0.6025511 7.8841095 -0.92915255 0.5090585 -0.46636388 -1.1644753 0.64752024 1.2231615 -4.462701 -2.3187 3.5059137 -1.9249063
man 2.3570924 5.847364 -4.4991055 2.359214 -3.7257597 -1.4837989 -1.9093579 2.6321673 -4.4181314 0.7636645 2.8390415 2.697784 1.3158901 0.98313665 5.221271 -1.7231131 1.6275119 -0.9337902 1.6168393 -1.271248 4.0429325 1.2039945 -0.3070465 -0.34584427 4.880087 -1.8414911 -3.8004246 6.1304054 -4.851968 -1.1964583 1.8282382 -1.2606202 5.694656 -4.561253 -0.7693823 3.277305 2.0548024 -4.5192385 -0.36249682 -0.76365966 -2.7810435 -1.564512 0.21773215 -1.6550137 3.7648406 3.9430506 -0.9694126 -3.347362 0.38063928 3.6880324
deployment 0.6025124 5.5902658 0.03645681 -2.24292 -1.5897756 1.6524386 0.7718953 -3.3264387 2.003968 -0.6946504 -0.3108594 -5.528486 0.23078889 0.08940929 -1.7390608 -3.4576645 -2.2697349 -1.326837 -0.35868773 -0.015330762 -1.5102801 -4.6584888 7.4025297 -2.6697674 -6.97714 -0.21443105 5.0141234 3.3402207 -0.12575653 -3.7104995 0.75975126 1.1634738 -2.5230966 0.29230046 -1.6260955 1.8194042 -1.7289612 2.4146194 -6.547112 -5.456335 0.75116086 3.3759012 -0.54763377 -3.3598044 3.4564261 -6.9840193 -3.662274 1.2729142 0.16945301 -0.881658
bread -2.889748 2.7296476 -1.8349745 -3.510251 -2.8651743 2.1935582 1.2462784 -0.7963141 4.747113 -1.2563899 -0.35970286 2.9301665 -1.5786322 4.4471583 2.193934 1.8114041 -0.10065792 1.3774658 -2.947173 2.7466354 0.31495723 0.967605 -5.751086 3.928083 4.1795583 -2.3009164 -2.1024723 -1.4659886 -3.7903275 -5.7810783 -0.42101818 -0.66864496 3.287104 -1.4282408 -3.6229517 0.5775255 0.056010902 3.1319785 1.7458591 -2.4244683 1.9736049 -1.1283431 3.734206 -2.8565989 -1.8418874 2.504088 0.8757576 0.03311872 2.5564067 0.5836847
television -1.7163383 7.351667 3.9590423 -2.2003858 -0.8716672 1.4748386 -0.6773259 -2.6128078 -8.655635 -2.8904262 -0.119989015 -0.8130591 -3.5949974 2.225504 4.27285 0.5920894 -1.1600249 -1.8585958 -2.5537722 -3.1523347 -1.125687 -3.9104226 2.9394915 3.965896 -1.7349763 3.6431532 3.2202518 1.221267 -6.695988 4.15581 -1.4598182 -1.3736597 3.1503265 2.574001 1.9540704 -3.6242228 -0.6366712 2.0807824 0.09367287 -0.52768517 -1.4439082 -1.2900186 1.0539942 1.4098874 1.4949672 -3.1147213 0.020277688 -2.1382537 2.097258 -2.3210132
lover -0.9714668 -0.10995099 -2.3318443 2.264415 1.4312977 -2.9246876 -3.0662947 0.33392856 -3.2990797 5.085645 0.9815827 3.804138 -2.6790535 1.9306865 2.451918 4.70007 -0.3658225 -3.5204368 4.2320743 1.5961461 -2.0889125 1.972768 1.1382276 -1.0012748 0.33234707 0.79518217 0.95234585 5.784344 0.84380716 0.3819332 4.7495313 -0.09796201 1.6350356 -3.4443562 -5.5283666 -0.09524026 3.9740505 1.117978 2.808247 -1.0498252 -2.332242 2.400321 0.80810404 0.026240315 -5.6035852 -0.06243795 -0.1269768 0.14087759 2.2981327 -0.877505
change -2.8357935 4.2749 6.676487 8.132102 3.3905 -0.5952321 2.1786542 -1.2402322 1.1653006 -1.1879575 -1.5252278 6.656632 0.19465627 2.6255312 -1.1779383 -2.1597254 -0.8903375 -1.3480587 -1.3105788 -4.38167 0.9590955 -2.7768712 4.75284 -0.28058425 -3.6927092 -3.1448014 3.1874847 -7.0531826 -3.64494 3.2090697 -1.2096845 0.2301803 -3.4291337 -3.674257 -0.44590238 0.5621137 -0.4274291 2.885705 -3.4844985 -3.298522 4.460538 0.2014749 3.217257 -0.71598816 2.9046504 -4.9478583 -0.07405792 -4.3051267 3.9109788 -3.0116026
health -0.15753633 1.7069466 2.711346 0.24197431 -3.4558206 -3.5459197 1.081321 4.813575 -0.7212524 2.4865615 1.6573776 2.4590375 -0.7729857 -0.16218008 0.6403891 -1.4279546 -0.29445338 -0.6690549 -4.5780177 -1.1225454 1.0229249 2.4058764 1.4847219 -0.6840392 -4.030993 -0.6462059 -1.6556052 -1.5395592 0.26625687 0.65512323 -1.3619756 -4.1413493 3.098369 -2.5410287 0.16190696 5.0815787 0.31679723 1.2073978 -2.2679975 -0.86891454 1.0104982 -0.29960662 2.4949632 -3.5493524 -0.93728644 -4.217006 0.82124937 -1.2909634 2.1295247 -5.51719
computation 1.2843734 3.5068047 4.538816 -1.8611565 -1.4618576 1.5939037 -1.5316203 1.5223628 -1.469531 -0.25430563 -0.5441803 -3.1143742 -2.2016037 -0.1036031 -2.6292505 -0.62897027 0.24839066 -2.904367 0.8173169 1.6331146 -2.3470001 -0.08598529 1.9816903 -2.8040402 1.3492553 -3.824833 -1.6214194 -2.55635 2.4818408 0.95628023 -0.25042892 2.620852 0.3130501 -0.65381646 2.6467936 1.2221695 0.5397842 -0.8835533 -1.5445589 1.4722745 1.1691053 1.4501456 -2.2213035 1.0476971 0.2837746 -0.2702192 3.0075998 1.2490003 -0.15134268 1.7214175
virtuoso 3.602411 2.1545417 -0.27985588 -2.6456037 0.7993287 0.14557905 -4.788792 -0.7234845 -0.7196689 0.1449868 0.81181467 -2.3367634 -0.22961512 -1.5834572 5.2572055 -3.2644455 3.0903707 -4.115571 3.704237 0.9804226 -5.4030137 1.7489239 -1.1484519 2.2996023 2.5516021 -0.87824374 0.41168332 1.8296498 3.299966 -1.6150762 2.0601363 2.7183042 -4.199044 -0.008756418 1.5835159 -1.5611571 -3.2819345 2.2909284 -0.10235135 -1.0160382 2.5206506 -0.68558544 -4.396549 1.5604626 0.42832208 -0.0042151776 -0.09955202 1.7827264 1.6458101 -0.20226486
century 4.508272 -1.6162367 -1.7685775 -3.961158 1.9133147 -1.8451202 2.8755949 3.7780428 -0.0352549 -2.6068728 -4.08872 2.0178187 2.029103 1.1960475 2.9490247 -0.82668585 -2.8478668 -1.8087138 3.1681619 3.058515 0.73712814 1.3239808 -6.0839605 2.5067666 2.3105237 -7.6405406 -0.9180337 -3.4552658 -4.883702 -2.8824432 -1.418973 2.7614028 -0.40759495 -2.6868439 0.80974835 -3.032646 -1.6295661 0.6967766 -1.9716905 3.09953 0.57698673 -3.8649032 -0.71709436 6.520941 1.712795 0.248353 2.2268615 -0.624479 -6.431235 -4.72294
discovery -3.6068916 5.711842 -1.7714443 5.552466 -4.129972 -1.0435911 -0.548564 3.8765473 -0.33840847 0.894192 -4.2906513 -6.855875 -0.33316833 1.1629909 -1.2752274 -2.2139683 -3.3167832 0.8561871 2.445443 3.360897 -2.9860976 5.899804 2.0772018 -6.7623634 -3.0849292 1.6590316 5.1204753 2.6741776 1.3049809 0.11236574 4.4888453 -2.4879293 0.32234645 -0.41698802 4.6200547 -2.5121346 -1.3210325 -0.77794504 -3.3520238 -2.2736554 2.4412117 2.534973 2.1624253 2.3660429 -5.6048994 1.3963187 4.191577 0.89287263 -4.804768 -1.4616306
report -1.7961084 2.0103436 7.604007 3.3549879 3.8179085 -2.187204 0.7950408 1.5649812 -0.9793404 -2.2585294 0.15081003 -6.096317 -2.370036 1.1645266 -3.3295014 -1.277142 -3.8525596 1.3277106 0.84933674 -4.6374354 -0.043847315 4.158443 -2.3068485 1.3364815 -3.2415216 -3.4958897 -9.018524 -6.0405345 3.7137592 -2.185288 -2.32582 2.8169174 3.2966998 -1.007447 1.0237244 0.19783092 -8.445055 0.9038318 0.0016398225 1.4182938 -1.0381165 0.5585554 -2.0191998 -0.22413164 -1.6614892 1.1320728 -0.048467644 -3.572856 -0.045399 -6.093863
madhouse 0.71124274 1.0053204 -0.84067094 0.55866575 -1.679825 -1.2236141 -1.6418558 -3.0516694 -1.003678 -0.052175585 -0.057551008 -0.6276574 3.254696 3.2858095 2.574539 -1.2955658 -0.041017033 -2.214278 2.974195 -1.2051489 -4.3438005 1.3996649 -1.8769065 0.7377318 -0.27266684 -0.13834332 1.4613376 0.14203608 -4.38411 -0.11542305 -1.0726643 0.17003001 1.2341956 -2.5267072 -1.2577502 -3.675724 0.8932922 2.558688 2.3088136 0.15662338 -0.706809 0.74073684 0.085768536 3.2614598 0.24026488 -0.536619 -0.7018161 -0.6912091 0.6431504 1.1741381
entity 3.5416849 -2.6234503 -2.638652 -0.95632285 -1.8639976 3.082572 0.47885913 0.8126692 1.4471962 -0.975177 5.418451 -4.710624 -1.8666724 2.4594138 -0.9722519 0.31466264 -1.4720613 -2.1773298 3.5139232 3.2065797 1.9961358 1.0622603 0.5204323 1.8828695 -2.4398487 -3.6652932 2.0941427 0.7365162 -2.095769 2.85411 -1.0123695 -0.9162985 -6.626157 0.4788551 -1.3685609 -1.0168741 6.047375 -6.4711285 2.7218041 -1.1364708 -8.137116 0.76799077 -2.558157 3.4682167 0.71922475 3.8613014 -1.0197057 -2.8554463 5.8639274 -0.6362673
opera -3.7504106 -3.987257 -1.0143586 1.665921 1.0510967 -0.7373427 -0.24140884 -2.783598 -1.5832812 2.3543768 2.430142 -1.5813888 -1.398892 6.252263 8.708502 -0.8203761 -0.7853413 -1.2128528 -2.3342247 2.0351083 1.6413465 -1.9988344 -1.7680069 -2.0197806 4.5734463 4.0829663 1.476357 -0.046010233 -5.535523 2.0146596 -1.6454544 1.8030479 -0.4171632 1.3836373 -2.6124067 -1.9061993 -1.5721284 0.5066798 -1.7623191 -3.1897755 2.8928373 3.785851 2.7644744 5.255744 -1.7092453 -2.3335905 2.309603 -0.110037334 3.6447551 -3.8128488
sign -0.58248 -0.16626061 0.18271433 2.1625805 3.175705 -2.1837053 -0.27548182 -9.746885 3.3071804 -5.0954647 2.6539948 0.20051855 -4.15576 7.7058234 -0.06298742 -7.027403 2.5741732 3.4962835 -0.041659005 -0.16743095 -3.4778998 2.6179245 -1.5310299 2.3592796 -1.9841456 -5.5164027 -3.6996334 2.025259 1.7577744 -5.541765 -5.493149 -5.2878494 0.8325136 -1.3425395 -0.089300364 -2.918184 3.639835 -3.9712055 1.8810662 -1.742763 2.3114424 2.306007 -0.52841985 -4.844404 2.1129024 -1.2502528 -2.883707 0.018538676 -3.6106317 3.0720336
recognition 4.989436 2.0691807 -1.0900677 -2.8468199 -1.4075744 -2.33204 -2.5121367 -8.324819 1.9289786 -4.286958 -0.039337937 0.2737739 1.9193383 5.7746716 -0.6675804 -3.0241227 2.2374554 -5.998567 -0.00963732 7.5270514 -2.3871717 -0.03746406 3.7199476 3.4854789 -2.8093653 -0.7726663 3.323336 0.41164997 4.5893965 1.2309474 -1.7724957 0.28809902 -6.888922 4.885891 1.7174275 0.19598909 -0.6795724 1.8641701 -0.72397196 -3.7425234 0.78074396 -0.50740707 1.1189185 -2.5927339 1.6216953 -3.5427597 -5.609873 -3.4030542 -3.6998856 -8.0107355
office 1.0940076 -6.2058735 3.1427436 -3.1676528 4.1787953 2.9178746 -1.6992522 -4.2524166 0.1744303 -0.48474395 5.2790127 -2.612149 2.9797492 1.3476826 -0.004562784 -2.8663108 2.5122838 -5.453873 -0.90622044 0.45607376 -6.509273 -5.4954424 3.6231976 -2.304881 -3.322573 3.2066777 -5.1702514 -1.1483016 -1.512352 -0.3360626 -2.941177 3.6924253 5.03378 2.9994059 -1.0013077 -4.1753664 0.057214588 1.4243683 3.3080366 0.2594234 -1.0167695 2.1456466 5.250035 1.6137162 6.7423463 0.13275735 -0.9666189 -1.2958499 -0.7570126 -5.5880995
lad 3.2103307 0.72268677 -3.6326354 -0.10743486 3.4556472 0.020481646 0.501534 -2.8112369 -6.7370777 1.9662166 0.019220987 0.6462945 6.1429777 0.6102328 -1.3658223 1.2764298 -2.799172 0.45496517 2.0481668 -3.232639 -0.96041787 3.966161 -4.1609497 0.55824816 2.9129467 -0.98034346 -0.778271 3.394408 0.7595924 -2.7390308 2.3566217 0.66609824 0.015558045 -4.133206 -3.7555783 0.18491605 -1.3574884 0.5581169 4.21555 1.532125 2.7320216 -4.7982125 -0.65786374 -0.8740203 2.346581 3.2851164 -3.372096 -2.5315983 -0.305716 -0.17076029
radio -4.1000676 3.7423873 1.2979861 1.5142319 0.1277523 5.0556836 0.91184306 1.6624998 -1.7556032 0.52584445 0.7936307 -1.6353971 0.73149246 6.3128324 4.6520343 -1.4262071 1.2619976 -4.786173 -4.262675 -6.235882 3.2097878 -1.1957914 -0.7605673 0.7443533 -1.2041171 3.0258346 -0.5447357 2.9969265 -4.9052567 3.8178015 -2.035071 2.6985903 0.44677168 0.78727597 2.4492202 -1.9265615 -2.924952 -1.4809146 1.777459 -4.6852283 0.6164678 0.11878019 -1.8076429 -2.1736088 0.54980814 -2.315319 -2.8705575 -2.0007398 3.9260027 1.1393547
smile 2.1693902 3.3956008 1.5476978 -0.81335795 1.308643 -1.7124537 -5.0654054 -1.7079191 -2.4927719 2.216029 1.8139064 0.5845868 1.5767672 2.104956 5.8921185 -3.2672644 -3.1108718 -0.91433567 -0.7978164 -1.1813962 -0.25282115 3.1209443 4.7165155 0.9629594 3.3822758 -0.5077635 -1.7179782 1.9690623 -4.6184096 1.008974 4.5470233 -7.4431605 -2.5992274 1.7279664 2.0051413 -0.052508626 -0.8171012 2.2602417 1.8259113 -0.86931187 6.364308 -1.021245 2.3169 -2.941651 1.9652379 -1.9651697 -3.6338322 5.9582095 1.8309529 1.9230208
arrangement -0.4914982 -0.560672 -1.435533 -3.0441332 2.5453289 1.9813648 1.5734104 -9.451975 -2.850384 0.6251867 4.741616 -5.180067 -5.2719994 -0.15853526 0.6304541 2.0101519 0.9755267 -1.792627 -1.4214956 6.5314445 -3.0635362 -0.22321627 -3.4486907 -2.1770341 -1.1612499 4.257983 6.5054383 0.042756185 -1.363806 -0.008227473 -2.4783754 2.2397153 -5.5757627 1.6634955 -5.404338 1.996452 -1.1114634 -2.8676076 1.1814129 -4.421376 -2.1949978 3.5978909 3.5426857 5.486937 -4.905081 3.6146224 0.5951673 -1.8710252 2.757392 2.6495225
credibility 0.10346184 0.50969505 2.0895538 -1.1054993 7.093688 0.04672222 0.32388353 -0.035416007 -1.9098865 -3.8178802 3.436 -4.3531 0.023363855 -2.2270327 0.6637545 1.4195181 0.15724002 1.8154825 -1.4169478 5.2371893 4.562188 2.0230498 4.3422084 5.529014 1.1061559 1.6861401 -1.2391418 -2.548025 -2.0085127 6.2891784 7.817796 -1.1752965 -4.7320786 -1.6619414 0.5270023 -1.572159 -0.17088927 0.46411622 4.9516125 6.8907633 -1.3272216 2.6830058 -3.4456656 -5.304911 5.287783 2.9058201 -2.3237536 -0.18034601 2.3430438 -3.7024076
communication -4.163962 4.3379817 -0.7984474 -0.761521 -3.679136 -0.23584686 0.063203655 -3.2996438 1.3804871 1.942799 -1.0799283 -5.5727153 3.2921205 3.3878462 -2.8834658 -3.8777382 4.6302667 3.3006332 -4.125459 -2.5539463 -1.8397259 2.7016978 5.8870482 -1.5899892 -0.9617041 1.0663874 2.771738 -0.12056215 -4.099327 2.654785 0.5597634 -1.8452332 -5.0415297 -2.2713041 -3.1390424 -2.3872783 -5.3680882 0.21701404 -1.8561509 -6.525384 4.7416124 6.6554646 0.4081911 4.805221 -0.28789854 -2.1549668 -1.1195211 -0.34092036 5.509592 -2.519439
stock -3.3886354 -2.9455204 1.6363846 2.7055085 1.6937505 -2.5109253 -2.2968714 2.3797426 3.0920012 1.8896543 -0.11957956 -0.08734374 -3.3744402 3.987855 -6.6729426 -0.450132 0.19941343 2.9728258 -2.9592314 -0.5839195 -2.9131374 1.8250093 -3.6073422 4.260741 -0.5683875 0.66211534 -1.4637134 0.52939683 -1.0258883 3.5437155 3.8716378 0.015177552 1.018496 -3.160704 0.49850386 0.6089292 6.9338 0.17398542 -2.6927843 -2.1262236 0.7564044 -0.80972123 1.6394374 3.0559385 -1.3723797 1.3350407 2.8410423 0.99578834 2.035842 1.6525717
credit 1.9320163 -3.4617617 5.4323325 -5.555266 1.8296465 -5.586553 -1.2430665 -2.4657848 4.224057 1.7066569 2.5542495 -3.7383707 0.21322332 -0.84444255 2.2733667 -2.0834196 2.6898415 0.3134668 -3.1736395 3.3881989 -3.0874536 0.9036609 -1.3691925 2.2917295 2.393416 -3.8366938 -4.609389 -1.6591296 -0.16470507 1.2078443 2.2910368 -0.37468052 1.4754422 0.16226153 0.26828253 3.9033535 0.6895285 1.5319884 1.2806821 -2.4303837 -1.2364179 -0.9860062 2.28042 -5.2519703 -1.902411 3.2901092 -1.6495366 1.2071713 -0.89211017 1.6069249
citizen 1.166705 1.4872983 0.89391553 0.19259375 -5.8972516 2.2080681 -5.4772835 3.270209 -3.5318246 0.53297216 6.3926353 2.4361708 0.13821068 -0.7269126 0.7508112 1.3829092 0.4790169 -2.9362142 2.0115824 0.23125643 -2.3193724 1.8221614 7.1457834 1.9306246 0.26323584 -3.3774984 -2.2477443 -1.7098986 0.6935918 -2.8061652 -5.685383 -4.444617 2.7073836 -1.0871611 -1.7854221 -0.5454244 3.4247808 1.5044938 1.2879134 -2.6654932 -7.998753 -1.8838718 -2.1016712 2.049828 -1.9130809 -1.5715753 -2.889448 -3.3457568 -1.5073394 -3.5630655
terror -2.988209 4.159433 4.03559 0.17047697 -1.4529263 -0.4485366 0.6663271 3.3375373 1.5911868 -2.4923296 -2.2317998 1.2179949 -0.57247645 1.8362226 -0.20584106 -0.9108108 2.3024402 -3.7255404 1.5620356 -1.6412716 1.8063161 4.826402 1.319866 0.22126044 -3.343749 -2.379726 0.44743174 3.183884 -1.1736275 -1.8820034 3.4966154 0.40727127 -1.0507425 -4.9498997 1.586153 -2.099822 -4.96917 0.09776612 0.93895644 -0.5589176 -6.0317483 -0.19781455 -2.0695434 -4.797611 2.967959 0.3482025 1.8640134 -2.4968023 -0.3907544 -3.9299958
law 0.10778223 -2.2030087 2.0430787 -1.9802992 -0.43889275 0.41453227 -1.3353236 -0.39496702 3.0216682 1.6936678 4.184725 4.506644 -2.7674272 -1.3321404 -0.48284116 -1.8509116 7.5632205 -6.740954 1.466604 3.6135232 -3.8438299 -0.5515946 2.2033262 -0.2106241 -1.1231239 -4.0404 -0.9212012 -2.988216 -1.0292876 0.2157949 -6.5881042 -0.12855513 -1.4302051 -3.360268 -2.7054803 0.3406742 -2.3741007 -1.6850953 1.825123 0.4992533 -3.9862218 -5.370517 0.12878564 3.4285975 -1.9921517 1.1540294 -0.6827068 -4.324136 -2.4137745 -2.0535133
liability 3.2809513 -4.510158 2.2235663 1.7152485 -0.4702487 -1.059299 2.9889917 2.8948612 -2.833423 2.1950572 4.360732 -1.8632182 -1.3396075 0.26760462 -2.456553 -1.791833 -2.2566614 -4.227726 4.7104588 5.710211 -0.3148495 -4.003779 2.1006978 2.2708163 -1.584947 -3.8484945 0.42737567 -0.22058761 1.7091917 5.355944 -0.46346784 -0.46780357 -1.4454954 0.4990845 -1.0501616 7.439172 1.3565044 4.1122885 -0.19146416 0.53816056 -5.6367087 4.678049 0.2932861 -1.4404417 1.3883659 3.2904582 -2.9542758 -3.34605 0.7571158 2.478055
equipment 0.5582535 4.0482 1.1789424 -3.0819416 -3.5391426 2.5185199 4.7626176 -0.64663106 -4.528413 -4.472745 0.3242391 -4.855109 1.5485411 0.33905536 1.1391715 -1.9733431 -0.62050533 0.01823866 -1.2697763 -2.964299 -5.887787 -2.0256548 4.7973404 2.392696 -2.7781308 3.998497 -2.4071763 0.9798737 1.3143059 2.891983 3.7915606 5.1711326 2.9050145 -0.71768534 1.4320593 -0.61791193 0.4179947 4.0867934 1.5188159 -2.045945 2.4871879 -2.7842045 0.6628465 -2.7798064 -2.337658 -4.581899 1.0935054 -1.154846 -2.6185668 3.260849
film 0.07927519 0.35968745 3.4929097 1.417032 2.2573082 -1.842049 -1.1936514 -1.1914002 -5.3714976 -5.5947742 1.1667559 -2.2077484 -1.1879305 0.19129294 4.997379 1.1712198 -0.491982 0.11095566 2.2134676 2.0083477 -2.9882593 -0.40892938 -1.4147525 -0.49104565 0.9282418 5.3817945 6.7762175 -1.0092822 1.0930072 -1.6671612 2.8912656 6.131238 3.285419 -0.60555905 0.6404774 -3.1202528 -1.7127315 -0.47666153 -1.63294 2.793778 -1.410941 0.04214955 1.1747922 1.8093052 -2.674634 3.1610289 -0.0028151488 0.5334132 0.7918671 -4.485298
admission -0.20625567 -1.5732474 -1.6059076 5.786324 5.6501737 -1.4121234 2.046013 -1.870506 -4.0258865 5.223908 2.0265238 -6.1595182 -5.0020375 3.8089678 0.41344047 -0.34998542 5.5122414 -2.2575662 4.4146996 -0.91331494 -5.6155205 -0.48751277 -1.2986046 3.830122 -1.3404671 3.0981271 -3.9896638 -2.0086682 1.9301035 -1.8064152 -0.3447451 -3.8882182 -0.76865995 -0.65514874 -2.2122023 3.3730931 -2.6111603 8.141072 0.5982163 -2.8160138 0.5976532 2.3795931 -2.1718457 1.8736298 -1.0148946 1.5617784 -1.2895225 6.693241 -1.4615295 -5.333234
tool 5.61517 -1.0940233 -1.1758096 -1.7497869 -3.9207144 -0.48319724 -1.5556387 0.5482954 -2.7118752 -3.050477 -0.28971002 -4.5537424 2.5063457 2.3683772 -0.19247216 -0.95975447 -2.365271 0.34080055 -3.245527 -2.3012762 -2.7267268 -0.2943982 5.715673 2.0102017 -1.8330692 -6.492228 1.3239985 -5.5276513 0.5864117 -2.6075406 0.051774446 1.9649178 -4.1195216 -4.595032 3.1587324 -1.5416926 1.7276736 1.2725855 3.738016 -0.5841422 -2.6085942 5.48962 -3.0968878 -1.0934196 -0.00554279 4.9737453 0.9017532 -2.50694 -1.9478594 0.83508885
professor -0.9521979 -2.1614733 -1.2557498 3.8207006 0.4817892 1.6756498 -1.2317616 -0.06639972 -0.1864967 0.72647583 2.657454 1.3845173 1.0076939 -1.929918 -0.32964 -2.125304 -0.0036349539 -2.0878756 -2.7939517 0.65871376 -1.2617561 0.97455573 1.3868135 -4.1474824 3.0683346 -5.4163566 -1.030296 0.1464662 0.028658094 0.59236336 1.5778953 -1.0827967 -3.483552 -3.2575276 0.41701388 -1.6724267 -5.5094266 2.6890366 -1.3841275 4.611565 0.5506921 -0.2596185 -1.5997331 1.7746584 -1.9445142 0.95801276 2.3876874 -6.5277824 2.4009137 -3.245071
governor -0.05544647 -2.7815256 -0.35955143 0.13285495 1.3097045 1.0221441 -0.5058604 -6.1163116 1.3475108 3.8475406 4.534165 1.4241469 -0.19611059 0.026619814 -5.10975 0.62605757 -2.6790173 -1.6717451 -1.4570569 -2.5151138 2.4641964 -1.3706989 -4.165848 0.65231144 -4.8137307 -5.1609836 0.65180326 6.007416 1.3250191 -6.4410515 0.5251335 -5.1831946 4.370219 2.970967 0.78995967 2.5519664 1.0002065 0.14094651 -0.38160324 1.8946949 -2.9719958 0.030909516 0.2668727 -3.3209646 4.383405 2.2955108 -2.4781356 -2.8728151 2.113986 -3.3427932
student -3.0863192 1.1982576 -2.4141893 -5.121576 1.5038077 1.7548327 -5.0076966 -1.9038701 0.2473752 2.9811711 -1.5458351 0.012530255 -2.5593865 1.223969 0.51421195 2.6764202 6.207685 1.0294679 -6.759661 -1.2814267 -3.4301174 -0.24631894 0.871843 0.633134 0.6087202 -4.4568214 -1.7137872 2.9631755 2.747842 -4.43168 -2.4606497 -4.7388573 -0.30191585 -4.216315 -1.4183522 -1.450974 -1.6708894 2.5090742 1.0888177 2.2731082 -0.7921028 -1.894286 -2.8056061 2.4667256 -8.418275 0.7172026 -0.11892187 -1.5407377 -0.6035522 -6.0940633
fruit 0.022240432 -2.1180623 -7.0060124 -1.6059299 -2.3236809 1.0463775 0.40887713 -1.8883728 1.9183766 -0.5327433 -3.7614682 1.4881102 -4.0758066 0.84049284 -0.8081335 0.69746786 -7.1201215 -0.56590277 -0.52315426 0.6971216 -0.9708675 5.9108195 -3.868025 -0.5550038 -0.035979256 -3.0929663 1.1869482 -1.7965575 0.15036753 -5.972965 1.7903441 0.21804094 -1.9765068 -3.4614584 -4.804389 0.20039138 1.0266231 -1.9741865 -1.4863106 -1.8470036 2.6677034 -2.2737465 0.23833969 -1.2710037 -3.3786962 -0.96000594 0.25735065 1.4392084 -0.9317729 2.1727817
media -0.9169977 -0.29511374 3.1436188 1.7042217 0.30906692 -5.231188 -4.9266467 -2.3026977 -1.0064163 0.5724659 3.727444 -2.727916 2.9740071 3.5496786 2.0203485 1.8175532 7.2071433 3.8009539 -1.5892676 -3.2324352 0.48801208 -0.5407831 4.2337294 4.4975834 -1.2694615 3.7684906 2.2628796 0.2055513 -1.6259344 5.5241427 4.2333865 -3.0220556 1.5097771 -0.2790487 -0.8360651 -5.175198 -1.2912229 -1.5322208 0.15280405 2.7744827 -2.6181455 0.7708643 1.3882424 1.2916352 -3.7024212 0.82247967 -0.9204258 -1.0359119 3.7945929 -1.8998576
racket 0.61259705 5.4502916 2.131459 1.6507204 0.70656747 -2.1823218 0.88947546 -5.67238 -1.9518263 2.0164745 -1.805758 0.8952541 1.7451148 0.35142478 3.280772 2.2802687 2.5805123 -0.04893594 2.993514 1.1377658 -7.14603 -1.1173624 1.9530644 5.15675 3.0858643 -3.5339646 -0.80275893 2.0424166 5.311354 2.5375063 5.8507047 3.23132 -0.6829621 -2.1988099 -6.4844117 -3.3764803 2.7417324 1.0502104 8.663339 1.8537304 1.0385973 1.2370852 0.02772905 -0.25140396 -1.7851983 0.95838785 -3.372657 0.60048753 -0.28036985 2.1279707
boy 1.4316436 2.8047276 -3.1505601 4.7838306 -0.21005473 -0.88440704 1.9825946 1.1913497 -2.845038 0.73561907 1.9186784 1.6517824 -0.055604726 4.4837837 0.18880099 1.8629144 -1.5428475 -1.2863035 -1.8024815 -5.1769223 0.4051887 5.5867267 -5.7508073 -0.62039554 0.3180618 0.24335791 3.4007413 3.541481 0.6673776 -4.8449945 6.3028097 1.9489713 1.3831198 -4.3048234 -1.3697656 -0.19874947 -5.209634 -6.6697617 4.9478893 2.756435 -0.26866 -0.39964607 0.9024155 -1.1845862 -2.8597667 0.5596523 -3.1598253 0.9903642 -1.8576126 0.9881268
preservation 1.8781464 -3.3165865 -4.910273 1.1985611 -4.5260396 2.3247287 4.334595 -0.58851874 0.8778118 0.24356383 1.9770685 -0.8094797 1.3857583 1.9053159 -2.8551178 -5.3806906 -0.19322449 -6.538255 1.6758504 3.0644095 -1.5115123 3.4462612 -2.797571 2.276013 -1.2107016 0.36830917 3.2218966 -4.2479377 -0.42830148 0.8506769 -1.1252024 0.6546967 0.33339125 -2.1930344 3.4338522 3.693683 4.022644 3.0117033 -0.18519929 1.3879318 -1.7699008 1.0491691 -3.3756175 -1.378933 -3.191058 2.883707 4.82996 -1.2037629 0.22823583 -2.9118834
vodka -1.1434423 4.753327 -3.7701201 3.8044527 -1.3848501 -3.6321 -3.168745 -1.9417465 -0.76540315 2.1528828 0.6988986 1.3500046 -4.995458 2.4643862 0.17528628 2.8155177 -0.30481985 -0.9493281 0.39791593 -0.64239734 -1.9568126 -1.7433499 -1.429907 1.8282119 3.2437835 -0.9622574 1.5899984 4.994203 -2.3408968 5.04954 1.2346294 -0.587368 1.1305528 -0.8228851 -3.9546413 0.41808325 3.1486685 3.1259732 0.23849152 -2.7045083 -0.54212934 -3.138625 1.9718007 -1.8091928 -2.8872435 -0.16999173 -3.133235 1.5192058 3.5454974 4.1210456
oil -0.3442624 0.17018496 1.4121993 3.3733268 -5.239439 0.5344388 2.9493163 0.6232711 0.27899933 -3.5345542 1.4245445 -0.43857625 -0.8852477 2.9720168 0.2163681 2.2609553 -4.367804 -3.9482465 2.1944878 -2.6108406 -0.63888836 -1.07251 -2.3493571 1.8250864 -1.4115144 0.983324 -3.55796 0.88569534 -3.1966884 0.22022149 2.2323427 -1.3261967 3.8020554 1.0410783 0.560107 -3.6024554 6.026925 -0.77341795 -3.689078 2.8185065 -1.0782843 -1.028646 -0.15233636 -1.4178673 1.2366328 -0.18739226 0.5766335 -1.9654881 1.5505053 7.027076
victim 3.0669796 -0.72245634 -2.1950307 -1.2515117 2.3430128 -1.2461296 -1.4552071 -0.2652888 -2.6746368 7.278774 1.7096751 -4.3684096 -0.68987757 -1.2938211 0.17856333 3.2303572 0.5598073 1.2068365 0.72931004 -1.6862967 0.08652323 2.3561904 0.62173194 6.899993 4.09749 -4.330374 2.3576286 3.4354227 5.89404 0.09020472 2.1736758 -3.6162894 3.10212 -3.0681922 -4.4189734 3.359984 -5.562906 -1.44959 4.698314 6.003359 -1.8251578 1.1270859 2.3187213 1.0514185 2.1653476 7.6212325 0.54219866 -1.6977838 0.3697722 2.7435958
row -3.6942668 6.2326403 2.9978998 -1.4947702 2.019463 -4.200465 2.1346037 -4.030284 2.1406693 0.07256433 1.966548 6.7696 4.0871487 1.3564779 -0.28904268 -4.178703 -1.5833048 2.046894 4.757457 -2.0847135 -3.848501 -3.7471855 -6.107462 -1.4663783 -2.599446 -0.06930111 2.2072322 -0.48569676 0.35720533 2.810778 0.21510246 -0.40129218 6.0374694 1.3409569 -6.8218093 0.3027685 1.647681 2.6208456 3.3366778 4.6998267 -1.7986466 6.9777 5.191222 -0.99155957 3.931718 3.379892 -4.403661 -0.7961575 0.4453851 -0.1877273
possibility -1.3625298 0.40415588 -2.7678626 7.0976534 -0.9225281 -1.6286873 1.880297 -7.9431868 1.1962683 -0.16231588 1.2733744 1.4216148 -5.0525 -1.5576863 -5.8002067 -1.5104824 1.3911949 -0.08903222 -0.75570357 3.5036225 -0.36218143 2.2910392 1.7298099 -5.0959625 -2.218387 -5.0914764 5.7111607 4.5800405 -1.2023267 1.7096812 3.8065119 -7.5223923 -1.2062752 -3.0910964 -0.32267898 -0.63690716 3.0854213 -4.88854 -4.827348 2.2577858 -0.91020024 2.6300015 -0.16125238 -1.3192691 -0.77490455 -3.144073 0.22089075 3.599475 2.2995708 4.397693
consumer 2.6770806 -4.140613 0.7862483 0.4335848 -1.647571 -3.9998171 -3.8128283 1.5139323 2.8736932 -1.0961169 1.4357516 -0.98836833 -0.14436872 2.8106046 2.1670053 -1.4691 -1.6447891 4.5015383 -7.3492656 -0.27668855 -2.9213276 -0.5680404 2.314679 0.3802103 -2.610275 -4.916508 -1.382183 -5.147167 -0.11072387 5.1433415 -2.2210512 -1.5815529 2.6465323 0.2876697 -2.1616576 -1.4017617 -1.2505177 5.1393294 0.5076678 2.978555 0.26065174 1.661129 4.5009294 -6.3341455 -3.1532362 3.5436566 0.38872886 -1.1139852 1.5089568 -0.2200234
direction 4.6398106 -1.7485849 0.071780495 0.28212926 -1.0566474 5.5757713 -3.3365636 -3.9498706 7.7131634 -0.19312204 2.7211392 5.8520694 2.063263 1.2448233 -5.024259 -8.23858 -0.75697017 2.108942 -2.0988553 0.77715605 0.5479534 0.60210806 4.572468 -3.4694626 -1.8706664 -4.170611 -1.1817477 1.9173009 -1.858852 1.9024271 1.1675533 6.148836 -4.1057277 -1.5612589 2.1066065 -7.7845592 1.9748491 -3.2722561 -3.0739162 2.6766002 3.2231264 0.9834363 1.1480407 0.2777943 4.677269 -0.18111406 2.279647 -4.527544 2.9149418 2.290021
keyboard 2.9931138 2.1729896 2.743651 -3.8470075 0.61165327 2.6254401 -3.383008 2.388917 -2.0761435 1.8235936 -0.43297383 -3.6393712 1.248002 2.495174 2.4609048 -3.7719204 2.5199509 2.033306 -3.5837202 2.8041463 -2.8432734 -0.61616397 0.667966 -0.32819647 4.023168 -1.5750698 3.1667683 0.7783605 1.450534 3.1389394 5.7469134 0.20287916 -1.4878565 -1.0970169 -1.2280717 0.48792958 -1.2611479 -2.2646334 2.2322078 -2.9647472 2.8624773 0.4206662 -2.7934458 0.76776516 -0.7612856 3.3529396 1.9541373 3.4249694 1.1766467 6.297843
rooster 3.6458478 1.6688924 -6.7676272 2.7372699 -3.5008855 -0.27680424 2.0746162 0.7096807 0.0810152 -1.3497081 -0.5373 0.3707264 -1.5309603 3.268071 3.618549 2.0220757 -3.2142072 -1.6274159 -1.5320647 -1.5907755 -2.0874867 0.6949442 -5.6572948 -0.004165638 -0.03155577 -0.5454187 4.3914185 -0.36814988 -4.021455 -2.649969 1.3002169 1.9291475 1.3640131 1.7511435 -1.7865385 -0.7099594 0.60085285 -3.200863 5.517532 0.96207684 -0.41918737 1.7267191 0.4031304 -0.70073235 0.9653171 1.4410108 -3.2873368 1.2499741 2.806325 -0.051451076
