420 50
plane -4.0554614 -5.1777854 3.314045 -1.9329793 7.9760323 -2.6529086 -1.6805476 1.6155883 0.21150732 6.5933685 -6.297349 0.21400885 2.387511 0.9787187 4.482777 0.9547006 -1.57956 -4.7191124 0.86567885 -1.8392558 -0.5598919 0.6303804 -1.0877041 -4.0478497 -1.4543887 6.8877916 -0.6001462 0.1335644 -2.6892178 -1.3696362 -4.077333 -1.3082137 2.1224358 0.125366 3.7737224 2.4405766 -1.4895003 -1.1036338 -4.906798 2.2960796 -1.8737093 1.1255844 -0.48502293 0.29631364 -4.558636 -4.370073 3.9161084 -6.967028 0.7545575 -3.7050507
stupid -2.3146064 -0.1522927 3.8671756 -1.2703636 6.5903907 -2.4657798 0.4344866 2.9862487 1.1218747 -1.3723053 -2.2891347 -5.2962856 -3.2123673 4.7507544 4.7875705 1.0333064 -2.236087 -3.572416 3.0973358 -1.9628501 0.74461514 0.17042363 -1.095275 -5.7362876 3.478232 -1.1844798 -1.6559594 -1.6908671 -1.4592152 3.591657 4.5291104 1.0728065 3.0402257 3.3596582 10.313886 6.8926735 -1.4227962 3.6283011 2.8657367 3.414619 -1.3139436 -1.3537654 -1.2807865 3.6589296 -1.8399682 -5.782945 2.1832085 5.23876 0.96580637 -1.1849523
egg 3.4196193 -1.3414447 -1.2912043 -3.8931959 -1.6492094 3.9123251 -1.9321184 2.5268714 -5.388044 -3.7178764 0.6163522 1.1610069 2.3587027 -3.181057 2.1696813 0.5280116 -0.95408666 -2.5283296 6.120695 -4.9687963 -7.648479 -1.7876784 0.026926778 -4.474639 8.507295 0.22378099 0.576743 1.9690777 1.5253197 -3.5031488 3.0120568 2.7971046 0.6344247 -0.32113612 -3.2361243 5.210871 1.6083823 3.3547957 0.9634448 -5.8427525 2.6286356 -4.942225 -5.1624546 -1.6579962 -8.454708 -0.14201252 0.9401667 0.61462027 3.7243981 -3.3644013
year 5.68222 -6.9401135 4.972756 -0.8861843 -0.5618757 -2.212063 0.30701935 -3.94355 4.6498265 2.1791117 -1.0591358 2.722816 -0.4193489 -1.8510394 -1.7773492 -0.21632501 -0.19209579 -1.1441317 -0.22502515 -2.3478587 3.2652807 0.18683669 0.01759765 -3.4509165 1.0005326 -2.2550597 0.8835295 3.9272296 -5.709609 -0.6686411 0.179658 6.522526 0.42753273 -1.9585644 2.8333511 -0.17608702 3.5622315 1.7129085 4.2972145 -5.9910183 2.7934806 -0.16852729 -0.39754078 1.3529699 3.1796753 -4.1459284 1.1504196 4.601618 -0.6630962 -6.3819795
psychiatry 1.2778991 2.2614667 -0.7965908 1.1354862 -2.0196257 -0.08162602 3.1641233 -1.2285163 -1.8054103 0.2956862 -0.82169926 2.1642265 2.5928903 -0.63708305 0.19008309 -3.8523147 -0.011570338 5.005006 -1.9104165 2.2596235 -2.2008119 3.1266546 -0.078627124 3.0333438 0.9234781 3.282211 1.4386592 1.9759855 -5.7376876 1.7299002 -0.19404742 -2.0487542 3.090248 5.330007 0.032169744 -2.1088188 -0.01016245 3.4844575 -2.2098756 -2.921795 5.4401727 -1.7044296 0.77080256 3.348177 -1.0391458 1.4850153 2.1278381 3.1996274 0.18216263 3.4856508
asylum 10.392814 -3.0790668 2.2284522 4.4128013 3.0548697 -2.1660829 1.6580464 -0.4096512 3.4004052 3.1200001 -2.2933521 -1.1686631 -4.173362 3.94578 2.321784 2.8723884 -3.742704 1.8761547 3.9061766 -1.3335409 1.7790576 1.3246677 -1.0181991 -1.3788437 1.2231975 1.1536537 -1.9991263 -0.33745477 -0.48581263 -0.7937554 4.3001537 2.2331285 0.077431574 -4.081294 -2.1426256 1.6732849 1.032279 7.7838163 -1.4992355 -7.861804 -0.090957806 -1.6890936 -2.7082434 2.2984684 -2.1934295 3.7372224 -4.362675 -0.85509723 1.7690816 0.209987
manslaughter 2.041731 -2.245198 1.0077914 0.21171214 -2.489916 -0.4093228 -1.6854326 0.71972543 -4.2064056 -2.5450246 0.69264513 -0.23340942 0.779857 -3.2749376 -0.6673256 -0.8170221 -0.6864188 3.7924252 2.1365666 2.8761115 -1.0162812 4.1021013 3.3251512 -0.75204754 0.47206354 4.7293797 4.394267 2.1118212 2.2405431 -5.0507083 4.789447 1.9064428 3.5793934 3.755687 1.0012445 1.040078 2.3068056 -2.380009 -1.6889176 -1.2355262 3.0649135 -4.172823 -3.2876625 -2.9589539 2.725428 0.8442637 1.0088748 2.8352687 -2.7926521 -0.57707554
music 4.5708494 1.7013156 -4.5844955 -0.9218195 2.374119 3.6370647 4.0546136 -1.6375874 0.33803466 -4.487044 -2.992336 4.446621 4.0523977 -6.23528 -2.0807858 -3.6025922 5.3608055 0.63132954 2.4493167 -3.3108704 -0.7128072 -0.93829006 1.2601576 -1.6552331 -0.7418595 -0.2820119 -1.9538741 -0.7196668 1.1922672 2.1834989 -3.9041479 3.411553 0.47248578 1.5521103 4.2693257 -5.9932833 0.7005655 5.876183 3.0200195 7.27674 -1.6290069 -2.523675 0.33835942 -1.8188709 5.8736386 -1.4504282 -2.27228 5.997374 1.3040401 7.056374
record 1.3464526 -6.4214015 -0.06963446 4.048778 5.009556 -1.6282353 -2.2904391 -2.3883834 2.226 0.78629434 3.8422928 1.426617 -3.9609573 -7.7213254 -7.773992 -4.5136805 1.6966382 -3.479119 4.0919657 -0.6631068 2.733638 -1.5663702 4.635838 -1.680103 -3.1429632 1.3882214 -5.612295 -5.0466866 4.047341 2.7921016 4.3672004 0.5958014 2.7005043 3.8531337 -3.7512543 -0.8066554 4.7655816 -2.2126029 4.822145 1.2039547 -0.03334242 -2.2335184 0.3361219 -2.0877101 4.6396036 -5.940976 0.27661517 8.8767805 -0.8965184 1.4608679
energy -0.7103547 0.81958973 -2.7059264 -5.7630167 -0.8206699 4.3081656 3.1440382 0.7223275 -0.41338357 0.5823328 -0.46167892 7.2137117 5.0938287 4.5573306 -4.9181137 2.9793012 -0.83328557 5.992446 -0.0968685 -0.927871 -4.649299 0.9930863 -0.46488935 4.553966 -0.5008767 2.6769772 -4.839733 -2.3687317 -4.577304 -0.48245564 1.5724522 2.3640137 -3.6926148 3.898847 0.0060344674 -1.5921829 1.5241374 -0.791191 -1.5497861 -0.6194172 -4.433033 -5.143069 5.87161 -4.1346717 -4.2802763 3.4119601 5.670057 0.5905496 4.5026703 -3.9314737
announcement -3.3512926 -0.84273773 -1.0891585 -8.850092 11.133314 2.1354244 0.9397824 2.9786422 -3.7565186 2.5830708 3.7644935 4.200889 2.685295 3.1858523 -3.1444523 4.1292977 -0.010459013 2.1611786 0.026406877 -2.4969893 0.034875803 -2.4675388 -3.0898914 -2.5016315 -0.099324346 4.0325437 4.78128 -0.22359364 0.44417277 0.1516569 -2.1846297 -3.233255 0.099801704 0.24023618 -0.42154858 0.23705463 -0.6838858 -0.7111372 -0.3083683 -8.962836 -1.4380251 0.19539368 4.210348 -0.7854786 -2.7297797 -4.7889223 1.0433775 -3.3459086 -5.781804 -0.7008405
mile 1.6604439 -7.2439566 -1.9144913 -1.019735 1.6032457 1.9619874 -3.4710906 -1.9046961 1.4158362 -3.1331089 -2.5022352 0.7007639 -1.5501668 -2.5214317 -1.500529 -0.039468884 -1.3126574 -5.0696206 -2.032814 2.983476 -3.068596 3.6889215 -3.5342166 -5.1351523 4.3867536 -4.139102 -1.2499993 1.1548262 -0.57800204 0.5595653 -3.6871269 2.5549479 0.1468356 3.3577783 0.5118822 -0.75022733 -0.4071419 0.12472963 -0.38117895 -4.1022577 6.175875 2.202114 -8.534283 4.0527444 0.21543732 -1.7232163 6.4760838 -6.4466295 1.0515697 -3.6435537
airport 3.795522 -1.6192058 1.3638844 -6.0599813 3.0659974 -1.2166723 1.6832229 0.41312915 -2.7481682 -1.607667 -5.7429247 -3.732059 -3.7802143 0.52458346 -4.654041 -2.260255 -3.8536506 1.3565226 0.55721223 -0.93777746 2.1208189 2.5453749 0.10139217 -0.08823497 -0.29165882 -0.42581618 3.638877 -2.1925085 1.4654087 2.7556043 -4.474351 -3.2940872 -1.2217968 -0.2284929 -0.22262837 -4.748738 -0.6649759 -2.629033 -4.9680104 2.378577 7.7343645 1.389463 7.9615474 3.2081573 -5.4484367 -5.126345 4.232169 -2.1228828 1.6555363 -0.41125783
population 0.11221834 -0.9515552 -0.026242355 3.6271641 -2.4684196 6.9882703 -2.183104 2.085067 2.573912 -1.1160219 1.3592234 3.8160622 4.2013173 -4.8436894 -0.1170911 -1.5389618 4.986114 -4.6778655 3.8792894 3.592801 -5.746704 6.930557 -3.3034308 -3.2927804 1.8923337 -0.9589579 -2.0894327 4.0467715 -3.4814305 -0.81314665 3.1453784 -1.7568289 -4.753607 5.543307 3.9812086 -3.5959315 -2.2712278 -0.57380116 -1.2549633 -0.78417414 6.7878056 2.72961 -5.0309525 6.601139 -5.914226 -2.7757876 2.4305696 0.7926015 -1.8929108 0.96022683
planning -1.876674 -0.18909122 0.43491015 0.72083044 1.1028057 -8.54196 4.4241853 -6.289394 -0.546549 0.10239027 3.1600783 1.3689927 0.89551413 6.1032553 -1.4607161 4.8707633 -0.9807185 2.5957336 3.2495368 0.9670222 2.973388 -2.947608 2.8799086 -2.0564678 -1.2932678 -7.5343804 1.8541673 -1.1205392 -2.4273376 -2.9705086 -5.394948 -3.1955683 2.5288956 1.293052 7.5193977 1.5513241 2.402324 1.3727298 -5.060567 -8.131989 -0.27575508 -2.1294067 0.8283857 5.0614066 -9.3961735 2.5317316 -1.3140565 -1.5369622 3.704552 1.4600449
canyon -3.8318138 -5.780317 2.0471945 2.3002164 3.0793934 -0.6153852 0.83250016 -1.2433852 -2.7687156 -3.3185613 -0.11788284 -3.5211804 4.4137697 -1.0193682 0.95993924 -0.08489068 4.0029917 -5.508906 -2.73664 2.293326 -3.4201722 -0.39470658 -1.7586044 -0.58657694 -0.99579555 -3.6028292 -0.15364121 -0.57025456 0.56971365 -1.3856184 -9.538983 -0.678854 4.4676924 -0.21086107 -2.8475437 0.39374676 -1.2822803 -3.9606729 -4.1132345 1.60306 6.169649 -1.214799 -8.888533 2.092447 -1.3524559 -1.5348527 1.7815397 1.9349675 -3.174651 -0.08552257
delay -3.1067972 1.6151571 4.6455193 -2.6579435 1.4393054 -7.531766 0.053758033 -3.3958821 -1.7105123 -0.8587253 2.6418076 0.7060447 -4.7261577 2.1739943 -4.752523 -2.061158 4.743156 5.069735 2.5863388 -3.4306476 0.57320553 -2.2903252 -9.450143 -3.1119924 1.6694331 1.7712227 -4.9724298 4.9265275 -1.7740878 -2.6379676 -2.5444033 -2.29056 7.2591257 5.1429887 0.44716918 -0.116346605 -6.625214 0.13479222 -4.390401 -3.5941308 3.1585822 -2.3682926 -0.35412654 -2.094029 0.30965298 0.5928735 2.1203697 -2.8278852 -3.7770152 0.10209972
size -6.2490015 -3.8670132 -2.3927293 0.1444644 3.6894844 0.26855657 -0.45247406 2.6847832 2.479296 6.2154055 -1.1285644 3.3348815 -0.83362037 2.4795663 -3.12744 -1.6207111 4.359052 -4.313605 -0.62890047 3.1360161 -0.46537048 0.89076376 0.4832872 -8.959232 1.6312932 -3.1765 0.12553957 3.0894792 -5.971523 5.974458 -4.0659823 0.86334985 -3.886819 4.8788657 -1.0197119 7.2462 1.4831928 -4.1464276 2.4955227 2.3536508 2.915108 -0.5582302 -3.2169442 -0.20787893 -9.277894 -0.2528967 3.2723858 -3.0565364 -1.4382827 4.748122
peace 4.4433565 1.8558874 -0.10684065 3.8288271 -1.0762138 -3.37806 5.2134137 -3.9902802 -0.12095169 -2.6204228 4.6335196 1.079778 4.887734 0.5989806 -1.3786144 2.7978249 -0.6908563 6.4053116 5.761501 2.725323 2.0924125 2.6783392 -2.8769782 1.0217586 -3.3350906 -2.957184 -3.6207511 -2.477262 1.2883445 -4.95394 -3.6025932 -0.7945005 -3.7412472 4.8210163 1.3028519 1.7156793 4.186629 3.6777236 -2.0305853 -1.8358848 1.704602 0.47600996 -2.1708934 -2.382639 3.699848 -1.050252 -5.8245873 -1.9438882 -4.8757534 -0.5846927
science -0.2430494 2.9330435 1.603613 5.8194695 2.3323276 -5.641625 0.92545176 -5.4633245 2.8420095 3.7730906 -5.0643063 6.723256 -0.94184196 -1.7185178 -5.6682944 3.0265732 4.4451885 0.6238263 4.18428 0.37612793 2.270808 0.12813 -1.1526415 2.6811318 -3.3855162 -1.7487112 -2.7899384 -5.516954 -8.8894825 5.918606 0.81338584 -4.344682 0.72308695 3.367772 -0.5878825 1.4945688 -0.17588516 1.2886752 -0.08025546 3.018923 3.5772 0.64735997 -4.5671587 3.3967447 -1.8254925 3.4308872 0.9155463 3.9576116 3.0208044 4.593311
dawn 9.457362 -2.424199 -1.4755993 -4.645196 0.1755435 2.1556964 -3.1808765 -0.48932147 -1.2662002 0.98963064 6.706212 1.7707744 -0.16996232 -1.9630877 2.2123241 8.253214 4.741868 0.9919652 -1.8351908 1.5162445 -3.8915212 -1.8153687 3.0094883 5.584922 0.6194711 0.38434583 0.11156188 -3.9458044 0.8816221 -3.227134 -2.3542776 -5.6277056 -0.69893044 2.8364668 5.187029 6.9352446 7.5396886 0.37969294 -4.4894547 2.6070983 -0.38762093 2.8257573 1.0186688 2.4145322 -1.4993125 -3.0608706 -1.0275812 2.257787 -1.6873354 0.2075339
brother -1.4565839 -6.431873 4.3576317 1.2329525 -0.28572625 0.060987156 0.14656687 3.5430753 -1.8157215 3.3946261 -4.5737195 -2.5992672 6.3895946 4.3689055 2.5074298 -0.7846468 -1.2921717 -1.6391481 -1.8342988 -3.027209 -2.524233 1.1684457 -3.354605 -0.029359892 2.1274874 3.284484 1.3660855 -1.5221987 -2.179962 -3.240949 -2.5351253 4.5059195 3.6547985 2.8334517 10.65353 1.0570763 -0.5597621 0.14144723 3.577732 3.096084 0.7886345 -0.57760876 -0.23919706 -0.032195542 3.4107978 2.2853048 3.6141968 -7.5027075 2.7936077 2.1095555
wine 4.7199078 3.3116622 -4.0604525 -3.9888303 6.0589 8.586652 1.4271315 3.0150645 -2.0270047 6.397205 -1.228474 8.26702 6.4760237 -3.4809043 -1.0622404 -1.4602313 -0.58785075 -1.3251127 5.494386 -3.5568268 -2.7858684 -3.2532058 4.368228 0.876303 1.6726298 -1.9336311 -1.4538602 -1.2489543 -1.5132285 0.053479068 0.98037606 5.7830024 -1.8595141 -1.3750907 -2.7226882 0.75289476 -1.0082858 2.808616 -1.9705222 -0.26689595 1.0509852 -1.7438512 -2.562814 2.6855063 1.3286462 -0.4591925 0.9653419 0.16461492 -0.26944533 0.68804157
object -1.1889156 -1.259182 -0.1058599 -3.3593102 3.3185017 5.3886476 4.4291625 4.838313 -1.0268642 9.621551 -2.15406 0.23555888 2.9795485 -2.328854 2.0297284 -3.1199088 0.15215561 -2.0271273 4.0321693 1.1292804 3.0797338 7.327183 -2.3612049 -2.4574146 -1.0080864 0.7929835 1.536217 -2.2125182 2.70424 1.124782 -2.1914017 -1.6291584 -0.9116141 2.9703698 -0.86977595 7.1000714 -2.9931548 3.5202255 -2.1340559 -0.9045311 -1.742265 0.6302799 1.3903699 -4.555411 -12.578272 -2.6893733 1.680359 0.5906425 -2.686654 8.464686
attitude -1.4093952 -4.2038217 -0.17094696 2.544599 -0.7172939 4.001754 3.592106 1.3345121 7.0401335 -2.9242988 -0.7600622 -2.7413387 -0.24782436 -3.1497927 -6.0443687 5.535886 -1.02092 0.40926182 4.981479 0.067799546 0.71259457 -0.41605523 -0.83866537 -2.2684073 2.0203352 -3.2478163 -6.7184577 -0.30981898 0.23465496 0.39680308 1.0113146 -4.531104 -1.6218731 8.818993 2.1550388 3.302914 -3.4934921 6.987973 3.617048 0.23100404 1.36961 -1.0281904 5.184588 -3.7067728 -6.0252857 -0.13051057 3.7646353 -0.5356851 -0.7070341 7.3032765
treatment 6.3457375 -0.015021969 -3.3094501 1.8014905 1.6868021 2.3745186 3.5464816 7.253549 -0.2591936 -3.9842873 -3.607522 0.10191542 -1.3865521 -3.401132 -0.5065197 0.5263455 0.96866703 9.513276 1.0365285 1.3024062 -4.066342 2.3482003 0.43148288 0.15267083 0.57087415 -3.4074192 -3.3351874 4.55681 1.7074872 0.33094394 8.459424 0.37758747 0.7191076 4.235151 1.0110669 0.06745195 -1.8993998 -1.13483 -4.730637 -8.486889 3.490976 -3.4826267 1.2448912 -1.2497627 1.1651412 3.2091186 0.084463544 0.5871465 -8.021727 -0.5747111
flight 2.6902747 -2.036871 0.69299316 -2.8857727 8.77107 -7.097348 -2.2900898 -2.8711047 3.1178746 -2.4742491 -4.176207 2.287842 2.03826 2.0329998 2.1601517 -3.5484958 -2.4871068 0.022331487 1.5903481 5.985223 -4.419648 -2.0334792 1.5980994 3.0695457 -4.775783 6.2209373 0.7266703 -2.1031034 -6.0691314 -1.2090932 -5.4086905 -2.5350559 1.2096198 -0.52831984 -0.93895346 2.0600479 3.0472999 -2.8656116 2.4021788 -2.4242733 2.5897303 -6.7315607 -0.02453336 5.027931 1.1545236 -6.167686 5.4276247 -3.9958985 1.4096233 0.5390029
forest 1.9641962 -4.4619746 -0.24232133 3.6303968 -1.7869161 0.08159935 1.8708321 -6.9757814 0.03641507 -5.2012534 3.6726353 2.6602654 1.2887113 -3.2027748 0.71926796 5.556922 2.697154 3.3133667 -1.101815 3.3437166 -5.0864387 0.92864937 2.9976406 1.4538963 -0.5691917 0.36942893 -5.93107 0.59943 0.62774754 -3.9624374 -0.9700516 1.3515741 1.0774702 0.27416354 -2.3501313 -1.9580219 5.8060513 -4.643677 -2.7425268 7.82832 5.024444 3.7548833 -6.380229 3.4074452 -0.6190548 -5.586776 2.3114164 6.977498 -2.8313816 -0.81979686
abuse 7.990428 -1.4713273 0.93289036 1.5974027 2.6306174 0.19548947 1.9120443 -3.1067274 -2.4597332 0.60868233 3.7189753 -2.3056417 -7.2938137 -0.2213925 -2.2222 -3.7922695 -3.2112205 2.8157687 0.42106014 2.9939842 -1.5149213 0.37393123 -0.45436153 0.18317032 3.0328875 2.921645 -2.047899 0.58165115 -1.2103614 6.382655 3.702575 -4.1471677 1.809593 6.679836 -0.9835779 -0.86034787 2.6781955 2.2455888 1.419524 3.0608053 2.2198958 0.4765426 0.87948996 4.4087887 -0.8392612 -0.24491954 -0.15922785 6.6332307 5.027211 7.859161
criterion 2.4038198 4.8883457 0.8730089 1.6862773 1.261871 -2.8972025 0.6114534 3.2093194 0.81561524 -0.9050677 2.0611625 2.4906087 -2.605742 1.8054081 0.039955176 1.0135401 4.623815 0.30997023 0.07348252 0.18680163 2.329687 1.7804077 2.229032 -1.2587545 2.8907495 0.49387833 1.81235 1.7214855 -3.6040745 2.1343288 -1.4498717 3.3969533 1.1884407 2.737287 -1.6104695 -2.8968825 2.1989202 1.8694813 3.6403549 -7.20844 1.1386333 -1.6873444 -3.0941396 0.55568886 3.1180656 -2.6578288 2.3970363 1.9534009 2.4444826 2.9266603
sea 2.1660671 1.4612522 -0.11487217 -5.7674494 3.1041033 5.979907 5.421263 -2.3280056 0.7735766 -3.3034675 -2.6811075 4.291933 -0.56126434 -1.1873479 0.95849323 1.2032354 2.8132975 2.1365652 3.9075127 2.0647798 -5.4141536 5.8166766 -3.208089 1.4953493 -0.5705943 -3.9004223 2.864601 -2.5053897 4.877432 -2.2972152 4.5190997 -3.6278858 -3.0035224 2.5795557 0.79426384 3.0803897 0.091222815 -3.786098 0.18863116 3.7019696 1.8250374 -3.3240414 -8.033414 5.8971195 -4.9596334 -1.2778525 -0.50320894 -1.1993538 -2.170518 -0.70211357
dollar -0.3034108 0.80982584 5.165134 -2.6944742 1.4556875 2.2895052 -1.5482614 5.3701286 -6.6910324 7.831097 2.9946942 -1.0937617 2.3451636 0.524537 -4.94372 1.5105634 -2.3979943 -6.182541 0.8247398 -2.8166034 2.3928835 -2.1871026 -3.5812376 -6.2718453 0.3027893 1.1940861 -2.4459805 -1.4226148 1.6453068 -1.3047875 5.1715217 3.8286605 0.9010742 1.3489448 1.3744919 -0.15341574 -2.9354167 -1.301178 1.710066 1.1600784 -2.6834612 -6.997237 -5.901558 2.9890385 2.5057542 -5.4379067 1.1338198 1.609307 -2.0151975 -4.0458694
example 3.2617834 6.2469945 1.9603822 0.17880966 12.054677 -1.8682059 3.9871733 0.9252306 2.2059188 -2.5324435 4.344823 5.7789564 -1.8178258 2.1490402 0.10194807 2.117552 1.3799399 1.8170978 -1.8527391 -6.864384 -3.5676544 1.3906013 2.3792303 4.1399536 3.7412949 2.0096412 -1.3387407 -2.8779933 -6.3035297 3.7559493 6.384975 4.824595 -1.5851783 0.6576245 0.72123253 -0.4455052 -2.7979891 2.835365 0.2031918 0.4663203 -0.37702948 -0.19015981 -1.9702821 4.029994 -3.9254549 -1.155247 0.24947003 6.432535 4.011085 0.40246537
journal 0.52526593 -1.0658631 1.9365139 -2.9661827 0.7211076 2.5836143 5.948041 -0.99666 -4.746518 3.7996368 3.1879447 8.150135 1.7585942 -1.0784303 1.6746734 0.40604258 0.88385344 1.2598596 0.32424912 -4.2181926 -0.6372746 -1.367421 -3.7709033 0.48425007 0.16325174 1.9228476 6.200305 2.994386 -1.0871903 3.2051587 -2.9508052 -2.4366364 0.53309137 0.9783418 -4.3403764 -2.2912748 -4.177204 2.461642 -1.3179281 4.192007 3.6653976 0.19168904 -0.31131843 3.3122008 0.55550116 2.5136168 4.079725 7.1135616 -3.6893253 5.318252
laundering 4.238211 -2.754381 0.12719402 3.7803628 -0.23108023 -1.298533 5.2037873 -1.5951563 -4.401205 1.7116814 -1.2977539 -0.7782278 1.100591 3.5002153 2.345777 -2.4940681 -1.6039788 4.204295 2.7982037 0.8339395 1.7235516 -1.4481301 -1.8587699 -4.6550136 3.0985813 0.9726649 0.0023340425 -1.8842524 1.7230345 -2.0574858 -1.7330338 3.1373622 0.55278206 2.6477757 2.3790617 0.23645255 2.1627054 -1.6504072 -0.811236 -0.7945656 -2.1376863 -5.4589205 2.7382667 2.8022609 0.1879764 2.530807 0.94758517 -1.7470975 0.78895444 -0.27294752
hotel -0.2204939 1.1094099 3.675237 -3.9224255 3.7406657 -0.63408285 -4.303227 1.1880522 -1.7211835 2.004722 -4.2097206 -1.0681347 2.9810402 -1.3340272 0.71732813 2.9385586 -1.6810632 -2.007399 -0.3942944 -0.97796595 -1.5796162 0.6026068 7.1366296 -3.2376785 1.6306263 -0.17584594 1.6625732 -3.8679235 1.642412 -2.1804 -10.731866 -7.662297 0.07496404 -1.2358565 -0.65677893 -2.2585537 2.1475716 -0.31539392 1.7945977 0.68316984 4.2068596 0.6897628 1.3738564 -1.5545053 -2.9691002 -0.312446 3.3175087 -11.052786 3.5882258 -2.2573094
term 2.9480937 0.16777648 8.94334 4.3712363 1.6919782 1.4486089 -2.850996 1.6784804 -1.1856922 2.712083 0.6709229 -1.2785326 -2.3578603 0.62771 -3.5797222 7.6867595 6.6256666 -4.4728713 -2.4599597 2.9596567 1.0743083 -1.744565 -2.3542147 0.5721136 0.7696427 -0.030099828 -5.339739 4.511129 -3.3576844 -4.1569614 -0.43573722 5.3536506 1.0833298 5.773679 -3.0649529 1.4335603 -2.5237985 2.648736 2.4966843 -7.366191 3.1600125 -4.3379674 -2.1367972 -4.9699616 -4.9926763 0.22768426 1.1013064 -2.4844131 1.4258014 -1.3232195
listing 2.7320788 -1.8136542 2.0339737 -0.16911477 2.109104 0.6085036 -9.22166 5.5928016 -5.7924814 2.2486765 6.008162 2.2807362 -0.48992372 -0.2297065 -2.1468337 0.8413891 1.5561532 -3.3426216 0.68662596 -3.294165 2.1882377 2.9926898 4.993723 -3.346868 1.8642212 0.87389976 4.5913606 0.68521255 1.0984582 -3.309602 -6.6173615 -1.8708698 6.5508327 -3.5554192 -4.1343884 -0.4755629 1.5941194 3.2844343 -1.538526 -9.650318 0.22466968 1.6527236 -4.621058 2.96064 2.121509 -3.4500518 -1.5550829 1.397683 -0.16159727 1.1980431
chemistry -1.2649622 -2.5994012 -2.0133662 -0.17789212 -3.376104 -0.3719798 3.4763896 -0.30918935 2.3196545 -3.037958 -3.2472692 5.751935 7.2934446 -2.5106528 0.6211537 -0.73819786 -3.8211212 4.651991 3.7970147 -0.2636764 -2.0066793 -2.7605886 -1.7719476 -2.0827296 3.007367 -1.9560009 -1.3766292 -3.0030267 -5.0040936 4.2549286 -3.559116 3.012459 -0.596855 5.040009 -4.9266963 3.213071 3.4646668 -0.13333794 -0.10119128 -3.755537 -0.69546765 -5.6819944 -2.075809 -3.480037 2.0364199 6.1293283 8.2809105 0.97844994 0.8178557 4.8361435
seafood 1.2039591 -0.97235644 -1.3093373 -1.691203 -0.9870771 2.2070389 -0.0791576 2.1417596 1.4980952 -1.965279 0.24595332 5.3029394 6.532122 0.9850366 -1.7342134 -0.77142483 2.6700077 0.87726825 2.2874117 -3.815853 -1.4364514 -3.0349264 3.3839693 -2.029386 -2.9322631 -3.5130627 -5.1363244 -2.9159608 0.6831576 -2.5168893 0.55123955 -0.8930912 2.5213106 -4.3465934 -2.9039733 1.460757 -0.6843614 3.1431882 -6.9287286 -6.0258036 2.641961 -1.3063554 -0.14638968 1.6548967 -3.6432185 -2.9725382 5.08695 -0.11507586 -1.1147056 -3.3610125
mind 0.102161735 0.6661345 -4.2100124 2.510578 2.6619742 0.8936809 8.026488 -0.6715498 -3.1030293 0.97430307 0.6940126 -1.7549545 5.76798 4.115677 -0.13436212 1.830238 -1.5371108 3.3582132 1.9996324 -0.36619687 0.30135533 -3.7009892 -0.32153377 3.3263578 -2.7955194 6.693212 -2.5452704 -2.6008575 1.0541991 0.9568524 -5.8278093 -2.3374798 -4.406389 5.1095576 -6.7094655 5.7896905 1.7827739 7.022039 -4.8674235 0.2247297 -0.70706713 2.538026 -0.086696304 -5.962458 -5.3169723 2.8013668 -2.5430515 -1.8206937 0.65462106 5.742729
sex 6.276376 -4.0159616 1.7144084 4.985175 -5.0327992 -4.2629857 1.9558091 2.462776 -5.2928705 -0.3797041 1.2814153 -1.0773433 3.7973616 -8.991646 1.4862359 -2.3735578 -2.7001054 2.529198 2.7942257 -1.5671092 2.6170905 -1.851276 2.101302 -1.9740632 3.5171237 -4.328877 -3.3434794 -3.0699897 -0.4099268 2.5698748 -2.9111507 -0.83186066 3.9983773 2.6595583 0.63380873 2.9324174 3.1204443 0.5929609 5.8268213 -5.093041 3.7582157 -5.8211484 -1.1787201 3.5867674 -1.6265564 -1.012622 1.5073059 -2.5415788 0.040693328 4.2965474
food 4.3881655 -1.7425195 -3.1736023 -6.643296 0.7953668 1.8314819 2.0833576 3.4221575 0.027924264 2.7638967 0.5951709 1.3554732 1.5215805 0.1746213 0.56763065 0.3671743 2.513546 5.9206853 -1.5087545 -2.9369574 -4.9401298 -4.333185 4.2281137 -2.1610305 0.966572 0.6923021 -7.349639 -0.6444849 -7.1463304 1.5801287 -1.9613847 -3.5826528 -0.8556819 3.3996568 -0.28042978 2.158361 0.955042 1.4060467 -2.965163 -1.0347247 -0.6153538 -3.473198 0.7202302 10.021073 -5.196952 -3.251818 3.1618245 1.191489 7.518159 -1.2403456
precedent 2.7315469 5.352793 0.06439684 1.4812094 2.6981812 -0.6482393 3.5660317 -1.8176857 -4.364157 -4.1280265 -0.49224848 -2.114098 -3.65665 2.798926 -1.2221545 3.5903578 1.8846676 1.2008227 3.0161326 -7.7482233 3.047192 8.224288 -2.0069845 0.3070852 0.38831928 0.15320367 -1.1114641 -3.395013 1.2301772 -5.470085 -1.3912365 2.6635747 4.7722077 3.1933675 -3.3459966 0.63440603 -4.5121326 0.00958173 5.2430367 -5.4774346 0.90436286 -2.368097 -2.0076566 0.46521467 2.2488601 0.082395986 -1.3535131 4.624374 -0.051325556 1.3695155
series -0.3567261 -2.114101 -4.402938 1.4376208 2.449179 -9.844864 -0.25688958 -8.923977 -0.07680634 3.2407918 3.8223488 6.2388754 -2.964364 1.8551502 -1.0105834 4.7873764 -6.203814 0.92277557 0.13900803 -4.676685 -3.560552 0.34454238 -3.0375438 0.35856947 0.08290994 0.54047394 3.4266884 -3.8993113 0.67880136 0.9519687 -2.1769862 -2.9197977 4.189059 0.4633848 -1.1866915 2.4311523 3.6484475 -1.5864531 9.189652 3.6535273 -0.90160465 0.5705651 -3.8750095 -1.4795464 2.7570157 -2.0730417 0.14835563 4.5514565 -0.89168125 -0.025023159
kilometer 2.7430348 -3.4588757 -3.8074837 -2.2978837 0.26019675 1.7702155 -3.0291185 -0.96053004 0.34448662 0.048402455 -1.873438 2.5715632 -2.818155 -1.2959758 1.406685 -1.6588897 3.1932108 -2.370895 -1.6946619 2.1782146 -2.7263942 5.123546 -3.868207 -2.577394 -0.5003697 -1.528456 -0.07116578 -0.4748444 0.8616052 -0.015694298 -1.0443747 0.11836573 -0.6178066 0.535154 1.6817726 1.1714005 -0.8709332 -3.2567136 0.09106255 -3.0190089 2.6507525 0.052152276 -3.6834974 1.0681494 -1.019953 -1.4275608 4.7828207 -3.7331622 -1.2213209 -1.7522082
grocery -1.4955367 -3.8456283 -1.8744221 -2.1867032 -1.4094659 0.7408304 -3.165994 1.074019 -0.62413025 1.8326076 0.5174484 -1.8927379 1.7998836 -4.647875 -3.5158072 1.5962684 -2.0585294 -2.6420453 -0.854371 -3.329582 -2.8153756 -3.435025 5.818183 -3.454776 1.5477557 1.6032021 -5.461097 4.7128077 -0.7592028 -0.48182818 -3.5951715 0.14377171 0.29991892 1.9479192 -0.91732395 1.0228587 -0.4453516 4.502191 -4.72354 4.373225 2.558032 -0.6243598 0.91437477 1.2887334 -4.300483 -0.58957535 5.635995 1.1563064 0.91085345 -1.1157466
wizard 3.301969 2.3262053 -0.9237784 2.105189 6.053794 -1.8750298 5.010126 0.6656649 -0.8686154 -0.9851127 -5.6891346 5.356389 1.6575519 -0.4486781 0.24794078 -0.33937505 -2.0878358 1.0535028 -1.9955847 3.127553 -7.8471045 0.69612604 -3.790528 3.1180794 1.873731 2.7574854 0.85601807 -2.4046168 -0.37299925 0.490373 -0.24928409 0.82792 -0.8598965 2.6874833 4.3272114 -4.4420414 1.145715 -0.76622313 2.4590564 5.8175344 0.29210293 -2.347276 -4.470556 1.0921246 5.478355 -6.188732 1.8078303 -1.9732163 -1.4120861 3.29378
information 6.569661 0.47402367 2.7651792 1.2127788 1.0546436 -1.7284782 -2.278743 0.42458463 -4.0326242 1.9796817 -2.906371 8.0672035 3.3112857 1.9639608 3.5066028 -5.2285194 -0.33402288 4.9104605 3.788712 3.1581957 1.9239273 2.9245772 3.373476 0.6051111 4.4820795 5.220389 -1.1098902 -0.12561665 -0.2718964 4.7700486 -5.4239764 -4.883391 -3.83091 -0.17562513 1.9231656 -2.6236708 0.9632261 1.5628799 -2.0032198 -1.9667186 -5.803746 -0.28122786 3.2156563 -1.0660486 0.8553302 1.3780773 2.0415628 -0.24910656 1.8880639 3.239549
brandy 1.7780476 -0.7213374 2.99992 -3.0658436 2.7665753 3.3547142 -0.7287157 0.097552 -8.745623 -1.9610969 -0.17796417 1.3220792 2.7896845 -1.9200978 0.24502763 -1.5754906 0.9075286 2.835875 -0.0037429905 -2.3534198 -5.645996 -6.6358843 3.1717427 -2.5405195 -0.4605859 -0.97528404 -0.1388228 -3.2841227 0.49986207 -4.457679 -0.053175494 -0.34325993 1.0726812 -0.21136148 0.56188226 3.6057334 3.2193227 -1.3531324 -3.60202 -0.07263853 1.9340513 -3.4610023 -3.2223022 0.48400885 1.2908549 -1.7838633 1.2795013 -3.2625241 -1.0822312 0.61832744
interview -1.5393147 -3.60998 1.454487 1.6692604 3.737889 -3.0887794 -4.2828894 -0.23946992 0.6002766 4.533512 -2.349821 1.302337 1.3321836 -3.1255615 2.6788194 3.0315816 -4.8102837 3.810273 0.8190794 -4.4014745 -1.7038894 -4.434956 0.3714044 3.1197572 -3.8429165 1.0417625 7.613854 1.0707728 -1.4677324 3.3017478 -0.7690686 -4.5716333 -3.7401962 2.1281025 2.1896548 -3.3030627 -2.5780988 5.8486576 2.0690432 -2.867828 -2.6983202 0.054504402 1.4367417 -3.487355 -1.374699 -0.27815947 7.2997212 -6.8371835 -4.4695807 1.5701503
prominence 6.4871964 -0.968613 -2.5798895 -0.9595973 0.8800396 -0.5938578 1.7123977 2.510075 6.1251645 5.4527864 2.9792056 -2.9125943 -2.6457968 -3.3599367 -2.2159173 1.9394209 -3.2969296 0.330725 2.3065662 -0.8819448 -1.3128425 0.3612498 -0.8937394 2.6510415 3.3675506 8.039529 -0.7236005 -3.8910258 0.2855348 2.8279295 1.3683927 3.4368541 -2.547505 2.3033092 0.6209886 -2.3697555 -0.8395826 1.4187391 6.4907045 -0.05175006 3.2255676 -5.018999 1.9616753 -0.2180575 -1.2050502 3.7670052 -0.25254744 5.1266994 -4.918226 5.8262925
bed 2.4349751 -4.045116 -3.036351 -4.697173 -4.127768 -0.88340086 0.18702802 0.15494718 -9.78438 -3.5293076 -6.608245 3.359143 1.4298729 -2.1112149 -2.8938017 2.1937025 -2.530258 2.3988297 -3.4029431 -1.208954 -1.0571457 3.1720152 -0.15687454 5.554496 6.516578 -0.06624703 -1.1519516 0.3429392 0.18848807 -1.1359234 -2.3334084 3.3009543 4.4925833 0.95747787 5.4562488 0.048895065 2.3643703 1.1874429 1.3888234 -3.086616 -2.1367898 1.8306558 -4.564932 -1.181855 -5.561847 3.8219683 2.5386868 -8.386945 -2.799646 1.743931
furnace 0.836948 -0.5753592 -0.27863207 -2.390263 -0.49505135 3.1751351 0.9189014 -2.9979668 -3.6026871 -3.1486895 -0.59543204 3.262832 -0.9508373 -0.27771705 -2.7270222 1.0864409 2.3026898 -0.6934549 -2.950987 -1.6006588 -4.8685384 4.4888935 -1.1655526 -1.2758936 0.8490947 1.7305727 -1.7958022 2.0326107 -2.626476 -1.805518 -4.0372424 -2.2598274 2.3202832 2.2210345 -1.7622783 1.0350133 0.30861887 -3.4824038 -5.1127243 0.39802942 -0.3581738 -1.700754 -3.8561187 -2.5571976 -6.0483875 -3.9903677 1.2446805 -4.64439 1.5230453 -0.053707294
evidence 5.941601 2.8325362 1.870299 -1.5215703 3.2262754 1.8907993 -2.1805604 -1.1389738 -3.9999697 -0.13535982 0.6012095 0.6319135 0.95843977 1.0350252 2.5365758 -0.9751356 2.7646735 5.8790526 4.7747116 -0.3915526 0.7503383 6.0828996 1.8459959 7.4940414 1.4225873 6.5393615 -1.4980285 -1.4596443 0.6280273 2.9829767 5.4663334 -3.3422363 -2.7572021 1.3835661 -0.37698048 2.126253 2.1555052 -3.78924 2.1882074 0.29131848 -4.731534 -0.5034809 0.59015316 -1.8484563 2.7358966 5.593064 1.5114223 6.7139955 -0.19399601 8.466738
sprint -0.754511 -1.5266627 -1.3053864 0.4590625 2.224847 -1.0780233 -2.165928 1.1245974 0.8487416 0.3185854 -0.943581 -1.5544981 -7.9231668 4.1595254 -3.0352032 -2.152014 3.5856495 0.14446965 0.07199815 -6.6493545 1.4703472 -1.4851513 -8.23945 -7.3965664 -0.7029858 -5.725896 3.0815055 -1.3089974 0.9205638 -3.2404134 -3.7505355 -1.7957696 1.6784576 4.0632668 -4.55719 -2.9667823 -1.8158853 -3.1777503 -0.3451326 2.7622292 -2.5359774 -2.9246457 1.6469655 -7.935256 1.454357 -2.9272137 6.0466814 -3.603888 -0.37888125 -0.38163418
emergency 1.1727402 1.6949519 -5.335812 -2.2925751 4.7109494 -1.9036224 -0.59102803 -1.4271835 -7.343838 -4.8387094 2.8428905 -0.19585729 -2.4575787 2.868566 1.0083095 -2.6119335 -0.91016746 6.095602 -1.7832239 0.51358366 -4.385172 -0.1381944 -0.8339503 2.3273551 -0.38715845 4.456276 1.1098514 3.975017 -0.08291634 -2.7618768 0.253509 -4.533473 -1.818235 5.0872493 -5.2043853 -2.3130455 4.327636 -0.14021538 -4.9764833 -4.598184 0.3572096 2.035633 -0.37654433 3.9835105 -7.435942 -0.64715165 1.2856015 -1.189546 -1.4096851 -5.0887113
institution -1.6741225 3.2478 1.2160823 1.7213725 3.904314 3.2047489 1.5844748 -2.446129 6.9760356 1.9579632 0.69557774 -2.9965558 1.4838185 -6.7448754 -3.1285815 -1.774394 -3.316117 -1.4040161 1.0725667 3.0493798 -3.0369895 6.201038 -1.681868 -3.522127 6.3503375 1.6846035 4.8828707 2.0208323 -2.3850393 -0.8335976 -5.4777236 1.2930286 -3.1250896 5.058656 -5.150421 -9.479196 2.0911875 7.1006055 0.99767154 -5.101625 5.7465334 -0.48611322 -1.5497332 1.8592652 -7.906005 0.28055263 0.3334596 4.2526875 2.4286308 -1.6230966
bird 0.7168271 -3.3627975 0.5293482 -0.22396953 6.6146073 -5.0728235 1.5175191 -0.20590368 -0.53126067 -7.710579 -2.7119346 0.2679549 0.14563723 -4.662271 3.180433 -3.1221492 5.2137785 -0.41974473 1.4891281 -6.942224 -6.4453173 -2.5478127 0.60167223 -1.674469 4.685601 -2.1202521 2.5157595 0.5668331 -3.4857943 -1.3230247 1.4189851 -4.1739264 -0.61929554 -4.8291173 -2.1143608 5.5274987 0.12836671 0.5279217 1.6822608 3.6505015 8.251973 -3.9020052 -3.6605594 3.926471 -3.3081748 -3.128732 4.058037 1.7938479 -0.45974344 5.2617126
warning -3.3193927 -0.26694545 0.43281233 -2.5233593 5.207209 0.004814808 -5.572475 -0.18729177 -2.4119296 -6.492283 4.9408894 -1.5683912 0.25501412 5.7744946 4.818633 2.380626 0.9558257 0.65052575 4.079123 -4.1874785 -8.070995 2.2889605 0.15972078 1.9547988 0.44507748 5.7232647 -2.1129954 6.7588224 1.5849534 -4.961395 3.22347 -6.817887 1.9757469 3.8552856 5.1277027 2.4209647 -0.32702443 1.8785697 -1.1949565 -0.3984962 -5.700508 -1.3316523 2.0672464 5.379724 1.5467975 -5.2370596 5.546114 2.299335 -0.45075676 -1.7143037
implement -0.90783775 3.1416142 0.69646585 3.219649 -0.7350879 -4.0783567 -0.89742255 -1.433771 1.8749406 3.6757097 -2.582303 0.038648855 -7.015984 2.5910065 -0.9649822 5.500519 4.0883656 3.774401 1.2842621 1.5560906 0.18668488 -4.000029 -2.7722142 0.444398 -0.6612389 -3.324609 1.0639358 0.32120606 -4.0763373 -2.869097 -0.5958714 2.6325626 0.38360932 4.4986777 -2.8267481 -0.85116994 4.9637275 -2.8309476 -2.1372204 -1.1548877 0.13973776 -1.4154608 -0.15067081 0.5359548 -7.749224 -4.1771173 -0.14238985 8.680978 -3.7080934 -1.7698332
train 1.9859115 -3.5518486 -6.8540754 -3.7502067 -3.1127663 -4.1387277 2.4085982 -2.6706767 0.9246832 -0.97650003 -3.61962 -1.1510653 -2.2476437 0.31297845 3.7410395 -2.657943 1.0309943 3.7305372 3.8532572 -2.9172626 -0.3936789 2.9099882 -1.4228635 -0.049262434 -1.9242417 -0.8167111 2.5642288 -0.60160285 -7.1601496 -5.901126 -0.1887483 1.5476065 -2.2327745 1.3074512 -1.7351863 -0.85250294 2.8810863 5.022164 -4.641237 3.6362517 1.8878014 -1.3577415 -2.4863865 3.0564094 -4.680518 -8.692239 6.839289 -0.4919917 6.295595 -0.59816045
area 5.4100237 -1.4308517 0.1381427 2.0102413 5.278506 -1.6461264 -1.9154363 -3.8967361 1.2788184 -7.0285654 -3.2213664 -0.6493072 3.6119316 -0.36408642 -2.248657 -3.4807925 2.8874495 0.003450051 -5.1801453 0.45659438 0.45891485 8.542735 1.5378369 -1.0763131 -0.42537856 -0.8623681 -2.0438855 3.4419417 0.65437794 2.5585954 -3.255205 -8.807105 -7.5320106 -3.0206344 -2.9871478 -9.168992 1.0669314 0.313112 1.5641582 1.616926 0.96765894 3.2591648 -0.906618 1.3057265 -5.3737416 -0.040653024 4.112993 -5.4007754 -2.6209805 0.30326575
image -0.28023985 -0.25804093 -2.5314026 2.9035883 3.1389928 2.7744648 5.385381 6.707062 1.3346272 4.087765 -2.9259994 6.789019 5.852392 -2.2193084 -2.3025517 0.71445125 1.2076249 -1.1555265 2.7965667 -2.7201421 0.5322202 2.020162 -0.5443289 -4.2292194 4.860759 4.686018 0.93761164 -0.46702525 0.34880877 -3.2388892 1.8238746 -4.0731955 -3.845335 3.5937672 3.4799483 1.2309313 -0.005967114 1.201354 -2.2464485 5.874647 -2.038075 1.747678 3.1175 -5.7536254 -3.4559166 -3.4796517 -1.8616335 -5.823239 -7.3421245 9.580036
murder 5.5215597 -6.1859965 0.9172489 0.621628 -4.593974 1.5965745 -0.3515267 -3.358681 -3.2787519 0.8742082 0.7344858 -0.47951245 2.600335 -3.131134 2.2668936 0.8327756 -0.3156465 -1.0298579 1.185905 3.064927 0.48238847 3.3278701 1.1848841 2.1596806 4.488059 4.3470974 8.041636 1.7223257 -0.41106915 -2.2671983 0.95817286 -3.538799 3.5524035 6.9410853 4.8010187 1.4699455 3.9448504 0.21816894 -1.9781699 -3.8238945 1.9399569 -1.4235624 -6.5924225 -2.2926583 3.9466655 -1.3724172 -1.5457125 1.9588227 -0.003636185 0.45478606
journey -2.4275556 -11.708778 -6.672252 -5.4281564 1.9259659 -1.8423251 4.173586 -2.4437726 5.6097064 -1.2248732 -2.0776823 -2.5926197 3.4833724 0.304647 0.60029924 4.3194246 3.8712916 3.0433438 -1.25539 -1.7712302 -3.5240872 1.1658937 -2.420897 1.5438378 5.68077 3.149869 0.5912416 -0.13326335 -2.7190034 -2.4341357 -1.2627023 -1.6917852 2.0803506 -2.1747332 4.472499 0.9794714 4.039417 4.5103264 4.0922623 -5.6074443 1.5638652 -3.8756986 -3.6991763 -0.40475506 -1.4157395 -5.2756343 0.79342765 -7.2063293 -3.2279263 -0.7537109
minister 2.2586384 0.3575751 1.7583503 1.0432376 -0.8033813 3.4064782 1.5412431 7.171997 -2.495054 1.6637381 2.941809 3.7789605 0.9179184 -0.77733237 -1.5185254 2.6271138 -1.7325755 0.41284946 4.5543213 -0.41890818 -0.37317416 3.0307739 0.7719356 2.9520686 -0.79818755 2.5276833 2.115334 1.6129286 -4.3883533 -1.9406253 4.640358 -1.1625175 -4.68409 6.737864 6.7887535 -4.208555 3.0597243 -1.6186118 0.08355964 0.56013393 0.56477094 0.43986133 0.49560252 8.114473 4.4872437 0.7237942 1.7241282 -2.0669477 0.7343014 -0.9475414
planet -2.52849 0.16542052 -2.07833 -2.86656 -3.7059193 -0.56098247 0.72155637 -0.4781964 1.5593505 -5.733729 0.29225534 6.7454357 9.774626 0.66856945 1.3141428 -1.0780054 1.7429554 -4.8252034 7.1027746 -3.9372265 -1.822297 3.8618848 -0.30620617 -1.7714778 6.9163837 4.3895793 0.7748213 -6.6431384 0.0807603 -0.09876193 -0.9154988 -2.5714266 -2.5403216 -0.27395526 2.823285 2.6097517 2.2285838 0.96565455 2.4258196 2.1248975 3.3948684 -0.4785195 -7.5595317 3.1523306 -1.9008327 -6.2017527 4.3822145 -1.6230336 0.92771906 -1.1160398
article 4.915902 -4.9513564 -1.420898 2.1785674 3.2007673 -3.0414793 -1.6478547 -2.0201993 -1.9088849 6.3843284 5.6855235 4.6830897 3.6054606 -2.5880678 1.5485625 0.6200873 -3.9623883 -1.8730739 -4.2241883 0.15175538 8.036394 0.08320587 -0.19117351 -1.0782776 1.0498667 2.4275599 -0.118618794 -1.9649588 -0.4862196 2.3450415 -0.7807339 -0.6787395 1.8211211 1.753086 -1.2842954 2.0543716 -3.9878662 8.47605 4.4216437 -6.9522915 0.14268292 5.797119 0.6344467 -0.22949627 -0.50717765 -1.650458 3.4606054 8.052093 2.7946258 5.276692
anxiety 2.8795466 0.34497246 -1.100314 -3.065735 -0.8133968 2.7155256 -0.3064761 -1.8927737 -1.1880962 1.5659146 3.5882132 -2.3389013 3.015979 0.48747855 -6.3943276 -5.4693127 -3.8339386 -2.3784168 -2.991908 -0.5168884 -1.6246641 -0.3814621 -3.013952 4.4494963 2.9761379 2.9772456 -3.5188332 2.2453632 -2.0501165 5.5759034 -1.113279 -2.7141497 3.0811281 8.47436 5.192527 -2.025072 -3.133568 3.0729089 1.9848255 -1.002059 1.4285872 -2.387561 4.6764784 3.2759926 -0.8089425 -0.13393155 6.3090706 0.38681346 1.1959424 6.2485623
month 5.510971 1.0742958 6.3798203 -2.9405217 8.208687 1.4569478 -1.1824459 -5.079901 0.98649234 4.082132 5.1463275 1.1780344 -3.9594357 -0.87896204 3.815613 -2.776006 2.3781059 -2.833458 -0.73100674 -1.5574538 0.2346394 -0.35545695 -3.880798 -5.486645 3.553261 -1.9836895 0.27511886 5.108653 -2.935581 -1.0732354 -5.679132 -3.9883215 2.0662265 6.8031936 4.732165 -7.0806956 -1.8677437 -0.9438217 -0.2967224 0.53882784 4.4025297 -0.42481163 3.670507 0.65070724 4.183584 -2.063721 0.73995125 0.1754438 -4.299543 -1.5079073
carnivore 0.7042606 0.5611389 0.888849 0.16622424 0.57664764 0.45341966 0.107617274 -0.49026918 1.494552 -0.5809397 -0.31496927 2.1241794 1.3777286 -1.0526977 0.6560096 -1.0659355 0.027071148 -0.5119101 -0.079709955 -0.7328555 -1.596382 1.1363829 0.42137396 -1.2185147 0.6589665 0.24940154 -0.95044917 -0.44081157 -0.647026 -0.09678991 -0.204597 -0.15733267 -0.8277363 -0.39106667 -0.4177911 0.78779393 0.011694689 -0.6818969 0.7087056 -0.6959694 1.3634173 -0.66431606 -1.8448403 1.224134 -2.2212503 -1.4359959 0.86549056 0.11761444 -0.2696964 -0.11203737
party 2.4278154 -1.1099093 1.4513749 3.410421 6.7390037 3.1910844 3.9243455 8.187261 -0.40634266 1.8534876 5.2574325 -5.0920496 -2.2165325 -2.4033325 -2.6957915 1.4873596 2.16742 -4.0201488 2.829757 -2.94329 -2.0916502 3.7571704 0.7302123 -2.249782 4.4833126 -4.785643 -0.87106675 -0.46994913 7.7433667 0.19466646 -6.3315063 -2.4411116 -0.12893239 6.096291 -1.1952797 0.08404171 0.2486995 0.14545631 2.1324234 -2.8860393 2.3167982 -1.6156367 -2.5623958 -0.39423528 0.5060693 3.0031493 -7.1829305 0.23936133 1.6272036 -3.42093
production 0.52973485 -4.9894824 -0.43171734 -6.128217 0.75983155 2.644634 1.7034266 2.4284165 2.9288974 -0.016791165 -1.9035952 2.972648 0.94031596 3.418488 -6.969162 1.7620058 8.864311 5.3648443 -5.9590597 -6.4484386 -0.3379758 0.26662356 -3.0543842 -2.475167 -5.7272763 -3.6807806 -2.1152134 -3.2189791 -6.0119896 -2.1695838 0.44614205 0.4261711 6.589308 -0.46818265 1.2004074 -1.0434093 1.5661342 -2.7994056 -0.56941277 -2.333059 -0.8390747 -2.1475813 1.6155162 -7.8924127 -0.34793672 -3.578871 1.2481147 -1.0695523 1.1862929 1.606903
importance 2.8319669 -1.0533468 -3.0590436 2.4249814 -1.935799 -2.759701 0.122425325 1.841257 2.4314277 6.252888 4.992549 -2.8065224 5.460193 3.292304 -5.0931563 1.5143954 3.302599 0.5995284 0.5575585 2.3729794 6.9567213 0.5446553 4.177315 1.4235346 -0.6434178 4.5182242 0.19203115 -2.906725 -4.69059 4.1449256 1.3851291 -5.774952 -5.699104 2.3301997 -2.3001096 2.7394397 4.508259 2.2986007 -1.9890171 -4.3043303 -1.2425381 -3.0571516 -3.4962237 4.181311 0.82770914 1.7606063 0.08353886 0.7573455 -2.4925463 4.6986427
inmate -1.6142672 -6.3226438 1.3592433 1.8299232 -0.085517734 -4.5680614 0.024959285 3.358274 -6.609025 -0.19467722 -0.96759564 -1.6777211 -4.5360956 -2.625362 0.1586082 -4.089701 -2.1548982 -2.181017 0.5529822 -0.056889165 -2.466515 5.845421 -6.6232705 -2.4711106 2.0154033 3.3823404 2.4290278 3.5736017 -2.9417336 1.6253732 3.1889215 4.5043406 0.46103838 1.9611652 3.9724588 -3.8330085 -0.4445873 4.526449 -5.786227 -5.7452993 4.931518 0.3440544 -0.34903312 -1.4373719 -2.554279 1.6608899 2.6597126 -1.1570222 -1.1069326 -0.9251506
psychology 1.8625348 -2.6496758 0.60861886 1.287523 -2.4698837 -1.6834126 2.835218 -2.542002 0.3788908 1.885682 -2.3158734 0.16259249 1.219934 -3.5918162 -7.195446 -1.7526311 0.20876674 5.137666 -0.3492033 -1.6080925 1.8897979 1.8440574 1.0958478 1.2488109 4.0915065 2.4322665 -4.1152477 -2.8841922 -0.5805604 1.5767556 0.07343687 -3.4344428 0.9263064 1.1097096 -4.818487 1.6103494 -4.430289 7.0900683 1.0495757 -0.25333884 3.9865565 -0.670499 -0.14679618 3.9961555 -0.8738412 3.9282768 4.1069484 4.6215806 -0.108237654 7.3833084
medal 2.0483992 -2.8754444 -3.0998807 1.0083624 5.874938 1.7122911 0.7801714 2.946234 5.1806593 2.669277 2.5530112 4.8702016 -2.6354008 0.99107546 1.807266 -0.3886719 -1.9433571 -1.6895002 3.3305082 3.1726203 0.43003213 1.6203125 -1.0404366 -2.7167456 -2.81662 -1.4649234 0.1343108 -3.623698 -3.6435697 2.6841285 2.8126163 0.3685439 -0.35000056 4.820359 0.08072015 -0.19965607 -0.99792737 4.5172634 -2.6001432 -3.0974073 -0.56388086 -1.5069085 -6.3517394 -7.177347 5.5977464 0.41062066 3.5621722 -4.0034914 -3.7448018 2.0674517
company 1.6377008 -2.1328764 7.293051 -1.6750792 3.4002566 1.597827 -2.8689518 5.0643377 -0.51170164 1.9105039 -4.9676523 4.1680074 1.0770887 -2.8100283 -5.217941 -0.5577647 1.1442116 1.2116449 3.664561 -1.5233095 -2.7059598 -2.2698624 2.9995587 -4.0992427 0.4499076 3.1527638 -0.68729013 4.722118 -0.518264 -1.3898587 -5.0533285 -0.89723676 -0.99395436 -3.4700413 -3.782866 -2.8722787 1.5842054 -1.4749529 0.86780554 -1.6545503 -2.2451212 -5.9988437 3.9310997 -8.347977 -1.724059 -1.4944319 1.1862701 0.13017823 4.5059953 -0.061675996
live 1.2445359 -2.9029672 -1.3226185 4.381505 -1.1030711 4.5520697 -1.7859719 2.0793483 1.0944538 0.1105744 -0.6626386 6.085124 2.0205731 -3.0884786 5.878609 -10.006143 6.0231557 -5.0751038 5.3878427 -2.3633623 -3.3710222 0.90479183 -2.3429072 2.572521 -3.562205 -1.8208411 -1.5127628 -6.346703 2.241957 0.17188726 -3.9277236 0.7777177 -1.676271 -0.10043274 -2.7476578 -2.168026 5.123272 8.406535 2.1044545 -1.9387076 0.78714997 2.1991339 -7.291171 -3.4108558 -3.0391254 -5.282262 -2.916507 -0.36141017 -3.4100337 0.17117904
holy 4.892321 0.44776896 1.673222 2.0178707 3.448212 -0.4473598 9.418272 -2.0147123 0.5691842 1.0673934 2.5873184 2.1176336 -0.4411016 1.0746984 5.166535 1.411863 2.119226 -5.2334704 1.5863094 4.1504064 1.5395118 2.1662116 0.22839554 5.8543105 -3.5847058 -1.7486742 -0.23303229 -0.13026485 -1.4279792 1.3409185 -4.1487026 -0.10338255 7.8237963 3.969892 -0.2897196 -1.9990426 0.35250902 1.2112447 -4.0332284 3.1632442 3.0484724 -3.168994 -5.140296 0.8147652 2.8410077 -4.958779 1.5224179 2.2940152 4.457366 3.5921278
ticket 3.09814 -1.9965216 0.7167613 1.4561933 6.7307653 -4.435752 -5.284853 5.4135327 -2.6449924 0.41588536 1.7750477 1.0091112 -5.971054 2.6465187 -6.0595083 -1.3742886 -2.3519702 -5.4229736 1.7537836 -2.5642679 8.560413 -1.8806926 0.031668305 -2.4914224 0.14415829 -5.0305843 -2.2863328 -2.9599977 0.38946137 1.8359942 -2.539603 0.85775846 0.5764545 1.3095286 1.1153868 0.58411485 -1.9571518 2.0625358 3.511051 2.2227228 1.6449219 3.8954892 -2.028093 1.7312177 0.27159524 -5.0846076 3.7018101 -7.647967 -0.5924227 0.5364789
victory -2.8634536 0.90634775 -0.9394139 1.6491289 8.683611 2.1171124 0.7612168 -3.9471805 0.8377141 -1.4459082 5.7149057 -3.7785578 2.5356553 0.5751106 -1.5779423 0.4511011 1.6274118 -6.2197633 4.4562707 -0.8616639 -2.6893995 -0.75727814 -3.0007415 4.0554852 -6.5985656 0.63132894 0.24985337 -2.5007417 3.6700804 -6.755365 0.95685226 1.072577 -2.756963 7.623116 0.1469461 -2.2309043 -4.094162 1.7991414 5.1611676 -2.4277627 2.1657143 -2.9858687 -4.933211 -6.0082564 0.3707499 1.4080703 2.0945184 -5.1384735 0.81571066 -0.82435954
football -1.5514582 -1.6910256 -6.5210166 5.779523 2.1532252 -4.999066 5.8774405 -3.6447773 2.689964 -0.2801254 -6.373715 1.1962346 2.1109908 -0.15237124 -1.397707 -2.4019938 -1.6641173 5.0599713 3.5624614 3.5152614 -1.5705901 -2.2044609 1.5529256 2.0801773 -6.8748193 -1.9951434 -0.57506335 -1.7589741 -0.09710148 -0.05541555 -0.9086629 0.69089305 0.66564864 6.8860345 2.567018 0.3723928 1.0541878 0.06848295 5.1587553 1.4708409 5.616621 -0.020587817 2.2293134 5.1323647 1.6432401 -5.237867 3.9494526 -3.2124076 -0.100196384 2.2997243
seepage 0.87152845 0.329007 0.49991527 -0.7858692 0.46383512 0.84093934 0.92024326 -0.4630523 -0.4179725 -0.84146005 -0.40121722 0.37472004 0.84713984 0.11357967 -0.5144451 -0.8776056 0.3098173 1.0835184 0.36161935 -0.47634497 0.4668759 0.9738093 -0.13475867 -0.25449505 -0.30582663 0.74504083 -1.2045379 0.37712207 0.2693683 0.0410171 -0.20194551 -0.44654414 0.20165291 0.45586473 0.25468388 0.1287321 0.1933876 -0.59263694 -0.48411146 0.10713237 0.6781507 -0.2810319 -0.7882227 0.19433877 -1.1053094 -0.5010869 0.6219561 0.07769703 0.24597342 0.44717848
rook 0.70713115 0.7459882 1.4230816 0.6201114 0.82172704 -0.08749328 -0.2522535 0.6229822 -0.80118686 -1.2925915 -0.123440206 0.7138024 -0.553331 -0.004792871 -0.7811907 0.22334759 0.031130392 0.25812075 0.7247017 0.39712474 -0.5530136 0.30859515 -0.351147 0.6514179 -0.3612343 -0.5203497 0.21251205 -0.45323974 1.0631467 -0.035800323 0.10512843 0.29582584 -0.068309255 0.4180552 0.5909324 0.5034642 0.33829713 0.22644088 0.26487708 0.5405873 -0.39157835 0.45195404 -0.9653111 0.2789942 0.13198252 0.048310656 0.7987779 -0.27587956 0.42905122 -0.30341426
stroke -5.2315755 -1.7523589 -1.1585786 -8.586118 0.25783715 -2.017749 0.61884785 5.6142774 4.489703 -0.97070205 2.1312811 2.8518388 -2.327241 1.5943913 -0.18040715 -2.963133 0.18461175 4.4479523 -3.4879758 -1.3995563 -7.190955 5.52469 -3.2966928 -1.3776488 -1.0739936 2.4760306 1.1082454 -2.4284525 -5.7077074 -1.706702 8.2718525 -0.6308614 -0.062096886 3.2394054 2.1665857 5.9145713 3.2639523 2.794535 0.6902844 0.6768255 2.1324618 -5.3743725 -5.0039444 -1.3612268 3.6731675 0.61576647 3.570532 -1.6094407 -7.4978843 0.46949962
environment 3.5071495 1.8285813 0.55373156 -0.41118187 -4.739433 3.4731457 5.4413404 2.360859 3.2392716 -6.6317334 -5.9067473 9.767323 1.0126014 -5.1508083 -2.0317569 9.351413 -1.8824263 1.4537737 3.8864348 -1.1317945 2.1715956 3.6244435 2.131446 -1.7784073 2.165232 1.3262663 -4.500724 -0.21878342 -0.16231477 -2.631396 -9.514892E-4 -4.5575957 -6.2745085 4.0435147 -3.4575944 -4.625052 -0.19106765 3.8447132 -1.1348002 -2.2874503 1.6936357 3.637535 2.6894557 3.9205375 -3.0141659 -2.3150933 3.965271 -2.4433608 -6.3517594 1.4919121
coffee 3.1451228 -1.0417747 -3.7604878 -1.6843392 -1.8791989 4.0486865 1.7251552 2.6958115 -3.0865564 4.686445 2.9759936 1.3812004 5.461971 0.7925959 -0.43748185 -2.307162 -0.23290256 1.382452 2.7151306 -6.1548424 1.5182223 -3.5009913 -1.1063666 -5.5814543 0.12092507 -3.114973 -4.593097 -4.7475686 -2.1062665 -2.592714 -3.1407232 0.8285071 4.246742 5.8252783 -2.784288 5.2626038 -4.711581 2.9624143 -4.8420005 -0.9626094 -0.4455443 -2.5601625 -0.23064286 -3.340246 -1.5848213 0.95534575 5.5669127 -4.041183 5.3907104 -2.7903793
baby 0.6248023 -2.9175723 5.0212073 -4.3871093 -3.1381102 1.9067515 -4.4590325 4.0351243 -4.5587544 1.7434957 0.76268035 1.1396972 4.2959194 0.082303144 1.8991079 5.144347 -2.9854317 0.8511641 1.0396824 -4.054697 -5.8373957 -2.7774394 3.2909176 -0.6337694 8.393545 5.867843 -2.5847654 2.0635288 -5.5938816 -3.6355698 4.4374604 1.0937706 1.3749955 1.7009593 5.4374976 2.1835175 6.993436 -1.8149635 -3.1821666 0.40555513 0.39453048 0.95050436 -7.588534 -1.080222 -0.13003857 -1.2777754 1.9549097 -4.037423 1.7134598 -0.42918518
personnel -6.4042788 -0.82115453 0.31756678 2.071903 2.9713676 -3.844913 0.6699714 0.87525785 4.887871 1.0920426 -6.877834 -0.22043686 -2.7918372 5.4443865 0.016759379 -7.6442533 -0.7419643 4.7891045 0.29000282 5.907882 -0.9310122 5.139761 2.3011937 -2.9242373 -5.277698 1.5634056 0.42499536 1.1186794 -1.2113974 2.0742676 1.8782797 -2.5225272 4.53399 2.269199 -1.2615719 -4.3090205 3.1924973 0.052619215 -2.219905 4.5870295 3.8560998 -0.70131063 1.1940178 0.9862385 -2.241574 3.9218316 4.1391315 0.41752493 -3.2589788 -1.458598
family 1.6471773 -4.7715526 5.5211515 3.81047 4.9180284 -3.8374119 4.2051425 4.1869707 -0.58864534 -0.35659277 -3.2882693 0.5182433 10.939054 -1.9524949 3.407868 -2.112594 -2.025522 -1.1076748 -2.0790296 2.3470962 -2.4333098 -1.3944858 4.0293283 -1.9172341 4.055065 0.38548213 -0.16290961 4.4063697 -0.28334975 -3.5262904 -7.610484 -2.33787 0.089798786 -2.2489069 3.7521641 -3.6365836 3.745848 5.0935473 1.7389761 -4.6834416 4.362931 -1.6449581 2.4128237 1.7573903 -4.8550763 -0.42902213 -4.0849 -5.454992 -1.5194108 -2.6839085
hypertension 2.918271 0.82311076 3.6702194 -1.5809624 -4.1083817 3.0149202 -0.51664704 3.3740306 -0.31027856 -2.9620175 1.0383809 -0.6274191 0.16395567 -0.22384278 1.60385 -3.4082944 0.4407664 2.5479183 -2.779083 -0.94248676 -3.3808959 2.895666 -0.17003785 -2.0780494 0.22538124 -0.037839714 -1.9116448 2.0890026 -3.1151736 2.0835412 3.8152776 -2.1015384 0.34162858 1.0497493 0.95334494 -0.5200421 -1.510097 2.3437767 -0.066703364 -4.015141 2.326828 -4.2663894 -0.5459601 0.11930745 -1.4756522 0.74700457 3.2297413 2.830769 -1.3553143 4.5510683
president 0.6178326 2.5354223 3.9853318 -0.5133654 -0.2818568 -4.0684996 2.4818718 4.688819 -0.27541697 6.7741327 -1.4016538 0.38092887 5.391207 0.97418565 -1.1130685 2.165603 0.9045782 0.9195953 3.1470172 2.0520055 0.5032208 -5.002 -1.9918865 2.5080864 -1.672447 2.4044764 -0.67084765 -2.4727516 1.5005655 -6.206992 -2.985729 -0.3222253 -1.3210016 5.502861 3.3153958 1.2803718 -0.87227684 2.5924652 -0.1886663 -3.6244931 5.3404703 -2.1974082 6.060457 -3.72799 1.6408007 -0.35671222 1.989001 2.0699935 -0.4710806 -7.8008423
atmosphere 4.5419936 5.0427103 -3.7145822 -1.8127927 3.0508225 7.7407146 2.6445827 -6.9765453 0.9743594 -3.996127 -2.3711786 4.7496037 1.1612902 -2.9734147 -3.069676 5.101597 1.8184248 -0.6724014 4.650388 -2.5901349 2.7378042 3.321581 -3.47258 -2.0807288 4.5878754 -2.7970011 -1.7831738 -0.6054339 1.0460055 2.2525344 -1.47399 -6.0891495 -4.2846794 5.9830093 -2.926631 1.4569734 1.8547769 -3.0486426 0.81275606 -3.8114133 0.9658623 3.502106 -2.5133913 2.7991729 -5.4618855 -0.26388916 -1.8594544 -1.6850557 -6.428128 2.104412
practice 1.5270358 1.0989391 -5.1444836 2.632266 -0.15783888 -3.0246453 7.235441 -1.0612859 -3.3014245 -3.7409785 2.1034026 -6.1944437 -2.3774488 -4.2031918 0.07899517 1.0141225 6.4859476 6.777511 1.2930198 -4.0885835 2.2981837 4.0574737 4.3533745 -2.705042 -3.6716008 -0.7648108 -0.21628541 6.057249 -2.2365584 -1.4477124 -7.1527658 0.13451073 3.1584084 4.9739366 -5.3656473 -0.36117306 -0.76611984 3.56152 -5.181902 0.13822924 0.10416284 -5.9516215 1.9369857 -5.9930773 4.4990745 -1.140132 -0.55718386 4.547281 1.308179 6.1549745
movie 3.760252 -1.539096 7.9949856 2.9683802 5.3751774 -5.3272715 -0.5734822 -0.81769836 1.9521086 1.4882337 -2.2517045 2.8586729 2.8631997 -5.6352787 -0.83350724 5.194759 3.5860505 -4.5479164 -5.632604 -5.739991 -1.4467036 -5.4498496 -5.2483306 -3.750726 0.95112205 -3.4906573 -4.5084963 -3.2531118 -2.9098914 3.2570415 -4.3379374 -1.2989743 0.5875669 -1.977775 2.5100086 1.6671189 -1.8765831 0.123126775 3.7081811 2.4687035 0.65323603 -1.824675 -3.506999 -3.619762 -2.3851345 -2.946769 -0.7441054 -0.2649106 -3.5131073 2.731874
popcorn 0.42655253 -0.94591093 1.5898638 -2.7622576 3.978088 1.8137144 -1.3573184 0.79146427 -4.1133265 -1.022475 -0.92008275 2.8834982 4.720984 -2.075602 -0.92223376 -1.3698941 -0.7925133 2.145637 -2.2378955 -4.7237573 -8.610713 -7.255045 0.8805814 -1.0295008 0.38350078 -0.35251436 -1.8187176 -0.45371452 1.0019788 1.5209389 0.5798186 -4.027766 2.666268 -0.2068345 -1.9135683 4.371415 1.3179184 0.52880484 -3.1784632 1.7005206 -1.7740393 -6.295827 -3.5639439 -2.0522795 -1.8642229 -3.1037202 4.1461506 -2.8402507 -3.0131161 -2.0490952
recommendation -7.2505736 -2.2523906 2.964865 -2.3683164 2.9841123 -1.7629417 -4.55335 7.437826 2.8224826 -1.809673 5.207236 1.9144332 -2.9482522 2.0138917 0.9325778 5.372162 0.85625434 -0.5186884 6.7704186 -0.5850182 -6.329536 1.5889966 3.833587 -0.64702636 1.5370823 6.162159 -1.5741428 1.9499615 -3.8521733 0.7711254 1.6112392 4.3425474 3.9479227 2.2941337 -0.23975942 -1.9039656 4.433639 4.9955916 -2.9851468 -9.044394 -2.0093327 -1.3642187 -1.2047348 -6.2284293 2.8948855 -2.370014 5.577619 1.6667616 2.2169414 -1.3050685
focus -4.8400154 -5.142635 -1.774013 -1.9571731 -2.8581634 -2.721924 -0.7898666 0.71966386 2.22666 -2.3820288 1.8098748 0.45266688 5.9012127 5.840071 -4.047871 2.729765 0.9752392 1.8108629 1.1370828 -2.7562149 1.8861096 7.2664266 2.460822 0.44161975 3.6198637 4.113379 0.28243175 1.1823353 -6.8462977 1.9513713 -0.94655883 0.16054451 -6.5163884 -3.5815973 7.820669 0.6703377 -3.9036016 8.446281 1.001564 1.9384028 -1.8165455 -4.092074 1.0294669 -2.5761654 2.07223 -3.2906215 1.627415 1.5263581 -3.4221058 0.7668787
attempt -1.1021925 -5.619212 0.3925152 0.19786437 3.7659786 -5.566324 5.371853 2.3345451 4.430767 2.6655028 4.4837003 -1.5874321 -5.6759534 -5.49126 -1.3346726 2.0174904 0.18796982 -3.2569265 0.8605386 -3.448145 -2.6939442 1.3708512 -3.6513216 2.587611 4.8915296 5.3598804 2.7475097 -0.31225544 6.5289693 -1.4724685 1.5623037 -2.4879403 2.2375698 5.203547 -4.9722543 -1.2314485 3.0603166 -1.46441 -1.7569568 -2.791283 0.35872662 -2.2445648 2.128535 -4.8564425 -6.9530315 -1.4616908 3.9029076 -2.1323214 -1.5135146 3.5721896
approach -0.4774488 -3.8274667 0.6764877 -1.8976098 1.5387846 -1.1443318 1.2435697 7.1045394 6.9520836 -3.8960733 -1.3551822 -2.9020777 -6.1857944 0.2951804 -3.2300684 10.107293 -1.9261009 0.3295775 2.9289722 -1.3578789 -1.9160507 4.1007943 -2.0121677 -2.4216049 5.0178485 0.049631607 -3.6217644 -2.8245945 -4.8803716 4.3001375 -1.7650421 -1.034375 -4.4043927 3.5440753 -0.79665345 2.647614 1.0061361 3.0566044 4.9348717 -6.2098403 -3.7055922 -8.402716 6.8076057 -4.534132 -6.7776265 -2.9069898 2.742992 0.32548955 0.46506235 1.8609637
number 1.93864 -3.2664342 1.2209011 -0.9542625 2.8816206 -3.092877 -3.5667915 4.9106994 0.91933954 6.7370915 5.293473 1.8888822 -7.777368 2.0901544 -3.3559124 -4.8722177 -2.2911048 0.41323957 0.9747159 -3.8563414 -1.7134724 9.824249 -1.3871455 -2.0069199 -1.4921776 -3.0121746 -0.2588532 4.008389 -2.3076394 3.2181334 4.797362 -1.5851929 0.35431758 -4.25821 -4.895214 1.0333275 1.6289778 -0.1307813 2.6441312 2.5770624 -2.5255055 -1.2103014 -5.9569936 2.282174 2.5417368 -0.79804975 1.2330781 2.699427 1.7747599 2.8849053
property 6.438631 -4.7224927 9.4000025 0.56684715 -1.4737595 2.2213297 1.0642036 -3.7377517 -1.6648641 -1.3025465 -1.3843043 2.597708 -1.7334769 -4.2274117 -3.4099114 -4.042219 1.4456857 -1.6159021 4.4874277 0.6065215 5.027282 3.4887352 5.647274 -2.0492902 7.3176293 1.9598596 0.16868356 -0.990875 -1.8227031 -2.110893 -4.1384478 2.3661904 3.920936 -2.2966151 -1.9064908 -0.36548153 2.5360296 2.4478657 1.5451665 1.1822293 5.2341146 -3.6692765 -2.0597625 -0.6329375 -4.795762 0.5418049 -3.0692294 1.1466283 7.1489167 5.4279866
fingerprint 3.232008 -4.2234907 0.30116013 4.2164006 0.4981169 -2.0339913 -2.250208 -0.2694808 -2.9562023 -2.6712039 -0.9467112 2.3589609 -2.7561414 -2.6082168 7.2011437 -1.3602504 0.45507276 1.2950374 4.9724617 0.6470218 -3.0175018 4.7803392 2.9565291 -1.4979522 1.5811594 3.3375788 1.9033108 1.1001133 -0.81710994 1.7537678 -2.8962111 -3.3802474 2.7104096 -0.57801 -1.6613497 1.5955229 2.579478 -2.8197994 -0.6505362 -0.8020918 -1.1867014 -2.0597258 -1.5452827 -1.1585634 1.3611662 -5.0644207 3.549043 1.6839639 -0.09233667 5.9669724
reservation -1.9335704 -2.8263783 -0.9450778 0.32932198 -0.049251933 -3.4090736 -1.6124767 -0.26407835 -4.6078353 -0.4560257 3.557119 -1.9031696 0.2028932 3.174564 3.5492852 -1.3824275 -1.5291797 -4.288769 2.7291164 0.17073397 -0.95657545 -1.380579 2.9195576 -7.9100895 -1.6746848 2.1222637 -2.4405005 -0.84232694 -1.2473006 0.23008692 -6.476197 -2.2957869 1.9198112 -2.075981 -7.8575835 1.7803539 2.6783211 7.5422807 -3.8097553 -6.1323233 4.373775 2.1850264 -2.4628062 3.3202305 -6.464671 -5.7090445 3.86186 -0.7783041 6.244659 -3.109475
block -0.9434199 -4.15053 0.8842988 5.0080037 1.9955099 -5.1062303 0.4635318 5.121538 -8.433901 -2.255248 1.1264435 1.8321015 -3.538626 4.8853145 -4.553378 -3.3085704 4.267121 -0.1391718 3.9949915 -3.0439243 3.816631 3.7562346 -4.5196633 -3.4989953 -1.4907647 0.79459584 -2.2982633 -3.9784944 5.7482514 -4.3799324 -4.9327545 4.8321104 2.474579 -3.4797661 -4.1207013 2.7856646 -2.6694834 -2.3251548 -4.970661 1.3582307 -0.10303069 6.6952066 -5.9274216 -3.9073033 -5.1702538 0.15144144 -2.3821325 -2.4667046 -0.012035893 4.151746
fear 1.8542794 3.8846083 7.281838 3.735127 0.89412993 5.7312617 6.142958 -4.959891 -1.7639554 -1.6443193 2.2769578 -2.648204 4.222758 3.3307447 -2.1060798 -3.215341 -1.1034346 2.5744364 2.6658003 -3.711927 2.3063135 5.3994617 0.16195069 3.5677958 4.369478 0.11241847 -7.237722 1.9562981 2.355796 -2.665983 2.1850874 -1.8065981 3.3817413 7.1423545 2.8149402 -3.0012205 -5.1722865 1.5408349 -2.1986036 4.9045134 4.322343 3.2824492 0.9244393 1.5399628 3.6345472 -4.694656 0.8054165 -0.8155413 2.4788823 2.2203777
surface 2.2891462 -2.88305 0.34896767 -4.3157563 1.1470947 0.19226365 -0.49275336 -0.5974958 -4.7770243 -4.6999063 -5.388314 -0.758584 4.0801983 -0.76438946 -4.1885324 0.7793386 4.1617246 -1.3136098 1.7240824 0.52257836 2.9128964 5.251055 -3.436368 1.4110485 -1.7237988 3.6359355 -2.804316 -5.7236204 -1.9684771 6.1296544 -4.5818505 0.03379089 -0.79663604 -1.3723524 -0.8947807 5.165349 1.1515284 -8.58386 0.08832992 -4.716916 0.84088796 -3.5960386 -2.1193056 -4.456997 0.30518094 -3.3178337 1.2118542 2.0193412 -2.7280068 3.3092623
issue -0.44897574 -2.4842784 1.1954353 -1.4566537 -3.9939265 -1.0653592 -4.3615527 -1.2379901 -6.1126676 7.5650735 1.3832829 -2.2812707 1.3620926 1.2099645 -1.6573744 0.8508922 -2.4923 0.14438225 -1.0691061 0.3642566 2.9855075 1.637514 0.5796703 0.49831882 0.053585526 2.4625707 10.560657 3.0399325 -2.2518954 1.1046999 2.6932735 -2.0542321 -1.5602804 6.41734 3.5580623 1.3618575 -5.7736726 3.9260972 1.8800807 -9.60467 -0.4137264 -3.8897796 -4.1253896 3.6092355 -4.1653066 -7.4434953 5.2071576 5.103283 -0.7157166 -2.1519978
metal 3.5582535 0.12028231 3.7362523 -3.672719 1.6944469 6.8349676 -2.5409837 -1.6384051 -6.2667 1.3295089 -4.4046617 1.1095635 -1.2112678 -2.627251 -4.4368234 -0.5780252 -1.29597 3.751402 3.172896 0.57372886 -0.14814036 8.209042 0.5246779 -1.86924 -2.5009837 0.5681989 0.26306373 -2.3154259 3.7637823 -1.4995764 2.6854894 -2.4085793 4.9992733 -2.6153738 -0.4452615 0.5876839 1.3351201 -0.2611343 3.8122394 6.0739594 -4.3815727 -7.1263657 -3.7123287 -5.941224 -0.11888229 -2.035223 -2.1853933 -0.8930877 -0.11807206 5.4559455
index 5.535743 -0.72420126 -0.30008805 0.52982575 1.5265547 4.3121996 -7.418002 -1.0664331 -3.0936823 0.7544702 1.3918554 4.84763 -3.643831 -1.1510568 -7.6001673 4.2285233 1.2059242 -2.7097263 0.09924595 0.99243045 -1.8653585 2.5667462 3.860832 -5.6982474 -0.911322 4.3864474 -0.02794806 -4.9597116 3.0418255 3.9870954 0.7287761 -4.5068364 -0.85400015 2.7037535 4.5864325 1.2975637 -2.2776067 -2.1578426 3.6036959 2.4697227 -0.66099274 3.0670884 2.4162486 0.83487463 -3.089433 4.4118643 1.132836 4.773953 4.314228 4.668509
isolation 5.7102747 3.1889179 -3.1003232 1.6628987 0.41173124 5.006114 8.478626 -1.3862035 0.85085094 -3.5418518 -0.821629 -2.5915382 0.39785692 3.4477408 -1.3509715 -0.6675834 3.1446593 4.3721285 -0.5426327 -0.3738917 -2.567903 7.330443 -3.2288935 1.8739201 0.9282042 0.45739257 -3.9783032 2.619256 -2.8298173 -3.4431827 1.42681 0.014172042 0.5678545 7.5481553 -2.7842054 -0.54833347 3.7240298 -1.1865513 -1.9803922 -9.519633 5.739308 -2.199936 1.1730994 -0.69021124 -3.4845872 3.0662477 -3.3269284 -5.2685566 -0.4571043 3.0172307
impartiality -0.5751582 -1.8826377 -0.788577 3.4582694 0.51797956 0.84765065 1.9077286 0.3743929 0.47904754 0.21095787 0.2168675 -1.6764672 -2.1296697 3.411862 -0.20556805 0.9546959 4.4247117 2.6842706 4.3775992 2.275761 2.8934438 -0.03708795 1.7704049 1.0386351 1.2917509 2.833775 2.8104577 1.5032734 1.7196906 1.4560455 0.90808713 -3.544456 1.7021091 6.702845 1.8594425 1.9805635 1.3297513 3.9524698 1.3002222 -4.7750397 0.8671054 -1.0772549 2.7889028 0.7600238 2.3616314 0.1355354 0.16841918 3.6944606 -0.10303288 3.2246902
drink 4.270524 -2.0749106 -0.2370572 -3.5891607 -2.1599576 3.2426949 3.0253491 3.3670259 0.51868016 -3.3163965 0.8116393 -0.055625293 1.2777953 -6.1290526 1.7401241 -7.1267753 -2.4231539 1.494902 5.6227508 -1.9611112 0.49540532 -2.651414 1.6223176 1.585684 4.954774 -2.3255017 -0.9514694 -4.6838064 -6.165104 -1.1991662 4.4526424 1.2145989 0.5157997 4.639866 0.6836389 1.8241116 3.02237 0.94836843 0.80451244 2.6707106 0.97307867 -8.490084 -3.8094327 1.866074 -3.8652554 -8.011191 4.505683 -2.6536133 1.4177431 2.4955287
baseball -2.7231228 -2.0233748 -1.2112833 6.891999 2.5314844 -7.31961 5.4457064 -1.2108151 0.9100733 2.7568905 -5.2081223 -1.4239998 4.830623 -4.8026533 2.5200224 -1.2595795 -1.2826011 -0.67974764 -0.27214718 -3.735475 3.7746892 -2.886476 4.8579903 -6.2415853 -6.228712 0.6487478 0.3288573 -4.8138037 -1.2348391 -0.032157544 -4.1770353 3.0713189 3.5306683 1.6543224 0.99314594 1.2879864 0.846608 -3.6642919 -0.9536254 5.016642 2.5686238 -3.3994563 -0.29186127 0.813045 2.1705527 -1.7335849 1.0965782 3.546904 -4.4291487 1.1479164
jaguar 0.7230831 -3.0009847 4.1034765 0.92629266 0.94049823 3.3447738 0.07492724 0.19438094 5.009663 -1.9074228 -4.2284846 -1.7923778 3.553538 2.5823338 1.3889374 2.1014736 -0.9687762 2.8375854 -0.23271784 1.7070677 -2.3901472 2.2149365 6.3530874 -5.0643034 1.2654651 -1.8969518 -0.81385213 -2.025287 -3.2206519 -5.3893957 1.071674 6.0888557 -2.7494233 -2.0452101 0.41024482 -0.20336632 4.6509447 -4.4511895 3.1707063 3.3032098 5.4242706 -3.555172 -2.1265907 -5.300373 0.43671325 -3.4150126 3.1296887 -0.23178747 1.4374989 -0.9743644
trading 7.468943 2.2132232 1.8452066 -4.7261333 4.2588487 1.1505004 -2.131494 -5.8648095 -2.599433 1.7085658 -1.4799058 6.2646112 -3.3896954 3.2201672 -4.281671 1.6362091 1.1308285 0.971722 -1.3735772 -6.6699657 5.7720714 7.0977926 2.5446754 -5.1867714 -0.027898869 0.4193398 0.57595074 -1.3883592 2.6428635 -0.53036726 -2.544162 -1.3770809 1.097792 -0.3940023 -6.806182 2.0795214 5.359925 -4.879129 -1.3644621 -1.8129756 -6.917475 -1.0208969 4.403271 -2.3949416 3.9804997 2.8391027 3.294652 1.1421186 3.2943838 -0.043853246
viewer 2.8789399 1.1175103 -3.365278 -0.661126 3.0988657 -0.748141 -3.29834 2.2414534 -1.2146418 1.5474565 1.9320463 0.23952405 -1.7162274 -4.2774916 2.230209 -3.8502917 0.60365766 -5.3268447 2.125404 -4.727682 -1.3776546 -1.607206 -2.796509 -0.6183341 7.042574 0.9574261 3.0859745 2.8123264 2.845708 7.3308597 2.0477388 -7.4106255 -1.5231436 4.1638236 1.7283412 0.109487616 -5.1348534 3.5102262 1.1095964 -0.7596949 0.79343647 -2.0292711 -3.6402364 0.19431154 2.590761 -2.8243024 8.334809 -0.71590525 -5.9657803 6.1615896
hundred -0.862809 -2.3942752 -1.0965568 -0.69437796 5.631059 -2.2334368 -1.843433 -3.805862 3.6798751 4.764495 -5.298074 -0.5030456 -2.0087326 2.3592472 1.7650417 -1.8196249 0.1472948 -0.7067791 -3.0186598 -3.496188 -3.235561 4.0935507 -0.9923291 1.7369095 -3.1023352 -5.2948318 3.4120755 -0.9527667 -0.38590324 -6.1072097 4.011107 1.9231516 3.568447 -1.686421 1.4989468 1.2104117 0.8207004 4.476707 1.7048868 0.60351604 -0.486345 -0.2060818 -5.2838235 2.227875 -2.823077 -2.1546082 1.8577192 -2.2284324 -3.3822563 -4.949214
woman 5.2381244 -2.2753346 0.44791973 -2.5096262 -2.2465553 2.8802702 -1.6011623 5.1501656 -7.031933 2.5942311 -3.1664476 -0.5167073 2.4142194 -3.1031706 5.9724264 -1.0616219 -5.564819 -3.6083171 3.4033108 -3.4409235 -3.76651 -0.5451889 -5.1247077 -1.4534675 2.2523012 0.28374213 0.9924912 1.6172228 -1.7968493 -3.7499263 3.236199 -1.1549727 -4.7874966 0.004502169 0.5592905 3.9021564 -5.1591115 5.8289223 -2.3778727 -5.494514 5.1980157 0.082859956 -6.4498005 1.0219554 -2.9659643 -0.55319285 2.6822479 1.4402181 1.3510712 1.6672833
queen 5.0364523 -2.4903097 -4.9852514 -0.677044 -0.61449724 8.330663 5.8301477 6.1777225 -4.783586 -0.7989458 -0.62840694 2.3224123 0.16274327 -2.5950093 2.705016 2.4154258 0.98184645 1.9631923 4.4552255 3.5243404 0.16152428 -4.29898 1.1620795 0.015522505 0.40190682 2.3402324 1.9701266 -1.6178435 -0.99688613 -2.0583196 2.0082333 1.8309382 -1.4103447 7.192411 1.1174062 -0.9565612 -3.8144598 3.72678 2.8781707 -0.17364535 9.159461 0.85223764 -0.9809744 -1.5002414 0.62644225 -7.7095833 0.21118806 -2.8686752 -0.829083 3.302499
fuck 0.14574642 -0.2347062 1.4724889 0.036758784 0.67886084 0.84057325 -0.124233745 0.30999073 -0.82818 0.08436754 -0.5865589 -0.291939 -1.2187133 1.5211475 0.5413944 0.12208497 0.33614 0.40643108 -0.33661574 -0.730345 -0.06290383 -1.3729923 -0.16640878 0.19496153 1.7000985 -0.7010949 -0.16613692 -0.95115113 1.2345432 0.34425613 -0.7998761 0.40655744 0.43879697 2.7346683 1.0867709 0.77038735 0.2061871 1.4848254 0.41925946 0.7406532 -0.48384082 1.6821278 -0.8523489 1.3550041 -1.2134745 -0.90810436 1.6292391 0.03951174 0.44881758 -0.58778286
skin 0.69936234 -0.044863548 0.42185727 1.3998494 -0.5021395 4.357771 -0.7852406 5.559444 -3.8021457 -5.5108666 -4.6056294 1.817098 3.2106953 -0.8228326 -1.2138275 -1.2131053 2.6619532 -1.3473516 -0.2575368 -2.6466374 -6.1030993 1.8230988 1.4250102 -0.13416888 8.87076 5.3820333 -1.7483884 2.7384 4.0510573 0.8077349 3.342112 1.4145087 -2.202846 0.8985198 0.36684155 4.1103873 1.9110785 -0.5304372 0.0024351384 1.3971738 -4.6587768 -4.176772 -5.6624427 -5.1697984 -1.128295 5.5584345 1.0518025 0.763644 -2.89484 3.306096
tournament 3.892483 -0.37838134 -6.71952 -3.240194 5.580313 2.3631427 3.1672277 -3.102421 0.84508663 0.2923248 1.6843935 -5.932478 0.3130349 -4.483442 -1.3493482 -2.14835 2.7079859 1.293161 1.975283 -2.9531136 4.3585796 2.8087437 1.0723782 -4.0592504 -2.929188 -1.6532285 0.840264 2.050969 -2.641373 0.89053375 -0.15458098 4.8553042 -5.7372737 -0.5063047 -4.1737 -3.0646996 -4.8785663 0.55569994 1.6727252 -1.008243 6.1327553 -6.481073 0.585918 -3.0465713 1.1554936 -3.5009713 1.7045991 0.2530227 -6.7943835 -1.5093726
cell 3.6973796 -0.097535044 1.5835584 4.9109206 -0.57585585 0.83170766 0.670641 1.64363 -5.717883 0.46021605 2.9748697 7.3703823 -1.9132597 1.8634654 0.29352546 -0.8775781 -1.3692149 -3.9050655 0.64699143 -3.7105603 -3.5481646 5.918726 -2.481336 -0.27604255 -1.7606422 -0.7862427 -3.5725117 -0.24733892 -4.0246634 4.3578153 -0.6197005 0.9159646 -1.7590146 2.2605777 3.8300915 1.9028928 -0.8136507 -0.67292386 -8.147032 -0.67137074 -0.21174859 1.4470267 -0.63260436 -6.09006 -5.1482267 2.6243305 -0.18039133 -2.9312904 0.0822186 4.9239087
summer 4.7941775 1.270075 0.15839079 -3.9483595 8.459548 0.69577664 4.977716 -6.4722214 -0.29100806 -0.83932483 -1.4658508 0.24656834 1.2796562 1.2016156 -1.1098601 2.5250354 0.9052362 7.085049 -1.7655232 -1.3057648 1.3227022 -8.998972 1.7697185 0.9136125 -2.9934359 -3.443946 -2.2802343 2.158934 -2.8839905 0.54707456 -3.2376785 0.8703803 4.0187297 2.752383 0.43054342 -3.0120647 -0.22951128 -0.61754316 6.0554867 -0.7688479 8.3606415 1.2324086 4.466138 2.598759 -2.891727 -6.317836 0.21236719 -3.2837398 -2.1182823 -1.2161092
crew -4.181153 -6.1996512 -2.340711 -3.0360975 6.2803874 -0.21694952 -3.8254752 6.1061525 3.8017035 -3.6640155 -3.1582668 -1.1385354 3.5246098 -1.7043436 1.639149 1.9055228 4.769576 -0.6340985 5.8467145 1.2565324 -4.93 3.210445 1.1296735 1.4639297 2.7350576 -3.57694 0.5928286 -0.051918343 -3.5748723 -1.0802373 1.9939952 -4.4612584 6.4988346 -0.38739648 7.009492 1.8125972 7.292053 1.9614912 -2.5908546 3.7280402 -0.5625226 -6.005358 1.3703449 -2.3138075 3.9588716 -5.329149 2.1646743 -0.89921 2.0615246 -5.0563893
defeat -4.662809 1.0801996 -0.896822 -2.9577737 -1.2268984 0.1180843 4.7744794 0.102933615 4.112398 -4.43484 9.044267 -3.368888 0.1460071 -1.4833713 -0.21906498 -0.342942 0.54913247 -2.7763476 5.576776 -1.7661201 -2.6067896 4.393192 -4.895177 4.161023 -0.9872583 5.7965255 -2.172697 -0.8766379 1.4018401 -3.9141977 0.52186316 4.2350674 -0.17423327 9.391609 -0.86756253 -2.7746372 2.3692136 1.1893705 2.1729317 -1.5780747 6.4750533 1.2296556 -3.963219 -3.6317046 0.25296274 5.485394 1.4933349 2.7390375 -3.4629042 2.085696
library -2.3827143 -0.99883384 -6.1424828 3.932434 6.594179 -0.38368163 3.860925 0.5119882 -3.5718756 3.839785 -2.4717016 7.4688067 -2.2398868 0.69738626 0.8024864 2.4672265 2.2956629 2.7896311 3.7286553 1.3141447 -0.38826916 -3.2032657 4.287227 -6.517106 -0.54636186 -2.6538277 -0.22746925 -2.2074976 -4.5338893 6.2793636 -5.094722 -0.62169605 -1.5728484 -0.40076387 0.9907749 -1.8488114 -2.9767869 7.446387 -3.9454086 3.473051 4.0705686 4.5260396 -0.823878 -4.4768105 -4.6685014 0.495149 -1.62059 -1.27055 -1.489766 1.2380401
government 5.0417047 -1.9735631 5.8111963 1.0828719 -0.08667402 3.0126219 2.1721692 1.6115332 0.5906566 6.821434 1.665343 1.8417523 -1.4203728 1.0795418 -0.17136799 3.0618758 -0.5075604 0.057792142 7.9361477 0.91159344 1.6940087 3.2496831 2.1265404 -2.938507 1.5179833 6.7304554 -4.9588566 7.4320507 -0.292065 -0.86192256 1.4880284 -1.2647212 -2.4642408 3.2897403 2.3355005 0.9227871 1.9403126 -0.7325169 -2.1748147 -4.941469 -4.99645 0.9168166 3.240724 2.1965308 -4.2249837 0.09592931 -4.555888 2.5125968 0.09803545 -6.3940597
world 5.104551 -1.0544437 -2.3336358 -2.0288126 -2.0527785 3.3397412 7.228886 -0.5053698 5.6457663 6.8456964 -0.28550074 4.971742 3.2157242 -4.357513 -0.18072195 -1.7351966 1.5659701 0.83933306 5.744878 -4.405992 -1.1962932 4.2750735 -3.0655048 0.17650312 2.830454 1.1339998 0.028158855 -3.9346607 0.20675948 3.4481118 -3.4221344 -1.5668753 -1.6248932 5.2305784 -0.071682505 -1.3222116 2.3996978 -4.9745626 2.0765076 4.974114 0.23526604 -2.100396 -1.8379734 -0.16500838 4.6536827 -4.8380775 2.2696624 1.3216068 3.8750277 -0.2869136
potato 1.8910005 2.6632032 -0.2882233 -2.7804124 -0.029585585 1.9984832 2.1056194 6.1737494 -0.36517757 3.8038833 -4.686217 2.173274 7.8179965 -3.2467718 -4.7336264 5.786396 -4.680855 2.6481116 -0.48691428 -2.3681798 -6.0485253 -0.09583604 -0.20746003 0.22587651 -0.36948165 -0.5541378 -3.154653 -4.5004992 -1.3317139 -1.7295854 3.334391 3.2257266 -0.21956135 1.1157942 1.0077426 5.3529005 -1.5542314 -2.4083812 -3.706036 -3.9068863 1.0990069 -5.295915 -2.4517205 2.2618563 -3.0587347 0.15172274 2.140193 -1.2495495 -0.138181 -4.0312505
astronomer 1.0624785 -1.5109118 2.6144865 -1.6179703 1.9416308 -3.641318 2.7110436 -0.038013455 3.2322686 -1.1197538 -3.1666574 8.561868 2.3882573 -3.854247 1.268186 -0.3939221 0.26250926 2.9839087 1.1881305 1.6883113 -4.211706 1.6164825 -4.260071 3.7454345 -0.87328035 1.6123023 2.4926689 -2.5789 -3.7270198 -1.117257 0.02572293 1.1947854 0.6278313 -2.480593 -2.9469485 -1.9254519 6.817336 3.3900564 -1.7641724 0.87667775 3.3103046 -0.96814424 1.3135594 -0.6662345 1.6012149 1.3453727 2.8764923 1.2109784 0.6890406 -2.3927166
morality 0.054613598 1.0451213 -1.4453672 5.0341587 -3.4275243 1.7054651 6.8576655 -1.0712671 -4.7990584 4.3548756 -0.8584147 0.95593506 1.2507695 -1.5974371 4.826906 1.6153548 -0.07518765 2.848674 4.2721577 2.130362 0.8260509 4.474599 2.4036212 3.7459204 2.1706176 3.474896 -3.3772788 -3.3782809 2.3653862 -0.48531622 -0.7274213 -0.093202755 2.346068 6.764522 0.5148838 4.6650815 -1.2276344 5.1229086 2.0898764 -2.8816042 -0.3217939 -0.58733684 0.7230978 5.464111 -0.65275365 0.04151236 0.017539747 4.104835 -1.0384637 3.9790523
nurse 3.2626643 -0.6594584 1.1011235 -0.61282843 0.7905337 3.3736105 -4.8175077 3.3274689 -0.5069196 -2.1063688 -2.1718974 -2.1956 -3.1494865 -6.465161 0.3680242 -1.9139853 2.4497821 1.1490637 1.4112139 1.5118986 -7.096347 -0.9625664 0.8779843 0.16945876 1.6730958 1.7779831 -2.9977953 7.044785 -4.833291 -6.863003 0.017171899 -2.9684432 0.87308925 4.812826 -4.2547655 -4.008644 2.7505682 6.1733637 -3.7353044 1.4529594 6.3888707 -0.1855513 -1.9036319 1.7813162 1.6484247 -0.86569375 5.437928 -2.030506 0.6570401 4.631999
prejudice -0.1729445 -1.3623472 1.4996343 4.038785 -2.1360939 4.533307 4.301614 0.41362733 -1.9918789 -1.9860525 2.3797736 -3.3742347 3.3302257 -1.4528551 2.6923761 -4.6543374 2.477288 -2.5417118 5.1001225 -1.2432153 1.9376483 1.1260716 -0.6222907 -0.01185385 3.2391646 1.1890645 2.474012 0.09490818 5.552875 -2.0097218 1.5846748 -1.5276968 1.5648769 7.268133 0.5957147 4.679271 -0.4204621 2.5467432 5.453975 -3.6322277 4.1794815 -2.672999 -0.14797626 4.977399 -0.52394783 -1.3774573 1.8049963 4.3961525 -2.781071 6.4033394
man 6.608413 -2.0678232 6.3516707 2.2769024 3.427795 -1.8990394 1.3882174 1.7913555 -1.8499724 -0.17440583 -1.4686395 2.795915 1.0125444 -3.5707386 1.4499382 0.06431225 -5.9153976 -5.4083385 0.83668816 4.008509 -0.9142913 3.989046 -1.963915 3.4160285 3.5965438 -0.26878223 0.41227707 -0.7875979 1.395475 1.0059514 -0.6744017 -1.8346146 -11.187204 4.7818036 5.820425 1.9240532 -0.035722535 -0.9342159 6.4024158 5.070095 3.2696645 2.590879 -2.00991 1.0620499 -1.8104177 -1.4939473 0.3554975 -3.8225331 0.42002112 4.192584
deployment 4.274888 -0.9853185 -5.407039 -1.1863623 2.834287 -6.5544176 -0.35286283 -0.16616115 3.6436617 -0.4022994 -0.45419276 4.879866 -0.7367902 7.063953 -0.26798058 3.4898252 2.7781122 2.9074347 -1.1048023 1.1495509 2.561135 5.9036207 -0.40192783 -4.759653 -3.6262853 5.454547 -0.042946823 5.8776393 -7.6970553 -0.057312448 2.4997876 -1.6833249 1.6985548 1.6531376 5.489845 -0.14673373 1.3843786 -2.889834 -2.5354154 -2.1668198 -2.4489286 -1.8557289 1.660058 -0.66932964 2.123927 -4.940982 0.6717192 -5.0534153 -4.5891967 0.4236249
bread 1.0912375 1.2752779 -2.8197749 -1.2898409 0.610984 3.8603287 -0.28295857 2.2222865 -7.0354176 6.155103 5.1413846 -4.1775775 2.8779624 0.93156886 -2.761489 3.3305554 1.8401285 -1.14291 1.7685257 -0.94333565 -2.3815625 -2.575922 2.7559135 -3.4141502 2.2552328 1.3154167 -7.0832357 -4.6402946 -0.47561693 -0.6858914 -2.3528914 1.2322192 2.2735288 4.78404 0.08401008 4.8975854 3.180213 1.1691229 -1.7852073 -2.6413805 -2.0711627 -2.8556004 -5.54062 5.607152 -2.4767103 0.62315613 -2.9269047 -0.5696271 5.560863 -4.3655605
television 2.3188145 -1.1802691 -2.5397978 1.960919 4.078979 -3.0338275 0.47535884 0.007954799 -0.3333986 6.411074 -1.6368325 4.1944346 -0.6620311 -2.1467597 -0.8804484 -3.2661846 4.951519 -2.0689955 2.3297668 -5.151769 1.910085 -4.0672975 -0.79318184 1.5991449 -8.116115 -0.071594626 2.2793605 0.03129222 -5.8853345 0.2920108 0.6933246 -1.8365821 1.6737249 5.5034857 2.8264253 1.0041835 -1.94253 4.518654 4.5139537 5.895064 -2.962365 -7.8650174 3.1725185 4.1953025 0.10611594 -3.061842 2.2940216 -0.59948534 4.4039035 1.9765637
lover 7.0631866 -0.14370075 1.7620612 2.7301543 4.35051 3.2903566 1.8237518 -2.4367797 -0.8358669 3.5921142 -1.0174649 -2.3198724 -0.4922175 -2.259259 -0.012280665 -6.0339847 -2.055052 -0.61095214 1.3422704 -2.0380263 -3.9714358 -2.9162927 2.1460035 1.2958527 2.399922 -4.6667714 1.3193944 -3.0179858 -2.1996932 -4.3954597 -0.50368553 1.8267571 2.920339 5.708657 6.6130314 0.7908548 2.5508904 -1.9659126 0.09482287 0.33018726 6.4635963 -1.2280186 2.6599376 -0.75801605 1.9700263 -3.9344614 -1.0423352 -3.4235919 0.28793538 10.505181
change -3.4892883 -0.649188 2.780398 -2.0170827 2.3650854 -2.160834 8.838288 3.0648584 3.4056206 0.3139104 2.7084503 4.963988 -3.2154489 4.073109 -4.977213 2.1721632 5.4303837 4.0905004 4.332169 -5.393942 0.14198375 -1.7006463 -2.9067163 0.59607387 0.5229383 3.5918477 -10.094131 -3.3126185 -4.295937 1.3557649 -5.527578 1.1609994 4.3278604 6.2297063 -3.843897 1.0316497 -6.409967 -0.50040686 0.7155099 -3.7910023 2.7137883 -2.2495174 -6.3015976 2.5186176 2.962798 2.1948788 -1.1536812 2.8659685 -0.3659776 2.4101882
health -2.5800614 -2.3122885 2.660493 4.9709096 -5.730861 -1.0658363 -1.3099155 3.0173957 -2.9054823 0.81179726 3.6343281 6.3212013 3.5566273 -2.561247 -3.827151 1.4111853 3.2833548 2.7956018 4.3786416 -4.3919177 -8.694822 -0.19767083 4.9293303 3.8762648 1.3738998 2.6556022 -4.9254165 3.6435072 3.7008317 0.34463483 0.18502454 -1.8184673 -2.1414235 5.287214 1.2191135 -0.08546725 2.1112137 1.2346152 -0.18998982 -2.5970123 4.6070046 -0.8178991 1.557071 3.208646 3.1615853 1.592734 0.29275846 5.139046 -0.58775437 -2.0614264
computation 0.49737394 0.8201779 1.0394384 0.13123073 -0.55256915 -0.18909329 -0.48307046 -0.29747427 -0.52765334 0.25697407 -0.736838 2.3936324 0.5372357 0.82368773 -0.46527404 -0.40996218 1.1269494 1.4651998 -0.78727746 -0.4082273 0.069933355 0.106252305 0.3247817 -1.0079867 1.3886676 0.5476077 -0.027922703 -0.49909437 -0.7518361 1.4357013 0.088216834 -0.42521328 1.4150865 0.10901644 -0.18609196 0.2162634 0.8680221 -0.29058743 0.5396578 -1.6494645 -1.0391997 -1.7068089 -0.553332 -1.4048251 -0.7435896 -0.33259127 2.948968 1.5854847 -0.28672117 1.9286543
virtuoso 1.5565577 2.7065706 -2.3623257 0.15641017 4.2035437 -2.3699257 4.25949 3.3751218 0.79482275 -1.2565523 -4.7592735 3.6280494 2.7900326 -3.0968742 -2.445916 0.08599923 -0.9458735 -0.16966604 -1.3957262 -1.7684184 -2.8487072 1.5012919 -0.33039278 1.5476655 -4.135864 -0.19108315 0.7367671 -2.7166436 0.93842804 -0.7274236 1.3014034 2.025386 -1.202016 0.9922291 0.29380384 0.20920067 1.2501447 4.131532 4.399266 0.47009337 -0.6599454 -5.848932 0.66542673 -1.4471875 4.250632 -0.53488076 2.886263 -0.7535942 -1.9878267 1.1488855
century 0.1406532 -0.18529792 2.1741784 1.880661 3.385813 -1.9902735 2.0792239 -6.6450267 7.030265 -0.9651196 -0.8411104 6.1259155 3.5704124 -4.140111 -0.59050226 8.558278 4.78976 -1.7442862 -2.8784878 0.0562946 -2.804259 3.3721867 -0.99613553 1.3713034 4.786766 -0.43137014 -1.9977328 -2.4420927 -1.5380228 -3.880074 -1.3124601 3.272639 1.2468218 3.2275639 -0.18920982 -0.54276884 4.7399597 0.06331135 6.25047 2.494009 0.6397703 -1.5021867 -5.14674 1.6975079 -1.5285769 0.8628438 -0.030147824 2.792838 -0.5175739 -7.269996
discovery 2.2930126 -1.068978 2.0195017 -4.4405537 0.11923486 -3.432151 4.393519 -2.0053234 -0.6907827 -1.0963154 3.9329908 7.1306643 7.753034 -1.0922008 3.307274 2.08195 1.653683 4.0315733 2.062547 -3.3311017 -4.865902 1.3913784 -0.10571904 1.3099976 5.698985 2.7175734 2.5498476 -1.5008849 -2.6809301 -0.8826363 -5.235509 -5.2095003 3.016549 -1.039081 2.475329 0.6876687 5.563215 -7.48013 -0.43912864 -2.176032 1.0643727 -5.348132 1.8351843 -4.3336005 -0.73477936 2.528461 3.1869168 -7.867605 0.9834891 5.413556
report -0.31678924 -4.1588936 6.571727 -0.26620176 2.9134164 -7.3897467 0.42818752 0.73357475 3.7091753 -0.6155064 4.5798907 6.296981 -2.3758416 -2.033612 3.1231697 4.7868943 6.7318177 4.7770433 0.22396833 -2.3780499 -1.9481465 -0.19604588 2.2887154 5.288195 2.938018 9.77989 -4.409666 2.6396573 -3.6358447 -0.8806838 -0.72772086 -1.9975775 2.7964132 1.2979511 0.6026242 -4.790545 -0.37862328 0.1622057 4.070406 0.25626954 -2.3060353 0.9740249 -1.7788064 5.6616483 -1.2013038 -1.9677721 6.498789 1.6809335 0.23417912 2.873842
madhouse 1.1962849 -0.09499331 0.07864378 -0.13793884 1.4385858 0.32057267 0.39156735 -0.85977036 -0.22302894 -0.6342219 0.6476844 0.8138912 0.3460364 -0.07236584 -0.7394621 0.71867275 0.43320462 0.66439086 0.67346704 -0.25570452 -0.34795114 0.89783585 0.066966794 -1.0945905 0.28284875 -0.964211 0.20797445 -0.67540014 1.4738898 -0.9646157 -2.1740148 -0.57246876 0.2893293 1.7804182 -0.31767687 0.3041273 -0.2756519 1.1212974 0.16293925 0.9041122 -0.0055337646 0.1917755 -0.660795 1.0948087 -1.109947 -1.1207919 0.23556067 -1.2030945 0.80208856 0.9192796
entity 4.808138 6.939798 7.3378077 6.5043063 0.7560932 0.5959846 -1.7877468 0.051338874 -1.4975387 4.1336837 2.6264203 4.542335 0.84048814 -0.601565 1.1356069 0.35621047 -3.4271374 -6.9893494 2.936304 0.17245324 -0.69590706 7.189873 -4.3802137 -3.5653207 3.3208988 -0.03331369 1.2107505 -0.20196119 3.6944952 -3.236553 -6.305676 3.5012112 -1.4228994 1.404202 -3.1230788 -4.353282 0.2145153 -1.315808 0.34376958 -3.6990201 0.29252428 -0.7840325 1.0303851 1.2828785 -6.3822427 -5.8890815 -0.35324234 3.0973597 0.31339806 1.5037827
opera 3.6156986 2.2893207 -3.7129004 -3.857421 1.2495179 3.768706 -4.1294837 1.5627108 -2.957308 0.17167987 -4.8765383 1.4536008 4.337133 -5.153506 -2.7157845 2.3826513 4.6342793 1.0804669 1.2224429 -1.6537175 -5.4140496 -2.5327497 -3.5101495 0.62279505 1.2310677 -1.1313695 4.2810135 -3.9173336 1.7989069 0.2960983 -7.7163005 -2.303579 1.8526725 1.1454567 1.8210772 -0.23042816 -4.430426 6.544171 2.7697983 -6.8943896 5.230672 -3.7834775 1.124378 -3.5535388 -0.7129981 -0.11555933 -1.0322013 1.5687377 -0.39960814 -1.3891225
sign 1.8534684 2.9340398 -0.71797436 -4.319314 11.348525 2.3967986 -1.5894295 1.6541289 -8.41265 4.933973 7.129886 -4.370205 0.82943165 8.156289 0.100442044 1.4906753 -8.668104 -1.9337751 4.423062 -0.56809634 1.4122424 -0.09151244 3.6824918 3.534001 -5.1363873 1.0762612 -2.446006 -0.8954523 3.1727245 -3.1455956 2.157976 -2.4265206 -2.059703 -1.348262 -4.152629 1.9282694 -2.0668933 0.4756253 -2.5347042 -3.039894 -1.0646603 2.1909177 -4.432321 2.9094675 -0.30316442 -6.121934 0.30838698 0.5244632 -1.2757168 2.8331099
recognition 3.685374 3.3441865 -4.948456 6.4571357 5.3798633 0.2525188 2.560108 4.1902747 2.8359573 1.176022 -0.60400987 -0.016152548 0.18182646 0.8000377 0.38312906 -2.8841956 6.123467 3.264513 1.1500735 -3.2195563 -0.6260357 0.7563573 -5.479056 -4.0242095 -3.7104883 0.9594779 -6.770591 1.6435535 -0.7051738 -4.1131597 0.0837712 1.2507366 3.9757934 6.421573 -4.5207086 -8.990385 0.17305717 -0.023726664 2.438649 -3.1598964 -1.6233929 -0.5194646 3.4468749 0.26784533 8.360693 0.89818746 2.2794242 1.6252165 -4.59707 6.678496
office 5.199884 0.64698213 2.8709266 0.83630455 13.37049 -0.5156148 2.7228935 2.5793502 -1.2259598 4.975223 -3.6774716 1.8781345 -7.977301 3.6564972 -4.690232 0.14369987 4.2741475 -1.2126166 -1.1907468 -0.1418227 0.38706577 -1.9945642 3.60923 -2.2374742 1.1284088 0.7262526 -0.05446309 3.6238062 0.60794955 2.2921457 -2.854251 -6.122413 -0.9228708 2.6434495 -4.515332 -5.165786 1.6260842 1.1872976 -6.7793183 0.6071425 1.7232758 1.1067098 3.9260702 2.9099078 -1.8704375 4.0744295 -3.4817502 -1.69044 3.509292 -1.4391241
lad 0.87341744 -5.171728 -0.28947625 0.6917501 2.9038389 3.7333734 1.4910837 -0.26418167 2.4791038 -4.5585294 -2.5622869 -1.8643974 -1.8060727 -0.07002096 -1.9684547 1.2848713 -2.4434617 -1.4122478 0.8641247 2.1469936 -0.6998492 1.7798164 2.5838137 1.850921 0.919317 -2.4269671 -2.8922966 -0.97071236 0.37710518 -1.8630642 2.7052844 3.3253357 -5.6441636 4.2513466 1.8641175 1.2279934 -0.7443902 6.197608 4.2514405 5.166934 2.87865 3.725464 -3.6262438 5.4206085 2.7656534 -1.6000404 5.1928344 -5.4190216 -1.6595935 1.4524084
radio -3.2688675 -4.660053 -5.315971 1.0798066 -0.22254425 1.9153671 4.12083 1.7896254 -6.949898 1.8407412 -0.35531172 4.7431946 -0.6007099 -0.7565004 -0.1599864 -3.4429986 0.1601047 3.049649 0.75935346 -2.5611858 -5.1487627 -0.6077023 -3.690887 -4.5460844 -5.382596 -0.94272953 3.3101723 -5.8700805 -2.9346406 4.3410816 0.3923123 -2.3500261 0.06518948 4.9967456 4.406802 -2.9856935 1.483145 4.6948457 -0.9711351 3.557564 -2.5007246 -0.60870683 1.1028202 3.661846 -0.021319408 -5.4911985 2.1995044 -0.6050444 2.0399933 2.2319615
smile -6.9992647 -4.541966 -2.3277147 -3.2305884 4.680853 4.1063576 0.25659525 8.386567 -0.64875436 -0.33150393 2.485146 -1.6578709 1.9362878 -0.0038575002 -2.1813369 -1.0093616 -1.9220161 -4.1478214 3.6453657 -2.756692 -4.0882826 -0.26529473 -0.9542953 2.3755393 5.1327667 0.8651816 2.2041705 -0.35634294 -3.5134604 0.6938549 0.46864575 -3.880048 -4.62512 4.8957915 1.3523641 6.857303 3.162144 0.28574887 -0.11713503 3.391471 -1.7105403 -5.0121765 -0.73914415 -0.4061306 3.1296928 -6.6789184 2.7145793 -2.1655807 -7.4402905 4.2594104
arrangement 4.293027 4.1528397 -0.40738684 1.6968942 7.835287 0.76192933 -0.73038745 0.3220181 -5.419189 2.5648615 -0.5033595 -2.111386 1.4922436 2.2017343 0.67615896 4.2221594 -3.3226295 3.766451 0.39010388 2.2882798 4.249073 0.6748611 2.2065613 -5.002587 2.732625 -4.8721766 4.8686466 2.3129818 1.321633 -2.5499115 -9.8207655 1.2045081 -0.75024664 1.7674879 -4.2002225 -0.2024579 0.9342478 1.6771322 5.192735 -9.864261 -1.0054951 -2.4093034 4.0250382 -3.4390607 -5.324839 -1.5625196 0.11164014 -2.3060322 -1.1214966 1.6772751
credibility -3.3942015 -1.1259557 1.99049 6.034943 0.41516513 0.5452933 -1.1496876 1.4595531 3.2264805 3.4425974 -0.69196975 -2.851916 -1.7245796 3.8130105 -4.4806056 -0.52838033 -0.05340556 1.0339938 5.911477 1.25957 1.6088693 2.2196538 -4.2159944 -2.833856 8.778031 4.9285226 2.6164174 0.9446266 4.0368805 1.0898393 1.423885 -2.0846014 -4.662927 9.870623 0.9201615 4.712938 1.9918056 -1.2043221 1.59002 3.8217041 -0.973776 -2.1461694 6.7036247 -1.9272646 3.9473846 1.5049765 2.2431648 4.7841306 -3.4546442 2.9507847
communication 5.5355053 6.4894743 -6.0231333 1.1625164 3.6023567 -1.6161634 -1.0479819 1.4842309 2.5729795 1.8148605 4.8374233 -0.2200655 -1.3395694 3.1373444 -0.066798896 -1.2858144 -1.0367529 4.039979 2.3813179 -1.2408924 -5.0474353 0.04515011 -1.4904745 -5.367831 -5.239472 -2.1502008 -4.6559176 2.5215826 -2.1019652 3.3004127 -4.9939137 -8.211995 -2.534071 6.623368 -5.3258967 1.3385549 6.578961 -0.7980983 -4.2751684 -0.16158846 -0.65361375 1.956987 2.8715065 2.2339423 1.5647235 1.1021223 1.7281057 1.1615875 2.1846468 9.216421
stock 1.7776835 -1.8220187 1.5649375 -6.448115 0.19278306 -0.8227051 -3.7473562 0.27412716 -3.6629188 8.992401 -1.6979307 1.7282232 0.5496588 3.144507 -0.06556779 3.6281073 4.273162 -1.1966515 1.7773541 -5.257095 3.061353 -5.1603966 3.4367714 -1.8677996 3.4462016 1.0593716 -0.13796401 -0.1929904 -4.348812 -3.0160384 -3.2177684 3.2497475 2.1679623 -1.2486017 -0.48285162 8.191322 -3.3458447 -1.3963735 3.4641101 -3.978971 4.261059 -4.2978916 1.2928165 -2.1968002 -5.1824536 4.6031375 2.8151069 4.1242876 2.5002484 -0.88788706
credit 1.4817318 3.043477 1.3072702 -2.589532 3.558409 -0.9433938 -3.9408195 -0.95168054 -5.5996914 -2.5555563 -0.35680208 -3.742637 -4.3030024 4.4710493 -4.901457 -3.9579191 -2.2079408 4.521771 -2.7070038 0.056008153 -2.2917702 -5.404228 2.8739324 -3.866692 1.3324318 1.5980875 -1.9511615 5.5472045 1.1819661 0.35661602 -1.6336783 0.67360437 -4.499999 3.4147894 -1.903002 -2.3873081 -2.08557 1.2062558 5.154394 0.057413008 0.6528783 -3.039314 4.351861 3.6411169 0.23093411 -2.3790555 1.9446979 10.07673 -0.5130638 1.9738935
citizen 2.7271183 1.6867746 5.909103 3.735348 0.89743215 -5.4298964 -2.6901634 1.4480237 1.3175371 9.977021 0.87158334 3.6786432 1.0581249 -3.1651871 4.960806 -3.2652328 -2.7684278 -2.6467135 1.5712501 3.2228844 -1.5105687 1.4182036 -2.120184 -3.5522707 -0.078439176 1.8758323 0.6693284 -1.3239958 -7.0847154 -1.985353 3.7318316 1.31182 -3.1760023 2.3391132 3.148014 -1.0500759 2.1819732 6.48573 -0.4458389 -3.8674157 1.6728921 -2.382958 -0.19078799 9.17955 -1.4689697 -3.9531262 3.6830773 2.5239196 -0.9221682 1.63111
terror 4.01073 -0.017190251 -2.0441785 3.611565 -5.614817 -5.878173 2.5969303 -1.531684 -5.3573713 3.0618308 3.494893 2.8029318 2.5205739 2.3370707 2.1773016 0.37662867 -1.0400368 0.9304274 4.274565 -6.6829243 -0.11600018 7.372261 -5.9898524 2.5065243 3.4928358 7.5374985 1.2318262 -4.2135863 2.5466325 -0.58776724 -0.63168824 0.17535718 2.1163807 3.2096782 3.1313787 -0.5688261 3.3227687 0.67418855 0.057942063 -1.7312261 0.2649224 2.4290783 -1.9865268 1.9047015 3.9467056 -4.1701417 0.33854443 -0.03580697 3.45901 0.3410259
law 2.953239 0.09072758 1.0908761 4.248966 2.3203757 -5.084364 7.9859033 1.1370821 -3.1862042 1.3769367 -1.2438956 2.1269984 -0.78036624 1.0271716 3.1959996 1.5546135 -6.5899634 1.326216 2.8779483 0.2440453 -0.05696467 1.9078857 -1.7995503 -5.130417 -4.569227 0.4772324 0.7672901 2.8294835 0.033863805 -0.881095 -3.0275726 7.603242 -3.309902 -0.06457489 -4.3704243 -0.17041539 1.5081425 3.085062 -0.8192333 -1.9864372 1.0323561 1.0887728 -2.2650456 2.6337345 0.57954085 -1.8619455 -4.2643166 12.221028 1.3589118 0.6149526
liability -1.8941536 0.1675296 9.631805 6.8322287 3.428846 -1.7761041 -2.2258224 3.664611 -1.0019112 0.046730068 -2.046413 -0.09092111 -2.3105862 1.3557569 -2.7014453 -2.378299 -3.7323306 0.0017606523 2.612842 1.3490908 -3.5400965 2.1244915 0.52870023 -6.316594 5.728385 4.4961267 -0.38036454 1.2712338 -3.2558804 -4.7363315 3.8816621 2.0061913 4.2390246 2.7052753 0.5465708 -3.7977965 0.300685 -4.4035487 1.3365947 -6.5688195 4.7461104 -5.4019713 -0.4005137 0.9562891 -0.6784668 -1.56261 0.7205518 1.9047604 -0.51916724 3.1240187
equipment 1.6232674 2.525059 -2.6242173 0.20794262 1.9464402 0.086174116 1.2293502 0.5763729 -0.88559663 -0.5900418 -8.451783 2.393431 2.4889104 1.6081319 -2.887667 -4.792072 -0.45686275 7.010482 4.8514533 0.559087 1.5646487 1.5713823 5.798672 -2.5311046 -4.9126363 -0.4967465 -2.4279752 0.54608375 -3.9981313 0.3243715 0.12179462 0.68996257 1.0576919 3.0005789 -0.67169964 -0.3143333 2.3649094 -3.605791 -7.8968573 6.4477534 -2.8854535 -4.850488 2.2788568 -4.4396086 -2.023872 2.0352364 2.7051952 -3.0831518 2.6313694 1.1844074
film 4.607727 -5.8216553 3.8338335 -2.3853488 2.45931 1.0818278 2.4234362 -0.21014406 2.355673 2.6267521 -9.296274 2.3149004 2.515281 -3.5492873 3.0082204 5.130967 2.2296305 3.8092358 -2.614091 -3.1653574 -1.7148511 -3.0356274 -3.2960212 -2.0591674 -1.362814 -1.3985187 1.2387632 -2.276677 -1.1109055 0.9178134 -0.8224409 -0.9471517 0.96713066 -1.349182 4.8322024 2.3117085 -8.475916 2.385716 4.0069523 0.60366035 1.1345447 -4.3048887 1.4229822 -7.656029 0.74750066 -3.630047 2.645413 2.8771524 -2.749247 2.0280235
admission 3.296518 0.21563295 -1.9047986 -2.00541 11.411802 -0.7797244 1.1090266 3.814375 -1.4558493 -6.294958 4.7794657 -1.013256 -4.082081 -2.1985254 -2.0246952 -2.1131759 1.8064842 0.16711362 0.39651322 1.1570052 -1.655212 0.4043673 -0.119244665 3.5366068 4.312724 -2.7837892 0.040798824 0.14027174 -3.8091304 5.908823 -2.4214149 0.18027996 5.5645022 4.913807 1.4862986 -5.5660315 5.8735456 -3.4045682 3.2769296 -10.983271 3.300155 -3.4510996 4.7412214 3.5771034 -2.0944672 -0.36226514 -0.087220594 1.2889572 -4.5018096 2.44604
tool 1.6013182 4.5788875 -1.3725427 7.8789277 1.0240338 -5.4444838 -2.0817053 1.7489477 -0.45141053 -0.90304357 -1.0576518 -0.3550142 -2.3159065 2.2245376 -2.1012502 5.054004 -1.1167871 1.1793061 -2.0383635 -4.202356 -3.2342234 4.984625 5.3624215 -4.1536965 2.1953561 2.06934 -2.9417372 2.3084023 -2.6074028 -4.2303205 0.5756723 -6.741301 -3.8466976 1.6184129 -1.4351431 2.3090906 -3.3265758 2.1425934 -4.1360407 2.0626824 -1.4466031 -0.8100129 1.9427931 -4.554167 -6.756218 -4.667327 3.5289083 -0.18024564 -1.0758914 5.2910776
professor 0.16032349 -0.39052665 2.0088775 -1.4630127 -2.1266897 -0.9826667 4.8066354 -0.72029823 0.8709328 2.0728233 1.3598588 2.907095 1.1877323 -4.335188 -2.99179 4.9605584 -3.2599256 3.04702 -0.9520349 -0.93097836 -0.8265788 2.9965987 -4.1543503 2.7411675 -0.2830367 1.6756675 0.081894904 2.886023 -4.5501432 -5.9470844 0.072199695 0.25723267 -5.4088984 0.015881617 -1.535876 -0.01577827 2.709291 7.0502586 -2.145889 2.1189954 5.8211174 2.769989 4.6422253 -2.1913228 2.405477 1.2414588 0.97067773 6.4994617 -4.02966 7.058729
governor 0.8056568 0.16260406 4.2215 -1.5598104 2.0913649 -2.591232 -0.87635225 6.5768795 -3.5971215 0.6284553 2.517281 -4.867093 0.7373733 4.3421636 -4.662334 4.875117 -2.0119896 0.14277352 -0.11582223 -1.6427281 3.1029453 0.37971908 -0.15256673 0.68979585 -1.2558059 4.609934 -5.448617 2.599621 -5.810307 -4.0990567 -0.58905494 2.6504478 -0.78017575 0.20764671 0.6921156 -1.8474134 -0.8117394 4.734483 -4.0912495 -2.8757885 9.662643 8.179591 -1.266655 2.1655986 1.0194021 -0.44278374 -2.0735316 -5.161438 -0.79266906 -3.2815661
student 3.66772 -4.3963366 -4.071835 -1.18107 0.21981941 -1.0977163 -0.5194099 2.208454 -1.9401697 6.6694984 4.162894 1.0073332 -2.52805 -2.340284 -2.4272501 -2.693384 -5.9591393 -1.098648 2.109034 -2.7531803 1.78439 2.307471 1.0607386 -1.4191341 -1.1566725 2.4134223 -0.48297995 0.54023135 -11.476678 0.020187464 0.795082 4.306084 -0.09178266 3.0452683 -1.1731818 -0.5140073 -1.2149366 10.504164 -3.121128 -1.0505936 2.1418672 1.276143 2.2792068 4.851114 -2.0341713 1.3189903 4.651923 2.9115224 9.095921 3.8176913
fruit 4.1759577 -1.5806568 1.6404762 -5.159713 0.85066867 7.3862395 0.31794196 4.980633 0.09905737 6.7652526 1.8586642 -0.52411354 4.2839155 4.2638946 0.96565396 1.652101 2.0876365 2.7841198 1.6902013 -0.8204802 -0.38384283 2.5716977 2.5318952 0.34539267 0.85190076 -2.4342191 -2.9216921 -1.6210756 -0.45240662 0.75893515 1.6464511 0.039488804 -1.0346256 -2.0613427 -2.426052 8.260939 2.3163354 -1.4707 -1.1087955 -2.8098917 0.7555929 -4.795539 -3.0387213 -3.4930549 -0.016660646 -4.628439 0.52393657 -6.788267 -1.7557496 2.0769641
media 5.5838995 3.7310798 1.6767901 4.0149717 -0.62826484 -0.33336464 -0.68806773 0.101420164 -3.03316 -0.25653347 0.27883887 1.21303 0.20497048 -0.8697804 -1.5292554 0.45653126 -0.8929761 0.7096644 6.9914937 -1.6449379 2.3648448 0.7229975 3.8594615 0.68557185 -3.9123778 0.6091739 2.9473686 2.7022376 3.0271811 2.688803 -4.4740653 -4.1090755 -2.898024 4.7611594 4.4648576 0.019052383 -6.0126033 4.435582 4.631228 8.937679 2.9855862 0.46578535 7.534873 -2.1019745 -0.05404948 -6.7012577 -0.79154545 4.6962023 2.0202677 7.846942
racket 6.170409 -4.8012376 -0.25795048 2.383142 5.579588 1.6775601 3.4970434 -3.667764 -1.9992706 1.187102 -4.260587 -6.872858 -3.5875654 -2.3670704 -1.8162068 -2.7293317 -3.201065 2.988107 4.2668233 -1.9454967 1.6813759 2.855856 -0.28977695 -4.1321173 3.7170818 2.154437 -3.3209553 0.42158562 2.8787727 -2.0160944 3.7078707 0.5489986 0.90845126 2.6025233 -2.8944488 5.286149 -1.6749425 -1.1392028 -0.69808775 1.8547684 -1.0518979 -6.6140113 -1.1028302 -2.83045 0.37475556 -3.2967672 1.9843535 -1.2102581 1.6783292 6.0641418
boy 3.1417563 -2.3848355 0.019282121 2.138214 2.5073617 2.8288321 3.3638046 2.0356536 -6.9066067 -5.899056 3.0298893 1.111365 3.512253 -3.86498 1.7597779 1.4668478 -4.06372 1.9497372 1.0621322 1.4712988 -0.9339646 -1.4133505 1.0264974 4.4546647 -2.857115 -0.7211501 -3.233774 -0.3789809 -5.6811204 0.41390038 1.4058974 -0.87546057 -1.8227983 5.751897 4.9760284 0.6581614 -1.406717 0.41240388 1.2274837 7.714362 4.5432835 4.485412 -5.867161 0.6598034 1.2191032 -6.9682393 0.505663 -3.2430875 -2.0387142 7.119231
preservation 0.89606655 0.591558 0.41073352 7.069865 -0.70260483 0.403254 4.3174324 1.9103091 -5.2126293 -6.955744 1.8709722 2.537486 6.55607 2.3010585 1.1796719 4.611462 3.5175989 4.107299 1.7623328 2.4810762 -1.2855613 -0.5086709 5.2034774 0.35048345 3.0716343 0.57408315 -1.6226895 -3.4885867 -0.4317761 -3.0262535 -2.9312375 -0.27002862 1.3685619 0.21992683 -3.37105 -0.2890455 0.7994064 1.5126733 -2.9253547 -7.9877152 1.9585671 -3.083215 -3.0810869 -1.1784141 -5.414215 2.601915 -2.6587353 3.4021692 -1.3158416 -1.9343385
vodka 7.877294 2.0199492 -3.021897 -2.5312798 4.025604 1.8595915 3.6402678 2.6893137 -0.61428094 0.3676813 0.9662127 3.4413388 -0.068238884 -1.9375305 1.6216446 -6.173515 -0.16618788 -0.04654084 0.07082502 -5.425888 -0.45473757 -0.45603722 2.3392248 -5.384179 1.4076706 -3.0172167 1.2449005 -4.779091 0.05180706 -3.482711 5.331897 1.6039835 -0.10359805 2.4680233 -1.7280685 7.2319374 3.084923 -2.12735 -2.1342056 1.4535451 -2.3997343 -7.962616 -1.6404442 -1.6278487 -2.210316 -0.30438727 2.5022447 -2.2691371 2.1380146 1.1669253
oil 3.8745015 -2.9275668 9.50241 -2.2618566 1.3482699 3.746273 1.411127 -0.4372989 -1.1462215 3.2761075 -3.6145034 2.6961284 6.7033134 2.7462773 -4.148268 -0.5257483 -1.5887078 -1.8925321 -0.5040862 0.8216176 0.32338798 1.940869 -0.47581622 1.5115921 -1.8257117 2.3570707 -2.5898027 -4.8200574 0.675918 -1.6166284 -0.03553361 -1.9230058 0.7011107 0.85851973 6.7523727 -0.6195202 -0.5156055 -4.9914794 -1.608288 0.99954635 -1.2754673 -3.608358 3.6202576 0.64772403 -6.4894824 -3.666347 -0.594101 -0.7374393 4.130127 -3.6129985
victim 1.8817135 -9.644015 7.7946596 -0.76489234 2.8173273 -0.044674687 0.9816301 5.77762 -2.0355942 -1.9184327 4.1986485 -1.7504778 0.14522104 -3.1123416 -1.6461321 0.8531284 -2.8712664 -2.2501795 -1.7326579 1.1984757 3.2470317 3.0005264 0.27089316 -5.2820473 6.0021353 5.76407 -0.5413151 2.7257898 -0.9567489 -1.9873043 4.5375423 1.2346503 -0.31586745 -2.404142 2.956662 2.5695062 2.7630422 0.71946126 -3.5978572 4.4315977 2.5678258 5.8398085 -4.729463 -1.3620625 0.48510733 -2.6410472 -3.8392847 4.602159 -6.597549 6.470872
row -2.3193052 -6.8029237 -3.2092805 -0.91742665 -1.0647074 -1.2191468 2.3768446 -3.2068193 -4.962162 7.422351 0.9642916 1.0081248 -4.046229 -0.8604571 -3.8964853 1.1667746 -2.1044176 -4.6194067 1.1230707 -4.029888 -5.249684 6.581961 0.10215979 -2.2159975 2.062664 7.3202143 3.4566193 1.3463274 2.7336104 -3.5025969 -3.6391232 1.5726292 6.006622 0.79834354 -2.7153594 0.15598471 3.3381884 3.2524772 3.5945444 -0.6498941 6.015434 -0.45115414 -4.5108724 2.1138823 5.6016884 -1.0474802 -2.2430575 -4.425936 -1.1379824 1.9791965
possibility 2.423678 7.405477 2.8638594 -2.6477554 3.9833145 -2.507339 -0.7201771 0.1315842 -8.112636 -0.6550797 5.1611085 -2.5162842 6.0132313 1.5730287 -0.33750278 0.5772849 -7.329642 -0.26564276 4.205034 -1.9922829 1.3737549 5.104945 -6.533023 -2.1676881 3.4136677 -4.393952 0.10145072 2.6196418 0.97738564 1.9799355 -0.4083143 -2.879711 0.9766236 5.199371 3.4726765 3.8077457 -4.067686 -7.1017885 -4.162507 -4.426052 2.906185 -3.0892527 -1.1061518 -2.735679 3.201388 -3.1217701 3.387584 -0.72513217 -1.4080088 0.7106352
consumer 0.048316788 -2.0872083 1.7873968 4.416653 -1.9561425 2.03531 -0.42044145 4.4335165 -5.216909 2.2156837 1.3241115 5.2550144 0.25302732 0.19402966 -4.21557 2.9883912 1.0631578 1.9812508 1.6008245 -7.266645 -0.54629713 -3.09081 5.547129 -0.57939136 4.1425343 2.4692733 -3.4763772 0.4953799 3.4966028 -1.8378456 5.2225094 -1.63627 -2.5820456 -0.019507634 -0.7526043 -1.2012563 -6.2642255 -0.32312506 -2.2651188 6.351035 -2.296435 0.8580198 1.5379603 3.304169 -2.300488 -1.4738975 4.9554114 7.617586 -1.40566 4.518931
direction 2.8437371 -0.58926374 1.5392298 1.7194042 0.9980021 2.2536156 4.8753357 -2.90015 -0.1547379 -1.0900663 -4.714092 3.2031472 -0.26709533 8.771038 -6.9022727 4.0015244 -4.891144 0.13613494 -6.7015114 3.0701284 3.9573941 5.247624 -4.675702 -1.0509138 2.790983 0.66208774 -2.2413237 -0.48494467 4.64184 1.0555674 -10.600036 -0.061154794 0.10407896 5.4428806 -5.3797255 -1.3482407 -4.653065 -0.86753345 -1.2804852 2.6128402 -1.7275498 3.601883 1.4922291 -5.3445654 -0.40464258 5.686103 5.7849073 -0.48453796 -0.15396737 2.2210608
keyboard -1.0369555 -0.15899056 -1.322163 -0.33820623 4.422291 -2.139968 -2.9601407 0.3125934 -8.044467 -3.188101 -7.410227 0.8365105 -1.1720104 -2.7713532 -3.3060446 -3.482775 0.5362504 -2.0008283 0.72047275 -0.6205521 0.37122 2.1005182 -0.5436525 -3.1521842 1.8324677 0.07093237 -0.7857968 -2.2898796 -2.4039977 5.242168 -2.1114187 0.5967956 -1.9705714 0.7727999 0.29235846 4.4348755 0.04162858 1.1061888 1.5406598 2.396277 -2.3623013 -7.9613714 -0.48023644 -6.4594345 4.2141385 -3.622209 5.3919253 1.0740745 -0.20134814 3.6548936
rooster -0.27404475 -1.0578206 -0.7065192 1.5415279 1.8361794 1.537093 2.002727 2.3270938 -3.3582194 -2.027645 -0.75058603 0.18724474 0.98872954 -1.3136965 -0.10370048 1.6157575 0.6228469 -1.4244366 -0.967244 -0.6266981 -5.2162385 0.5831472 0.118954405 -0.8226576 -1.1310449 -0.5489093 -1.9210261 0.016106935 1.6388853 -1.3628402 -1.2600347 0.09157432 0.8517704 2.0981913 2.1811957 2.263413 0.6447169 1.1795048 -0.97429127 1.9541881 0.996884 -0.82674533 -2.170275 1.6078124 -1.1948773 -2.605377 1.6214492 -2.2684786 0.04895751 -1.2364068
chance -4.2392464 -1.4557586 -2.6973844 -2.6986613 6.4346533 -3.50215 -2.860779 2.5269456 3.1869946 1.6626196 4.6985445 -2.0278926 1.478852 -1.8936933 -5.014166 -3.9543154 -0.22170793 0.8972183 6.5464535 -2.51257 -1.5659685 1.4739896 -4.592382 3.5239723 7.8338118 -4.0514035 -3.2059457 -0.87596434 1.1598077 -3.3621168 3.7043633 -3.6785696 -2.8082252 4.202446 -0.9622511 1.4920809 2.1017287 1.0393581 -2.1633506 -3.3855395 5.6294317 3.0914447 -5.6118464 -1.6013451 3.6892776 2.1098187 1.6601136 -4.591529 -5.537315 -0.06379583
