419 50
plane -5.213757 4.011511 1.4540113 -0.7506182 2.0584066 1.7534841 -2.0677845 -3.1996405 0.83859 3.5431278 4.145667 3.7953062 -1.2638578 -2.9775167 6.3124886 -2.8767724 -8.921419 1.8319088 2.3353798 -3.520273 0.172982 -3.8512695 -3.6147296 -2.4913461 2.6245015 0.7075292 -1.066144 3.6183066 -0.9584719 1.5340161 -2.4998145 1.1815403 0.84170806 3.0305676 3.4191124 -3.1349385 5.117399 -8.55236 1.7690872 -1.2621475 -0.7912081 1.0235915 -5.956626 0.33418295 2.45724 0.040607803 1.2126703 3.9075513 1.8224736 2.2731915
stupid 1.0817024 4.9763484 2.0235474 -0.16562888 1.9633887 1.8555154 -0.17005794 -0.57421696 1.7033195 -0.2060495 -1.3448843 2.8801324 1.6343994 -1.9480652 -0.5428004 0.16539675 1.6009371 -4.0387535 -0.49291036 -2.761421 3.4719071 4.1781464 3.243511 0.9352941 3.0936396 0.8533682 0.12340743 -4.4773884 -0.62249666 1.9327247 -4.5025306 -1.1598911 0.95052654 3.8074734 4.008796 0.26563257 3.1868045 -0.42980373 -3.2441835 -2.5979106 -4.610328 4.717303 -4.426845 1.5109804 4.1384916 0.9682458 -6.666933 -1.627807 -4.742852 -1.9758003
egg -1.6814196 -1.1909735 3.4556582 -1.5523124 -0.2087924 4.117015 -2.0318618 4.0248456 -0.1454324 1.2360849 6.7040215 3.1264277 0.40087986 0.69862425 -2.0547478 -1.5006129 -1.2520142 4.0031824 1.3797076 -0.22459939 1.6283883 2.8275378 4.496336 0.6665539 5.6188765 1.3777304 -1.108614 1.0470774 2.9470937 -2.2211952 -1.2371795 -1.2443938 2.5010014 1.6733791 -0.5954047 -2.4693813 -2.9945753 -0.18734905 2.4014556 2.6131976 3.3695369 -2.639025 -4.496102 -3.027049 7.5896893 -0.6954013 0.033124067 2.228345 1.018351 6.538583
year 3.1419256 4.401412 -2.0988214 0.4644862 1.9128529 -2.337475 2.3986173 -2.462348 -0.8792892 0.9890134 0.5317721 0.27773768 -2.217417 3.7475257 -1.5660344 0.5379445 1.5294641 1.4397231 -5.3579955 0.7082358 0.5400036 1.7432969 -4.5082355 4.3322277 0.34390956 -1.4793328 1.8849041 2.7081368 3.944724 -1.3934398 0.20239891 2.1855648 0.94309574 -0.9218839 2.5491657 5.249667 -4.3833075 -1.2970821 -10.767692 -0.8806157 -3.0868437 -4.20793 0.10481076 -4.1825266 -0.07379369 -1.7436266 4.7336454 1.3429543 -2.3868225 -4.8830757
psychiatry 1.671849 1.1184465 -1.9024757 0.30166596 -1.5421957 -0.3414502 1.0283903 1.9473842 0.0455414 1.726386 -1.4245659 -1.11411 1.7262679 -0.49665543 -1.0123717 2.9541464 0.5578767 -0.3550926 0.1945477 0.7262843 0.06037076 2.7886267 2.753127 0.37286773 -0.33767775 0.70137835 -0.47714633 0.9170866 -0.29963067 0.98288125 2.1228127 0.3488212 1.4010636 -2.0063896 0.24918823 1.485155 1.003308 -0.50941986 0.7903575 -0.6435468 -0.18623942 1.2797352 1.9096231 2.0084338 -0.62009996 1.0883297 0.50724036 1.323796 -0.70263004 -0.6799496
asylum -1.4268775 5.6095886 -1.869471 -1.5540731 -1.0610572 2.1990106 1.1897622 9.548758 -1.5079361 0.5049366 1.1696687 -1.1180351 -0.9828626 2.2507143 3.4040306 1.1834339 1.4300077 0.046363704 -4.0796113 -1.423127 -2.353047 -1.8803562 -1.5603063 1.215237 -3.3611727 6.285032 -2.9003072 -0.4652065 -1.2393768 -0.24728319 2.7081869 -2.125902 0.20014346 0.3140985 -0.23058131 1.219661 2.5033698 -0.70306385 -0.5912017 -0.9893929 -0.80757046 2.293441 2.1054046 -4.624896 -1.0102534 3.9058354 -3.8219757 -1.9973298 2.863081 -6.1829734
manslaughter 2.174068 -0.2714025 -5.1122746 2.500586 -3.8364959 0.38368967 1.745379 1.5816131 1.2350855 2.4564948 1.1143358 -2.3957102 -1.3451443 1.5173708 3.432456 0.5925047 2.0757632 -0.11333167 0.7398268 -0.10377429 -1.6324328 -2.154383 -1.3078458 1.3393294 0.76883227 0.19957425 -0.57370186 1.8304687 -0.38634133 -2.257438 -1.7398074 -0.6612895 2.9754305 -0.2084823 2.0754087 -0.20878991 3.021978 1.1287972 0.80720246 -0.39268315 2.3710291 -0.8103675 2.7075036 -0.4974042 -4.0733566 0.64666885 -1.8892026 3.2241695 -2.123861 -2.2787511
music -1.1291275 -2.0158262 0.2571774 1.7718915 6.649196 6.0055485 2.906606 -5.635737 4.4026628 3.4457994 -4.575703 -1.336576 4.235351 -6.3049917 -3.099192 4.3062654 -5.367409 0.14065215 -2.3556802 -0.109519206 -2.5695586 3.4447615 1.6964959 -1.0237947 -1.0917631 1.7040809 -2.0174243 7.466938 1.0697442 4.1820226 -4.434842 0.10222367 4.6439776 1.5885407 -2.1535802 1.0297874 -4.3910537 2.3784132 -1.7523732 0.9546588 0.16778715 2.9295673 1.5753285 0.05509037 -5.843658 -2.604436 4.203488 -1.8690245 1.8778317 -1.5476637
record 3.1471908 -1.8420699 -5.526847 4.615006 4.3088107 -1.6296873 0.24747056 -5.7509885 -2.2298326 0.8528653 -0.90565693 0.012012155 1.0329921 0.4630949 0.42343634 1.5716903 1.1689129 -2.4632723 2.8482254 -2.913209 1.2008982 6.670484 -1.7833569 -7.3741894 2.0221703 3.828162 -1.3843693 4.769724 -3.7645192 -4.2079644 2.762456 -0.7344724 -3.8501914 -1.854441 2.9023697 -7.4935207 1.2081466 10.222124 -6.7821193 4.281147 3.219562 2.402789 -0.6725976 -4.788314 -1.7738404 -0.30192932 4.2003636 -3.9281166 -7.5862045 0.1171753
energy -6.433288 -1.5889748 6.29347 -1.4114518 -2.1002371 0.44114974 4.404788 -2.6884785 0.104913875 -0.6900763 0.29022652 0.67489004 3.4636447 -1.1850795 2.374316 1.6042078 3.0586283 9.875424 -3.192132 5.900405 6.0565963 -0.39128366 2.535919 -1.3439763 -5.8533845 0.104286894 1.4609516 -2.5434372 0.42888305 0.35902578 -1.8263787 1.1078203 6.5071883 -0.5435098 0.40187722 2.3076031 -2.9396408 0.14130212 1.3810022 6.7071533 -1.178883 -4.02118 -0.4224911 2.4475763 -3.6528106 1.0249057 -1.1116979 0.5856148 1.1426346 6.7718716
announcement -3.7169015 -2.9601114 7.777248 3.5021055 1.0727854 -8.4102335 -2.5329533 -0.87256104 -3.1956604 1.7225345 -1.7050755 -4.309172 0.1053512 -1.6544744 -2.4869368 3.5910983 -4.0733466 -1.4032599 -1.5476722 -0.5681265 1.6144061 -0.5396312 -1.4072683 1.1935295 -0.29349473 1.8469256 2.6238759 2.0542176 -1.7382859 -5.891336 -3.0134187 0.95669764 0.90625083 -0.5751544 6.267498 -3.0658987 6.013887 -0.5095237 1.2936155 5.8961167 2.2454622 0.98801816 -0.8104021 -0.0036654458 -1.4770122 0.7466559 -2.183928 2.0966744 5.7649684 -0.30695656
mile -0.7167263 -0.28563598 2.3839457 -1.6727294 -0.92375666 1.1408871 -3.8111055 -0.7489952 -0.06448294 7.059554 2.4800963 2.9757054 -3.9457188 -1.5403874 2.0944562 -5.5795946 3.0992146 5.56354 3.0317428 -1.9698834 -1.0022064 2.7039824 -1.3314301 -0.18651633 -1.206438 5.7119884 1.7599227 -0.12825052 2.8019838 -2.7101004 2.7207036 -2.5673265 0.82125205 0.05217215 2.6361353 -4.045212 5.1924415 1.2981896 -2.848515 -6.6872334 -2.503619 -3.5417557 -4.461369 -1.778244 5.4208302 -3.6244488 2.759981 3.296015 -0.12970705 0.6843476
airport -5.6178346 -3.757491 -1.5283533 3.3208861 5.0657234 -2.208815 -3.9043431 2.806168 -1.7091378 6.6779337 -1.3871906 2.7851694 3.8488345 2.5007875 -2.409194 -2.3954155 4.085096 -0.7669994 -0.4117671 -3.0271025 1.7030265 -3.6187875 4.0313463 -1.289434 -2.6286316 3.932712 -1.3216382 -3.554889 -4.523945 1.2645487 3.8338728 3.1368456 -0.68830216 -1.7914692 -0.88147014 -7.670643 8.083721 -1.2497222 1.8026185 2.3374708 -2.6941817 -1.3443125 -2.8060663 2.0352433 5.136938 1.2033103 0.4964011 0.97937864 2.4203875 1.251517
population 3.3205647 3.1161904 1.8046621 -10.655492 -0.20006695 -0.97002745 -2.6255233 5.1213846 2.4853137 3.829251 -0.24717829 -1.7490563 -0.90446174 -3.26241 2.4546542 2.3083107 0.4831875 3.3616042 -2.1515498 -2.8789477 3.4281585 -0.65033156 7.7082715 0.7153991 5.1093936 1.1452174 -0.7000708 -1.8885725 -0.45099196 -2.6635096 2.674312 1.2367694 -1.7750896 0.7227224 -0.19204523 1.0986671 -2.2371545 0.74347574 -9.28841 -2.2713003 -0.9954284 1.285603 -5.8781857 -3.736953 1.0094095 -2.1771657 2.9839754 7.185268 -2.8965514 -1.5045234
planning 1.2761315 2.1485546 -3.2977898 1.0361382 6.52833 1.911223 -1.4196955 0.21393149 -6.2733307 3.1894615 2.1265728 1.4341518 0.37117448 0.24995998 3.7954285 5.8166795 -0.5176786 -0.86149645 -2.73112 1.4997196 0.024313442 2.153225 -1.1457808 -3.166293 1.2142113 -9.447557 -3.1685948 -4.605991 -5.4672627 -4.0970592 5.805769 2.4493136 1.0249529 2.8674467 5.9276814 0.50782055 1.3629465 -1.7628388 -3.1851926 -3.447355 -3.199283 7.951598 4.472493 -0.73789084 7.5541286 -0.79222053 3.380693 0.014937978 2.0950372 0.6546632
canyon 0.63641244 -4.046339 4.362257 0.5453418 -2.146582 -0.07882435 -0.303276 2.564587 -1.6456621 3.4726994 0.4021502 5.704515 1.5974863 1.4949578 1.0315211 1.4994792 0.43691868 1.110798 2.2966542 -1.8027358 2.5170968 0.74228776 2.1690533 0.39971393 1.1146115 0.22459391 3.2757192 -0.57833505 2.924919 -0.22815982 3.5810714 -1.991046 -1.7943553 4.044294 -3.863538 -2.6924927 -0.32354972 1.0944954 -1.6144223 -3.0607593 0.9004538 -2.5005224 -1.1730194 2.8410778 0.32044402 -0.496398 5.1885595 4.2055964 -0.16697727 1.3574086
delay 1.5981361 -1.3327311 4.9533753 2.6835172 -3.4743688 0.5462441 -1.7871716 6.8368235 -1.891558 0.03607939 3.8912654 -3.7490652 -1.5939621 3.5554972 2.4675703 -3.8685994 1.0780296 3.1896582 0.18449035 4.4723034 4.289276 0.618939 0.54991037 4.535488 4.313159 -4.9983535 -0.43776488 -5.0221786 4.118582 -5.9792476 1.5399752 -0.17243883 4.4375515 1.8991786 7.595292 -3.615571 4.946629 -1.1387006 1.2378796 -1.1145644 -0.2004106 0.26311976 1.015695 -1.9838929 -6.8755326 1.8066229 -0.7886514 -0.05397576 6.077136 1.2113396
size -1.6030364 1.554189 -0.66289747 -0.102124944 -3.757963 3.9212756 -4.6332498 -0.2338049 -0.76837254 -0.47246966 2.7077734 -1.2735946 -0.5067592 -5.618784 -0.073449135 -1.7463508 3.3863606 0.9109216 6.195475 -6.8860364 1.487084 7.23398 2.756209 -0.8799178 6.452666 -2.8151183 1.7549803 -3.327206 1.8150129 -1.1275483 2.808714 -0.92149884 -1.7421409 -0.15522322 3.168506 -3.9439428 0.8383421 -0.64717585 -0.04355775 1.6134022 -3.3026643 3.0976007 -9.443058 -0.5740624 4.323116 0.7756499 6.932043 6.851094 -4.484494 3.873081
peace 1.8008139 -0.65568215 2.6541839 -0.1622922 -7.4014206 0.14774314 -1.0824587 4.1273146 -1.7435435 -0.7049765 5.8514013 1.7508823 2.1933174 -1.6568973 0.16183592 4.402447 0.23952462 -2.0200267 -6.0284743 -0.88267803 2.5177774 -2.101484 -1.9594436 3.859817 -1.7202845 -1.271639 5.796217 0.966031 1.0980742 3.2814333 2.3750918 -4.5710545 0.35949668 7.984594 -2.6283078 2.5924184 -2.7524407 1.7723321 -6.896109 1.4286536 3.5127172 4.8868427 3.9135277 0.9322417 -1.0342443 -1.8606457 -4.0975423 -0.9646448 -4.109332 3.4088697
science 1.3075536 -1.9166694 0.9323298 -0.5521868 -0.62111497 2.160686 0.45549503 3.9356356 -0.51013255 0.7848323 -6.4192204 -2.7976992 -0.4599696 0.9891931 1.7413099 -0.939133 3.7371852 5.8842406 3.0569925 -5.7631936 -0.28707597 10.08599 2.7424364 0.40066808 -4.672602 2.4280567 -0.70703965 -1.188166 0.25959295 3.7695918 3.0681303 3.121417 -0.72353417 0.12770525 2.9750168 -2.9199812 5.8685217 3.5761006 -7.214192 -4.440626 -1.2214363 0.028080981 2.276492 8.216891 1.1226287 2.2388294 -3.2148895 -0.9179433 0.18545642 -2.754685
dawn 2.765063 -4.1259785 2.8811314 9.243953 1.676178 -7.0100026 -4.3344293 2.7435439 -3.204331 1.6245072 -0.4279515 4.4950504 -0.20921823 -5.785583 -2.1320665 2.3013215 -1.0067028 -2.958202 -2.294855 1.7752057 5.046069 -1.2309333 4.380801 -2.4494677 2.4769483 -0.39227945 2.0986183 0.59879595 -2.2921803 0.6133016 -4.6027107 -0.24317522 -2.1973274 7.5756426 -2.0750618 -0.5622132 -1.31186 -1.0180608 -1.9364856 -3.9611678 -1.8167783 -0.7458448 1.1927017 3.19343 2.1968296 5.0636926 -0.0764401 5.180047 1.7455189 -0.06061605
brother 5.107727 -0.23963101 -5.1727767 -1.057121 -0.19822976 4.072063 1.535221 -0.80260193 7.116445 -3.3518324 -3.9892032 1.7641231 -1.3861271 -3.0942857 3.0644274 -5.2815156 -2.5070283 1.6420126 5.5869756 -2.099216 -4.5849442 -0.17101762 -7.6234746 -7.720518 1.5482699 1.5802016 4.9425406 -1.01506 4.2373357 1.5619454 -0.12985292 2.8566346 -1.3611143 3.5952475 -0.18758556 3.473839 -2.637479 0.37120098 0.15066858 2.0062726 1.9470598 -1.0363201 -3.30664 -0.92637384 -9.4186654E-4 7.097017 1.5103889 1.7485992 -2.504888 1.0607998
wine -3.4681602 -3.1194503 3.4867065 2.5130882 1.038925 0.72346115 3.7238126 -2.892996 -3.4974387 -0.8228431 -0.1753478 -4.1614237 -0.12546389 4.4547396 -1.9089723 -0.31587562 5.3848357 2.8568475 -2.0984757 -2.2246838 -2.373848 8.95866 2.3257492 -2.9022915 -0.30387318 1.6799599 9.204819 4.6122074 4.220638 2.0054533 -3.908702 -4.1277018 -4.7169385 0.4167392 0.37871438 -0.28683197 -3.552239 1.3260337 -1.6840786 0.48001295 -0.39181063 -3.0769782 1.7751514 1.5664424 5.363225 0.08428352 1.8741388 6.060459 -1.9074833 -1.9096946
object -5.351585 0.7197039 1.6373708 -1.4884994 -2.7534733 -1.7697078 -0.08599281 3.6302245 3.2834585 -1.3364695 -2.5176706 -2.8971744 2.0731385 -2.1647682 2.2365987 4.60891 -7.4600906 0.58075595 1.7116225 1.1315418 3.739805 2.4540694 2.639273 2.6092167 4.2202377 4.772746 -3.229738 0.897593 -3.8819225 1.5926875 3.2393265 4.1478 -1.1476358 0.9136079 0.43865085 -4.0252657 -3.1919029 -1.8110385 2.935666 -0.8237593 3.0435765 1.6518639 -6.981823 1.2651969 2.232524 7.6151705 2.8446193 0.4006493 -1.870461 4.3109665
attitude -8.275955 1.8144556 3.1274884 -2.5638661 1.4723241 -2.841006 4.0852075 0.3836061 5.4349513 -2.9271593 -3.0450118 -3.018816 -3.547444 -8.385346 -3.3837771 -3.5833948 -3.1278162 0.5977188 -1.3481065 2.006218 -1.4090717 0.86754096 2.692486 0.6996605 -0.4974611 1.3442506 0.52379555 -2.4530628 -2.0624783 0.21004897 0.94631314 -1.7024801 -2.6576931 2.911574 2.1496046 -0.1701934 2.7723093 4.1655827 2.229873 6.49636 -3.2095494 7.4696054 -6.371174 0.34301215 2.7975538 1.9260654 2.87157 0.33897093 0.75403756 3.1242058
treatment -4.577097 4.7795415 -2.5717328 4.4527955 -2.2846794 4.0800734 3.9186041 6.4821177 2.1199327 2.4795544 6.6585393 -4.0565805 -4.557903 1.1702931 -2.8266256 -2.1423175 -1.8370979 2.411268 -6.0912595 1.5665649 0.6890659 -1.3021165 5.706379 3.598131 -2.3478413 -0.6333315 3.6389937 -2.7025814 -1.214355 -3.7394178 -0.6827314 3.6351764 5.149991 1.0662899 0.14095573 3.8671947 0.9944779 0.72253937 2.7525306 1.6483998 -1.0515178 -3.9487946 -0.67990613 -3.1678095 -6.6075263 4.2434373 5.530284 1.6621985 -5.2621903 3.05467
flight -5.2466974 -0.79985666 -0.61814094 5.728957 2.6905186 -3.8054318 -0.94005364 0.16597925 -0.056482352 0.09009242 2.712191 1.4598501 -5.795498 3.7756834 -3.731106 0.5992827 2.4360528 6.083597 3.8398416 -0.21526867 -1.9554938 1.1921299 1.1824763 -3.0163941 5.9942713 -0.61606425 -2.8095655 2.0133333 -3.5782664 -2.6482124 0.98110884 0.5665618 4.654261 1.1583172 -4.315781 -4.395836 7.937291 -1.1295308 -3.321603 -1.8382529 -1.3314135 2.978948 -4.330749 -1.5111307 -2.5377746 2.5997312 -0.4094627 10.549101 2.503322 2.315388
forest 0.6753588 2.6047852 0.69931483 4.483543 -2.8492067 0.8503831 -2.618458 0.91928285 2.016046 9.726322 1.162743 2.9973512 1.460351 0.40609413 0.3526066 0.8054488 2.7451985 7.363419 0.3360914 -2.3338892 1.1838515 -0.4077834 1.2365775 3.8055067 -1.5231318 -4.39173 2.9386628 -8.5861435 3.5301495 2.0298264 2.110161 1.033036 5.8026814 7.0533514 -0.3100255 1.2408205 -3.8402476 -2.01398 2.4090507 -2.420203 -3.132207 -2.6123405 0.48810342 7.4035764 -0.98378533 -4.43016 0.21139781 6.1276984 0.1531581 1.1519853
abuse 0.50580364 3.607747 -3.230278 9.453129 4.8639174 0.6701865 1.4661821 0.8979392 2.8735545 2.8710053 -4.32652 -2.7481759 3.2569382 -1.752054 0.4271673 1.1068642 4.6473875 0.060067832 -4.02925 2.1454012 -0.23417209 1.2529457 5.998861 -2.2641985 2.766866 5.850717 -3.2990334 -5.252803 -2.9219646 -2.3623042 1.9998521 1.0815119 0.5097872 3.2395988 0.73487395 -5.2299633 -3.1654058 -0.62688655 0.7629437 -2.0900476 2.937381 1.0719774 4.447001 -2.578329 -5.743706 4.4603 1.6280257 -3.0345821 0.3359635 -1.2707505
criterion -0.28776762 1.2787969 0.5182957 -0.31417865 0.6614895 -0.13939343 0.6081033 -0.45460206 1.3470328 0.68872476 -0.15747452 0.31430215 -0.42694488 0.18627937 -0.52418464 0.8769706 -0.09156691 0.43847778 -0.46577156 0.12169057 0.5180575 0.8541653 0.9683229 0.40796456 0.30978325 0.8934541 1.0474122 0.3080051 0.49469268 -1.1023624 -0.14357866 -0.12542057 0.24121709 -0.72941583 1.1198328 0.043324936 0.3655724 -1.2829427 -0.03918735 -0.16934358 1.3069168 -0.33742973 -0.16895853 0.3279972 0.46818405 0.83982545 -0.39736804 0.44008172 -0.033460673 -0.10445437
sea -0.9909756 -5.4901605 -1.6598463 -1.0387084 0.5357174 4.726029 0.21895508 3.4991612 -0.6787161 -0.82439125 3.5385368 2.7760262 3.823781 -0.4950566 4.5057316 2.448656 1.090561 3.9693205 -2.3308558 -3.7173715 8.731819 1.4629033 7.163669 2.3387492 2.4531379 5.252178 -2.6945193 1.9825189 3.407197 1.8931868 -5.766261 -6.149416 0.69508654 2.4948034 -0.1624735 -2.0699513 -2.6639028 -4.4134927 -3.1462588 -3.1187887 2.1447568 -5.538651 0.88649607 0.64641464 1.7665772 -1.1091214 -1.897434 3.1096537 0.77462345 2.242609
dollar 4.8414397 3.3143032 4.8811364 4.611204 2.014908 -1.6485693 -3.667793 3.6231446 3.9055593 5.0364184 0.46695048 4.185922 0.38574085 3.1003065 3.9371395 -0.8906953 -2.0601084 3.221921 3.847528 -4.400188 3.9709935 3.0030525 1.3644912 -2.925649 1.832925 -5.5942254 1.877513 -0.2430625 -0.5562083 0.5395779 -0.6666491 -2.342481 -1.7308677 0.8963329 4.6413946 -0.08679964 -1.4541842 -5.8761783 -4.187448 0.76107866 -0.15879881 -3.3081708 -6.0307345 -3.3069825 -2.158823 -2.6278093 -1.303122 5.0500827 2.18269 -3.7708945
example 1.4624923 -2.6157002 -4.3892345 -2.4486532 4.841569 -1.0200654 1.3088466 3.799038 -0.23845395 5.005853 -2.9027658 0.6821848 3.810438 3.8982482 -2.0488455 -0.6013968 -2.2020779 -6.0343275 -2.0608974 -3.6057875 3.0864553 3.316452 -3.986113 -3.6647475 -1.898187 5.0612955 4.3712916 -1.6637087 0.10380164 -2.1832333 1.5941586 7.7131176 3.040878 -2.795817 2.0704782 -6.3353734 -3.5189064 2.3793693 2.2209342 1.4980983 2.9992776 5.0645475 -1.1604632 1.3842432 0.16235124 -3.0764859 -4.456128 1.2516352 0.753245 -1.956908
journal 4.273442 -1.5110087 -2.6577134 0.28697693 -2.9578655 -3.041259 1.4036094 2.0931387 0.3753811 1.6795069 -4.968192 1.7435207 2.9483933 -1.9249094 1.0493143 3.7983942 -1.8654599 -2.1100993 1.0181841 -2.632826 2.2272625 3.4002075 4.94165 -0.7056986 0.40809712 2.4051366 -4.3508444 2.1679955 6.057417 1.7019457 -0.48418424 5.946301 1.1240333 -3.4924462 -0.55314976 0.34762558 1.8218318 -0.81183314 -3.7390296 2.342395 -0.3457092 2.1740682 2.5213218 7.443751 -6.20144 -2.2955675 2.4746969 1.042605 2.2724457 3.3383744
laundering -0.21807313 2.703653 -1.2408687 -0.26023492 -0.5980208 4.066425 -0.118613176 2.1513455 -0.12378421 0.3739931 1.9558717 -0.5807196 1.4496496 -1.1639993 0.8019657 -2.1806393 0.36285076 -0.6945812 0.6855142 -3.076976 -2.693033 1.0092667 -1.154742 -2.592962 -2.4721198 1.1701579 3.737744 -0.4848075 -0.44838792 1.6663071 0.0010623797 1.4356408 0.6521917 0.8064354 0.74440277 -1.8544484 0.10596787 1.2885786 0.6610412 3.7476976 -1.0653144 -0.5901467 1.0740367 -2.126926 -0.009439997 3.7758682 -3.2904205 0.9010725 0.40181026 -1.0547781
hotel -1.3117356 -3.5705945 3.022933 1.2348297 1.0442151 -4.22939 4.206058 -5.890499 -2.8662713 6.1259875 1.3386718 6.613716 4.681454 -2.2468803 -0.86509943 3.234572 1.6522309 -3.3355787 3.7583468 0.3866245 -5.489217 -0.1778923 1.3466941 1.2831445 0.54205644 5.1665354 -4.2111897 7.954538 1.608855 -3.4528978 8.740749 -2.4656973 -0.0090808105 -2.4422698 0.24612664 -0.5263266 0.71830976 -4.2874784 -0.22317608 -0.6724627 1.6417637 3.9724066 2.408119 -2.8212202 3.7886674 -3.7085965 -0.89282274 2.1594422 -3.3701282 -3.276553
term -1.2445463 8.4864025 0.43908373 1.0467088 -5.3708982 -0.80413073 -0.4301646 5.598382 9.439683 0.5201023 0.044265397 2.1329916 -1.1701347 3.9051657 -0.7034961 1.3895117 -0.578383 2.882882 -5.830157 -0.21751757 3.3806465 3.910388 -2.7490206 3.0792687 -1.8199487 -3.2201357 3.1614096 -4.5609403 1.6413791 -3.6484678 -0.6680642 3.728256 -4.462465 3.3188512 0.76672786 -3.5777256 3.3459377 2.6691701 -0.7441618 -1.4663564 0.60456264 1.2617371 -0.52213275 -6.341704 -3.6857495 0.470117 5.9974403 3.9978077 -2.6139858 -1.4249121
listing -1.4862416 2.796935 5.030403 1.9847631 -1.4081908 3.1756139 2.5255935 -2.1802747 1.3306092 7.809809 -2.9707184 4.6899056 1.7646604 1.9266686 1.706651 0.3383642 -3.907543 -0.8328545 2.0689688 3.3576772 -1.0821621 0.4516449 -2.4528756 -0.028925372 4.5338798 -4.1343474 2.4020793 0.2466717 -2.3619082 -5.728643 5.1534786 -0.4464263 3.0982144 -4.0688214 4.783512 2.4156501 0.6929467 -4.0494647 -0.07487241 5.8727813 4.8176904 -1.7326202 3.9772613 -1.4022048 -1.0279164 -5.5266314 0.9023161 -1.407059 -0.4110285 -2.1993551
chemistry 0.2892679 -1.2875961 -1.2423888 -3.721915 -2.8935652 3.7335413 1.6387848 0.999628 -0.23165847 3.9748352 2.259688 0.51750606 -3.352243 -0.3816592 -2.1246233 2.2593133 1.3682472 3.6817658 0.07536556 3.1681662 -2.7568576 5.300161 5.371567 3.8172083 1.3620511 3.470155 0.81376684 -1.0521181 3.422854 3.233205 3.8188004 5.5616384 0.38879257 -1.9514234 2.6898985 2.2327309 -2.3200114 2.8136475 -1.8173908 -2.6138601 -0.8964975 3.482868 2.67 2.1280427 0.36441618 -0.4378565 3.0902193 -0.3810628 -2.9237952 0.8392611
seafood -2.7904565 -1.5129652 3.9612727 -1.1967194 0.7940133 0.053923324 4.8934298 2.1040857 -0.46182805 4.192608 3.7226663 3.3960576 -1.6905555 0.70536566 -0.3493944 -0.05354022 1.4468977 3.7766857 -0.18242073 -1.6728784 0.01838706 2.157736 1.3962377 -0.16287217 1.9815525 -1.8130835 -0.37102678 2.115226 0.6375766 -0.07072175 0.39785165 0.28988367 1.0900577 -1.7193255 1.8928614 2.5483303 -7.2993865 -2.6195798 0.5461561 1.568828 0.7294755 -1.0986736 -0.8140847 2.329123 1.5844316 -0.57594687 -0.17673758 1.7018479 1.9195803 -2.5990372
mind 1.7765448 -2.0858562 -0.19084759 0.6760191 -5.2162747 -0.7973437 1.0683196 -0.39776677 1.0798159 -3.0266223 0.7398606 1.0006851 1.0375538 -0.9189942 -0.68167317 6.5054703 3.4366488 -0.29950988 1.8294669 -1.9444151 1.2877027 7.2629976 -4.8145156 -0.6100651 6.6040025 -5.1858473 -0.21451189 3.261615 -1.4838486 2.080485 -0.31216154 5.1456575 -1.7256066 9.049679 0.35919532 -1.2674038 -0.48625305 -0.1092865 0.8691339 2.6598246 -1.1519232 4.447594 2.7496386 -0.30742413 4.3672256 -1.2135445 1.1892047 -5.7895317 -3.5299275 8.259544
sex 4.6982727 5.9219894 -1.0836338 7.672832 -2.5364106 2.6744099 3.5377376 1.9510648 4.0383453 1.8871884 4.656573 0.65854335 0.81359476 -2.1533535 -3.802093 -2.6136372 -3.3630247 -2.6298804 1.849454 -1.6774837 -2.3835275 3.6674275 -0.5443054 -5.238633 0.99260587 3.0171363 1.3551147 -4.663691 -4.262898 4.257579 9.071543 -3.0400012 1.3496307 2.8773453 -2.2720551 -1.3514388 -1.6210874 3.75957 -4.011604 -0.53334445 0.91701394 3.0589662 0.5179366 -1.6354208 0.5670377 -0.1153764 0.5256483 -1.4480537 -5.6759605 -2.5358016
food -0.92905766 3.0878382 3.580187 3.5431082 4.3513417 1.7473855 8.422758 2.2509773 -6.801899 6.431963 -0.47377002 1.8751782 2.6238682 -1.4525915 -0.85886896 -3.0505292 3.6712976 0.9773272 0.7978402 -0.53101355 2.1268663 6.180672 8.143962 -0.82280844 -0.0715037 -2.9095247 -2.6532004 1.3508639 -5.940845 -0.38365507 0.35755703 2.3593159 0.33770025 -1.7028161 0.37741438 -1.0544479 -4.956159 -0.73061347 -7.4001317 1.0746667 -1.5803281 -0.84327364 -2.0301745 -4.735262 2.525397 2.1395562 -0.60757786 0.7600193 -2.1337712 -0.43750414
precedent -1.0132024 -2.6135976 -0.6564294 -2.6268678 0.5444473 4.128168 1.4491932 0.26388654 1.5477643 -3.3926864 0.5422427 -0.31279314 2.198813 0.9793199 2.3472037 -0.28718302 -1.4238476 0.1394134 -3.8993685 -2.4036367 2.7928576 2.1852558 -4.9370823 3.1643775 1.6597556 0.48445565 -0.38435942 0.45942575 0.028807852 -1.5392916 3.1052203 1.6258821 -1.0593388 -0.74391055 5.828693 -2.5874765 2.9021332 1.136016 -1.1584984 1.3809111 0.6190413 0.23903471 4.2379003 -1.6357085 2.6029732 0.39333332 -4.057177 -4.4855223 -4.442978 1.3207331
series 1.5319792 -2.675643 -3.4619653 7.8649006 1.0275195 -0.5096565 0.004093674 -3.995047 -2.830738 0.34181452 4.384315 0.35628906 -2.0028033 -3.9546182 -2.394844 -0.75237477 -0.64963204 3.7365282 2.3309379 -1.3936298 6.4087706 4.3651605 -3.0362105 2.1248696 4.865089 2.0235147 8.072254 1.3530663 2.9541357 1.7656769 -0.72911114 -4.979392 1.6370633 1.1014913 0.33481514 -3.3954937 3.301938 3.411887 -5.833839 -0.6850448 3.2216392 -2.286777 5.0094547 1.9374532 -3.7663767 -2.558357 -1.3280449 -6.3540797 -0.44196168 -2.2523851
kilometer 0.6700611 0.19523431 0.84817374 -0.60041386 -0.66276145 0.49241653 -0.54240435 -0.4253251 -0.50869924 1.2861556 1.5907217 0.8357512 -0.9078597 -0.39869127 0.43168283 0.51800483 1.0330064 0.40822667 0.49813834 0.15330864 0.641693 0.12295403 0.60900104 -0.11929112 0.117334 1.5864109 0.18698601 0.4126533 0.86653596 0.31517497 -0.51654404 -0.21633983 -0.16773732 0.9389524 0.66910636 -0.33249083 -0.12473133 -0.5322178 -0.2262434 -0.42353818 0.05290272 -1.6354584 -0.98517877 -0.16885203 1.3674507 -0.47271088 0.8439039 1.80994 0.31555408 1.0144999
grocery -0.8086512 0.13427395 4.18579 2.6819696 2.2960603 -0.84969294 1.9179206 0.48183456 -1.3077824 -0.16207221 -0.1547341 -0.039329734 2.8765302 0.88970095 -0.34376338 2.3084478 0.045481473 -2.0198874 -0.79757947 0.9272663 0.36981723 0.8276236 0.57967967 -2.2788067 2.1785502 -4.6860847 -1.084804 3.319542 0.577481 0.97183233 3.3562288 2.0790572 -1.8983253 -2.652211 -3.1564136 1.9609796 -0.9662998 -1.2097653 3.364787 0.22324052 -1.7438276 1.1083404 -2.6674922 -3.227577 1.6553144 0.34473357 1.8117598 1.1698561 2.8882616 -0.6539939
wizard -0.2391418 0.18261524 -0.61214185 3.1264808 0.035124376 0.5808839 0.62825733 3.1263118 4.001224 1.0877109 -1.2402439 0.12443015 -2.6377296 0.62438893 -0.039133858 0.11388295 0.61341655 3.1611931 -0.28956053 -0.544448 -1.1812546 3.1302621 -0.5223518 -3.2795217 0.22768092 1.5082879 2.2901156 0.72967225 2.1474025 0.683784 -0.43392682 2.3709111 -0.34253237 1.3221211 -1.8125061 0.7481749 0.8385947 -0.81904006 -0.118315525 -0.5244509 1.0043795 -0.05338388 -0.20617397 0.862114 1.4524305 0.48010778 1.2436256 -0.3175782 0.5065781 0.63396657
information -0.8629882 -0.19783282 -4.2917166 -3.3052595 -1.8652921 1.7085317 4.923369 -1.6028987 -1.7022591 -2.3087473 0.8862683 -1.0446432 0.12775108 -0.49653012 3.3568397 2.8082194 -1.13428 1.3934404 1.1895722 -2.1315956 -4.0297813 4.6492968 2.359405 -6.7872453 -4.753888 5.451443 -0.4590089 7.4962487 -4.2528358 1.3750907 1.7345624 3.6717384 5.256204 -3.7730749 3.103681 0.20000492 1.7206637 -2.4832587 -2.202372 1.4251304 1.8647877 1.9313021 1.3996961 -1.5784315 -3.940972 5.580371 -1.2160238 -1.5054493 7.6164618 1.2258979
brandy -0.3453387 -0.8634328 1.0890805 1.1191028 -0.16775854 0.3004631 0.8021432 1.1972011 -1.06611 0.29939798 0.38622704 1.5446382 -0.4110297 0.8323572 -0.3833089 -3.892486E-5 1.8973773 -0.82712996 0.040001757 0.559112 -0.9360389 0.5640447 0.7412533 -1.1953151 0.67018646 0.004680594 -0.3090735 1.4616358 0.8561046 0.18711895 -0.68393636 1.4242706 1.1629096 0.5934209 1.4912313 0.9224704 -1.128184 0.04079571 0.88479334 -0.02311939 0.12729447 -0.5237049 0.09963485 0.254733 0.79052144 -0.051420413 0.11574798 1.1915864 -0.42365658 0.34987062
interview 0.6131554 0.39768434 -3.6532562 -0.5471397 -0.10306478 -6.946324 1.838892 4.108626 -0.018612567 2.0725102 2.5919635 -3.0490413 -4.516792 -1.253881 -1.7948917 1.2143576 -3.7777107 -1.5693872 -2.703871 4.2688584 -2.214065 -0.73051494 -0.32823983 -3.8676631 -0.254009 0.9208484 -1.7388158 7.5795608 2.265448 1.3440796 -2.3254266 6.5400686 -1.0436823 -1.1982262 1.3427157 0.46674722 8.722156 -0.49502137 0.13152604 1.3860097 2.018905 8.925406 0.08322148 2.6012218 -3.2366574 -2.221415 1.7828032 -1.4111546 0.7675701 -2.273564
prominence -1.5290691 1.1215942 -2.2740285 1.8006256 2.7293062 -0.3626203 -0.5568673 0.08512891 -0.27734935 1.5520276 -3.8160481 -2.7462082 -1.7934113 0.8465018 2.6045089 2.3362699 -0.57376236 2.3717544 -0.6718202 1.3770312 1.1451007 1.7924201 -2.0613189 3.3280401 1.6821038 1.3639264 1.4553981 1.1383777 0.19621871 0.006321366 -1.2447133 -0.17504321 -0.98571575 0.8593092 -2.255363 -1.9715081 -0.015561619 0.5974311 1.5121318 2.1657145 -3.2019846 1.2202593 -2.2869856 0.5469884 -2.908935 0.027444482 1.9019282 -3.0500634 -2.4284327 -1.0212009
bed 3.976055 1.0902059 0.41732374 0.8568856 -7.876701 6.033754 -2.0440428 3.5616195 2.7997506 4.2106113 0.9056015 4.253093 0.43249395 -0.28368893 -3.8392553 -3.7881134 0.01630261 6.6181335 -0.52013564 -0.13148303 -3.8349853 2.1364493 -0.29830852 -2.9154925 -0.15707508 2.3847878 -4.870793 2.9841383 -1.370811 -1.5531318 0.18971086 2.3410225 0.29172426 1.3853422 2.1116085 -0.70895344 0.30778718 3.5935545 2.8438687 -0.34371853 -4.6026783 0.15121108 2.779913 2.90979 5.432811 7.0563974 2.3437095 0.20065334 -0.9055539 3.793256
furnace -1.1519477 -1.3960606 1.6486353 0.4951677 -0.42302284 0.26625046 -0.0501668 0.4967507 -0.68535846 0.8106932 1.2029623 0.6277937 0.9793234 -0.2252813 0.8425692 0.23588479 -0.46854258 0.5741649 0.85761887 0.54247856 0.85213584 0.5507768 1.2155366 -0.7465828 0.82689846 0.076093085 -0.02439671 0.6289863 -0.09939082 -0.9226681 0.39865074 0.22429962 -0.13805564 0.822302 -0.79153377 -1.3497856 -0.81012744 -0.27089655 0.17511189 1.0595514 0.2037901 -0.5019387 1.0767398 1.0176021 1.122076 -0.6466407 0.32915434 1.9087893 -0.33120194 0.44368884
evidence -3.0220954 -5.013732 -0.88142097 9.432027 -2.5977368 -1.273374 -0.47751817 1.9108584 1.6324563 2.393627 -3.7365086 -2.6629457 -0.9907082 -1.0216372 3.7725673 0.9980404 -0.4873705 1.4028636 -1.0750026 0.8834542 3.4823577 -0.124187715 4.002567 4.2982926 -1.9925579 2.8457174 1.10946 1.0676806 -6.166751 2.9844158 1.9585006 6.3183947 -1.1676574 -0.6523816 2.4059975 -2.1171966 0.98207605 1.7443728 3.1230314 -1.7695603 -0.13143551 0.8907145 1.4807212 -0.6462142 -4.245513 8.745681 -6.018635 -0.61969954 2.3172512 -4.1116056
sprint 1.173625 -5.8927927 3.8566287 -3.4098034 8.152535 -0.11359357 1.1418519 -4.2168074 -2.8481393 0.123643994 1.4003628 -0.5828776 -4.896502 0.2818127 -1.7635124 0.39085156 1.5281522 1.251002 0.39402524 0.5645958 -1.9277687 2.8989642 -1.8516397 4.7895455 4.7248607 -6.1723595 1.2004663 4.761206 1.0522249 0.8367544 -1.2490255 2.343565 -3.7026327 -0.25978342 -0.81853396 -1.63118 3.564005 1.383525 -3.3820765 4.9296384 3.3821306 -3.9391148 -4.279587 0.28088796 1.3980354 -6.247141 0.35572058 -1.8271052 3.6249437 3.3597684
emergency -6.336598 1.6512357 3.8684366 0.84924656 -4.2468414 0.6393847 -4.643188 2.2739854 -5.611067 1.0422843 5.378732 0.4843636 6.8193383 -1.3808551 0.2774427 -1.836968 -1.0473267 -3.69043 -2.8280096 0.2978079 5.0423026 -3.0042806 2.5175474 1.3684993 -4.0790253 2.1507008 1.0465884 0.028285569 -3.3371017 -1.4412497 2.0675743 0.7848038 3.8330336 1.798064 -2.6615586 -5.8084254 2.7654643 4.522079 -3.3354683 -2.6989584 1.276128 5.410616 4.5370975 -1.5898044 -5.6903286 4.6040316 4.6288505 5.43044 0.31937093 1.3652121
institution 2.18177 6.3060884 -2.1288364 -8.737541 1.8295268 -2.7777383 1.9123049 -1.7520359 0.35801542 0.3907597 2.85148 -2.2756424 2.734418 -2.0948946 -6.6918926 7.5000005 -4.5161395 -0.7366515 -0.71006495 -0.34000933 1.5044161 5.1289406 -1.5554999 3.2805676 -4.012366 2.739773 -4.6260133 -1.6646512 -0.6541886 -5.4362698 7.2672033 2.6327302 -4.6410775 -2.2735212 -3.791756 -1.745347 -0.13317089 0.44039035 -2.0164847 0.05957103 2.1739366 2.7721002 -2.5374615 6.0094094 -1.5721563 6.6785927 -0.093270816 3.3980322 -4.146553 0.046448603
bird -1.0367303 -4.1149592 -2.128263 2.072197 5.4740744 -1.669663 3.767979 1.2430921 -0.30174 1.7902663 2.3850508 -0.77479434 -4.207471 -2.002313 -1.421399 0.02304046 2.4434304 8.215749 3.354016 -2.6474383 -1.7570137 3.0482376 7.041469 -0.3708674 7.3695602 0.17339922 -3.9807565 -0.025205148 3.983493 -0.4366808 1.015281 2.577632 -1.1312618 3.9409292 0.4340961 -0.81804496 0.86269295 0.11248227 -1.1070383 -6.802133 0.15620771 1.9920287 -5.204757 0.7495294 -2.3802638 1.5084202 0.98990643 3.778632 4.0734973 5.483394
warning -3.5980492 -2.1581757 3.877875 3.1672027 1.5928053 -3.8392425 3.4759164 2.9071462 -3.4471433 -2.0518754 1.0555706 0.012900779 -0.7982227 -1.1932964 10.108589 -2.599476 -3.4245565 2.1385357 -4.062483 1.8424902 7.262698 -3.3586369 8.089714 -1.9975941 2.730757 -0.48276532 0.23220609 0.40952605 0.11711107 -3.9441738 -3.0110636 0.2417144 1.2967422 -3.221548 4.5805593 -2.96342 1.6435206 2.0328972 -0.4208784 -6.1218395 6.0120587 5.3044972 0.8255 -1.0441562 -2.057996 5.115622 -2.0874722 2.9430258 2.5058205 2.6246138
implement -0.4268471 3.7311962 -1.0371675 -1.2286444 4.2153196 -2.9690952 -3.223568 3.3499985 -1.4331703 -4.820302 4.1872554 2.4553912 0.48071617 0.9877033 -0.9147569 0.73010015 -0.26967382 4.262758 -1.9742838 1.3489436 1.8232151 3.9829776 -0.53114533 6.7764635 -0.0797363 -2.0351834 3.609917 -5.1167374 0.91417336 0.113403164 1.9187014 -4.211037 3.025223 -0.95244926 3.8050144 -3.8437028 -1.2068372 -2.051761 -0.36984384 2.2687054 1.3104591 1.2859486 0.412564 3.240009 0.7658086 1.7213985 4.3087826 -2.6160572 -3.055847 -0.21706913
train 2.595145 3.3008492 -1.079568 2.9249449 6.828189 -2.2498207 2.1865022 -7.0395155 -1.956554 6.632335 2.98782 3.0065253 2.5032978 -0.42627776 -5.0328965 -7.123034 2.3307683 5.4907546 -4.553107 1.963383 -1.4001611 -1.2373967 4.4554243 2.718189 4.8292637 1.089467 -1.3216611 1.745505 -4.5927963 2.212944 3.0944524 -3.1515257 0.94211334 2.7378945 -0.19042395 -4.14511 -3.4613886 -6.164014 -0.110181995 0.94239485 -0.24804702 -2.7910514 2.9199948 2.9750419 4.833746 -3.072959 -0.1763617 0.3666347 -1.3038609 2.8939164
area -0.26456186 -1.1691519 2.7118301 -0.3629388 -5.257011 -1.2637154 -0.7464806 1.6819694 -2.4571826 9.425397 2.2141092 2.2660127 0.49640644 -5.7285357 -1.7614133 2.987124 1.3867337 2.6837242 -2.6949215 -5.7026453 1.9690132 -1.7636915 4.4831924 5.0154595 -3.6813483 4.0556173 -2.9507306 3.0622864 0.23618639 2.1471877 10.176409 3.1127625 -0.18842249 2.5920434 -4.9918833 -3.7928836 -0.52634925 3.4923382 -2.8709896 -2.657266 4.69994 1.5286235 -1.4645094 -2.9063916 -2.3889937 -1.9118054 -4.3387384 3.104351 6.5238166 -2.8566825
image -7.3114038 1.1159189 -0.9935679 -0.6052831 0.38995743 -5.2790394 -1.0573652 4.505712 6.7916903 0.45758373 -1.3950156 2.945568 -1.4763123 -8.253331 3.909764 7.1369853 -10.398237 3.535699 2.3094993 -2.3834703 -0.9114769 2.9952211 1.3197707 -2.6037545 5.3207274E-4 -2.4091887 0.54647624 2.7072575 -0.12828009 0.8336099 -1.8131491 2.0655048 3.112552 4.8062973 -0.7958027 3.1404784 -1.8334211 1.788792 1.7028568 3.242743 -1.5991018 4.8764434 -5.717917 0.3875612 -3.0058458 -0.46035945 2.9726276 4.616614 0.6252249 1.8401554
murder 6.1166267 -0.7923803 -8.145783 -1.5571935 -2.014169 -0.36857808 3.3064141 2.078461 2.587233 4.9134626 -3.7679887 -1.3926035 0.17881986 1.754926 2.5818534 0.82601506 1.4164494 -1.0620999 -3.4620848 2.8019729 -1.3754474 -2.1443405 1.2624553 1.0202309 4.47496 1.2750694 -3.2020714 4.115941 0.58978736 -7.019752 2.3758833 0.73212725 2.0309339 4.9708266 -0.0135121 0.40530908 2.5173502 0.8881521 -4.33766 -1.7433451 0.4101088 -0.060281027 8.632752 -5.486443 -0.22555014 -0.45584145 -0.05250371 -3.3561168 -3.213432 3.0457606
journey -0.9364975 3.914074 2.8346493 0.44891053 -3.0345776 -7.184497 1.2472408 -3.84839 -1.4288892 3.1852632 3.8255806 -0.01334334 -7.5480185 -0.67668265 -4.5484815 -4.1948137 -0.6631005 4.409192 0.75237095 -3.3982477 -1.2345045 -1.3592763 1.8319105 1.8909466 2.8747723 2.4272225 1.142219 0.080005966 -0.8565579 -5.8026752 -1.0485184 -6.2781835 1.9490703 4.1866536 0.20845443 2.4657276 -0.24988446 4.418994 -2.5479074 -2.8061097 -0.8440226 6.455821 -5.193106 1.5444232 2.914637 0.5374087 5.982505 2.6389716 1.7671356 6.136927
minister -1.6878452 1.7878184 0.26144585 -2.5041137 1.9330534 -1.6871071 2.617725 -0.059884846 -0.5956016 -1.2623842 -6.106416 0.36448935 5.0833936 1.4798672 5.240273 1.1667314 -5.983345 0.46805575 -3.1431782 -0.20857851 -1.1221602 -4.2686367 2.167166 -0.7499093 -4.834626 -3.8504329 0.3368198 5.8823504 2.9826322 1.6822884 -1.6658342 0.8294823 1.44147 8.986294 0.512753 2.8867383 -2.3752232 -2.3361652 -2.5803065 2.4044213 3.0744061 3.5606418 3.6987395 1.7868422 -2.305135 3.1209028 -1.006661 3.9954531 -1.6526918 3.2548585
planet -1.9999796 -0.5700733 0.6147576 -0.9857979 1.3265918 2.596979 -0.42172274 -2.829074 4.630237 4.4646134 4.9020023 3.4421535 -4.4761868 1.1809713 -1.1348187 -0.32309565 1.7176282 7.603981 4.8479815 -5.997482 -0.8543737 5.755231 5.5240026 4.199811 4.1688538 2.597366 1.4785794 2.8379574 -2.6481326 0.43380168 -1.326062 -0.7237937 -1.81313 3.7047522 1.4156175 1.6410682 0.52935964 -2.8480854 -7.1148496 -0.6194214 -1.3316072 -2.3118489 -0.68652123 -2.8015397 -2.3471198 -1.0900835 -3.1484194 4.049784 -1.6273366 -0.4069918
article 0.28349403 6.116155 3.5094278 0.9926946 -5.312251 -1.2846247 3.457281 -2.9821641 -1.0281901 5.0638585 -1.4811972 -5.022068 2.4056122 0.1672108 2.8555353 5.617031 -2.6855078 -1.6344874 -2.5236702 5.4636497 3.5680597 6.254855 -1.1464266 -3.1570857 0.79838425 6.3176427 -0.010573423 0.27980912 -2.5331416 -2.094051 -0.32879975 -0.52364856 1.4403241 -2.9106147 2.4298651 4.116372 -0.88641083 0.16421272 -4.30238 -1.546682 2.739192 4.285086 6.3706703 1.3371524 -0.66890144 -5.0585613 -3.9968104 -1.0727048 -0.14090168 0.3519979
anxiety 3.6463275 0.97893786 -1.5541222 2.719448 0.2539318 -8.775006 6.002114 -2.4919903 2.3761656 1.325125 0.9082446 -3.0263112 1.516394 -5.803302 0.059948545 -2.0809176 0.6205396 -0.8128791 0.42443 0.0072225463 0.49120867 4.5222654 4.846519 -0.7359241 -0.9395463 1.8921599 -0.8661586 -2.5718114 -5.2722282 -1.3500077 3.6748884 -1.8369431 5.0788293 1.9060415 1.2443352 1.8655511 -0.88977396 6.2716074 1.1597801 -0.23343492 -5.9579597 0.6641759 -1.8581626 0.7225854 -3.369803 -2.5873895 -1.5498695 -1.0297297 -2.1398182 0.14228553
month -1.7165326 4.1058598 -1.0694654 -2.2120488 4.573275 -5.671527 0.4865941 -0.025210012 -4.4173303 5.0336843 3.0954294 0.056731444 1.3096836 3.7382221 2.4493296 1.162253 3.0590134 0.6216184 -3.0085738 4.2705674 0.65117466 0.15249091 -3.6687818 -0.9398172 1.7198516 -1.2810804 -8.688719 3.2192144 0.70586073 -2.5114167 -0.104791515 3.9555006 1.4375048 1.1397208 7.598194 -4.3939037 2.4710276 -4.3671045 -5.0487256 -4.612614 -1.650787 -0.6273393 -3.337207 1.4222137 -6.5021353 -0.0044739516 1.9498947 5.415464 4.4782395 0.30946976
carnivore -0.47206694 -0.31206226 0.22460255 0.022851773 -0.31976253 -0.21097247 -0.24947734 0.11335271 0.26561755 0.08090352 -0.12995915 0.13086762 0.21661621 0.24407336 0.15498853 -0.1292085 -0.10310816 0.11935355 -0.17029569 -0.12840295 0.012227017 0.23556235 -0.086428635 0.18861721 -0.06835671 0.06330859 -0.18452278 -0.19697858 -0.19693965 0.119359285 -0.20957999 -0.2108761 -0.13715231 0.2857982 -0.24123706 0.1838323 -0.26179475 0.15151893 0.15096438 -0.04575839 -0.16351552 0.04297768 -0.06986477 -0.03103606 -0.057367373 -0.12720194 0.31272578 -0.15548363 0.2929362 0.024913216
party -4.378075 3.294444 3.0050435 -3.9018557 2.3461123 5.296249 0.055307217 3.2104657 0.1174859 0.07304484 -2.339174 0.750811 0.025959909 -2.5643349 3.6301932 0.8598798 -5.8699656 -3.3651433 -3.1619825 -0.8377838 3.8166857 -2.4289942 -1.5551808 0.28702417 1.198035 -5.4997287 -4.892447 1.6305759 5.136024 -2.2025747 -3.104914 -2.6950874 -4.754594 1.5541499 1.1343573 1.7776244 0.88060856 0.33549148 -4.2262278 -2.5322447 -2.2891326 1.2731563 -8.287197 4.153964 3.9504685 7.8096757 1.132557 0.23675442 -5.1191735 -0.08657118
production -2.3749459 -2.9865184 4.38966 3.0909219 2.7372851 1.1050047 2.296198 -6.2146726 -8.038499 -0.54037696 -4.8469377 -3.908244 -4.0421453 -2.4203086 -1.0573903 0.38861325 3.5940218 5.6082206 -5.204686 -1.4814099 -0.42817637 3.4772365 0.44144014 3.1933033 0.5868846 -0.26727676 5.8336835 1.9850676 0.9038816 -6.740833 1.290417 3.5625184 1.6116906 1.7704548 2.6934533 -4.8391733 -1.4731315 5.1569185 2.3334696 2.8072863 1.266325 -2.5234416 3.566589 0.28388155 4.999744 0.17060888 5.9243226 1.2670805 5.4182296 2.5744865
importance 0.8647212 -3.7261863 -4.0385427 2.0505052 -2.6166623 -3.5859933 1.9110404 5.4012613 2.759207 -1.3828899 -1.692271 -2.4393153 -7.3573856 -0.5801212 2.1569355 7.28245 2.8421333 1.72006 -3.044547 -2.5063052 -0.30220595 0.7165717 1.7414736 0.7948766 -5.6937313 -3.7408185 2.8927617 -1.4385244 -2.9615514 2.04554 -1.0742506 -2.0624437 -2.4870079 -1.1176226 3.8148165 6.6607876 -0.16146527 0.49732304 -2.3743722 0.3537319 -2.9420621 4.965734 -1.2542202 1.7577873 0.47189003 5.0462484 2.4175785 -3.970131 1.1345707 0.7503772
inmate 1.2783707 3.6201904 -1.7442756 1.4160421 -2.4627166 2.5450988 -3.81313 4.2597575 1.0059167 3.0974677 0.38693485 -0.50916946 3.2497716 -0.3431174 1.6500583 1.9643316 0.28311908 3.8770957 -1.5881404 2.3709502 -2.6151052 -1.397219 2.1190171 1.1321512 3.357919 0.96276563 -0.034097925 -2.1985948 1.5210751 -2.3057923 0.29844517 1.7416981 0.9921868 0.54387677 -2.8299508 1.0567163 4.674701 0.8638045 1.9349593 -0.51452404 0.7281983 -1.6231971 -1.7132906 -1.8194319 -0.51727366 2.7486045 -0.59813553 4.624861 -2.7971768 0.15555918
psychology -0.558487 0.53411525 -0.21310513 0.24650487 -2.0322978 -3.4181943 5.331336 4.168853 -0.07622387 1.3503662 -1.6569287 -0.6982959 2.6289756 0.8149529 -3.3722458 4.762192 1.0849382 2.2506535 3.9157612 0.45099604 0.5950928 7.5920663 2.3230913 0.19619697 -1.0526565 0.87658453 -2.1470404 -1.4589694 -1.2572767 1.7765114 2.233812 3.4650643 0.9314137 -1.0790704 2.1662412 2.3477035 -1.1710178 1.823155 2.1322756 -0.21486454 1.3371234 2.9370184 0.10635198 2.948947 0.50920105 0.042372815 -1.5726602 -0.9767037 0.5743091 -0.6126056
medal 0.0063054482 1.8337642 -1.8051989 -0.36959243 -0.94993025 2.760362 -1.5231322 0.9098301 0.94723046 2.7506986 0.8471613 -2.3332064 -6.942732 -6.9936 2.8485227 -1.6904181 -1.8313073 1.4690955 -2.6503031 -0.11492296 -1.5365398 1.1804165 -2.7383494 7.2634983 -2.8342376 -2.0104115 4.084727 4.157117 2.733937 -3.1892462 1.1501029 0.36251667 -1.4901791 1.6133618 -2.0963757 3.1388361 6.344496 1.5745443 -1.8859241 -1.2079326 4.2855177 -1.0957693 0.69199854 -0.27365702 1.1507077 -3.3087466 0.5913658 -1.3682501 0.09087376 2.4253254
company -0.4725144 0.4582394 5.726771 -2.1907935 0.7989982 -3.6054208 4.2662706 -1.5684264 0.6144832 -3.8416831 -0.36793023 -2.7066188 1.878484 3.0090852 -3.2599092 -0.83973783 -1.857404 5.6587453 4.257551 -0.7724535 -7.248704 5.778892 -1.648246 -2.4397502 -0.23713478 -3.4647715 1.6840326 5.4639626 3.8429046 -2.525805 7.983868 5.220892 -2.327753 -1.3567568 0.9929878 -2.310686 2.399427 -2.9032314 0.27404946 6.186378 2.5986722 -1.9921154 -3.3087108 -2.7286065 -1.2752697 5.8250017 7.393428 2.2957847 0.6851327 1.4584657
live -0.6211349 0.76991606 -3.2666888 -4.4305654 -1.6432682 3.23294 -0.6908965 -1.6919274 3.5352697 3.6140852 3.2851272 3.320474 -3.7746587 -0.58412623 -4.9740486 -1.0259298 1.4800816 -1.1280468 0.75638545 3.3815107 -2.3729339 -1.0738537 -1.438281 0.69836247 7.4452515 -2.40196 2.855891 4.1479945 -2.9303892 5.444322 -0.9888278 3.108703 1.8727177 7.260103 -3.1889355 4.448319 -3.1589987 -4.630523 -4.2325954 0.42010808 5.991616 2.5576396 0.6038766 1.1305093 3.8671286 -7.8606024 6.470992 2.8534164 3.2027156 -3.2572072
holy -4.9072175 3.795032 3.0229957 -3.5458348 0.10958533 -0.022530513 0.32881588 1.1329876 1.0936453 4.1602345 0.96367586 1.6187915 0.70104784 -1.4925851 -2.0033162 -0.81623876 4.0666428 0.13969807 -2.9862392 2.556437 0.7752527 0.8857407 -2.5714006 -5.4592223 1.9500762 5.2476306 2.9165146 -1.9338336 -2.7593522 -0.5202109 2.3182173 -1.3127136 2.0184119 8.01053 -2.6729422 -3.1984441 2.6636252 -2.2120733 -4.371282 -5.850456 -0.069434986 3.3642254 3.8029993 3.3307555 0.50223565 -1.0569336 0.86027706 -1.8880043 0.36430857 6.1052046
ticket -0.49806514 0.63818836 7.185725 0.5341494 0.8977554 -2.9089015 -2.4947488 -2.5580397 5.2114654 3.0414178 0.14624082 8.474512 3.5198977 -3.572065 3.9158816 5.8995433 -2.2608142 -1.8916091 -1.6541196 -1.2573086 -3.0251946 1.0215329 -4.8047776 0.6065831 1.5097541 -2.8205764 -4.7479625 6.6783304 -0.6274791 0.43156508 -1.3214194 -1.1768525 2.8347063 -3.420463 4.314187 -1.8230766 2.9455354 -3.0732627 -2.7754185 0.478143 3.1632857 1.9840863 -4.2401786 -1.3183467 1.5357168 -6.6730304 -1.1334125 -1.5615766 -0.53744787 -2.236354
victory 3.3801172 -2.9145286 -3.311033 -1.0665094 -0.95508987 -4.1086426 1.5484829 0.46745962 4.348556 0.1497379 3.8883228 0.5253434 -2.3249803 -3.3115935 5.7004414 0.564207 -0.98940593 -0.8217169 -5.0323615 4.3052835 5.3377314 -2.0129774 -6.504264 -0.056714654 -5.7236547 4.9334936 3.2255468 -0.54625833 2.9616168 -4.743675 -2.0841823 -6.243203 -4.445114 3.5999694 -0.10897009 -1.321186 4.830345 4.2256727 -3.4351816 0.36284283 4.5879526 -0.892283 -5.5635457 2.2903242 -1.3368405 -2.1243289 -0.47177583 1.0404643 -3.3391333 0.88679796
football -4.563889 -6.897333 -4.584494 -1.6646087 5.3345566 2.9201443 5.970371 -0.33364147 3.2745423 0.07169502 -0.744718 -2.6796906 -4.9307003 -7.8513665 -4.113758 -1.3564515 1.9067156 5.895189 -5.1890206 0.3451415 -0.9288217 -1.9256235 0.14231473 -2.2808688 -0.8140409 1.2194704 -0.6438225 -1.3490978 1.4567174 -1.74138 4.2309227 -3.6860836 -0.88868827 4.248533 4.2584944 -1.1621517 3.8525238 1.605775 -1.4524899 -5.1797824 2.8892717 1.83462 -1.4396349 2.4119036 -5.160044 3.9410243 0.36484537 3.812547 3.1904237 1.0029737
seepage 0.37742555 0.23246276 0.2825732 0.01694956 0.38720652 0.0019274459 0.13208397 0.11572367 0.1397149 0.41568786 0.29154152 -0.08739724 0.12739262 0.042550065 0.31006333 0.21169394 0.18427503 -0.19719517 0.07132547 -0.18521358 0.285788 0.019709645 -0.04479661 0.11197551 0.3172225 0.47437763 0.15698378 0.31292692 0.006024317 0.40251064 0.29448926 -0.17659838 0.11309194 0.12935823 0.32767963 0.25974444 0.29756713 0.09563793 0.14297852 0.32362112 0.06754199 0.12150116 0.095196314 0.35409907 0.32836944 0.34724885 0.19665045 0.40239775 0.15154272 0.27721012
rook 0.32801265 0.35853338 0.3151148 0.14595792 0.5865012 0.06384167 0.19011296 0.1377341 0.28284156 0.515853 0.33061078 -0.067799605 0.18723877 0.34624407 0.3276721 0.13247715 0.4644996 -0.3246262 0.32825792 0.33577973 0.24649364 0.17504299 -0.2080059 0.203704 0.19982734 0.37074292 0.24486843 0.32915336 0.2106691 0.32117882 0.20805262 0.23630413 -0.031170266 0.14496489 0.14507467 0.30079576 0.29477018 0.0054834276 -0.061025374 0.15670931 -0.089836575 -0.02266451 0.006996451 0.018528534 0.34680647 0.22246557 -0.06674874 0.46602646 0.061833896 0.23694429
stroke 2.549092 -2.2412977 1.8825982 7.828588 -3.9084654 1.8925166 0.6935772 -0.5928577 1.8608985 -0.21261854 -5.2295947 -3.173787 -4.994417 -1.2131426 2.5826206 -2.662637 1.0109092 3.8081148 -0.6424009 4.6690135 -2.7082705 1.7282653 3.9155412 2.674704 5.1276045 2.8539648 -4.2038336 7.1719813 2.708077 -2.4470804 -0.614387 -3.9769974 5.073236 -1.3257253 5.8228364 -0.25933832 1.5526174 1.9419167 1.8211048 0.83594495 2.7595859 1.0456655 -2.21123 -2.0731423 -6.1019673 -3.4178538 -1.9742705 4.7854977 -1.8330463 1.2934191
environment -7.0020576 4.7862873 1.7720222 -9.370839 1.9798062 -2.837003 7.736501 0.5487346 4.227708 0.7838492 0.43115643 1.8650275 3.4362893 0.2832085 -3.989523 -0.23485725 -6.6405916 4.83729 -3.5465717 4.1968126 2.0448072 -1.2299244 6.3968196 2.6767008 0.5958715 -2.5316145 -4.838408 -2.4493976 1.544894 2.8016448 0.5714902 0.08217149 0.9452946 -0.7581731 0.79434776 -1.2420384 -2.602914 1.2004267 -2.3024871 4.578062 -4.5070267 5.5065613 4.3788843 0.31151086 -0.90365416 -0.6827807 1.6679922 4.529234 1.5108287 3.486134
coffee -2.5562592 -3.64869 7.717259 2.8116226 4.4320235 4.3539534 2.990523 4.619806 1.7084275 1.8228077 -3.7391818 -2.4479642 4.4823246 -2.8811946 -0.41871566 -5.678589 5.739268 2.4383974 -1.7281535 0.5812033 -1.8750949 4.4989867 1.1469166 -5.490221 1.5466261 -2.9818075 -2.959919 3.950616 1.9361607 -2.2570543 -0.9678694 0.5143134 -0.08940779 2.192754 1.3723183 -0.9015859 -0.60923964 -0.27479845 1.9168292 1.7951914 1.268552 -0.42454547 1.6384602 -0.60495406 6.708453 -3.5682638 -0.6958673 -2.0242379 -0.35693127 3.822146
baby 4.4274874 0.31362435 -1.3894395 6.773733 1.6142272 -4.4410644 0.060833473 -2.9142718 1.7012482 1.0975372 6.1001453 0.6339687 1.4808612 6.488932 1.8534124 -3.4885604 -1.8689613 -1.0098064 4.2693596 -0.34010342 -1.0786836 2.970836 4.6321516 -0.90014964 1.449031 -5.7572303 0.41712868 3.7174466 5.7433376 -4.276905 -1.5710331 3.2435002 5.110597 2.3343315 -2.8023448 1.2792321 -6.1411266 -1.1193813 4.359322 -2.0367942 1.35411 2.0351062 0.6982768 -5.7623935 1.4405466 1.6970571 1.0185779 7.4101086 -0.39602727 0.86634153
personnel -0.67823374 3.0470648 -1.9489601 -4.1117215 -5.7594285 0.7019111 -0.986115 0.6094983 -2.485959 -2.1621752 2.5445745 1.3216183 -3.1113667 -0.07979509 3.58007 2.5365694 6.4547367 3.009154 -1.6921824 -4.190329 0.37028006 0.7890498 -1.7190821 7.5614576 0.36197063 -0.58234197 -3.5715036 3.8581598 -2.5049505 -1.409294 4.0024133 3.6405995 4.96015 -3.1616602 -8.109896 -0.49769253 2.695161 -1.5598626 -4.5915875 -1.2393503 2.5964673 -2.2653239 0.75453997 7.17558 -1.1187005 3.7069647 -3.0198715 4.4406276 -0.5338731 -0.20723252
family 0.46330404 6.299959 3.8713398 -3.8677769 -2.083366 0.1875754 4.762855 -2.279307 -0.9327974 0.9945089 5.9590073 3.1248934 -0.3326098 0.27153334 -2.397137 1.0473843 -4.4200783 0.16000408 1.294959 3.4274719 -2.2162805 0.3115742 -2.5892007 -0.06002606 -0.10662565 -1.4958082 -1.7545065 0.044060417 3.8309462 -2.8766217 2.1399837 -0.84514856 3.266218 2.6994233 -4.0281577 9.322572 -4.730798 -2.2806916 -6.441778 -0.31080857 -2.8817556 0.8094429 -5.175174 4.4860425 -1.7600843 9.765914 1.0135893 4.491384 -0.23153968 -0.36632958
hypertension 1.6648017 2.492812 -2.723074 0.18363827 -0.9289104 0.22330719 1.1145667 1.4550152 0.7084463 1.6600927 1.2050397 -1.0062283 -1.4591255 0.24931361 -1.2671081 0.8932572 -1.1950077 -1.9986396 1.360074 -0.09984519 -0.705112 1.614712 4.004211 1.0389965 0.6799021 0.5736591 -0.44683254 0.5920408 -0.74959326 -0.6828539 1.4589887 0.34338033 1.3674555 -0.83883464 0.5512683 0.5757721 0.30815336 -0.1472041 0.8812592 0.887723 -0.58035254 0.38289762 -0.34214163 -0.6228679 -1.9005014 -0.4277509 1.1680028 1.7503313 0.06659299 -1.098914
president -2.1653166 4.2529716 0.35194722 1.063955 5.0005083 -3.5368805 2.3108597 3.7488773 4.5903335 1.3280723 -1.3348976 -2.3251796 5.4197927 -4.432309 -2.6648364 -0.02527581 3.68473 -0.79006106 -3.8825788 4.4498873 -2.7596314 1.4188416 -3.1938014 -2.3599842 -3.6915693 -4.8834267 2.619719 0.6073414 1.0697078 -3.8690176 -1.9597456 -2.4351335 2.378824 2.2995253 1.8132885 -1.0727416 1.7916658 -5.2759156 -2.4706087 7.019746 0.30078766 -2.7500544 -6.650822 0.6745097 -4.710252 0.774852 0.15276584 -2.8811114 -2.411673 5.1032896
atmosphere -4.9518375 -0.53156805 0.37060034 -6.9230423 -1.0083941 -4.1629205 2.2146277 6.83974 3.8436725 5.0129113 1.0335517 -0.09599268 -2.0816114 -5.8965364 -0.86485994 -0.71532446 -6.530232 4.4104548 -0.38669345 -0.93448067 7.394708 1.3970048 7.610513 2.8897722 -1.3387636 1.0609102 -2.5272396 0.419436 2.8817587 2.421477 -1.7133535 0.3090098 0.74691796 1.7864426 2.686901 -1.5887946 0.49283487 2.8955877 0.5618077 0.8216125 -5.3339443 -3.5947676 -3.6881216 2.3970346 2.4580233 -1.9593822 -1.0782533 1.3682643 1.7891197 4.115978
practice -7.831456 -0.9162098 2.3710842 10.874005 -1.4561747 4.1673417 0.3705429 1.2180152 5.4093595 1.3682693 0.21484712 -1.7984391 4.5908313 2.8079686 -4.50794 1.6786094 -1.9151762 3.5274138 -3.1606674 2.233095 2.8353293 -3.9679837 0.6137502 4.9933653 1.0341895 -6.1155295 -0.1641933 -5.678985 1.8851031 -0.52234435 6.802583 0.42570385 -2.3330293 0.5283544 -2.2712727 -0.007266489 0.7028245 1.0348041 5.3722873 -1.2808287 5.98581 8.76083 5.945538 -0.9904408 -4.9857864 2.5196326 -0.26214403 0.7181378 5.7633142 0.4002038
movie 0.6273888 2.534557 3.0422199 4.5700755 5.1749015 -1.9763699 -2.8045387 -3.9184847 1.2492809 -0.25654185 6.714502 1.1197551 -1.1454906 -1.3818647 -5.4208517 4.629995 -6.600153 -0.34809604 -0.98978496 -1.8895203 1.3695384 4.763797 -0.4952368 -1.6354985 3.6793303 -3.7652268 5.9383345 2.168473 4.4786797 1.5731435 -1.250137 2.358325 0.16345705 5.089635 -4.7246637 2.8976266 2.1546373 1.7893742 -2.824501 -1.7949744 -5.04626 2.052303 -1.7076833 -4.0675635 -0.7276401 -3.8771896 4.113251 2.725923 5.232128 -1.8739647
popcorn -0.68163043 -1.0811671 3.0808206 0.8874127 0.035749268 2.185464 0.58695376 0.016555507 -0.27012706 2.4018571 1.3201646 1.7396886 -0.40005112 0.9176731 -0.21251094 -0.08950404 -0.6541458 0.7573157 1.1300611 1.4093091 0.19470264 4.066114 3.298028 -1.1647236 2.0767503 -0.97083455 2.2643142 1.8509847 1.1412008 -0.027673483 -0.8459258 1.368205 -1.3919977 -1.0729653 0.4525995 1.552845 -0.71871424 2.1079502 1.1256183 -1.637367 -0.36262468 -0.51657057 -2.140596 2.0338902 1.494019 -0.18445979 -1.1911587 2.7253609 2.1294236 -0.7021331
recommendation -2.8694644 4.710711 -0.7530509 0.5641505 -0.40713903 1.6782762 -0.63406163 -2.7321641 4.632299 3.0760615 -5.398939 0.30735594 -0.5230456 1.2406281 -3.1345081 -2.029334 -2.9708006 -0.054612793 2.728495 5.9848857 -3.0705874 1.4071561 -3.864956 5.2830033 0.06928504 -1.6050187 0.634832 0.028245559 -0.92670417 -1.1709138 -1.8579581 2.2663305 3.7829227 -5.485779 4.4647465 -1.3863871 5.7177844 -1.3707508 -0.37294054 4.3460193 6.488715 4.755732 2.7310448 2.343507 1.92538 0.9395932 -1.6531976 1.0518836 -2.8296573 1.56888
focus 2.513966 -6.275181 -4.5276604 1.3629107 -0.60999286 -5.521836 0.43173274 -3.4051454 4.4576516 -2.4674985 -4.3046117 -0.63057214 -6.674528 -1.6817942 -0.011448216 0.7974224 -3.3402517 8.0160885 2.4184902 -3.8359556 -0.5234453 -2.8185475 -3.4300642 0.927238 1.9152578 -5.44472 2.5049396 5.595974 -1.8222688 1.7240885 4.990599 -0.80363834 3.393755 -0.65482515 2.0027583 4.8893275 -5.216058 -1.3330821 -3.0782523 0.8624767 -3.927082 6.0332155 3.1218443 -0.58865356 -2.516639 7.1233296 3.2117686 -0.5571925 1.9875888 2.1793249
attempt -5.170883 2.6530612 -0.61130345 0.124000326 -1.3050556 1.6589574 -0.20339818 -0.73064864 0.18026493 2.5309944 -1.1091022 0.9312899 -0.5856425 -2.3890567 1.9178444 -1.3582788 -0.80901366 3.3284388 -2.1080854 3.6686666 7.6890326 1.7329427 1.1002382 5.066599 8.848653 5.1211324 1.4522331 -1.6188297 -2.0475583 -3.980729 -6.380499 1.8059821 -5.027226 0.9613457 -2.709434 -6.018169 6.736942 2.2828283 1.1458392 2.4281037 1.2967099 2.7224524 -5.3836274 -0.8720588 -2.9795387 1.8844151 -0.58708656 -0.20646884 -3.1529279 2.3033645
approach -4.134518 2.8992937 -0.65136135 0.7549242 6.0029244 -3.411721 0.399807 -2.4138443 1.0211861 -4.3190813 -2.2437854 2.975497 -5.8945794 -3.565783 -1.290132 -4.5006332 -7.354156 3.9581256 -6.1271467 -1.2550068 3.9661639 -2.587532 5.864999 0.933082 -0.5621567 1.6757758 -1.5974241 -1.6315392 -4.7853537 -0.5583138 4.0146136 -0.72797394 -3.2572544 -2.0027385 3.247036 -8.124125 0.1850861 4.640279 -0.4200452 1.5606674 -0.83524257 9.714604 -6.4436545 1.4322443 -0.527603 4.000067 5.7741623 3.9033687 -3.9695075 4.9468255
number 0.8149471 3.591766 -5.0705066 3.8126652 -6.0743923 -1.9516228 -1.6348838 1.6864456 -1.4726005 -1.8650464 1.9764497 -4.5175347 -2.6854835 -4.0987515 3.6153026 2.3167207 3.4502387 -1.525934 -2.303065 -7.3193407 -0.7077364 1.1389743 -4.3628945 -0.8990065 2.872281 -2.2516382 0.5845728 9.404139 1.7654812 2.9234176 4.1542883 -2.9793756 6.733496 -2.9713693 0.075168416 -2.2587745 -2.9180543 -2.3550153 -0.8804022 0.21813037 7.124797 -0.8547083 -1.8276596 -2.6501985 5.7086883 -5.302804 -0.39526945 -0.6930827 -3.337889 -2.254483
property -1.2817702 7.942078 3.4923625 1.0729077 -0.7780658 -0.27291152 1.7839032 -2.4281228 -0.25507608 -1.6877966 -0.9879286 3.3094974 8.76505 6.6206975 1.4597147 4.396248 1.9203473 7.201563 5.373624 -2.6929789 -1.4474778 3.8196342 1.3385121 -1.637281 0.95253384 1.5023929 -4.1519504 -3.944201 -0.39536458 -3.2924595 2.5972965 -4.73186 -1.8165147 1.6158146 -6.312027 1.445345 0.1718186 -2.9222345 -2.473526 -0.38418958 2.5027227 3.787619 -3.027653 -0.7162135 0.22110374 4.6055546 1.764434 7.379156 2.978098 -1.9570105
fingerprint -0.47398826 0.10763421 -0.80972326 1.5003616 -1.3002311 0.19013925 0.8210341 0.86385685 -0.91724783 0.49748397 1.2036848 0.26686695 0.7403457 -0.031953044 1.1299125 1.2090408 -2.2492273 0.8329372 1.7063371 -0.86079925 -1.8258488 0.5150842 1.2297978 -0.25515112 1.1709841 1.0352811 0.5676082 1.0651742 -1.0155401 0.66058964 0.8356914 1.102435 0.9413254 -0.3749779 -0.16688502 0.4417507 0.74279135 0.30563495 -0.19394702 -0.6400485 2.1802814 0.43653944 -0.19706005 2.7948575 -0.74045324 3.5568929 -1.2907622 1.8495222 -0.19173272 -1.4983366
reservation -2.6634943 0.9798451 5.887686 -0.6867901 -1.0485365 -0.3403951 -1.5419996 0.858989 2.91835 6.309601 4.146734 3.4098418 1.4768428 -3.7076435 -1.2833251 2.1497009 -0.4022288 0.8574024 2.7033389 -0.30002066 -4.428848 0.6929321 -0.3315303 -3.1423316 2.1782331 -0.7414524 -0.88690394 1.345123 -1.1152654 -0.0053301235 3.0333493 -3.7425058 0.19297336 -2.020597 2.8729897 -0.9806324 0.87301457 -2.5290294 -2.6358812 -1.9158863 3.0792243 1.3392587 -2.6656659 -0.18707871 1.780876 -1.3562762 -0.57085305 0.5216876 0.33315364 -1.0899711
block -3.511484 -0.25020942 7.7281914 0.8088322 0.100104965 3.0782611 -1.1847397 2.064147 -2.7188733 7.4023266 -0.6194449 5.497131 3.7867165 0.05258072 5.206409 -3.7243922 -1.318494 4.834926 4.2594867 0.0775559 2.9479809 -0.69333404 -2.762799 2.3469217 2.9059167 1.3163021 -2.174719 0.5554645 -3.2667346 -4.005154 -2.1415873 6.5356255 -0.020795967 2.9360986 0.43138665 -4.6561995 -1.4368296 -0.01507786 -3.5946074 -5.4986935 3.8185394 8.113687 6.224311 -0.9295685 -0.9217391 4.0750065 1.5857755 -7.6389937 7.667624 0.5088129
fear -3.791326 5.147113 1.3068336 -3.4676857 0.8012535 -4.431982 4.2291694 1.6274086 2.1105542 -0.2072942 -4.0423565 -0.5449084 3.0711799 2.3591065 6.6097717 -1.4033083 -0.3301072 -0.024285765 -1.39572 -6.4423814 2.2479715 -1.2932115 -0.55395275 -2.2965107 0.88348246 -0.1320601 -8.231944 2.600394 1.8876313 -1.7844266 -2.7085829 1.917434 6.4827724 8.173234 3.5528 -0.2658866 -7.7167535 -0.55737543 0.7444691 -1.3919228 1.319229 2.4364672 2.4288075 -1.727942 -1.1394031 -0.008973881 -6.1209717 -0.15889603 6.769217 2.4956255
surface -3.1526744 -4.6416993 0.8912777 -0.95765364 -6.400339 -0.19552962 -0.98639005 -2.7134006 3.21987 3.6742735 -0.89675987 0.51870084 -5.6503205 -0.26521283 2.784732 -0.54836637 0.28137106 2.7854302 -0.2981428 -4.6786585 1.1253622 -0.24070549 1.0912641 7.3614593 1.6202753 3.3968265 1.5237328 6.191288 -6.7812314 4.240983 -0.030856866 3.034524 0.223852 0.78956616 5.245207 -3.04799 -0.7757736 -1.7052096 -4.100691 -5.599665 -5.094027 -2.053669 -0.63193303 -2.5265498 -2.421916 1.7009951 3.1171923 5.9702945 1.6513228 1.8817637
issue 5.920632 3.34962 -4.6333036 0.7920759 -0.6987639 2.5370731 -0.98793405 2.525274 0.56894493 -3.7599883 0.82799476 -3.745365 -0.7972687 1.3512757 6.9094615 7.3437853 -5.1283555 -0.14068408 -2.6367195 0.5098422 10.023392 2.0584917 4.1974344 -1.339241 -1.5615501 -0.22748424 -5.874735 3.8710976 -1.1853969 -0.36893535 -1.548408 2.9798129 -3.749145 0.9415765 7.499162 -2.2145398 0.30195177 -0.89833146 -3.1958144 -2.3413126 4.225201 4.192787 3.308646 -5.913385 -1.6385946 0.99136317 4.5729165 -3.6025028 -1.0677851 1.7083726
metal -1.292542 -6.275998 4.7107015 6.076317 -4.8813396 1.907974 -0.134243 1.6951799 6.3834763 -3.306746 0.64647025 1.7181927 3.6889153 1.9038957 4.3616157 1.6236464 -4.1899257 4.666119 3.6502578 -4.096153 -1.3917038 -0.35898566 2.5422535 -1.2320768 -0.5705069 -0.35021573 -0.351962 4.743865 -0.00923842 1.7532957 0.4087244 0.9399706 3.476852 2.6644433 -6.112622 0.6850545 -4.686264 3.1894355 1.809789 4.57498 7.7496696 -0.80825675 3.8569562 -2.2083817 -0.082388446 0.12796715 -1.5624208 5.6292953 3.0690072 -0.26489317
index 1.0100859 0.99948776 2.7789638 3.5097542 1.8236737 0.7246543 -1.6021886 -4.9095845 -3.2698271 3.001414 -8.609636 -1.0832472 2.2476397 -4.40395 5.9762707 2.957168 -0.7722309 0.15763524 3.0157268 -4.8452554 2.1421056 1.3331137 4.7836466 -4.345178 -0.46945515 0.07831406 0.020586088 0.53800327 -0.5706608 -2.3405015 0.7670562 -1.9507229 -0.5675872 -3.317867 2.6893694 -4.904268 2.1403368 4.93166 -0.92745847 4.228961 5.472798 2.8489492 -4.1938343 1.5062779 2.6205812 -3.549458 4.958298 0.66571414 2.456865 1.603937
isolation -5.417072 3.1101072 -4.2375994 -3.3333228 -1.8477068 -0.8089693 3.311116 6.4106092 -0.31130648 -0.38828117 2.9321668 -3.5879416 1.6257188 -4.7489033 -2.8999715 -1.6415092 1.243959 -2.7289944 -3.3733737 -5.1421294 2.6392505 0.94668657 1.1079401 4.2195473 -2.7941873 1.5315864 0.8737745 -3.3606951 -3.5850306 -3.107008 0.4369439 -1.6663575 -1.3541048 5.4270167 1.9964141 2.166704 -0.7610007 4.741264 2.6218195 3.810696 -1.5575423 -0.9576457 1.1731783 0.773414 0.25987783 1.6410776 -1.0113559 -0.08558901 -3.4330325 -0.06299718
impartiality 0.02527695 -0.3549835 -1.2074333 -0.280781 1.1532075 -0.09475657 0.5903962 0.981574 1.1134017 -0.8405391 -0.79834396 -0.7039711 0.06539912 0.2320086 -0.80902284 0.9140882 0.8237953 -0.114038356 0.052627355 -0.8470212 0.23761877 1.0351815 0.24395639 0.49416763 -0.3376571 0.37837338 -0.07024977 -0.52964747 0.06623357 -0.22387293 0.18068735 -0.74136436 0.5463879 1.0136251 0.89217544 0.119861886 1.8322377 0.1401612 -0.22565462 0.026724795 -0.64398986 0.72611374 0.6380313 0.3425827 0.48520425 0.97692704 -0.5467543 -0.76333755 0.4880849 0.60763097
drink 3.6181636 -1.9388667 -2.3574166 3.4815326 4.245936 5.984062 0.7424149 1.5512456 1.4709011 4.743834 1.6515439 -1.5065119 2.1760616 1.9122765 -1.90915 -6.9864254 2.2201087 5.4812617 -1.7856435 1.5482405 -2.372079 1.209552 5.8374662 3.981802 5.679147 1.1600873 -2.5926778 2.1596038 -1.9984905 -0.4722377 -3.0111933 4.3797555 4.5058265 -1.9057916 0.9767352 -0.6703285 -6.7100725 -0.58353025 2.7904203 0.83870465 1.7770272 -0.14894281 -3.4529908 -3.3763885 0.78407127 -0.6081221 -0.84917164 3.434058 -5.7936954 4.6932416
baseball -1.1723834 -4.3174157 -4.641744 2.6568255 5.9874473 1.4297172 4.259479 -5.726452 -1.5269363 1.9299976 4.2212663 4.3878856 2.561104 -0.6534801 -1.1027974 -0.6987036 -0.5338112 -0.5235745 -1.4593747 -2.1655118 -3.4786818 1.145789 -3.5418394 -0.4531624 8.010209 2.5963385 2.7993314 -3.5145788 2.6444108 -0.48448014 5.2450213 -1.2979518 -2.4149551 6.0889835 4.985326 -3.4934049 0.90126073 -1.5545971 -1.3975465 -3.3183029 2.5208116 0.24904136 4.791947 3.6368551 -2.7397127 -1.9328527 1.3865963 -2.2359781 -2.4274826 0.283004
jaguar -1.2527156 -2.2397187 0.80322367 -0.38561922 0.400833 0.4775772 -1.4983792 -1.3669078 0.6216952 1.9884982 -0.9648768 2.6522396 0.8615591 2.468718 1.6759052 0.21512377 0.35446405 3.7862148 0.7162599 -2.4704986 -1.9408246 0.19209547 0.7709698 0.69266135 -2.4099746 0.31408694 2.5651882 0.5552518 3.3791857 -0.18001533 -1.6865134 -0.57279164 0.9051205 1.394659 -1.1232705 -1.670399 -0.52232325 2.859581 0.032413922 1.5173421 0.3061063 0.9923356 0.88079846 2.9704578 2.4846733 -0.42638874 2.6378417 4.0477567 1.3045624 -0.96976614
trading -2.689771 -0.3862218 0.5320975 3.2902083 0.97949374 0.5000694 0.87335384 -5.9216957 -1.4868612 -5.355726 -1.2271552 -0.54750705 3.5768695 0.07991174 -1.2417729 1.3646322 -4.5829434 -4.7755475 -1.0048366 -3.544862 5.5213757 0.46943352 0.29089817 -6.8990593 1.6580203 -4.8698044 -0.97613716 1.8156774 0.85167056 -4.3985205 1.5502884 0.9167341 0.011773173 -2.9587297 7.493703 -3.0749545 1.1897433 2.6196985 2.6063302 7.737365 0.35071746 -2.6572971 5.6706533 -0.15325768 6.653288 0.079887174 6.9611573 1.4990574 2.7556896 1.6283191
viewer 1.4375792 -0.06155363 2.1007683 -0.36549023 -1.6225314 0.08837987 -0.47224826 -1.3914636 3.3665566 0.59793967 -0.24079661 -2.6920705 -1.9113286 0.3723267 0.5938521 3.4491768 -3.1218545 -1.2422632 -0.11068824 1.7907732 0.49156708 5.00102 2.842615 1.1232121 0.9611529 3.7889392 -0.60978144 3.6044936 1.3264868 0.09866597 0.7763089 -1.0199383 2.8673816 -0.9936306 1.8950505 3.9355867 1.5622749 -0.74685967 0.7791845 -1.2866657 -0.15402396 4.38753 -1.8574721 0.7745146 -1.3562124 -2.32277 -0.57307863 -4.041259 0.98892796 -0.018401941
hundred -1.3481903 2.3845937 1.5307504 5.7321453 1.4806163 3.095286 -3.2829058 1.5848175 -2.591507 2.2113051 0.9070206 1.1401094 -5.0170155 2.691849 4.2185936 -3.3796492 1.5814652 -2.3624694 -3.1055012 2.3591256 4.998922 0.24920318 -3.8590782 -4.5608516 1.0527477 4.496534 1.0793083 2.6868713 1.934415 1.0703149 0.54650784 -2.3679717 -1.5888519 -0.38101304 -1.5647421 -2.4254446 0.54500175 1.1531343 -0.9269512 -5.2629695 -0.06568449 3.4190211 -1.1859665 -0.4547811 2.2557278 -1.8768364 -4.4799433 2.429375 0.35136542 -6.2552385
woman 3.3795574 1.7134556 -1.5649524 -1.9445913 -0.79818964 -3.5920007 0.6878517 3.322492 -2.0019279 2.232806 -1.8149971 -1.8672764 6.3810444 -0.8420326 0.783033 -1.2666533 -5.2314067 -1.7577735 0.1527285 2.6482956 2.998693 3.4235218 9.7999325 -4.083427 1.7228277 4.919882 2.5251448 8.701831 4.1179137 3.5380862 -1.6269969 1.4189739 -0.80086845 0.7577606 -3.082391 2.798172 0.61358696 1.4053885 -0.2612166 -1.192563 0.5250618 -1.2451432 -4.5125012 -4.339249 -1.8083568 2.2309096 -1.0957106 0.056628145 -3.2724533 0.15402111
queen -2.6953433 3.6964061 4.5199823 -5.3042884 -0.2317572 1.9636761 -3.0882726 2.8045144 6.377905 3.4504263 -4.0763206 1.1624231 -2.063083 1.2922391 -0.1778724 1.2338715 -2.0340862 1.8359877 -2.2236016 -0.87074155 -2.6581268 0.43863577 1.6043661 1.3992882 -5.7388644 8.086197 -1.840557 7.092766 0.4273465 -2.7389135 -2.6711915 -1.854712 3.094555 1.4130137 -4.592699 4.4138155 1.7431374 2.9462993 -4.402807 2.203196 -0.5473726 -0.25715128 -3.0755103 -0.30736738 2.2756011 0.91981804 1.885237 -0.5785929 -6.3029943 4.230295
fuck 0.4630252 0.592549 0.20644785 0.26763907 0.38336217 -0.011043282 0.418317 0.47216302 0.11583593 0.6598084 0.3025059 0.05208099 0.20480579 -0.15026341 0.44880357 0.22074826 0.16033623 -0.28264552 0.023917347 0.087596945 0.2139485 0.22717051 -0.29785517 0.38642025 0.27178824 0.7112576 0.29639927 0.34740627 0.09297788 0.44992346 0.3221975 -0.38624844 0.108323164 0.003636897 0.43808782 0.37831125 0.5612168 0.08919671 0.37067997 0.44828013 -0.041212905 0.07107899 0.116054624 0.4938422 0.4013965 0.49670017 0.19183813 0.5644866 0.24808957 0.6984472
skin 2.0900187 1.0683374 -1.8759305 2.521347 -5.8810325 3.4170053 0.3870739 1.1185874 6.380302 1.3268001 0.008346079 0.72664404 -6.368418 2.3597987 3.3081686 -2.199524 -1.9972082 0.60383713 1.9226862 -8.343604 -1.1266166 2.2596502 3.9409056 1.1059647 0.2517935 -1.9082068 -0.2544957 4.1313834 0.88659465 -2.2168136 4.268648 3.0388546 5.0880284 5.5405107 -0.6461053 0.97997355 -2.046785 3.597579 4.9427 -1.3339181 -0.2159675 -0.5770174 -2.0737045 -1.284265 0.06199179 -0.5062165 4.187559 0.94081277 -0.47479403 2.5084019
tournament 0.08246396 1.935771 -2.7961938 -4.3960032 -0.8174899 0.8329178 -3.1078315 -2.62119 2.4615448 6.6812453 -1.7980797 -0.2978764 -3.814853 -1.3052891 -5.571773 -0.057693403 1.2649155 -0.54357547 -2.264217 -3.7478206 1.2551799 -2.7877936 -5.3163924 6.6742353 0.4151402 4.7082686 -1.1741269 6.11394 -0.49823138 1.5837377 4.4092655 -3.8887403 -1.4275248 2.9378185 -3.9954798 -0.7910725 5.031581 2.6220727 -7.4960365 -2.680594 0.084749766 -0.70465624 -3.1163664 1.4169254 -4.22151 -3.686367 -2.284923 0.9649158 -2.425569 -2.171977
cell -2.1363547 2.7524827 -1.8962667 2.277894 -4.946623 -3.8705351 2.745378 4.174438 1.750073 -1.1024528 -1.1738585 0.5487558 1.9707053 -0.5771304 3.4365413 -1.8172543 -1.4780946 3.3768477 -0.55344623 -2.4096694 1.4724388 0.15110682 2.986734 -7.5046825 5.4092298 -1.1828817 5.6035395 2.6391845 -3.2827468 0.15215637 5.1725416 7.3636565 0.10657207 1.599324 -4.746016 0.6805292 -1.6016564 1.846139 6.468597 0.86234266 6.2632413 -0.79269797 0.6252927 -0.85402715 -2.1157763 3.4646819 4.713367 -0.40276918 3.6294134 1.1553935
summer 0.9119909 -0.7690479 4.691606 3.871551 6.5487795 -0.3231563 1.2538717 -6.16484 2.71129 5.908446 -2.2167547 1.5183234 -0.6107939 -3.36244 -2.125488 -0.20715167 1.2236356 2.2501361 -4.5246797 2.7156289 1.1724718 -1.5586253 -4.1968975 5.609128 0.87011564 0.3013162 -7.592721 -0.8996187 1.1668007 -4.863892 1.1212946 2.2510736 1.6662087 4.7624636 5.864962 -2.0372422 -4.959248 -2.2139833 -0.22814615 -1.6398519 -3.061317 -0.36289603 6.407542 1.6331096 -0.5914204 -2.790885 3.5746117 -2.901021 6.133921 -4.4475713
crew -1.4246638 -3.9302733 -0.25443438 -0.8220771 3.3505955 -2.2135873 -1.316254 -1.7854724 -0.028696977 -3.6645482 0.5761303 -0.8888549 -7.4590797 -0.6777302 5.051099 -3.6314585 -1.5698713 2.0690243 -0.7651083 1.3941206 -2.941889 -3.6675828 1.5159296 2.5373518 1.5470572 0.15346473 -1.4728014 3.5224168 0.25802007 -1.2521021 2.0398092 0.31726828 7.1475697 -3.52221 -3.6315088 1.5249645 0.6415508 -0.7099318 -4.7887764 -2.8463974 3.2449622 -2.994592 -5.2537756 3.8147848 2.1377892 6.9498444 -0.9662314 3.933752 0.68994945 10.523055
defeat -2.5675044 -0.8986897 -1.2173043 -1.454213 -3.2120955 1.2419924 5.529956 3.4477553 3.5978174 3.7475116 -6.207345 0.6261441 0.650318 0.6720565 2.9132366 -3.0422957 3.9308026 0.63678634 -2.4176538 8.054735 4.99727 -3.9784098 -2.059985 9.496652 4.3981786 0.31726363 0.18990308 -2.4217694 2.321553 -3.1964686 0.48058024 -4.7953625 -1.1195691 6.725116 -2.4750433 -3.2529945 3.6445866 1.873706 1.1625863 -1.7821823 4.089378 -0.06280158 -1.6437055 -3.80672 -7.6221104 -0.4646997 0.011479283 0.49632823 -2.1697063 1.2215494
library -5.407391 2.2714844 1.8725435 0.5581374 5.0354295 -0.6514291 -6.842039 3.3190444 -2.0351 0.83923167 -1.1140035 -0.052720513 1.3472103 -0.36247793 -4.30425 7.5686226 -0.103824146 1.7967147 0.75078976 -3.6451573 -2.5777857 4.145205 -3.261303 -9.31595 -2.0668068 2.0188446 -0.5112151 1.8686161 -0.9680038 -0.4616525 1.7285378 1.6921462 1.9726617 -0.7630728 -5.2312007 -2.5163815 5.845622 1.7109379 -0.82018065 2.7414057 -3.4335437 1.7162752 -1.4842337 2.4258504 6.3471117 3.7937922 1.8246397 -0.1337467 1.7050421 -1.0030427
government -5.007489 6.6464267 2.7163854 -2.4423864 2.07566 1.3138971 -0.6380647 3.7934544 -0.9719615 -0.8180278 1.3712966 -1.0717282 5.575961 0.6165594 2.42459 1.0853425 -4.9613905 1.3071709 -1.9418803 1.7874527 6.4359202 -5.4915147 -1.3051329 0.7736218 -1.1682477 0.70304155 -0.5263897 0.43721732 -2.1180608 -0.4310374 1.2067884 0.5962997 -2.5533974 0.40423527 4.2107205 1.5954136 -3.8448539 -6.106928 -3.7844787 5.18034 -3.4309766 -0.8396546 -2.2989967 -5.020469 -1.516407 9.847749 -0.43230143 0.69400275 3.8899767 -4.4617114
world -0.9137681 -2.7001646 -1.8576277 -4.5514593 -0.75802344 -2.196016 7.133682 -2.8672214 -0.23551828 0.666326 -0.5541568 -1.5214717 0.6373617 -1.8780588 -3.7852502 -2.041537 2.2742677 1.8375962 3.391953 -4.483166 1.694038 3.3866332 1.1196172 -0.3117457 0.40863055 4.277163 4.199822 6.417364 3.9261768 2.6535761 1.2967733 -1.9659138 3.9878688 2.9633322 -3.0046415 0.6804881 -0.7752208 -2.3713057 -5.917892 8.180486 -0.9158541 -3.2456617 -4.3412633 -2.0681965 3.8467045 -4.1232476 -0.6385738 -2.9377306 -2.6329029 3.9837341
potato -0.23552565 -2.174272 4.677643 -1.0073261 -1.6307682 0.8412509 1.9889866 2.357902 0.9552551 1.9531916 -0.61020297 0.84197533 -1.4666288 4.6078563 2.1329565 -2.1658976 1.1398482 0.98998487 -1.7480389 4.197263 -0.8488525 3.875717 0.65796554 -2.3441505 2.1384861 2.1329842 0.9233472 0.42915922 1.6247314 -1.949545 0.2984609 2.5625045 -2.4872081 0.8097362 0.5305892 -0.66774917 -6.6559844 1.9831945 -0.35238126 4.8237076 -0.40550908 1.0267724 0.013373868 0.38803202 2.8460982 0.15720643 -3.0074246 3.3693202 -0.09013509 1.2421359
astronomer -1.419769 -1.0792234 -0.25409988 -0.39546075 0.13735282 -1.5668526 0.66769826 1.2120056 0.40476546 -0.05550755 0.6968169 0.42858145 -0.4026474 -0.23575439 -1.434553 2.683206 0.28824437 0.74706495 -0.21677509 0.9970508 0.456643 1.2043917 -0.5662523 0.67572075 -0.051069602 2.688489 -0.22801515 -0.57542515 2.027856 -0.14469385 2.0312243 2.3921726 1.5834293 1.1596835 -0.62637967 0.81762487 1.3531747 0.45952326 1.0128897 0.19661519 1.0828502 0.3373647 0.1105644 2.0328634 -0.41119087 0.22269008 0.8235538 0.3904649 0.730707 2.1409233
morality -2.9322734 2.1197646 -3.019485 0.24530563 -0.48914814 0.6437947 3.6275403 3.1817775 2.6411858 0.62775815 0.08510476 -0.10372873 1.2418685 -1.3247104 -0.69902885 1.6417915 0.26399952 -0.507379 1.0658098 -0.6315523 1.9193017 2.0979953 -0.23760484 -2.4860854 1.9593867 2.3733985 -0.123855285 -3.5566318 -3.411237 0.5205685 1.475137 -0.18153322 0.0057208794 2.3915026 -0.25416148 0.74250585 -0.29064384 2.1152792 -2.1672552 -1.2830837 0.81043583 5.3123846 -0.4635409 0.36734745 -0.659797 2.8917599 -2.3293452 -2.2309096 -2.1912415 -1.1916949
nurse -1.6321174 5.7353873 2.8072567 2.0412073 -0.58493125 0.34076983 4.784912 3.5448744 -0.36945614 4.850984 -4.104288 -0.37858966 0.9687263 1.8998927 2.2644727 -5.76998 -0.8670802 0.7500073 0.79537565 5.6402173 -4.74521 2.8745651 2.829014 -1.2911253 -1.705083 0.47424653 -3.3750353 3.4525921 -0.3993671 0.84445274 1.404553 2.2421403 1.412616 -0.07686635 -2.9164295 0.92480314 -1.8995264 0.13200915 2.8040285 -1.930538 0.94562525 2.6532161 -0.44337445 6.8288584 1.5834166 0.5510802 0.07283679 5.4082828 -3.312449 0.32700694
prejudice -0.83542913 0.76511306 -4.2690024 -1.2776898 -0.3496547 0.38677156 1.4430622 1.7183225 2.4404778 -3.1507015 1.6522375 -2.7924266 -0.024532735 -2.180386 -0.22496367 -0.12557404 0.028256573 -1.9218683 -0.017824026 -1.0112998 2.2571738 1.4752599 -0.24613068 2.7425213 3.345283 2.7108448 0.93928105 -2.7803526 0.29589677 2.1959102 -1.1683614 1.4970137 1.5442559 5.7185993 0.5663721 2.7503085 -0.6071369 2.7088695 -1.3281499 -1.2720445 0.6429299 2.9035103 2.1202455 -2.8020272 -1.3469114 2.0686226 -3.558669 1.4151715 -0.017648352 -1.0179676
man -0.9787727 -0.662319 0.97563326 -0.9306864 -1.807641 0.7644074 -4.9026294 1.6137176 1.9962153 7.0669713 -0.91895306 3.4458754 -0.22096723 1.6764932 -0.42510834 -0.31689438 -5.286925 -3.4275737 -0.8721397 1.3579 2.1949825 -2.8032627 -0.5070515 -3.4844422 -0.77276254 5.295682 2.9982417 5.8646617 3.292366 2.205952 4.736701 3.5034778 0.30309916 4.9232655 -3.437732 1.9493319 -0.5297712 -0.6858628 -2.214536 -1.3615456 -1.8946168 3.835319 -6.906821 -4.589078 -1.3613294 5.083501 -7.6246524 6.5261436 -2.2106085 -3.19483
deployment -6.069003 1.1010382 -0.76442456 3.813646 -1.3893368 3.764318 -5.0738683 -0.79200065 -3.579122 3.1092486 2.3612905 -3.710501 -5.4448676 -2.1432996 -0.797601 1.1769073 -1.3642374 0.20953292 -4.810779 -4.057666 -2.1639247 -3.713867 -3.3087938 2.4422688 -2.7769032 -2.335437 4.37583 2.8878396 -5.639102 -3.1571832 3.7485118 -4.054721 1.5675758 0.8890763 2.7911885 -2.5585558 4.1729107 0.67716116 0.87432337 7.8007593 -2.5113084 1.6678742 2.8207371 -1.455595 -3.563005 -0.62719065 -0.10409951 2.4048264 2.5192633 0.8492135
bread 0.88074625 -1.427572 7.513056 0.90627366 -0.60293 7.2366815 4.0483184 -1.3036244 0.6641446 -1.1401652 1.6344713 -1.2406178 0.017857227 5.220095 0.16206464 -2.2174118 0.76046234 -0.5661608 2.9583595 0.2693999 1.3672795 3.9800067 -0.2783192 -0.141668 0.15408231 -2.4900131 1.1180733 -0.32469025 2.3888352 1.0495843 -0.11677841 -3.3850768 2.3972116 2.655659 -0.75449 1.8536407 -5.7413154 3.2462423 -0.18489191 3.2091486 -0.12885438 -2.3814595 -0.46894875 -3.8532097 5.672706 -1.7895825 -1.0670091 1.2583897 -3.5349233 2.101948
television -3.471478 -2.768106 0.18608183 3.2450006 7.994152 1.4932168 -0.010421734 2.2300878 1.775788 -2.406031 -5.766138 -2.0848112 0.024485482 -4.5316596 -1.7336298 1.8506308 -6.3975763 2.5022895 -6.781771 -4.4360123 -0.70014966 -1.9266744 -5.9411974 -6.6149645 4.701408 -4.8791327 1.1106303 5.7678485 0.5275058 3.2283409 -0.41915774 3.5589502 1.0260342 2.6617212 0.5072873 1.7812064 1.5788131 -0.34122166 -3.5468628 -1.3216957 3.1903458 -3.2922022 -2.298668 -2.4342473 -1.1000098 2.5663166 2.4420033 -0.42288718 7.0678473 1.276331
lover 1.6121966 -0.20726393 -2.319165 4.572802 -0.38285968 2.899545 5.811287 0.8259264 1.4953176 2.7909436 -3.154567 3.784849 2.559056 -0.9866654 -1.5278544 1.141941 1.5100312 -0.15427877 -1.156121 1.7930766 -3.4632726 4.3117714 -1.1753807 -0.0030903919 2.2682905 2.4197223 2.7001464 1.6574473 -0.99495393 -2.5263312 0.23440492 -0.693167 -0.7608908 2.841991 -2.5814154 4.1049743 -1.6384459 2.9127226 -0.5251799 -2.8900354 4.4799376 2.3875165 0.4423532 0.07109309 -1.3245013 0.22798912 -0.12537466 0.5374627 -5.5353656 0.5710448
change -5.371624 2.9385629 1.0248502 3.4513032 -3.0340896 -3.2887754 4.664439 3.7536721 3.2939496 2.2058165 -4.840252 0.89140004 -2.778094 2.5608158 0.9650232 -5.7014775 2.9406822 1.8067199 2.786098 -2.8906195 3.2860765 5.7932286 -0.6157247 4.0635986 -3.3993454 -3.332864 0.21871755 -1.7573086 2.3113024 0.9770372 -0.07256683 -4.4185133 7.707144 8.0213375 7.396219 -3.0892982 -0.2828729 -1.5501833 -5.57348 -0.30310187 0.37094012 2.2259822 -1.0686179 5.051347 0.019623263 -1.9292575 4.789767 -1.890165 -5.9389577 -2.6406555
health 0.693577 2.357509 -1.8140347 -0.575591 -3.072589 -3.7722373 8.771281 2.1639235 2.2168858 -1.8342545 -1.0121465 -0.98681086 -1.6033133 1.6751401 2.6126962 -2.5499952 -0.0071199266 6.208983 4.8160005 0.29060516 3.3584797 0.7960901 3.0966363 -2.6077306 -1.92439 -4.4747767 -1.6132041 0.7097196 4.602787 0.12154588 1.435971 0.98756576 4.245522 0.26314196 0.55143386 3.8114307 -0.5753668 0.9616078 -4.8031554 1.8614527 2.2051399 0.9101824 -6.0348363 2.609395 -4.048048 7.4949546 5.8806167 0.83282053 -3.2014656 -2.7919576
computation -0.041147895 0.44271204 0.32124072 0.103318855 0.117559575 -0.032324314 0.26881745 -0.030444419 0.37407988 0.09868809 0.109003834 0.3812821 -0.18774097 0.22307366 0.117170334 0.39533424 0.08281103 -0.21814384 0.33712122 -0.11220685 -0.12451493 0.27963778 0.34856102 0.1172874 0.4571495 0.42360908 0.4285674 0.16738534 -0.24772254 0.3555888 0.044979613 0.05758866 0.16562884 -0.24198666 0.30327764 0.08691183 0.32140827 -0.2383133 0.0078083454 0.41855225 -0.104601346 0.058120094 0.13783734 0.2801641 0.15601024 0.19322494 0.15961614 0.23528562 0.21544428 -0.06327727
virtuoso -0.85457987 -0.7742067 1.0209615 1.6446673 0.5202424 -0.009476416 0.7288976 0.1439623 0.8926709 0.06275846 -1.221331 -0.03860741 -0.5062185 -0.32330793 -0.12626278 0.32173726 -0.36243275 1.0157303 -1.189783 0.7279915 -0.21212497 1.2359893 -0.6521277 0.61257917 0.7503764 0.071495965 1.2757144 0.94045967 0.58264387 0.30272922 -0.43531695 0.48084107 0.48104692 0.5569095 0.3331181 0.27359626 0.70022327 0.8602008 -0.013611721 0.2746253 0.6303979 0.15710673 -0.104689166 0.77224475 -0.4001961 -0.7182607 -0.09665098 -0.13581471 0.36181068 1.7286164
century 2.240727 3.0810592 5.478502 -0.10809914 -1.6189709 -0.63107777 -1.1321583 0.14506653 -3.5872357 -1.2040226 -5.195123 0.27159235 -1.1456075 5.488981 -0.38132855 4.4821134 0.89176965 2.8007164 -3.030556 -0.8378284 3.8909369 4.4318695 -5.751905 -0.655304 3.4159813 3.5795732 -1.8165079 -3.2131166 5.6065803 -0.047202393 4.812538 -4.630138 1.5039618 5.5881886 -0.4135281 -4.798973 -1.6556971 2.0577793 -5.300082 -0.7485846 -0.28656465 -0.9393991 -0.33745712 4.0418267 1.0065598 -4.207072 -1.9930438 4.119584 4.5967174 1.300649
discovery -0.47027883 -6.196807 -4.554597 3.721034 -1.8904164 -4.666778 1.8515061 -2.2397616 -5.392036 0.7400044 6.22785 4.549322 -5.2099123 -2.625531 -2.590388 0.44545472 -4.67318 1.230404 5.9242153 -3.519368 0.93361783 0.73169595 3.6502137 2.2350125 -0.657506 4.2216024 4.591354 -0.6766969 2.6393065 -2.041648 -0.70855474 0.59574157 3.214285 -3.0912042 2.925358 -2.493709 -1.6571294 -0.26125303 -0.11597329 3.4024708 0.53818256 0.97185665 0.52518725 2.6107638 1.5836277 6.586324 0.51182824 6.223921 -0.8701279 1.6798851
report -2.0182686 4.050179 -5.419775 1.7259638 -2.6340525 -7.773962 4.597339 -1.7772437 -6.317081 0.51787573 -5.5393567 2.166062 4.8815312 5.9851685 2.9270287 -1.7975233 1.3370264 3.3592649 0.27713034 -0.9282997 3.2784317 2.5693686 1.1447171 2.2115526 0.62941533 4.5467076 2.7565615 2.4983497 2.7184587 -1.4082507 2.9699097 -2.2461913 4.601882 -4.959551 1.1166605 -3.902728 2.8626823 -4.833626 -4.296398 -3.021195 4.2380686 1.0742062 -0.39212543 -3.3306036 1.036608 2.5783415 3.0223763 -2.4894385 6.1727324 0.16128485
madhouse 0.27566192 0.16696474 -0.12278502 -0.01778417 0.4387337 0.0036128263 0.034187425 0.43375292 -0.0065576574 0.46811375 0.2835067 -0.21194841 0.21838777 0.107163884 0.09369043 0.1931008 0.30169034 -0.22428624 0.13501857 0.2084875 -0.030343939 0.36110154 -0.30651164 0.3179531 0.35311478 0.4112961 0.2138967 0.41002548 -0.2778237 0.37187672 0.29112476 -0.1860125 -0.25242773 0.13177437 0.16751201 0.43875015 0.41635105 0.13244298 0.097124144 0.1241211 -0.039151903 0.079638444 -0.093509 0.23560701 0.36945763 0.09445271 0.087076806 0.45913115 0.005397775 0.12016469
entity -1.0234549 2.9412673 -0.14234641 -6.428252 4.1450667 0.009948039 1.7219594 2.0790386 1.6253169 -1.9605947 2.3419046 2.7600272 6.418845 0.54971623 -4.7678375 1.7611263 -6.2787337 3.8521338 -2.4840782 -0.8198711 2.3855648 4.5361514 -1.9630098 -0.9551448 1.8569123 0.1864337 0.41716114 0.6225921 -1.1117126 -2.8196642 3.7849636 2.4756444 -2.0722945 -1.1739744 1.6589162 -3.0325947 -0.43943045 -3.7644088 1.171087 4.607372 3.9007764 -1.1356825 2.0647771 1.3779687 -2.0373929 1.1525956 -1.5333748 0.8274443 -1.2083731 -1.1611551
opera -2.3615348 0.3627447 3.159186 -1.711699 1.5100754 0.036620393 3.8067298 -1.0549767 0.9884147 0.04687319 0.43755275 2.023364 -2.2447803 -1.6194677 -6.5652785 3.7202485 -5.340467 -1.7546577 -5.5728025 -1.5623791 -1.6644726 -1.905727 -0.48063707 -1.752927 -0.4203907 2.5750225 1.6838157 -1.5741475 3.9583738 -2.9470315 4.7399044 -2.252055 -0.86831707 1.8678906 4.6876564 6.2665577 -4.0444508 -2.6083534 0.21112607 3.3062332 3.2697887 -6.6453285 1.6320218 4.0129113 3.9827118 -1.3485174 6.4887753 0.28715795 -2.1821804 3.9266531
sign 2.363535 -4.4975967 0.48709244 5.13477 -2.3785763 -3.5740223 3.179986 1.7079664 2.3639998 2.8507736 -1.0072726 -0.71618193 3.3880627 0.71966445 8.527715 3.0491822 -1.6342367 -1.3485548 0.20435986 3.2883685 2.3825374 -0.39699385 1.5130333 1.5769678 1.0690397 -5.565384 0.19199745 2.4245446 -0.95139056 -2.0744095 -0.48445147 -0.0023354173 6.4664025 1.8591317 6.026168 -2.5637748 -2.759933 -4.00448 5.131882 2.1441867 10.0113125 0.83964884 2.3334835 -0.6123915 2.5638723 -4.6764555 -3.5035973 -4.9269795 -4.5961375 7.5088453
recognition -2.579989 -1.0717738 0.51891553 -1.6891339 -1.7311628 1.5310118 3.2067034 8.322318 4.0254765 4.554699 -5.5745482 -1.349637 -2.1575994 -6.3210893 -3.0639064 -3.9686484 -0.106976055 -2.6875827 -0.4036951 -3.3810778 -2.4015405 3.2494116 -5.742564 5.372365 -1.2155343 -2.988296 1.2282641 -2.1713753 0.13379796 0.94288766 4.0704827 2.7490945 1.6037668 3.8167827 0.51903456 -6.2469525 1.5717685 6.9805546 -2.6930063 5.5109496 4.566822 2.3744745 -0.91774935 5.2485147 -3.611362 -4.215164 -0.81869656 -0.25583163 3.1957264 -3.2728677
office -6.720102 5.0798464 2.8910651 1.5829831 0.42076614 3.634455 0.7326218 0.48462024 -2.5230572 5.115757 -8.002972 -0.71331036 6.640843 -2.1887321 -3.1231232 0.3182291 -4.655866 -0.17976895 -2.2246778 -2.5430934 4.8395395 -1.0919973 -1.8316413 -0.44582793 -6.7891645 0.6802004 -2.6199453 3.8649273 2.1559584 -1.9318455 4.70224 6.3276815 2.1648567 -1.2272738 -2.4590318 0.6284979 1.6001375 -0.39552262 3.40839 1.9057567 4.158767 -2.5385323 -2.875705 1.4028188 -3.26279 5.4235067 5.0745206 -5.634275 4.1922345 1.402382
lad -0.16245355 -0.3521894 -0.99816227 1.2788825 0.4820298 -1.4772509 0.31308824 -0.15110354 2.234761 0.49451992 -0.40891656 0.558655 -0.094571225 -1.327808 -2.0877607 -0.6192755 -0.17131422 -0.7009728 -1.2523639 1.3870898 -0.28169525 1.6968533 -0.19587357 1.0291672 -0.16665553 4.6152773 0.2591905 0.09142816 1.3197224 2.0226316 0.71658915 0.43670613 -1.4205829 0.30794737 -1.1744586 0.9941097 0.99917805 1.4760869 -0.15830104 -0.49092868 -0.7078695 1.8338478 -1.177414 0.7271898 1.6837928 0.49983716 -1.3693048 2.185968 -1.6578308 0.052733738
radio -0.37744403 -0.24025409 4.0721493 -1.0443159 6.4772882 -1.0656554 2.2571185 -2.909591 -1.8513032 -0.103562154 -1.6600723 -1.1315738 0.5364592 -7.8176436 0.8130885 -1.8042774 -2.0807824 5.3844414 -0.093755685 0.09396763 -3.8897953 1.3065871 -0.5212734 -8.377025 -0.18550436 1.551891 -0.20245276 2.4555225 -3.1572924 3.8417115 0.7985905 6.221545 4.691064 6.7907424 -1.9058378 -2.6043966 3.8567789 1.6566974 -4.991302 1.7722048 1.5833124 2.3724232 2.9514346 4.0599995 1.4821002 -3.7181435 1.7067055 -0.7600386 2.9357417 2.9739823
smile -0.37585244 -0.16611792 0.9524161 4.5149055 -4.4337993 -4.3358345 -1.9287996 -2.2288532 2.2595081 -4.0215425 1.4209967 2.368328 -5.1887736 -2.262484 1.4848546 -1.8989613 -1.625904 -2.722132 2.1527588 2.5803068 1.4152238 3.9306378 -1.1338462 3.7694604 1.471569 -1.7935073 4.386874 5.3499203 1.9912146 3.1188307 -2.1066637 0.4792708 0.33979607 -0.27814177 2.488087 6.72979 0.77438825 2.2105234 2.3676255 0.59527665 -1.1924828 2.5610015 -5.335647 -0.7107995 0.07427897 -3.3092594 1.1772201 0.19694266 -3.17215 3.3072648
arrangement -1.9794979 3.3127654 1.6040831 -2.334755 0.4510304 2.0351694 -5.2938213 -1.9540935 2.123277 1.2163622 3.033026 3.745098 -0.84054756 -5.216214 0.36074698 1.3760961 -3.2029874 -2.383035 -3.3648937 0.4473495 -1.9092399 4.1583652 -7.758039 3.9194138 -1.6421362 3.124904 2.6626937 -0.25039625 -1.2382507 -2.341887 3.1789613 7.6370497 0.7443527 -0.8626907 5.1307955 -3.345562 -1.6345676 -1.2938778 -2.854151 3.4891238 0.3440619 4.2712593 2.647523 -0.8524739 0.5830096 0.8163414 -1.1888001 2.0085356 -4.0667863 -0.19593321
credibility -2.3109598 4.5041914 -0.95521927 0.47333127 -0.6003237 -1.7662157 1.1086287 -0.44253156 1.8930453 0.20087679 -0.9237578 -0.20827834 -1.3660406 -3.9640222 5.0348616 -1.1094435 1.5371097 1.551549 1.9820924 -3.9266958 1.9340466 3.1511865 0.55484843 2.3267496 -1.0184101 -0.03842317 -1.6530911 1.7829413 -4.733703 -3.3393435 1.3401802 -1.2770131 -2.2820294 1.2214065 1.3948612 4.053747 -0.4696092 -0.21090679 -0.17395733 5.3496366 -2.6361823 6.182483 -4.256362 -1.4323689 -8.540338 2.4315693 -6.0804467 -7.19212 1.3000954 6.693066
communication -9.918566 -2.9659972 -1.1663176 3.4067318 5.071562 -0.25616646 5.669621 0.32019588 -0.8264392 -0.62314004 0.9612917 -4.8897085 0.35080862 -10.32312 -6.5968223 -1.657297 -5.0279064 0.7253382 1.8452253 1.4876924 -0.020174624 2.1420004 5.939792 0.9517829 1.298737 -4.0508857 2.9991379 0.7359291 -1.7862101 1.4751515 4.911128 -0.43647632 4.293742 -0.33349344 4.05719 -1.0730234 1.0871937 -3.178682 1.7153323 4.2394605 -0.46025652 3.3623357 2.7159832 0.21402341 -2.881146 2.0170572 0.37603638 2.146186 -2.2018254 4.9990764
stock -4.8231845 -2.282417 -1.9258283 7.599057 -0.21181177 -0.8371602 -1.0811847 -3.7020934 2.3822975 2.4415464 -2.055263 3.161627 3.426183 0.7122975 -0.48558033 1.6016984 1.0429837 -0.75300163 7.06051 -4.408468 1.8385694 2.5198345 -4.389999 -0.4760156 3.3513348 0.21317735 -1.36095 -0.12625861 0.56867456 5.9682703 -0.008545871 -1.007527 0.20262823 -3.7554433 7.178097 -2.3965445 -1.8083993 -3.982864 -0.8142973 4.540411 -2.6784787 -1.793505 -4.490178 1.8332429 -1.64747 -1.8106878 6.6358113 0.52006245 -4.164735 -2.1099281
credit 0.9605016 2.925269 0.82879525 8.470162 5.506992 -0.7247475 -3.5110438 -5.6740723 2.1354396 1.0517521 0.76409686 3.0230167 1.4832356 -2.6670012 -1.7088014 -2.1801887 2.4958682 -5.7440205 1.7545066 -0.55771947 3.1597562 1.7771915 1.8622212 4.8336787 -3.3135562 -4.2468905 -0.029032873 -0.2237534 -5.972272 -2.1245744 4.29138 0.7584834 3.0568683 -2.0240936 2.3150299 -3.6059349 -2.349116 1.2504878 -3.0030985 2.0811703 5.4283795 2.025801 -3.9966788 -5.7023287 -7.3551927 1.7088575 -1.5374484 1.5671527 2.0527978 0.81586254
citizen -0.28628454 4.811494 -6.0790997 -5.5023937 4.3127723 -1.3605531 1.4205343 7.3198028 1.5850759 -0.15534857 0.31802595 1.4699377 0.06963809 -1.269034 -0.9402275 6.924055 -1.1123612 3.4324954 -6.272023 2.3218422 -4.6619225 2.2854402 -3.0999732 -2.2034552 2.0478768 -0.4145465 2.2882764 4.2577257 -2.863955 2.203221 3.0691743 0.26250684 3.2165205 -2.035509 1.1126214 6.638642 1.129425 -5.2274995 -2.5364993 0.04326586 1.4170611 -2.4540038 -1.1093326 -4.1408424 -2.1723619 -3.6484969 -2.1838577 2.2511218 -0.1922501 -2.4573603
terror -0.9668671 1.9408512 -5.004732 3.9865704 -1.0273439 -3.9516997 2.3670008 2.012507 1.3581632 2.09804 0.6421031 -2.9832575 -1.8671677 1.273327 0.5902813 -1.6892891 -0.5896647 0.026016166 4.131097 -5.338938 1.084456 2.054524 -0.0055865096 0.7206552 0.95686084 -1.4322609 6.3384037 2.639061 -4.012659 3.7145216 0.43186283 -2.875164 -2.1170042 5.351646 -4.9545164 2.5995257 3.3050652 -1.0588359 -5.092618 1.8272634 4.0673056 2.0272188 4.959297 -2.5527906 -0.4603852 -1.9203132 -5.7692037 -4.3634605 2.1603925 0.60703045
law -1.351242 5.0639496 -3.1978514 0.7077906 1.0662892 1.262718 -1.0265152 7.92598 1.5297945 2.2946465 1.6176664 4.5641813 3.9186008 -7.210007 1.1662196 2.3916006 -1.1963339 -1.3944308 -0.330275 -1.9209437 6.20142 4.046506 -0.7100841 6.653817 0.7915887 -2.2145514 2.0054286 -2.3755722 3.6669946 1.8415667 0.44647127 7.7184634 0.76186174 0.5566959 -0.05298067 -2.244005 -3.9896715 -0.90794766 -1.625913 -0.16650878 3.1853166 -2.6770024 0.7041279 -1.9991144 -1.5759345 1.908588 2.4587214 -4.339549 -8.953132 -1.6139612
liability -1.1122134 5.4769316 -3.481081 -0.17140181 1.7617438 -0.8260819 1.6954587 1.4346341 2.9807713 -3.20955 1.5913 -1.5708547 3.8123589 4.686303 1.2757211 0.27548173 -1.8385861 3.3755136 3.1877518 -2.2080417 0.04533533 4.5587106 -1.7461782 2.5742888 0.07138533 -0.6369111 0.45703968 -3.3801076 -1.6508952 -5.4682665 1.1499579 2.0093682 -1.3369031 -2.6869316 3.6992228 1.7385645 1.6377162 1.3806077 0.27431685 0.5814881 3.5468843 1.8464373 1.3832424 -2.1911688 -7.4706297 1.433593 1.1308072 1.6115243 -2.238594 -6.0039005
equipment -2.4974587 -3.8339012 1.1919906 1.0819685 -1.6137708 5.725038 1.0098327 -2.752719 -1.7607225 3.2693307 1.7651001 -4.2446876 1.5429703 0.1960894 -1.3543488 -0.013773227 2.0351086 2.8441808 -2.7851315 -4.658627 -6.9853964 -1.1672698 0.04260172 -0.7183452 -0.71344405 -2.289215 -3.9605198 2.18758 -6.6754737 3.961707 0.2630812 5.0804243 1.700981 -1.106491 3.4708114 -6.9837456 -4.244455 4.2915025 0.74722695 3.0656855 -1.774841 -0.5525552 -0.107775375 4.8202524 -4.057169 6.1188335 -2.114453 4.2559175 4.425052 3.933707
film -1.2906498 3.7822015 1.4803541 -0.44321436 3.2744336 2.6714993 -2.408127 -0.0592828 -2.174346 1.3771807 -4.2953334 -2.6430717 -4.793014 -2.9970536 0.8053006 1.6436404 -9.377916 1.8271892 -4.8144097 -1.2823839 2.702593 3.0569637 2.5181112 0.28356066 3.3331769 0.44258836 6.3872232 4.3825684 4.881598 2.7035315 -5.2656536 5.736685 -0.008522753 1.8518046 -1.4929558 1.0645792 3.852809 6.672397 -4.423012 -4.0349674 -3.2576795 -0.7555097 -0.12379591 0.4399026 1.0917195 3.0587053 2.764813 -0.9070983 3.7171874 -2.4879634
admission -0.66917557 2.5065742 1.9384705 2.2865963 -3.2096503 -2.971305 -2.1108046 -0.9121474 3.897882 3.2816262 0.25436252 -2.7544928 -0.06591306 -3.1249602 -5.765275 1.5310502 1.8397517 1.6789169 2.490193 1.9967583 -5.65092 -1.2536553 -2.5990393 4.97091 -7.048017 4.1340528 -3.3959415 -3.948919 -4.6497765 -2.1423728 -1.0454338 3.6551814 8.960055 -2.5608797 2.7110684 -1.092267 4.466089 0.7408923 2.7237906 1.6897861 2.207056 2.993816 1.7898384 5.035594 -1.1823896 4.555962 1.2258106 0.782902 2.959882 -1.9829683
tool -3.1899724 -0.1489621 -3.2190313 1.6443791 1.7071755 -2.7504861 -2.1919403 3.5232124 3.7154722 -0.9395875 0.37487483 2.6397104 2.3828351 5.1588426 -0.6613486 3.4813788 -7.6387963 1.0018405 -0.3485313 -3.1513448 4.048417 3.8277364 2.0133955 1.1826065 3.1369076 -4.7066846 0.023985274 4.615196 -1.8218992 0.3044319 6.280345 2.5986185 -2.6618617 -2.8238509 -0.83151317 -1.2391304 -4.3090916 5.6877084 0.8655506 1.8236533 4.807221 8.078247 1.5413584 0.3828089 -2.5394726 3.2297251 -2.3355064 -0.3234826 2.2563627 -1.7393627
professor -1.2291921 5.653894 -0.6164376 3.0327618 -0.64415187 -5.76654 -1.4313506 5.1665287 -0.7927724 -3.130623 -4.262928 0.10799121 1.7681931 -4.037571 -0.39743128 7.868774 2.0646627 8.988536 1.1403952 5.648222 1.4317735 5.5015516 -0.6938906 1.990427 -0.52741796 2.352376 -2.3997571 1.9037923 2.0831726 6.524025 -0.5773183 3.8418972 1.1159574 2.256916 0.6235151 1.9693744 -2.78613 -1.1196172 -2.2172596 -1.8046554 -2.424557 1.649797 2.8500268 -2.2186716 -4.014238 2.9276805 2.348356 1.7215744 -3.679096 4.5961566
governor 3.4900887 1.8084316 5.574214 -1.5501063 -1.9274236 -3.9919343 3.8707051 2.315414 0.0677166 2.0017602 -1.9738529 -5.0062575 6.6368446 7.51644 2.0752828 -0.22482613 -4.821477 -4.239386 -3.124219 4.7398024 -0.14441913 -4.2692065 -0.80536103 -2.0017188 -4.3976016 1.3588562 3.4095984 -1.3848267 2.293584 -0.65422374 2.6933436 -2.1683614 -1.7749498 2.226491 2.3741014 5.290867 -6.039296 -1.6227971 0.28766245 1.8995068 -0.67098194 1.8004471 1.1928985 -2.4082503 -4.6965437 2.5850532 3.420542 1.2278441 -5.2330256 -0.7313815
student 4.5476155 0.60036904 -10.498912 1.339288 4.1536593 -3.758523 3.9629493 -0.11698322 -2.6011786 2.8189611 -2.3135421 -1.1649891 9.522709 -1.8302757 -4.187675 3.5961592 -1.7937864 3.0223362 -3.871309 -1.8723595 -1.631318 4.4252844 -1.2813137 -1.3333708 4.390282 2.2476997 1.3859669 5.464169 1.4307745 3.2892745 0.63807255 2.6570106 1.387148 -8.27374 -1.8363166 0.40514788 -0.4336136 1.4471066 -2.9093778 -2.994411 -1.3218546 0.022658773 1.2736769 -5.2121215 -2.6717498 1.6779078 2.3666492 -2.883942 -3.3525052 1.6570685
fruit -4.1813116 -2.833388 8.972198 4.117788 -2.0352879 -0.5097054 1.678366 2.68657 -0.7748505 6.759819 3.1934197 2.0616214 -1.3052691 0.69016105 -2.1056292 -1.6525335 3.4044473 -0.6764127 -2.374306 -0.1749731 2.0112994 4.53983 3.825332 2.2632914 0.46346432 0.7238322 3.0509343 1.0252093 -0.9812807 -3.2329772 2.3010478 2.4152846 -0.78411627 -0.27073365 2.5715942 1.0997342 -5.1516585 0.5829077 1.7907239 -0.61683655 -0.97749674 0.47307083 -1.4395213 1.9661634 -1.8155541 -0.03815577 -3.3000298 4.7210865 -0.87955296 -5.82489
media -2.24191 -3.0221055 -1.1025491 2.898253 5.8947577 -2.4391842 6.7125854 4.006249 0.8820637 0.18951371 -1.780345 -1.8700795 6.1004653 -2.697961 0.41682574 5.789391 -2.0156598 1.1511575 1.9176 -0.22873908 0.5732717 1.2912323 6.7536116 -2.0202007 5.662925 -6.2131696 -5.5102673 3.7899714 -0.7757224 2.0317867 -3.0262058 -1.7054977 -2.667022 0.8660115 -0.61333865 -1.2083614 2.4166815 -1.4524943 -2.4228432 3.310313 2.8087091 6.0075994 -0.83911663 2.7621572 -7.245446 3.0673087 -2.7761958 -3.1085904 1.806441 -1.8884726
racket -0.5254135 1.2677609 -1.0171573 2.7017798 -1.2229859 2.9008176 -1.7335589 -1.0228077 0.20842886 -0.31923407 2.4118803 0.83286476 -1.1314756 -0.88506705 3.5886676 -1.8919697 -1.2686726 -1.0764111 0.19789341 -1.8819276 0.29884037 0.8486229 -1.6381326 -0.77999383 1.6446565 1.7736546 0.3576091 1.0245994 0.8815669 0.6716035 0.5998275 0.48071542 -1.2029477 1.7479018 0.5718137 -2.7302275 0.4726638 1.6506717 0.39556193 -0.9062234 -1.3584611 -0.6369622 -2.6403768 -1.6604738 1.1269132 2.0273829 -1.3092868 2.124319 -2.5796368 2.7668424
boy 4.8767576 1.2782265 -2.3168612 2.6606905 -0.28049704 -4.70065 5.8895574 1.9978012 7.5069766 1.7844217 2.335945 3.1270564 0.12358769 -3.7727473 6.8392134 -2.5156746 -2.1353624 0.17177902 -1.96836 3.1287968 -4.0840535 4.3054905 2.2766457 -6.533032 -4.332822 5.4343543 -4.08094 2.78433 1.7217541 -2.7754292 2.4527357 -1.7673804 -7.0102935 0.64941084 -0.26992455 -0.061482623 0.1744521 1.0651696 -0.061682057 -4.309852 -0.12108494 3.8415606 -4.2534394 -1.8207592 -2.551534 2.9480007 0.33025274 3.7478454 -0.18993008 1.7729356
preservation -0.43646193 2.3802404 1.17802 -2.971551 -0.92620486 3.4341288 -1.3542935 1.1377525 0.047015317 4.4250574 -0.050883997 1.1364642 2.4731152 1.459118 -0.4022783 4.0533752 1.7282071 2.2008777 -0.30103326 -2.6257958 -1.5373945 4.272644 2.880543 -1.8141148 0.3720443 0.01743987 1.9312904 -4.3432574 -1.3742914 -1.6591763 4.9024825 -0.3850555 1.2153296 -2.2609293 2.3480062 1.0350467 -2.324385 -0.7597153 -4.970234 0.9657469 1.4767516 4.1229887 1.5143965 4.301708 -0.52715814 -0.6384298 2.1480713 0.35741398 0.39554474 1.2593333
vodka -1.0884368 -1.3241142 2.4690247 4.4043317 0.9787284 4.021312 1.5164342 1.1482908 0.8016112 -0.411437 2.3281968 0.7410853 1.1618285 0.6067193 0.721958 -1.5427356 0.49719977 2.8031685 0.034895625 -0.13934773 -1.1312441 4.8667674 2.1009176 -1.9940945 1.5498973 0.81104416 0.10552303 1.0733283 -0.06976621 -1.717562 -0.28636432 2.2618449 -1.1167154 -0.017110512 0.34932688 1.0253708 -2.909129 -0.3421695 2.357335 2.2687955 1.1032357 -3.0891135 0.5443282 -2.1259646 3.5446775 -0.67849237 -0.3571226 3.8705118 0.5028378 -0.6684482
oil 2.005869 -3.2173257 1.8127557 -0.726733 2.9182072 3.4133213 1.9907365 -0.43720427 -0.42307684 1.0716381 1.410793 1.3563298 4.485783 1.6186471 5.5383434 -1.9625291 1.8949065 1.946941 -1.0240482 0.3575279 -0.9465878 0.037853677 -0.5303266 -5.2415094 -2.5996954 2.9958344 1.1966693 -1.9955088 -2.3534334 -3.8136811 3.9504468 2.75732 1.7221295 6.001631 8.13363 -3.2872279 -4.698848 -6.1626973 -0.6470095 6.9308896 0.7360273 -3.3162673 0.098528355 -4.7828817 -1.2688289 -1.2576772 -1.0360743 3.410511 1.2676967 2.0067604
victim 7.899085 0.50703096 -5.5984516 -1.36984 -3.0538285 -3.200405 -4.7958136 2.1315484 5.706619 1.3493164 -4.784879 -0.63298076 5.5143557 -3.079748 3.8068922 -2.1295943 -2.525307 -3.3171701 2.8302724 -3.1752248 -1.2104775 0.6127255 -4.8912454 0.8906516 2.0554326 4.324933 -0.24903129 3.4021702 2.9470587 -5.833252 6.542328 1.9733133 2.8876848 2.0266578 -1.2300079 -4.5421553 -4.357504 -1.776988 4.6558523 1.2472389 0.67293596 2.2738795 -4.665282 -5.2217865 0.09942186 4.0627775 -0.015695477 3.2601073 -4.7914925 1.7599349
row -1.8229907 -1.4148777 -1.0670317 -1.8720253 1.4965321 -4.260002 -3.3844254 -1.3735499 1.8360804 -2.61989 -1.7589989 -0.61797225 1.2332312 -0.70929587 4.7319355 3.7892268 0.042543046 7.4039793 1.709778 -0.40670452 2.321332 0.24663334 -8.701496 -4.3994346 7.693847 4.6004176 -3.1836686 4.055559 5.6384425 -3.596603 -1.7595619 -2.0203662 -4.259321 5.4553366 -0.10113043 -1.9928346 2.806035 1.7655357 0.12947506 -4.8140783 -3.7750716 -2.4921257 1.2969575 0.18006012 0.87357736 5.1997066 3.5189395 0.34234077 -2.7657018 -4.7563124
possibility 1.1173303 -4.375279 2.930962 -1.5376039 -2.248449 -7.7434654 -1.974237 2.972172 1.7689267 0.7927856 3.2519524 -5.971571 -0.78679776 0.55357444 4.64575 2.3232756 -1.8422023 0.30239516 -7.3182254 1.8166122 1.3100656 1.8134339 1.2657217 6.254013 -2.0263913 0.49307096 5.8836303 4.8589206 1.2761079 -0.10591137 3.02098 3.6046038 1.9483532 -1.9692174 3.321009 0.09599799 -0.78271145 -0.11166433 0.2746352 -1.1440316 -3.8352373 -6.489763 1.5063654 -5.887112 -2.1556044 2.2264075 -8.595496 -0.43510854 -0.2512034 -1.7037685
consumer -0.16331713 3.3058174 -3.7599254 4.2690587 1.0239836 -0.59984696 2.2083175 1.646038 3.515768 1.9767768 -4.6508884 2.631952 4.9394455 1.2392061 2.3556986 0.4368766 -3.4274797 5.773588 2.7852018 -4.4755206 7.4877796 4.157787 2.4232912 2.2228522 -3.55089 -2.8464627 -2.7488418 0.6509358 1.9570671 5.3873005 -3.3137813 1.7813643 6.069361 -5.1451874 1.5179216 2.6470854 -4.189366 -0.98364955 -0.26708862 4.278318 2.0539272 -0.7668821 -1.6324419 -0.1705023 -0.34262025 -3.5707054 -2.069433 -4.6587367 1.6294794 0.12316377
direction -4.7755775 -3.0038896 3.530085 -0.09055109 -2.4276643 2.5304563 4.087652 0.83422214 0.9596373 2.5678923 -3.106324 3.8058834 0.07968843 -7.9713073 1.3791339 0.5071526 1.2160795 2.4584167 2.13437 -1.9943634 3.413536 4.552498 -4.240174 -1.4472296 -6.0713854 -0.09771576 -5.688488 2.9948158 3.7358096 -2.4361925 2.6112537 0.45854694 -2.8963344 0.9387139 8.815859 -2.2501323 -0.80010706 -2.2790627 3.8235896 5.140091 -7.068558 0.15365116 4.7976675 1.4962156 1.8434097 0.15643711 3.04632 -6.1402335 0.8349443 3.9386084
keyboard -1.6321998 0.7622142 2.7993186 0.34664825 -1.8119358 2.5196626 -3.1720693 -1.3246074 5.7847915 0.3267001 1.2284546 1.8897657 -0.8341882 -1.3736855 -0.8710329 0.4828039 -1.9952507 1.9660678 1.9786052 -0.11580123 -3.288723 5.063553 0.54804164 -0.3314355 5.6579633 -0.4127237 -0.6777316 3.4807515 -0.16041613 1.9760702 0.9384421 1.4531374 1.6859407 -0.96252614 1.0968295 -0.72783923 1.0809201 3.088618 -1.3714821 -0.14376356 3.1325564 -0.05841776 -3.8931878 0.51740986 0.7630638 0.1647641 -1.1325893 -0.16933489 0.22774987 2.8771977
rooster -0.5230511 0.079131365 0.8078536 0.84969187 0.06317587 -0.38677067 0.20046972 0.34064713 0.8507273 0.052503437 -0.13343222 1.1707284 -0.13194028 0.7047403 0.08872404 -0.16361298 -0.34565645 -0.8249256 -0.24028982 0.17847298 -0.04703124 0.6063018 0.19263306 -0.44204825 0.3655078 0.70261705 0.5449606 0.72132987 0.5475411 -0.26222923 -0.22568654 0.2021244 0.50859386 -0.012548794 -0.98434824 1.1483388 -0.5317851 0.48986498 0.35568693 -0.98952895 0.5738937 0.21702266 -0.3717952 -0.14737341 0.60784805 0.17401654 0.0490345 1.3084363 -0.011297941 0.6208585
